{"learner":{"attributes":{"scikit_learn":"{\"_estimator_type\": \"regressor\"}"},"feature_names":["pm25_lag_1","pm25_ema_3d","month_sin","month_cos","day_of_year_sin","day_of_year_cos","future_temp","future_wind","future_precip","pm25_momentum","future_temp_momentum","future_wind_momentum","fire_density_100km","fire_radiative_power_total","fire_wind_interaction","aod_mean_lag_1","aod_max_lag_1","wind_u","wind_v"],"feature_types":["float","float","float","float","float","float","float","float","float","float","float","float","float","float","float","float","float","float","float"],"gradient_booster":{"model":{"cats":{"enc":[],"feature_segments":[],"sorted_idx":[]},"gbtree_model_param":{"num_parallel_tree":"1","num_trees":"300"},"iteration_indptr":[0,1,2,3,4,5,6,7,8,9,10,11,12,13,14,15,16,17,18,19,20,21,22,23,24,25,26,27,28,29,30,31,32,33,34,35,36,37,38,39,40,41,42,43,44,45,46,47,48,49,50,51,52,53,54,55,56,57,58,59,60,61,62,63,64,65,66,67,68,69,70,71,72,73,74,75,76,77,78,79,80,81,82,83,84,85,86,87,88,89,90,91,92,93,94,95,96,97,98,99,100,101,102,103,104,105,106,107,108,109,110,111,112,113,114,115,116,117,118,119,120,121,122,123,124,125,126,127,128,129,130,131,132,133,134,135,136,137,138,139,140,141,142,143,144,145,146,147,148,149,150,151,152,153,154,155,156,157,158,159,160,161,162,163,164,165,166,167,168,169,170,171,172,173,174,175,176,177,178,179,180,181,182,183,184,185,186,187,188,189,190,191,192,193,194,195,196,197,198,199,200,201,202,203,204,205,206,207,208,209,210,211,212,213,214,215,216,217,218,219,220,221,222,223,224,225,226,227,228,229,230,231,232,233,234,235,236,237,238,239,240,241,242,243,244,245,246,247,248,249,250,251,252,253,254,255,256,257,258,259,260,261,262,263,264,265,266,267,268,269,270,271,272,273,274,275,276,277,278,279,280,281,282,283,284,285,286,287,288,289,290,291,292,293,294,295,296,297,298,299,300],"tree_info":[0,0,0,0,0,0,0,0,0,0,0,0,0,0,0,0,0,0,0,0,0,0,0,0,0,0,0,0,0,0,0,0,0,0,0,0,0,0,0,0,0,0,0,0,0,0,0,0,0,0,0,0,0,0,0,0,0,0,0,0,0,0,0,0,0,0,0,0,0,0,0,0,0,0,0,0,0,0,0,0,0,0,0,0,0,0,0,0,0,0,0,0,0,0,0,0,0,0,0,0,0,0,0,0,0,0,0,0,0,0,0,0,0,0,0,0,0,0,0,0,0,0,0,0,0,0,0,0,0,0,0,0,0,0,0,0,0,0,0,0,0,0,0,0,0,0,0,0,0,0,0,0,0,0,0,0,0,0,0,0,0,0,0,0,0,0,0,0,0,0,0,0,0,0,0,0,0,0,0,0,0,0,0,0,0,0,0,0,0,0,0,0,0,0,0,0,0,0,0,0,0,0,0,0,0,0,0,0,0,0,0,0,0,0,0,0,0,0,0,0,0,0,0,0,0,0,0,0,0,0,0,0,0,0,0,0,0,0,0,0,0,0,0,0,0,0,0,0,0,0,0,0,0,0,0,0,0,0,0,0,0,0,0,0,0,0,0,0,0,0,0,0,0,0,0,0,0,0,0,0,0,0,0,0,0,0,0,0,0,0,0,0,0,0,0,0,0,0,0,0],"trees":[{"base_weights":[2.3444288E-3,3.8901374E-1,-3.1590009E0,8.8163745E-1,-3.012366E-1,-2.7434032E0,-1.4116859E1,1.3475621E0,6.496378E-1,8.3019215E-1,-6.226187E-1,-8.346483E-1,-4.2390046E0,-1.1383776E1,-2.4021732E1,1.7528508E0,1.1295675E0,6.0731995E-1,2.717571E0,1.3791988E0,-1.624737E-1,-1.4017354E0,-3.3447072E-1,-1.2009172E0,2.9736261E0,-3.3392792E0,-7.06388E0,-5.1370625E0,-1.4666432E1,-3.3576275E1,-1.6483137E1,2.109741E0,1.5180061E0,1.110882E0,5.0407615E0,1.037785E0,4.5038888E-1,2.4581966E0,8.2048285E-1,1.2977115E0,7.5421453E0,-2.0813763E-1,6.008626E0,-9.5724946E-1,-2.204771E0,-4.052015E-1,2.1694772E0,-8.0631286E-1,-3.4467895E0,7.1966114E0,1.1599362E0,-4.570104E0,-2.5264401E0,-1.06249275E1,-6.1242604E0,-1.1135272E1,2.4429283E0,8.48411E-1,-1.686797E1,-1.494867E1,-4.4071236E1,-1.8381596E1,1.3856362E-1,1.9825381E0,3.153012E0,1.4373788E0,2.3557198E0,2.2061498E0,1.0663983E0,1.33602495E1,2.5426846E0,1.7118399E0,6.722991E-1,3.1895155E-1,1.0233966E0,3.2207525E0,1.1783435E0,1.8992038E0,8.708225E-1,9.223716E0,7.138801E-1,-4.5235607E-1,7.2884357E-1,3.1794918E-1,1.1366682E-1,-5.448423E-1,-1.4179054E0,-2.021112E0,-3.1301577E0,-1.4916947E-1,-9.697111E-1,1.4905434E0,1.01633215E1,-4.9174663E-1,-3.2838073E0,-4.5594425E0,3.9564016E-1,5.405779E0,2.6530949E1,7.016468E-1,1.3943367E1,-5.9738946E0,-4.103019E0,-3.724482E0,-1.7169118E0,-8.738932E0,-1.4114627E1,-5.075831E0,-8.211011E0,-6.3148326E-1,-8.552989E0,1.7874245E1,-5.408448E0,9.993422E0,-7.2595243E0,-1.0371861E1,-2.3138601E1,-2.0348161E-1,-5.5600065E-1,-8.8823754E-1,-2.667907E0,-7.3209233E0,-6.675135E-1,1.4718135E-1,6.406999E-2,1.4432861E-1,7.740384E-2,7.117822E-2,4.4278093E-2,7.229068E-2,3.4238994E-1,8.787996E-2,4.5472823E-2,3.1992666E-2,5.1471367E-2,6.5314956E-2,6.123462E-1,4.0639006E-2,1.317682E-1,7.927377E-2,3.8865898E-2,1.682162E-2,4.4574127E-2,1.7856114E-2,1.9681419E-3,1.5516147E-3,4.267519E-2,6.853596E-2,1.344257E-1,3.4760673E-2,1.6321573E-1,8.5339196E-2,4.0302124E-2,6.9454014E-3,4.7073115E-2,-2.4453461E-2,3.3061823E-1,7.424149E-2,-2.1700319E-2,-4.221313E-2,-8.611139E-3,1.4037055E-2,4.921523E-2,2.0054722E-2,-2.3674563E-2,-5.9870142E-2,-3.7757687E-2,-5.537078E-2,-8.165204E-2,-1.2810354E-1,-7.7603996E-2,-1.6169272E-2,3.8137173E-3,-4.251189E-2,-1.1358044E-2,2.2184914E-1,3.973795E-2,1.8352053E0,1.865697E-2,4.695449E-3,-4.240249E-2,-1.1992662E-1,1.9044952E-2,-9.082819E-2,-2.414189E-1,1.0786375E-1,-1.1887238E-1,2.850793E-1,2.6158605E-2,1.8506749E-1,1.2741346E0,1.4875288E-1,1.0416381E-2,9.1041744E-1,-1.4353228E-1,-1.6045189E-1,-2.2704157E-1,-1.084525E-1,-1.5013003E-1,-9.324764E-2,-1.815641E-1,-7.5478226E-2,-2.1434996E-2,-3.4795526E-1,-2.3924825E-1,-1.9481394E-1,-4.7286683E-1,-1.3827252E-1,-2.3958589E-1,-2.9884642E-1,-1.4683262E-1,7.6074E-2,-3.152786E-1,9.850583E-1,-1.5042481E-1,6.424828E-2,-3.3878222E-1,8.422215E-2,4.1116276E-1,-8.699998E-2,-3.703786E-1,-4.088626E-1,2.988669E-1,-9.3255264E-1,-4.4890946E-1,-1.0230889E-1,-3.003419E-1],"categories":[],"categories_nodes":[],"categories_segments":[],"categories_sizes":[],"default_left":[0,0,0,0,0,0,0,0,0,0,0,0,0,0,0,0,0,0,0,0,0,0,0,0,0,0,0,0,0,0,0,0,0,0,0,0,0,0,0,0,0,0,0,0,0,0,0,0,0,0,0,0,0,0,0,0,0,0,0,0,0,0,0,0,0,0,0,0,0,0,0,0,0,0,0,0,0,0,0,0,0,0,0,0,0,0,0,0,0,0,0,0,0,0,0,0,0,0,0,0,0,0,0,0,0,0,0,0,0,0,0,0,0,0,0,0,0,0,0,0,0,0,0,0,0,0,0,0,0,0,0,0,0,0,0,0,0,0,0,0,0,0,0,0,0,0,0,0,0,0,0,0,0,0,0,0,0,0,0,0,0,0,0,0,0,0,0,0,0,0,0,0,0,0,0,0,0,0,0,0,0,0,0,0,0,0,0,0,0,0,0,0,0,0,0,0,0,0,0,0,0,0,0,0,0,0,0,0,0,0,0,0,0,0,0,0,0,0,0,0,0,0,0,0,0,0,0],"id":0,"left_children":[1,3,5,7,9,11,13,15,17,19,21,23,25,27,29,31,33,35,37,39,41,43,45,47,49,51,53,55,57,59,61,63,65,67,69,71,73,75,-1,77,79,81,83,85,87,89,91,93,95,97,99,101,103,105,107,109,111,113,115,117,119,121,-1,123,125,127,129,131,133,135,137,139,141,143,145,147,149,151,153,155,157,159,161,-1,-1,163,165,167,169,171,173,175,177,179,181,183,185,187,189,191,193,195,197,199,201,203,205,207,209,-1,211,213,215,217,219,221,223,-1,-1,-1,-1,225,-1,-1,-1,-1,-1,-1,-1,-1,-1,-1,-1,-1,-1,-1,-1,-1,-1,-1,-1,-1,-1,-1,-1,-1,-1,-1,-1,-1,-1,-1,-1,-1,-1,-1,-1,-1,-1,-1,-1,-1,-1,-1,-1,-1,-1,-1,-1,-1,-1,-1,-1,-1,-1,-1,-1,-1,-1,-1,-1,-1,-1,-1,-1,-1,-1,-1,-1,-1,-1,-1,-1,-1,-1,-1,-1,-1,-1,-1,-1,-1,-1,-1,-1,-1,-1,-1,-1,-1,-1,-1,-1,-1,-1,-1,-1,-1,-1,-1,-1,-1,-1,-1,-1,-1,-1],"loss_changes":[6.2386168E4,1.5462958E4,2.5290965E4,2.8675156E3,6.887134E3,1.5297852E4,5.221922E3,7.7727246E2,1.5487759E3,2.283691E3,3.31092E3,3.2898433E3,7.613961E3,3.2260938E3,2.543754E3,2.5519531E2,4.1374854E2,1.1724614E3,1.9779958E3,1.3451538E3,4.2197314E2,1.4192168E3,1.9081355E3,1.902617E3,1.5771039E3,2.2705078E3,2.3608008E3,2.6187864E3,3.6007441E3,2.860121E3,1.0980454E3,1.5578467E2,1.224458E2,2.759458E2,5.2716254E2,1.1414556E3,9.581272E2,3.3974268E2,0E0,6.823828E2,3.952926E2,3.3968173E2,6.909369E1,4.865205E2,2.346709E2,1.5136891E3,1.5913297E3,1.4245703E3,1.3741719E3,2.003303E3,8.4555914E2,5.695449E2,1.3281172E3,8.638867E2,1.2185E3,4.9744385E2,3.2467556E3,1.1106075E3,3.5075996E3,2.9593628E1,4.7634316E3,3.4196924E2,0E0,1.0222461E2,1.18848145E2,1.1420508E2,1.9175989E2,8.033081E1,2.610464E2,3.1806677E2,3.691838E1,5.982012E2,3.3114758E2,5.963424E2,6.2529346E2,2.0614307E2,5.7421265E1,5.1135474E2,5.7209045E2,2.2924365E2,1.8330452E1,1.8594473E2,7.0408615E1,0E0,0E0,2.6994003E2,1.2930762E2,1.8031836E2,1.2723828E2,6.5030457E2,6.506997E2,4.0243793E2,1.0001556E4,8.1739636E2,2.8073462E2,1.220085E3,8.502235E2,8.581682E2,1.0471257E3,2.0719193E2,1.3680269E3,1.9220312E2,2.3400195E2,8.695093E2,4.9949634E2,1.9234277E2,5.3066406E0,7.1641016E2,5.667578E2,0E0,3.0459558E2,2.553941E3,6.6312744E2,9.665466E1,1.1702289E2,1.9548398E3,1.861582E3,0E0,0E0,0E0,0E0,9.354736E0,0E0,0E0,0E0,0E0,0E0,0E0,0E0,0E0,0E0,0E0,0E0,0E0,0E0,0E0,0E0,0E0,0E0,0E0,0E0,0E0,0E0,0E0,0E0,0E0,0E0,0E0,0E0,0E0,0E0,0E0,0E0,0E0,0E0,0E0,0E0,0E0,0E0,0E0,0E0,0E0,0E0,0E0,0E0,0E0,0E0,0E0,0E0,0E0,0E0,0E0,0E0,0E0,0E0,0E0,0E0,0E0,0E0,0E0,0E0,0E0,0E0,0E0,0E0,0E0,0E0,0E0,0E0,0E0,0E0,0E0,0E0,0E0,0E0,0E0,0E0,0E0,0E0,0E0,0E0,0E0,0E0,0E0,0E0,0E0,0E0,0E0,0E0,0E0,0E0,0E0,0E0,0E0,0E0,0E0,0E0,0E0,0E0,0E0,0E0,0E0,0E0,0E0,0E0,0E0,0E0],"parents":[2147483647,0,0,1,1,2,2,3,3,4,4,5,5,6,6,7,7,8,8,9,9,10,10,11,11,12,12,13,13,14,14,15,15,16,16,17,17,18,18,19,19,20,20,21,21,22,22,23,23,24,24,25,25,26,26,27,27,28,28,29,29,30,30,31,31,32,32,33,33,34,34,35,35,36,36,37,37,39,39,40,40,41,41,42,42,43,43,44,44,45,45,46,46,47,47,48,48,49,49,50,50,51,51,52,52,53,53,54,54,55,55,56,56,57,57,58,58,59,59,60,60,61,61,63,63,64,64,65,65,66,66,67,67,68,68,69,69,70,70,71,71,72,72,73,73,74,74,75,75,76,76,77,77,78,78,79,79,80,80,81,81,82,82,85,85,86,86,87,87,88,88,89,89,90,90,91,91,92,92,93,93,94,94,95,95,96,96,97,97,98,98,99,99,100,100,101,101,102,102,103,103,104,104,105,105,106,106,107,107,108,108,110,110,111,111,112,112,113,113,114,114,115,115,116,116,121,121],"right_children":[2,4,6,8,10,12,14,16,18,20,22,24,26,28,30,32,34,36,38,40,42,44,46,48,50,52,54,56,58,60,62,64,66,68,70,72,74,76,-1,78,80,82,84,86,88,90,92,94,96,98,100,102,104,106,108,110,112,114,116,118,120,122,-1,124,126,128,130,132,134,136,138,140,142,144,146,148,150,152,154,156,158,160,162,-1,-1,164,166,168,170,172,174,176,178,180,182,184,186,188,190,192,194,196,198,200,202,204,206,208,210,-1,212,214,216,218,220,222,224,-1,-1,-1,-1,226,-1,-1,-1,-1,-1,-1,-1,-1,-1,-1,-1,-1,-1,-1,-1,-1,-1,-1,-1,-1,-1,-1,-1,-1,-1,-1,-1,-1,-1,-1,-1,-1,-1,-1,-1,-1,-1,-1,-1,-1,-1,-1,-1,-1,-1,-1,-1,-1,-1,-1,-1,-1,-1,-1,-1,-1,-1,-1,-1,-1,-1,-1,-1,-1,-1,-1,-1,-1,-1,-1,-1,-1,-1,-1,-1,-1,-1,-1,-1,-1,-1,-1,-1,-1,-1,-1,-1,-1,-1,-1,-1,-1,-1,-1,-1,-1,-1,-1,-1,-1,-1,-1,-1,-1,-1],"split_conditions":[9.883E0,5.256458E0,2.4773912E1,2.993458E0,1.34E1,1.54E1,2.18E1,-1.719375E0,9.42376E3,-2.8726098E-1,-1E0,1.236326E4,1.4262217E1,2.1523746E1,2.9538E2,1.908667E0,1.519516E4,1.45E1,5.23475E0,1.999994E4,4.375931E4,7.517208E0,9.42376E3,1.6210417E1,-6.4415926E-1,-6E-1,-1.7E0,1E0,-1.3859666E1,-8.373212E-1,1.052625E4,4.67364E0,2E0,-1.26E1,2.068979E0,-6.4415926E-1,1.4E0,-1.6587819E-1,8.2048285E-1,-8.27793E-1,-3E-1,1.5E0,5.511531E0,2.07E1,2.65E1,7.467083E0,3.1E0,-8.0549E-2,5.05406E3,1.1991875E1,4.1E-1,-3.6E0,-7.2251886E-1,1.7076374E1,2.3E1,-2.2E0,-1.4E0,6.44727E3,-6.208444E-1,5.307917E0,3.7E0,1.2E-1,1.3856362E-1,8.7E0,-4.4E0,-9.3E0,9.42376E3,-2.9959476E-1,1.5E0,-3.95959E-1,3.0078788E0,-5E-1,1.4E0,4.216957E0,-5.331371E-1,4.737761E0,4.1E0,-3E-1,1.60394E3,-3.4E0,4E-1,-1E0,2.93576E3,3.1794918E-1,1.1366682E-1,-8.969322E-1,2.0601831E-1,8.676913E0,1.8915527E-1,4E-1,1.2E0,-5.5E0,-2.4E0,2E-1,2.4E0,-8.10531E-1,1.27E1,-1E-1,1.6181149E1,8.4E0,-6.54225E0,1.136325E1,1.0700565E1,8.8E0,1.6E0,-4.6E0,-9.736476E-1,1.8461082E1,-8.0549E-2,-6.3148326E-1,-1.9E0,1.3E0,1.7844395E1,-4E-1,-2E-1,-6.9831014E-1,1.49E1,-2.0348161E-1,-5.5600065E-1,-8.8823754E-1,-2.667907E0,-9.543881E-1,-6.675135E-1,1.4718135E-1,6.406999E-2,1.4432861E-1,7.740384E-2,7.117822E-2,4.4278093E-2,7.229068E-2,3.4238994E-1,8.787996E-2,4.5472823E-2,3.1992666E-2,5.1471367E-2,6.5314956E-2,6.123462E-1,4.0639006E-2,1.317682E-1,7.927377E-2,3.8865898E-2,1.682162E-2,4.4574127E-2,1.7856114E-2,1.9681419E-3,1.5516147E-3,4.267519E-2,6.853596E-2,1.344257E-1,3.4760673E-2,1.6321573E-1,8.5339196E-2,4.0302124E-2,6.9454014E-3,4.7073115E-2,-2.4453461E-2,3.3061823E-1,7.424149E-2,-2.1700319E-2,-4.221313E-2,-8.611139E-3,1.4037055E-2,4.921523E-2,2.0054722E-2,-2.3674563E-2,-5.9870142E-2,-3.7757687E-2,-5.537078E-2,-8.165204E-2,-1.2810354E-1,-7.7603996E-2,-1.6169272E-2,3.8137173E-3,-4.251189E-2,-1.1358044E-2,2.2184914E-1,3.973795E-2,1.8352053E0,1.865697E-2,4.695449E-3,-4.240249E-2,-1.1992662E-1,1.9044952E-2,-9.082819E-2,-2.414189E-1,1.0786375E-1,-1.1887238E-1,2.850793E-1,2.6158605E-2,1.8506749E-1,1.2741346E0,1.4875288E-1,1.0416381E-2,9.1041744E-1,-1.4353228E-1,-1.6045189E-1,-2.2704157E-1,-1.084525E-1,-1.5013003E-1,-9.324764E-2,-1.815641E-1,-7.5478226E-2,-2.1434996E-2,-3.4795526E-1,-2.3924825E-1,-1.9481394E-1,-4.7286683E-1,-1.3827252E-1,-2.3958589E-1,-2.9884642E-1,-1.4683262E-1,7.6074E-2,-3.152786E-1,9.850583E-1,-1.5042481E-1,6.424828E-2,-3.3878222E-1,8.422215E-2,4.1116276E-1,-8.699998E-2,-3.703786E-1,-4.088626E-1,2.988669E-1,-9.3255264E-1,-4.4890946E-1,-1.0230889E-1,-3.003419E-1],"split_indices":[0,0,0,0,7,7,7,9,13,5,10,13,0,1,13,0,13,7,0,13,13,0,13,0,5,10,10,10,9,5,13,1,10,11,1,5,10,5,0,5,11,10,1,7,7,0,10,5,13,9,16,10,5,0,7,10,11,13,5,9,11,16,0,7,11,11,13,5,10,9,1,10,10,0,5,1,10,10,13,10,11,10,13,0,0,5,5,0,5,10,10,11,11,11,10,5,7,11,1,7,9,0,0,11,10,10,5,0,5,0,10,10,1,11,11,5,7,0,0,0,0,5,0,0,0,0,0,0,0,0,0,0,0,0,0,0,0,0,0,0,0,0,0,0,0,0,0,0,0,0,0,0,0,0,0,0,0,0,0,0,0,0,0,0,0,0,0,0,0,0,0,0,0,0,0,0,0,0,0,0,0,0,0,0,0,0,0,0,0,0,0,0,0,0,0,0,0,0,0,0,0,0,0,0,0,0,0,0,0,0,0,0,0,0,0,0,0,0,0,0,0,0,0,0,0,0,0],"split_type":[0,0,0,0,0,0,0,0,0,0,0,0,0,0,0,0,0,0,0,0,0,0,0,0,0,0,0,0,0,0,0,0,0,0,0,0,0,0,0,0,0,0,0,0,0,0,0,0,0,0,0,0,0,0,0,0,0,0,0,0,0,0,0,0,0,0,0,0,0,0,0,0,0,0,0,0,0,0,0,0,0,0,0,0,0,0,0,0,0,0,0,0,0,0,0,0,0,0,0,0,0,0,0,0,0,0,0,0,0,0,0,0,0,0,0,0,0,0,0,0,0,0,0,0,0,0,0,0,0,0,0,0,0,0,0,0,0,0,0,0,0,0,0,0,0,0,0,0,0,0,0,0,0,0,0,0,0,0,0,0,0,0,0,0,0,0,0,0,0,0,0,0,0,0,0,0,0,0,0,0,0,0,0,0,0,0,0,0,0,0,0,0,0,0,0,0,0,0,0,0,0,0,0,0,0,0,0,0,0,0,0,0,0,0,0,0,0,0,0,0,0,0,0,0,0,0,0],"sum_hessian":[5.1034E4,4.5473E4,5.561E3,2.6535E4,1.8938E4,5.359E3,2.02E2,8.819E3,1.7716E4,4.189E3,1.4749E4,2.355E3,3.004E3,1.6E2,4.2E1,3.082E3,5.737E3,1.7362E4,3.54E2,2.697E3,1.492E3,3.981E3,1.0768E4,2.149E3,2.06E2,2.28E3,7.24E2,5.6E1,1.04E2,1.7E1,2.5E1,1.22E3,1.862E3,5.711E3,2.6E1,4.637E3,1.2725E4,3.51E2,3E0,2.663E3,3.4E1,1.482E3,1E1,2.564E3,1.417E3,1.0473E4,2.95E2,1.829E3,3.2E2,6.1E1,1.45E2,9.05E2,1.375E3,1.49E2,5.75E2,3.1E1,2.5E1,1.3E1,9.1E1,7E0,1E1,2.3E1,2E0,1.09E3,1.3E2,1.701E3,1.61E2,2.21E2,5.49E3,5E0,2.1E1,1.629E3,3.008E3,1.0352E4,2.373E3,2.19E2,1.32E2,1.104E3,1.559E3,2.7E1,7E0,1.176E3,3.06E2,3E0,7E0,1.354E3,1.21E3,1.185E3,2.32E2,7.206E3,3.267E3,2.73E2,2.2E1,1.624E3,2.05E2,2.48E2,7.2E1,5.7E1,4E0,1.41E2,4E0,2.23E2,6.82E2,5.53E2,8.22E2,9.9E1,5E1,3.85E2,1.9E2,6E0,2.5E1,8E0,1.7E1,6E0,7E0,4.6E1,4.5E1,2E0,5E0,8E0,2E0,4E0,1.9E1,1.6E1,1.074E3,5E1,8E1,1.97E2,1.504E3,1.59E2,2E0,1.41E2,8E1,4.591E3,8.99E2,2E0,3E0,1.2E1,9E0,7.09E2,9.2E2,2.428E3,5.8E2,5.575E3,4.777E3,5.14E2,1.859E3,9.5E1,1.24E2,1.29E2,3E0,5.47E2,5.57E2,7.13E2,8.46E2,2E0,2.5E1,3E0,4E0,2.2E2,9.56E2,2.2E2,8.6E1,1.76E2,1.178E3,4.92E2,7.18E2,6.77E2,5.08E2,1.16E2,1.16E2,3.15E3,4.056E3,2.164E3,1.103E3,1.3E1,2.6E2,3E0,1.9E1,9.03E2,7.21E2,1.88E2,1.7E1,1.51E2,9.7E1,4.2E1,3E1,3.3E1,2.4E1,2E0,2E0,1.2E1,1.29E2,2E0,2E0,1.03E2,1.2E2,2.44E2,4.38E2,3.69E2,1.84E2,5.35E2,2.87E2,4.2E1,5.7E1,2E0,4.8E1,2.76E2,1.09E2,1.54E2,3.6E1,2E0,2.3E1,5E0,3E0,7E0,1E1,2E0,4E0,4E0,3E0,4.2E1,4E0,2.8E1,1.7E1,2E0,2E0],"tree_param":{"num_deleted":"0","num_feature":"19","num_nodes":"227","size_leaf_vector":"1"}},{"base_weights":[5.811014E-3,3.7812757E-1,-3.0054712E0,8.697914E-1,-2.7350792E-1,-2.6129632E0,-1.400853E1,1.3088647E0,6.438088E-1,-3.4829304E-1,1.944182E0,-2.0826483E0,-4.9232116E0,-2.0193758E1,-1.1893567E1,1.6713012E0,1.1121688E0,6.049133E-1,2.657214E0,-8.4903784E-2,-9.011256E-1,3.076719E0,9.7296065E-1,-2.277368E0,1.0756587E0,-5.635292E0,1.0537815E0,-3.9410046E1,-1.3415671E1,-8.855558E0,-1.8168999E1,2.0755556E0,1.4791204E0,9.5870155E-1,1.4695226E0,3.8071853E-1,8.3863443E-1,4.4081583E0,2.0864372E0,-4.0741688E-1,1.1741769E-1,-9.2561114E-1,4.6614366E0,2.216385E0,1.8988531E1,8.88937E-1,2.6184663E-1,-1.7917E0,-3.3284123E0,2.56002E0,-3.8292077E-1,-5.053165E0,-1.0622506E1,-3.6151814E-1,1.369568E1,-4.4762266E-1,-4.651814E1,-9.476686E0,-7.21528E-1,-2.848674E0,-1.5696476E1,-1.9368925E1,1.942458E-1,4.8765707E0,2.0220451E0,1.2962451E0,1.7419586E0,9.5462114E-1,2.0098864E-1,2.4351757E0,1.3486444E0,5.609963E-1,2.1235472E-1,1.0231957E0,6.493813E-1,3.1896346E0,1.0945781E1,2.47639E0,8.568048E-1,2.2726166E0,-4.2092195E-1,3.7152353E-1,-1.5567015E-1,-1.2868643E0,-7.13841E-1,8.038379E-1,5.7253294E0,1.8133588E0,6.0993958E0,6.130263E0,2.25648E0,1.7051953E0,1.5749314E-1,-9.291231E-1,-2.1943789E0,-3.058687E0,-6.2920756E0,4.7099584E-1,2.1647372E0,-2.7563057E0,5.806064E-1,-6.932737E0,-4.0183735E0,-9.49142E0,-4.9073973E-1,-2.317124E0,2.7065194E0,2.9837273E1,2.0944561E-1,-5.9408164E-1,-1.9065933E0,-1.1500657E1,-2.0509596E0,-7.018597E0,1.2678433E1,-2.2114716E1,-6.6970024E0,-2.0874155E1,-8.215664E0,3.274526E-2,2.0770857E-1,6.6140465E-2,2.3604962E-1,3.8235158E-2,5.3945508E-2,5.645899E-2,1.3922341E-1,4.0701386E-2,2.9580614E-2,6.622333E-2,1.9098023E-1,6.2292716E-3,4.547595E-2,2.5813347E-2,1.5793504E-2,1.0761617E-2,2.2736082E-3,5.4571632E-2,3.2248855E-2,2.4932114E-2,9.729194E-3,1.3587709E-1,4.715793E-2,2.035794E-2,6.9867057E-1,1.06216535E-1,4.8353493E-2,9.758448E-3,9.589108E-2,2.098883E-4,2.3389134E-1,-8.936332E-3,-2.212191E-2,1.7799176E-2,-7.488426E-3,3.9112354E-3,-1.773451E-2,-4.543654E-2,-8.025919E-3,4.147656E-2,-2.5536459E-2,-2.0394636E-2,6.681628E-2,2.1632093E-1,-4.748142E-2,-1.5168174E-3,6.8612985E-2,9.858841E-2,5.2715415E-1,1.23618126E-1,3.4842536E-1,4.5726813E-2,3.2281074E-1,-1.26798E-1,1.1201645E-2,-2.4786966E-2,-1.0198281E-1,-4.9583204E-2,-9.269287E-2,-9.04046E-2,-1.4898512E-1,-1.4980942E-1,-2.5236875E-1,1.349609E-1,-4.4495385E-2,-7.001092E-3,-1.516995E-1,1.7574467E-1,1.0247973E-2,-2.0075442E-1,-3.550819E-1,-7.2916195E-2,-1.8561684E-1,-3.2459727E-1,-1.9116518E-1,3.7457213E-1,-9.8103166E-2,3.6663857E-1,5.9207473E-3,1.2461038E0,3.9494628E-1,-5.3632837E-2,1.0551537E-1,-2.751554E-1,-4.4938597E-1,3.8450576E-2,-1.5689349E-1,-2.866519E-1,2.5501454E-1,-3.4805232E-1,7.12541E-1,-2.0203102E-1,-9.0439814E-1,-3.4457368E-1,-5.061384E-2,-8.783173E-1,-6.027288E-1,-4.453702E-2,-3.5284147E-1],"categories":[],"categories_nodes":[],"categories_segments":[],"categories_sizes":[],"default_left":[0,0,0,0,0,0,0,0,0,0,0,0,0,0,0,0,0,0,0,0,0,0,0,0,0,0,0,0,0,0,0,0,0,0,0,0,0,0,0,0,0,0,0,0,0,0,0,0,0,0,0,0,0,0,0,0,0,0,0,0,0,0,0,0,0,0,0,0,0,0,0,0,0,0,0,0,0,0,0,0,0,0,0,0,0,0,0,0,0,0,0,0,0,0,0,0,0,0,0,0,0,0,0,0,0,0,0,0,0,0,0,0,0,0,0,0,0,0,0,0,0,0,0,0,0,0,0,0,0,0,0,0,0,0,0,0,0,0,0,0,0,0,0,0,0,0,0,0,0,0,0,0,0,0,0,0,0,0,0,0,0,0,0,0,0,0,0,0,0,0,0,0,0,0,0,0,0,0,0,0,0,0,0,0,0,0,0,0,0,0,0,0,0,0,0,0,0,0,0,0,0,0,0,0,0,0,0,0,0,0,0,0,0,0,0,0,0,0,0],"id":1,"left_children":[1,3,5,7,9,11,13,15,17,19,21,23,25,27,29,31,33,35,37,39,41,43,45,47,49,51,53,55,57,59,61,63,65,67,69,71,73,75,77,79,81,83,85,87,89,91,-1,93,95,97,99,101,103,105,107,-1,109,111,-1,113,115,117,-1,119,121,123,125,127,-1,129,131,133,135,137,139,141,143,145,147,149,151,153,155,157,159,161,163,165,167,169,-1,171,173,175,177,179,181,-1,183,185,187,189,191,193,-1,195,197,199,201,-1,-1,203,205,207,209,211,213,215,217,-1,-1,-1,-1,-1,-1,-1,-1,-1,-1,-1,-1,-1,-1,-1,-1,-1,-1,-1,-1,-1,-1,-1,-1,-1,-1,-1,-1,-1,-1,-1,-1,-1,-1,-1,-1,-1,-1,-1,-1,-1,-1,-1,-1,-1,-1,-1,-1,-1,-1,-1,-1,-1,-1,-1,-1,-1,-1,-1,-1,-1,-1,-1,-1,-1,-1,-1,-1,-1,-1,-1,-1,-1,-1,-1,-1,-1,-1,-1,-1,-1,-1,-1,-1,-1,-1,-1,-1,-1,-1,-1,-1,-1,-1,-1,-1,-1,-1,-1,-1],"loss_changes":[5.74556E4,1.4612385E4,2.431705E4,2.578457E3,3.2536643E3,6.661961E3,2.2976367E3,6.2777246E2,1.3425474E3,2.7628765E3,7.0097046E2,2.7274492E3,4.330135E3,5.7232715E3,2.6416309E3,2.3815723E2,3.1272656E2,8.8208105E2,3.1560718E2,8.3872314E2,8.382798E2,3.996309E3,1.9534079E2,2.1246914E3,5.595655E2,2.5824219E3,1.9551871E3,1.5735781E3,1.024148E3,4.105639E3,1.4706436E3,1.3972363E2,9.906641E1,7.815576E1,1.9736841E2,2.608191E2,2.872881E2,5.9442053E2,1.1631433E2,1.8029785E2,5.481949E2,4.6551807E2,1.062077E2,4.2869177E2,9.106805E3,2.0451862E2,0E0,9.903164E2,1.0343301E3,5.617156E2,3.0117386E2,1.5572871E3,3.1055273E2,6.0025867E2,2.388333E3,0E0,1.8490117E3,3.82208E2,0E0,3.6500615E3,2.5666533E3,5.839746E2,0E0,9.287103E1,7.5201904E1,5.6184326E1,5.9141846E1,6.3961426E1,0E0,2.6123926E2,5.1939453E1,7.5299194E1,7.2548065E1,1.19271484E2,1.5305151E2,1.0519971E2,1.2544225E3,1.3563782E2,6.927083E1,2.7275555E2,1.8446857E2,4.11149E2,3.9864716E2,2.1119409E2,4.5566516E2,1.3402923E1,1.3428058E2,1.2662366E2,7.512461E2,9.7698395E1,0E0,4.0454492E2,1.337596E2,3.4815094E2,8.235332E2,5.499092E2,2.2419092E2,0E0,8.5084406E2,1.7697452E2,1.1880152E2,8.7066406E2,1.5217305E3,4.1230957E1,0E0,5.8042334E2,8.262542E2,2.5600586E2,4.3570694E1,0E0,0E0,2.7061523E1,6.640074E1,1.1492732E3,2.7120376E3,2.1169902E3,3.9000812E2,9.8228516E1,1.04596344E2,0E0,0E0,0E0,0E0,0E0,0E0,0E0,0E0,0E0,0E0,0E0,0E0,0E0,0E0,0E0,0E0,0E0,0E0,0E0,0E0,0E0,0E0,0E0,0E0,0E0,0E0,0E0,0E0,0E0,0E0,0E0,0E0,0E0,0E0,0E0,0E0,0E0,0E0,0E0,0E0,0E0,0E0,0E0,0E0,0E0,0E0,0E0,0E0,0E0,0E0,0E0,0E0,0E0,0E0,0E0,0E0,0E0,0E0,0E0,0E0,0E0,0E0,0E0,0E0,0E0,0E0,0E0,0E0,0E0,0E0,0E0,0E0,0E0,0E0,0E0,0E0,0E0,0E0,0E0,0E0,0E0,0E0,0E0,0E0,0E0,0E0,0E0,0E0,0E0,0E0,0E0,0E0,0E0,0E0,0E0,0E0,0E0,0E0,0E0,0E0],"parents":[2147483647,0,0,1,1,2,2,3,3,4,4,5,5,6,6,7,7,8,8,9,9,10,10,11,11,12,12,13,13,14,14,15,15,16,16,17,17,18,18,19,19,20,20,21,21,22,22,23,23,24,24,25,25,26,26,27,27,28,28,29,29,30,30,31,31,32,32,33,33,34,34,35,35,36,36,37,37,38,38,39,39,40,40,41,41,42,42,43,43,44,44,45,45,47,47,48,48,49,49,50,50,51,51,52,52,53,53,54,54,56,56,57,57,59,59,60,60,61,61,63,63,64,64,65,65,66,66,67,67,69,69,70,70,71,71,72,72,73,73,74,74,75,75,76,76,77,77,78,78,79,79,80,80,81,81,82,82,83,83,84,84,85,85,86,86,87,87,88,88,89,89,91,91,92,92,93,93,94,94,95,95,96,96,98,98,99,99,100,100,101,101,102,102,103,103,105,105,106,106,107,107,108,108,111,111,112,112,113,113,114,114,115,115,116,116,117,117,118,118],"right_children":[2,4,6,8,10,12,14,16,18,20,22,24,26,28,30,32,34,36,38,40,42,44,46,48,50,52,54,56,58,60,62,64,66,68,70,72,74,76,78,80,82,84,86,88,90,92,-1,94,96,98,100,102,104,106,108,-1,110,112,-1,114,116,118,-1,120,122,124,126,128,-1,130,132,134,136,138,140,142,144,146,148,150,152,154,156,158,160,162,164,166,168,170,-1,172,174,176,178,180,182,-1,184,186,188,190,192,194,-1,196,198,200,202,-1,-1,204,206,208,210,212,214,216,218,-1,-1,-1,-1,-1,-1,-1,-1,-1,-1,-1,-1,-1,-1,-1,-1,-1,-1,-1,-1,-1,-1,-1,-1,-1,-1,-1,-1,-1,-1,-1,-1,-1,-1,-1,-1,-1,-1,-1,-1,-1,-1,-1,-1,-1,-1,-1,-1,-1,-1,-1,-1,-1,-1,-1,-1,-1,-1,-1,-1,-1,-1,-1,-1,-1,-1,-1,-1,-1,-1,-1,-1,-1,-1,-1,-1,-1,-1,-1,-1,-1,-1,-1,-1,-1,-1,-1,-1,-1,-1,-1,-1,-1,-1,-1,-1,-1,-1,-1,-1],"split_conditions":[9.883E0,5.179208E0,2.4773912E1,2.993458E0,8.99611E3,1.5381917E1,2.9717E2,-1.719375E0,9.42376E3,7.467083E0,6.915208E0,1.052625E4,1.236326E4,-5E-1,5E-1,1.735292E0,1.32062E3,6.2085E2,-8.660254E-1,2.9893E2,9.0107703E-1,6.831708E0,1.90809E-1,1.8E-1,8.660254E-1,3E-1,1.1991875E1,1.1E-1,2E-1,6.19495E3,9.0107703E-1,-7.749445E-1,9.6575E2,2.666235E0,1.3666667E0,4.046083E0,4.118625E0,2.291079E4,3.883351E5,-5.707136E-1,6.123234E-17,2.9639E2,1.1320321E-1,4.375931E4,6.123234E-17,2.2294044E5,2.6184663E-1,1.1E-1,5.1E-1,-7.5E0,1.684872E4,5.998E2,2.0374083E1,1.7E-1,1E-1,-4.4762266E-1,1.1991875E1,1.6E-1,-7.21528E-1,7.531731E4,-8.660254E-1,5E-1,1.942458E-1,9E-2,1.999994E4,8.660254E-1,3.883351E5,1.454167E0,2.0098864E-1,6.19495E3,-2.1643962E-1,-1.608575E0,5E-1,-4.271334E0,8.660254E-1,-2.20417E-1,-1.17958E-1,8.660254E-1,1.8E-1,6.670958E0,6.40575E0,7.439882E4,6.256167E0,1E0,4.000436E3,7.90987E0,4.499587E4,8E-2,5E-1,1.684872E4,2.25648E0,1.999994E4,2.9404032E-1,6.123234E-17,1.136325E1,1.3102E1,1.199025E1,4.7099584E-1,2.770376E5,2.2294044E5,1.6500155E5,2.0374083E1,1.2E-1,1E0,-4.9073973E-1,1.0957766E5,-6.54225E0,5.239859E-1,2.891743E4,-5.9408164E-1,-1.9065933E0,1E-1,1.8E-1,5.63589E3,1.3E-1,3.65225E0,1.7819131E5,9.998766E-1,-9.175E0,3.274526E-2,2.0770857E-1,6.6140465E-2,2.3604962E-1,3.8235158E-2,5.3945508E-2,5.645899E-2,1.3922341E-1,4.0701386E-2,2.9580614E-2,6.622333E-2,1.9098023E-1,6.2292716E-3,4.547595E-2,2.5813347E-2,1.5793504E-2,1.0761617E-2,2.2736082E-3,5.4571632E-2,3.2248855E-2,2.4932114E-2,9.729194E-3,1.3587709E-1,4.715793E-2,2.035794E-2,6.9867057E-1,1.06216535E-1,4.8353493E-2,9.758448E-3,9.589108E-2,2.098883E-4,2.3389134E-1,-8.936332E-3,-2.212191E-2,1.7799176E-2,-7.488426E-3,3.9112354E-3,-1.773451E-2,-4.543654E-2,-8.025919E-3,4.147656E-2,-2.5536459E-2,-2.0394636E-2,6.681628E-2,2.1632093E-1,-4.748142E-2,-1.5168174E-3,6.8612985E-2,9.858841E-2,5.2715415E-1,1.23618126E-1,3.4842536E-1,4.5726813E-2,3.2281074E-1,-1.26798E-1,1.1201645E-2,-2.4786966E-2,-1.0198281E-1,-4.9583204E-2,-9.269287E-2,-9.04046E-2,-1.4898512E-1,-1.4980942E-1,-2.5236875E-1,1.349609E-1,-4.4495385E-2,-7.001092E-3,-1.516995E-1,1.7574467E-1,1.0247973E-2,-2.0075442E-1,-3.550819E-1,-7.2916195E-2,-1.8561684E-1,-3.2459727E-1,-1.9116518E-1,3.7457213E-1,-9.8103166E-2,3.6663857E-1,5.9207473E-3,1.2461038E0,3.9494628E-1,-5.3632837E-2,1.0551537E-1,-2.751554E-1,-4.4938597E-1,3.8450576E-2,-1.5689349E-1,-2.866519E-1,2.5501454E-1,-3.4805232E-1,7.12541E-1,-2.0203102E-1,-9.0439814E-1,-3.4457368E-1,-5.061384E-2,-8.783173E-1,-6.027288E-1,-4.453702E-2,-3.5284147E-1],"split_indices":[0,0,0,0,13,0,13,9,13,0,0,13,13,2,2,0,13,13,2,13,18,0,18,16,2,16,9,16,16,13,18,17,13,9,0,0,0,13,14,17,3,13,17,13,3,14,0,16,16,9,13,13,0,16,16,0,9,16,0,14,2,3,0,16,13,3,14,0,0,13,18,9,2,9,3,9,9,2,16,0,0,14,0,3,14,0,14,16,3,13,0,13,17,3,0,0,0,0,14,14,14,0,16,2,0,14,9,17,13,0,0,16,16,13,16,9,14,17,9,0,0,0,0,0,0,0,0,0,0,0,0,0,0,0,0,0,0,0,0,0,0,0,0,0,0,0,0,0,0,0,0,0,0,0,0,0,0,0,0,0,0,0,0,0,0,0,0,0,0,0,0,0,0,0,0,0,0,0,0,0,0,0,0,0,0,0,0,0,0,0,0,0,0,0,0,0,0,0,0,0,0,0,0,0,0,0,0,0,0,0,0,0,0,0,0,0,0,0,0],"split_type":[0,0,0,0,0,0,0,0,0,0,0,0,0,0,0,0,0,0,0,0,0,0,0,0,0,0,0,0,0,0,0,0,0,0,0,0,0,0,0,0,0,0,0,0,0,0,0,0,0,0,0,0,0,0,0,0,0,0,0,0,0,0,0,0,0,0,0,0,0,0,0,0,0,0,0,0,0,0,0,0,0,0,0,0,0,0,0,0,0,0,0,0,0,0,0,0,0,0,0,0,0,0,0,0,0,0,0,0,0,0,0,0,0,0,0,0,0,0,0,0,0,0,0,0,0,0,0,0,0,0,0,0,0,0,0,0,0,0,0,0,0,0,0,0,0,0,0,0,0,0,0,0,0,0,0,0,0,0,0,0,0,0,0,0,0,0,0,0,0,0,0,0,0,0,0,0,0,0,0,0,0,0,0,0,0,0,0,0,0,0,0,0,0,0,0,0,0,0,0,0,0,0,0,0,0,0,0,0,0,0,0,0,0,0,0,0,0,0,0],"sum_hessian":[5.1245E4,4.5607E4,5.638E3,2.5994E4,1.9613E4,5.445E3,1.93E2,8.831E3,1.7163E4,1.8974E4,6.39E2,4.43E3,1.015E3,4.7E1,1.46E2,3.104E3,5.727E3,1.6839E4,3.24E2,1.2852E4,6.122E3,2.94E2,3.45E2,4.173E3,2.57E2,9.07E2,1.08E2,1.1E1,3.6E1,1E2,4.6E1,9.97E2,2.107E3,4.009E3,1.718E3,8.596E3,8.243E3,7.8E1,2.46E2,4.954E3,7.898E3,6.096E3,2.6E1,2.8E2,1.4E1,3.42E2,3E0,2.856E3,1.317E3,1.27E2,1.3E2,8.14E2,9.3E1,9.8E1,1E1,3E0,8E0,2.6E1,1E1,5.4E1,4.6E1,4.4E1,2E0,1.7E1,9.8E2,1.246E3,8.61E2,4.007E3,2E0,1.89E2,1.529E3,4.15E3,4.446E3,4.171E3,4.072E3,6.7E1,1.1E1,1.86E2,6E1,2.4E1,4.93E3,4.091E3,3.807E3,2.251E3,3.845E3,6E0,2E1,2.55E2,2.5E1,1.2E1,2E0,1.61E2,1.81E2,9.1E2,1.946E3,1.209E3,1.08E2,3E0,1.24E2,3.7E1,9.3E1,2.87E2,5.27E2,7.6E1,1.7E1,6E1,3.8E1,4E0,6E0,3E0,5E0,2E1,6E0,4.3E1,1.1E1,2.6E1,2E1,3.8E1,6E0,5E0,1.2E1,9.78E2,2E0,8.89E2,3.57E2,8.52E2,9E0,6.89E2,3.318E3,1.69E2,2E1,3.8E1,1.491E3,1.124E3,3.026E3,2.479E3,1.967E3,2.81E2,3.89E3,3.133E3,9.39E2,4.3E1,2.4E1,6E0,5E0,1.06E2,8E1,4.8E1,1.2E1,1.7E1,7E0,3.079E3,1.851E3,3.195E3,8.96E2,2.216E3,1.591E3,2.072E3,1.79E2,1.13E2,3.732E3,3E0,3E0,1.8E1,2E0,3.2E1,2.23E2,2E1,5E0,9E0,3E0,1.56E2,5E0,7E0,1.74E2,8.42E2,6.8E1,9.17E2,1.029E3,9.94E2,2.15E2,4.9E1,5.9E1,8E1,4.4E1,1.6E1,2.1E1,4E0,8.9E1,2.37E2,5E1,2.49E2,2.78E2,6.8E1,8E0,2E0,5.8E1,8E0,3E1,2E0,2E0,4E0,2E0,1E1,1E1,3E0,3E0,3.9E1,4E0,3E0,8E0,7E0,1.9E1,1.1E1,9E0,9E0,2.9E1,2E0,4E0],"tree_param":{"num_deleted":"0","num_feature":"19","num_nodes":"219","size_leaf_vector":"1"}},{"base_weights":[1.3503527E-3,3.6564258E-1,-2.9709404E0,8.321835E-1,-2.8418574E-1,-2.5599627E0,-1.431133E1,1.2642227E0,6.267328E-1,7.4707025E-1,-6.053945E-1,-7.527396E-1,-3.9907064E0,-7.6399245E0,-1.8693634E1,1.8704095E0,1.1696758E0,5.7985395E-1,3.0412178E0,2.0582106E0,2.5421795E-1,-8.0819577E-1,6.336583E-1,-1.0647187E0,2.5833154E0,-3.139362E0,-6.5759926E0,-9.478361E0,1.262376E1,-1.6978708E1,-3.3675777E1,4.0546165E0,1.694657E0,1.0715765E0,1.803808E0,9.383583E-1,3.864326E-1,2.7826293E0,7.9847765E-1,2.5402281E0,1.1031327E0,2.0738459E-1,4.5997815E0,-4.75255E-1,-1.5203834E0,6.1315745E-1,4.7397953E-1,9.6511796E-2,-1.7890455E0,1.04226055E1,1.8607025E0,-4.3049507E0,-2.3992567E0,-6.7833805E0,1.1114419E1,-8.0716305E0,-7.1242815E-1,-7.086363E-2,1.0901356E0,-2.4339895E1,-1.3216785E1,-6.449509E-1,-4.2194954E1,3.515528E0,4.6504512E-1,4.530177E0,1.5941013E0,1.5191187E0,9.7303593E-1,1.0591816E0,2.303473E0,1.9754878E0,6.473377E-1,2.1841896E-1,1.0719566E0,5.221074E0,1.8532447E0,2.4239988E0,8.61627E0,1.9066509E0,5.726421E-1,-5.8703393E-2,7.176579E-1,4.9734548E-1,3.5084584E0,-5.4616207E-1,2.5164106E0,-2.3600364E0,-1.2299411E0,3.4650487E-1,1.5990964E0,1.0457206E0,-1.0284531E0,-1.3595767E0,-3.926485E0,1.6935143E1,9.791074E-1,4.5481864E-2,3.6372292E0,-3.7086647E0,-5.2110653E0,-3.4860065E0,-1.5188085E0,-5.4372115E0,-9.100198E0,2.4076279E1,-4.070325E0,-4.446298E0,-1.2668745E1,-4.7623386E0,-2.9964272E1,-1.7657658E1,-1.0820831E1,-5.709462E-1,-1.6604406E0,1.02958634E-1,1.8357962E-1,2.0448324E-1,3.6480978E-2,5.9526306E-2,3.1393662E-2,4.9067907E-2,2.845967E-1,2.8131826E-2,4.2089164E-2,3.0642146E-2,6.993017E-2,7.167006E-2,1.4730509E-1,1.1815291E-1,6.0035106E-2,1.7380824E-2,4.429875E-2,1.5355908E-2,-1.5215283E-3,2.6214123E-2,5.910316E-2,1.341044E-1,7.0371497E-1,1.00341424E-1,3.64272E-2,6.277695E-2,1.04131795E-1,3.6534104E-1,-2.9759755E-2,7.176794E-2,-1.8335832E-2,6.2384333E-2,8.092979E-3,1.6545992E-2,-1.0250837E-2,2.6768988E-3,3.9441116E-2,-2.4762208E-2,1.5456958E-1,-3.226498E-2,-8.344837E-3,5.041607E-2,6.301254E-1,-6.40278E-2,-1.007548E-1,-4.6984203E-2,6.2214327E-3,2.215909E-2,-2.5280572E-3,4.834214E-2,2.3568512E-1,1.2588352E-1,2.4420284E-2,-7.0899315E-2,1.8745592E-3,-1.5639797E-1,-4.0155515E-2,-1.6872238E-1,-2.2198489E-2,1.04297794E-1,6.59463E-1,1.304579E-1,-1.7475435E-1,2.0573601E-2,-7.486889E-2,5.2699815E-2,2.5732985E-1,-3.156642E-2,-1.2623419E-1,-2.1965261E-1,-1.5356758E-1,-8.7315924E-2,-1.6039498E-1,-5.9180297E-2,1.7929228E-2,-2.801599E-1,-1.6248572E-1,-2.7047133E-1,-4.8007107E-1,9.880905E-1,3.361048E-1,1.0356917E-2,-2.3422478E-1,-2.5668493E-1,6.795876E-2,-2.4803273E-1,-4.821831E-1,-2.6073506E-1,3.7498925E-2,-5.468678E-1,-1.1161612E0,-4.17786E-1,-6.7065847E-1,-1.8500346E-1,-5.3580326E-1],"categories":[],"categories_nodes":[],"categories_segments":[],"categories_sizes":[],"default_left":[0,0,0,0,0,0,0,0,0,0,0,0,0,0,0,0,0,0,0,0,0,0,0,0,0,0,0,0,0,0,0,0,0,0,0,0,0,0,0,0,0,0,0,0,0,0,0,0,0,0,0,0,0,0,0,0,0,0,0,0,0,0,0,0,0,0,0,0,0,0,0,0,0,0,0,0,0,0,0,0,0,0,0,0,0,0,0,0,0,0,0,0,0,0,0,0,0,0,0,0,0,0,0,0,0,0,0,0,0,0,0,0,0,0,0,0,0,0,0,0,0,0,0,0,0,0,0,0,0,0,0,0,0,0,0,0,0,0,0,0,0,0,0,0,0,0,0,0,0,0,0,0,0,0,0,0,0,0,0,0,0,0,0,0,0,0,0,0,0,0,0,0,0,0,0,0,0,0,0,0,0,0,0,0,0,0,0,0,0,0,0,0,0,0,0,0,0,0,0,0,0,0,0,0,0,0,0,0,0,0,0],"id":2,"left_children":[1,3,5,7,9,11,13,15,17,19,21,23,25,27,29,31,33,35,37,39,41,43,45,47,49,51,53,55,57,59,61,63,65,67,69,71,73,75,-1,77,79,81,83,85,87,89,-1,91,93,95,97,99,101,103,105,107,-1,-1,-1,109,111,-1,113,115,-1,117,119,121,123,125,127,129,131,133,135,137,139,141,143,145,147,149,151,-1,153,155,157,159,161,163,165,167,169,171,173,175,177,179,181,183,185,187,189,191,193,195,197,199,201,203,205,207,209,-1,-1,-1,-1,-1,-1,-1,-1,-1,-1,-1,-1,-1,-1,-1,-1,-1,-1,-1,-1,-1,-1,-1,-1,-1,-1,-1,-1,-1,-1,-1,-1,-1,-1,-1,-1,-1,-1,-1,-1,-1,-1,-1,-1,-1,-1,-1,-1,-1,-1,-1,-1,-1,-1,-1,-1,-1,-1,-1,-1,-1,-1,-1,-1,-1,-1,-1,-1,-1,-1,-1,-1,-1,-1,-1,-1,-1,-1,-1,-1,-1,-1,-1,-1,-1,-1,-1,-1,-1,-1,-1,-1,-1,-1,-1,-1,-1,-1],"loss_changes":[5.5358336E4,1.3807879E4,2.5979086E4,2.3523984E3,6.305436E3,1.3928602E4,5.5582227E3,4.8743848E2,2.0321167E3,2.9209404E3,3.6476118E3,2.4818872E3,6.597668E3,3.0626787E3,2.4343438E3,4.3497485E2,4.579707E2,1.2220059E3,1.8035684E3,5.6574756E2,6.680076E2,2.9568286E3,5.6594165E2,1.8329521E3,1.1362201E3,1.9427305E3,2.8049668E3,1.0693735E3,2.181358E3,2.641375E3,4.9964844E2,4.1040918E2,2.9700977E2,2.8098926E2,3.6553125E2,1.8631006E3,1.3187773E3,7.58584E2,0E0,5.5820996E2,1.7623184E2,4.4172668E2,3.4708856E2,1.8046925E3,9.659961E2,5.357683E2,0E0,8.959142E2,1.2265684E3,1.0289381E3,6.060948E2,4.5506055E2,1.3218247E3,2.2459805E3,1.8694008E3,1.0602983E3,0E0,0E0,0E0,3.7112012E3,5.856592E2,0E0,3.424834E2,4.9057495E1,0E0,1.9858441E2,1.3740527E2,2.5129224E2,1.9037646E2,5.327722E1,1.5839282E2,3.3275586E2,4.0389258E2,6.008496E2,4.4847583E2,1.6465632E3,2.164314E2,3.015708E2,3.604402E2,1.1014545E2,1.0826066E2,3.0197757E2,3.3882416E2,0E0,1.6871652E2,1.05094E3,3.1996873E3,2.9087598E2,8.124165E2,2.2102083E2,3.1232996E2,3.823326E2,4.6687442E2,5.340786E2,8.6120825E2,3.56771E2,1.7023055E2,1.27142944E2,7.9398474E2,1.6739844E2,2.4777344E2,7.0301074E2,4.357556E2,6.91624E2,1.2055859E3,1.0246094E2,6.85907E1,8.6142346E2,1.8049023E2,1.7560684E2,8.348281E2,6.2385254E1,1.3210112E3,0E0,0E0,0E0,0E0,0E0,0E0,0E0,0E0,0E0,0E0,0E0,0E0,0E0,0E0,0E0,0E0,0E0,0E0,0E0,0E0,0E0,0E0,0E0,0E0,0E0,0E0,0E0,0E0,0E0,0E0,0E0,0E0,0E0,0E0,0E0,0E0,0E0,0E0,0E0,0E0,0E0,0E0,0E0,0E0,0E0,0E0,0E0,0E0,0E0,0E0,0E0,0E0,0E0,0E0,0E0,0E0,0E0,0E0,0E0,0E0,0E0,0E0,0E0,0E0,0E0,0E0,0E0,0E0,0E0,0E0,0E0,0E0,0E0,0E0,0E0,0E0,0E0,0E0,0E0,0E0,0E0,0E0,0E0,0E0,0E0,0E0,0E0,0E0,0E0,0E0,0E0,0E0,0E0,0E0,0E0,0E0,0E0,0E0],"parents":[2147483647,0,0,1,1,2,2,3,3,4,4,5,5,6,6,7,7,8,8,9,9,10,10,11,11,12,12,13,13,14,14,15,15,16,16,17,17,18,18,19,19,20,20,21,21,22,22,23,23,24,24,25,25,26,26,27,27,28,28,29,29,30,30,31,31,32,32,33,33,34,34,35,35,36,36,37,37,39,39,40,40,41,41,42,42,43,43,44,44,45,45,47,47,48,48,49,49,50,50,51,51,52,52,53,53,54,54,55,55,59,59,60,60,62,62,63,63,65,65,66,66,67,67,68,68,69,69,70,70,71,71,72,72,73,73,74,74,75,75,76,76,77,77,78,78,79,79,80,80,81,81,82,82,84,84,85,85,86,86,87,87,88,88,89,89,90,90,91,91,92,92,93,93,94,94,95,95,96,96,97,97,98,98,99,99,100,100,101,101,102,102,103,103,104,104,105,105,106,106,107,107,108,108,109,109,110,110,111,111,112,112],"right_children":[2,4,6,8,10,12,14,16,18,20,22,24,26,28,30,32,34,36,38,40,42,44,46,48,50,52,54,56,58,60,62,64,66,68,70,72,74,76,-1,78,80,82,84,86,88,90,-1,92,94,96,98,100,102,104,106,108,-1,-1,-1,110,112,-1,114,116,-1,118,120,122,124,126,128,130,132,134,136,138,140,142,144,146,148,150,152,-1,154,156,158,160,162,164,166,168,170,172,174,176,178,180,182,184,186,188,190,192,194,196,198,200,202,204,206,208,210,-1,-1,-1,-1,-1,-1,-1,-1,-1,-1,-1,-1,-1,-1,-1,-1,-1,-1,-1,-1,-1,-1,-1,-1,-1,-1,-1,-1,-1,-1,-1,-1,-1,-1,-1,-1,-1,-1,-1,-1,-1,-1,-1,-1,-1,-1,-1,-1,-1,-1,-1,-1,-1,-1,-1,-1,-1,-1,-1,-1,-1,-1,-1,-1,-1,-1,-1,-1,-1,-1,-1,-1,-1,-1,-1,-1,-1,-1,-1,-1,-1,-1,-1,-1,-1,-1,-1,-1,-1,-1,-1,-1,-1,-1,-1,-1,-1,-1],"split_conditions":[9.883E0,5.256458E0,2.4773912E1,2.964208E0,1.37E1,1.54E1,1.36E1,-7.7E0,3E1,1.16E1,2.32E1,3.8E1,1.4262217E1,1.35E1,2.49E1,8.4E0,1.7E0,1.57E1,5.23475E0,-8E-1,2.770376E5,7.467083E0,3.39E2,1.09E1,9.07044E-1,-6E-1,9.7E1,9.5E1,1.37E1,1.38E1,3.1E0,3.6E1,-5.284383E-1,1.454167E0,1.75E1,1.21E1,2.15E1,1.25E1,7.9847765E-1,1.8778556E5,-3E-1,2.8295E3,-9.8293537E-1,3E1,-1.5E0,2.4E0,4.7397953E-1,0E0,1.5381917E1,1.04E1,5E-1,1.155325E1,1.49E1,2.38E1,1.66E1,1.56E1,-7.1242815E-1,-7.086363E-2,1.0901356E0,3E-1,1.1E1,-6.449509E-1,1.77E1,2.750167E0,4.6504512E-1,1.67E1,1.91E1,5.6E1,1.649E3,3.71396E3,1.9E1,7.3E0,1.6E0,4.118625E0,1.5E0,1.24E1,1.56E1,1.91311E3,2.770376E5,9.471667E0,9.8E0,1.44E1,1E-1,4.9734548E-1,-5.2E0,-4E-1,3.1E0,8.755348E0,5.05406E3,7.222792E0,3.18E1,5.6E0,9.8752E2,-2.7E0,4.95E3,-6.4E0,1.26E1,1.35E1,1.3E1,1.59E1,-3.9E0,8.3E0,2.62E1,-1.3E0,2.0374083E1,1.62E1,1.8461082E1,4.5488855E4,7.7E0,1.09E1,1.44E1,3.0380393E4,1.3E0,-5.709462E-1,-1.6604406E0,1.02958634E-1,1.8357962E-1,2.0448324E-1,3.6480978E-2,5.9526306E-2,3.1393662E-2,4.9067907E-2,2.845967E-1,2.8131826E-2,4.2089164E-2,3.0642146E-2,6.993017E-2,7.167006E-2,1.4730509E-1,1.1815291E-1,6.0035106E-2,1.7380824E-2,4.429875E-2,1.5355908E-2,-1.5215283E-3,2.6214123E-2,5.910316E-2,1.341044E-1,7.0371497E-1,1.00341424E-1,3.64272E-2,6.277695E-2,1.04131795E-1,3.6534104E-1,-2.9759755E-2,7.176794E-2,-1.8335832E-2,6.2384333E-2,8.092979E-3,1.6545992E-2,-1.0250837E-2,2.6768988E-3,3.9441116E-2,-2.4762208E-2,1.5456958E-1,-3.226498E-2,-8.344837E-3,5.041607E-2,6.301254E-1,-6.40278E-2,-1.007548E-1,-4.6984203E-2,6.2214327E-3,2.215909E-2,-2.5280572E-3,4.834214E-2,2.3568512E-1,1.2588352E-1,2.4420284E-2,-7.0899315E-2,1.8745592E-3,-1.5639797E-1,-4.0155515E-2,-1.6872238E-1,-2.2198489E-2,1.04297794E-1,6.59463E-1,1.304579E-1,-1.7475435E-1,2.0573601E-2,-7.486889E-2,5.2699815E-2,2.5732985E-1,-3.156642E-2,-1.2623419E-1,-2.1965261E-1,-1.5356758E-1,-8.7315924E-2,-1.6039498E-1,-5.9180297E-2,1.7929228E-2,-2.801599E-1,-1.6248572E-1,-2.7047133E-1,-4.8007107E-1,9.880905E-1,3.361048E-1,1.0356917E-2,-2.3422478E-1,-2.5668493E-1,6.795876E-2,-2.4803273E-1,-4.821831E-1,-2.6073506E-1,3.7498925E-2,-5.468678E-1,-1.1161612E0,-4.17786E-1,-6.7065847E-1,-1.8500346E-1,-5.3580326E-1],"split_indices":[0,0,0,0,7,7,6,11,12,6,6,12,0,6,7,6,10,7,0,11,14,0,12,6,17,10,12,12,7,7,11,12,17,0,6,6,6,6,0,14,10,13,17,12,10,10,0,11,0,7,10,0,6,7,7,7,0,0,0,10,12,0,6,0,0,7,7,12,13,13,12,6,10,0,10,6,7,13,14,0,7,6,10,0,11,10,10,0,13,0,7,6,13,10,13,11,6,7,7,7,10,11,6,10,0,7,0,14,6,7,6,14,10,0,0,0,0,0,0,0,0,0,0,0,0,0,0,0,0,0,0,0,0,0,0,0,0,0,0,0,0,0,0,0,0,0,0,0,0,0,0,0,0,0,0,0,0,0,0,0,0,0,0,0,0,0,0,0,0,0,0,0,0,0,0,0,0,0,0,0,0,0,0,0,0,0,0,0,0,0,0,0,0,0,0,0,0,0,0,0,0,0,0,0,0,0,0,0,0,0,0],"split_type":[0,0,0,0,0,0,0,0,0,0,0,0,0,0,0,0,0,0,0,0,0,0,0,0,0,0,0,0,0,0,0,0,0,0,0,0,0,0,0,0,0,0,0,0,0,0,0,0,0,0,0,0,0,0,0,0,0,0,0,0,0,0,0,0,0,0,0,0,0,0,0,0,0,0,0,0,0,0,0,0,0,0,0,0,0,0,0,0,0,0,0,0,0,0,0,0,0,0,0,0,0,0,0,0,0,0,0,0,0,0,0,0,0,0,0,0,0,0,0,0,0,0,0,0,0,0,0,0,0,0,0,0,0,0,0,0,0,0,0,0,0,0,0,0,0,0,0,0,0,0,0,0,0,0,0,0,0,0,0,0,0,0,0,0,0,0,0,0,0,0,0,0,0,0,0,0,0,0,0,0,0,0,0,0,0,0,0,0,0,0,0,0,0,0,0,0,0,0,0,0,0,0,0,0,0,0,0,0,0,0,0],"sum_hessian":[5.1124E4,4.5543E4,5.581E3,2.651E4,1.9033E4,5.387E3,1.94E2,8.542E3,1.7968E4,4.52E3,1.4513E4,2.381E3,3.006E3,7.8E1,1.16E2,1.15E3,7.392E3,1.7627E4,3.41E2,1.234E3,3.286E3,1.2472E4,2.041E3,2.178E3,2.03E2,2.263E3,7.43E2,7.2E1,6E0,1.06E2,1E1,8.4E1,1.066E3,6.404E3,9.88E2,6.176E3,1.1451E4,3.38E2,3E0,8.19E2,4.15E2,3.252E3,3.4E1,8.5E3,3.972E3,2.039E3,2E0,8.37E2,1.341E3,1.6E1,1.87E2,8.77E2,1.386E3,7.35E2,8E0,6.6E1,6E0,4E0,2E0,3.4E1,7.2E1,5E0,5E0,8.1E1,3E0,3.5E1,1.031E3,1.153E3,5.251E3,3.98E2,5.9E2,1.352E3,4.824E3,9.198E3,2.253E3,9.2E1,2.46E2,8.05E2,1.4E1,1.64E2,2.51E2,2.138E3,1.114E3,2E0,3.2E1,8.304E3,1.96E2,1.019E3,2.953E3,1.606E3,4.33E2,4.54E2,3.83E2,1.118E3,2.23E2,9E0,7E0,9.3E1,9.4E1,5.32E2,3.45E2,6.19E2,7.67E2,4.67E2,2.68E2,4E0,4E0,3.8E1,2.8E1,8E0,2.6E1,2.3E1,4.9E1,2E0,3E0,7E1,1.1E1,2.3E1,1.2E1,7.76E2,2.55E2,1.149E3,4E0,3.757E3,1.494E3,3.56E2,4.2E1,5.58E2,3.2E1,1.18E2,1.234E3,4.112E3,7.12E2,4.757E3,4.441E3,1.627E3,6.26E2,8.7E1,5E0,9.4E1,1.52E2,4.72E2,3.33E2,1.1E1,3E0,1.48E2,1.6E1,4.9E1,2.02E2,6.63E2,1.475E3,4.78E2,6.36E2,7E0,2.5E1,3.359E3,4.945E3,1.86E2,1E1,6.37E2,3.82E2,2.598E3,3.55E2,9.08E2,6.98E2,4.24E2,9E0,4.4E1,4.1E2,1.88E2,1.95E2,4.4E1,1.074E3,1.63E2,6E1,2E0,7E0,5E0,2E0,7.5E1,1.8E1,6.4E1,3E1,2.2E1,5.1E2,9.3E1,2.52E2,3.86E2,2.33E2,6.77E2,9E1,6.5E1,4.02E2,2.32E2,3.6E1,2E0,2E0,2E0,2E0,2.5E1,1.3E1,9E0,1.9E1,5E0,3E0,7E0,1.9E1,1E1,1.3E1,2.6E1,2.3E1],"tree_param":{"num_deleted":"0","num_feature":"19","num_nodes":"211","size_leaf_vector":"1"}},{"base_weights":[-6.234494E-3,8.895484E-2,-7.8780704E0,3.6883327E-1,-1.403554E0,-5.4342093E0,-1.514219E1,7.161296E-1,-1.405574E-1,-4.9734515E-1,-2.7658436E0,-3.4115028E0,-9.865964E0,-8.006998E0,-2.2851892E1,9.306664E-1,4.1610113E-1,3.3397183E-1,-7.7856237E-1,1.5684733E-1,-1.9669436E0,-6.092216E0,-2.4665368E0,-2.509802E0,-6.7890086E0,-5.471487E0,-1.0706266E1,-2.2429163E0,-1.3575788E1,-1.9846584E1,-4.20178E1,1.1484594E0,6.8304217E-1,3.696527E-1,3.7883356E0,7.6423687E-1,4.503348E-2,-2.9372633E-1,-1.3461235E0,-7.0905395E-2,2.7651393E0,-1.129992E0,-3.0740561E0,-4.4836755E0,-8.695332E0,-1.7698505E0,-3.6971025E0,-5.116012E0,-1.4122216E0,-4.541452E0,-9.499979E0,-6.566691E0,6.336018E-2,-9.40292E0,-1.5737501E1,1.1693101E1,-5.9756813E0,-1.5391987E-2,-1.4236103E1,-1.4565397E1,-2.826172E1,-5.8193E-1,-1.9139273E0,1.7223856E0,1.0504615E0,8.600382E-1,2.0600998E-1,5.311556E-1,-1.2026379E-1,6.496813E0,1.5118878E0,6.035E-1,1.1580695E0,-1.5206015E-1,4.537513E-1,-7.810428E-2,-7.4510825E-1,-1.6780713E0,-7.124151E-1,-2.0083911E0,1.4376901E-1,2.5290744E0,7.463659E-1,-9.0780705E-1,-3.2616012E0,-3.2046623E0,9.082329E0,-2.9108906E0,-5.8422217E0,-6.686324E0,-1.1614668E1,-1.0737878E0,-2.742779E0,-2.9371397E0,-5.701235E0,-3.4335258E0,-8.936729E0,3.142845E0,-2.6298125E0,-1.3473465E0,-5.9638333E0,-3.2208269E0,-1.21645565E1,2.4771785E-2,-8.032837E0,-5.710814E0,-1.000866E1,-1.1277866E1,-7.487562E-1,-1.3001616E-1,2.016624E1,-2.2863932E0,-1.3146403E1,-5.177579E-1,-6.6424723E0,-6.5615163E0,-2.716161E1,-3.0403353E1,-1.0348287E-1,6.4638816E-2,4.944467E-2,4.9908534E-2,3.2307055E-2,3.272735E-2,7.160922E-3,3.6814786E-2,4.1925986E-3,2.3107989E-2,1.91825E-3,9.623906E-3,-2.0144813E-2,9.078592E-2,6.581997E-1,2.016639E-2,4.8580247E-1,2.5233798E-2,6.1934525E-3,3.32404E-2,5.4689687E-2,1.9979707E-3,-1.8930698E-2,1.0543927E-2,2.6719E-2,1.0782103E-2,-1.0961038E-2,1.3583604E-2,-3.0087952E-2,-5.0471228E-2,-8.721328E-2,-1.4462396E-2,-4.5976304E-2,-3.8677614E-2,-1.3045241E-1,1.8633118E-2,-8.89709E-3,4.113216E-1,7.160704E-2,-1.7375108E-2,-6.174127E-2,2.9983707E-2,-1.2356123E-1,-9.676432E-2,-2.0773758E-1,7.8354234E-1,-5.052185E-2,-3.430007E-2,-1.05687045E-1,-1.3666134E-1,-2.1447808E-1,-1.03638746E-1,-2.4155968E-1,-1.3705531E-1,-3.928895E-1,-6.327793E-3,-4.9077824E-2,-8.144582E-2,-1.938944E-1,-8.256213E-2,-1.5310553E-1,-6.374588E-2,-2.0177038E-1,5.5410556E-2,-1.2453757E-1,-6.594461E-2,-3.1451157E-1,-1.1122737E-1,2.6509058E-1,-2.911034E-2,-2.0917365E-1,8.493538E-2,-7.571071E-2,-2.2528774E-1,9.664548E-2,-2.0805173E-1,-5.483971E-2,-2.771621E-1,-5.9261966E-1,1.0139516E-1,-1.000327E-1,-3.0379814E-1,-1.3702157E-1,-3.7008387E-1,-9.707421E-2,-3.6793795E-1,-2.6921177E-1,-2.5381052E-1,-5.27133E-1,2.921207E-1,9.414776E-1,-2.61091E-1,-9.379252E-3,-1.5118274E-1,-5.2092665E-1,-6.080372E-2,-3.0207956E-1,-5.137766E-1,5.536527E-1,-1.655982E-1,-1.2134309E0,-1.7302911E0,-7.456321E-1],"categories":[],"categories_nodes":[],"categories_segments":[],"categories_sizes":[],"default_left":[0,0,0,0,0,0,0,0,0,0,0,0,0,0,0,0,0,0,0,0,0,0,0,0,0,0,0,0,0,0,0,0,0,0,0,0,0,0,0,0,0,0,0,0,0,0,0,0,0,0,0,0,0,0,0,0,0,0,0,0,0,0,0,0,0,0,0,0,0,0,0,0,0,0,0,0,0,0,0,0,0,0,0,0,0,0,0,0,0,0,0,0,0,0,0,0,0,0,0,0,0,0,0,0,0,0,0,0,0,0,0,0,0,0,0,0,0,0,0,0,0,0,0,0,0,0,0,0,0,0,0,0,0,0,0,0,0,0,0,0,0,0,0,0,0,0,0,0,0,0,0,0,0,0,0,0,0,0,0,0,0,0,0,0,0,0,0,0,0,0,0,0,0,0,0,0,0,0,0,0,0,0,0,0,0,0,0,0,0,0,0,0,0,0,0,0,0,0,0,0,0,0,0,0,0,0,0,0,0,0,0,0,0,0,0,0,0,0,0,0,0],"id":3,"left_children":[1,3,5,7,9,11,13,15,17,19,21,23,25,27,29,31,33,35,37,39,41,43,45,47,49,51,53,55,57,59,61,63,65,67,69,71,73,75,77,79,81,83,85,87,89,91,93,95,97,99,101,103,-1,105,107,109,111,-1,113,115,117,-1,-1,119,121,123,125,127,129,131,133,135,137,139,141,143,145,147,149,151,153,155,-1,157,159,161,163,165,167,169,171,173,175,177,179,181,183,185,187,189,191,193,195,197,199,201,203,205,-1,-1,207,209,211,-1,213,215,217,219,-1,-1,-1,-1,-1,-1,-1,-1,-1,-1,-1,-1,-1,-1,-1,-1,-1,-1,-1,-1,-1,-1,-1,-1,-1,-1,-1,-1,-1,-1,-1,-1,-1,-1,-1,-1,-1,-1,-1,-1,-1,-1,-1,-1,-1,-1,-1,-1,-1,-1,-1,-1,-1,-1,-1,-1,-1,-1,-1,-1,-1,-1,-1,-1,-1,-1,-1,-1,-1,-1,-1,-1,-1,-1,-1,-1,-1,-1,-1,-1,-1,-1,-1,-1,-1,-1,-1,-1,-1,-1,-1,-1,-1,-1,-1,-1,-1,-1,-1,-1,-1,-1,-1],"loss_changes":[3.8256215E4,2.1072455E4,1.0746742E4,7.515217E3,9.832802E3,4.071917E3,8.233586E3,1.6254629E3,5.214255E3,4.6006094E3,3.1529922E3,9.4533887E2,4.694756E2,2.569567E3,3.3708516E3,7.934541E2,1.6484359E3,1.2278749E3,2.0210337E3,1.967675E3,1.3623345E3,1.0580635E3,2.4976836E3,7.1076697E2,3.5899854E2,2.149878E2,6.3235645E2,2.2026892E3,3.4826855E2,2.477082E3,2.4840947E3,4.388037E2,5.819026E2,8.2223047E2,8.718738E2,2.5048901E2,4.7615308E2,3.856523E2,7.1065625E2,1.2676232E3,1.1893729E3,3.9534644E2,1.0357065E3,3.3341284E2,5.0297266E2,1.2614233E3,1.5900879E3,4.4501025E2,9.954901E2,1.6460754E2,4.4602734E2,2.1280792E2,0E0,1.597793E2,4.571958E2,1.271597E3,8.429524E2,0E0,3.2624756E2,4.0561592E3,1.1961074E3,0E0,0E0,5.749341E1,2.19479E2,4.2559692E2,1.3395105E2,6.25022E2,5.2048956E2,3.219495E3,9.310113E2,1.888352E2,8.481677E1,3.5749347E2,9.16174E1,2.760486E2,2.4730975E2,3.1430908E2,2.168371E2,4.898059E2,4.7754977E2,9.150044E2,0E0,2.7921484E2,1.624184E2,5.10229E2,1.1255894E3,3.925946E1,7.032739E1,1.1406738E2,3.525537E1,3.9718408E2,6.5508984E2,5.567329E2,4.3813184E2,9.855847E1,7.161426E1,1.2374404E3,9.0833795E2,5.4173996E1,2.1953882E2,3.7599487E1,2.8551294E2,5.5885418E1,4.3723267E1,2.1086804E2,8.219629E1,1.4662012E2,0E0,0E0,3.1519653E2,2.568034E2,1.7634167E2,0E0,7.957205E1,5.9372607E3,3.219917E3,2.599668E3,0E0,0E0,0E0,0E0,0E0,0E0,0E0,0E0,0E0,0E0,0E0,0E0,0E0,0E0,0E0,0E0,0E0,0E0,0E0,0E0,0E0,0E0,0E0,0E0,0E0,0E0,0E0,0E0,0E0,0E0,0E0,0E0,0E0,0E0,0E0,0E0,0E0,0E0,0E0,0E0,0E0,0E0,0E0,0E0,0E0,0E0,0E0,0E0,0E0,0E0,0E0,0E0,0E0,0E0,0E0,0E0,0E0,0E0,0E0,0E0,0E0,0E0,0E0,0E0,0E0,0E0,0E0,0E0,0E0,0E0,0E0,0E0,0E0,0E0,0E0,0E0,0E0,0E0,0E0,0E0,0E0,0E0,0E0,0E0,0E0,0E0,0E0,0E0,0E0,0E0,0E0,0E0,0E0,0E0,0E0,0E0,0E0,0E0,0E0,0E0,0E0,0E0,0E0],"parents":[2147483647,0,0,1,1,2,2,3,3,4,4,5,5,6,6,7,7,8,8,9,9,10,10,11,11,12,12,13,13,14,14,15,15,16,16,17,17,18,18,19,19,20,20,21,21,22,22,23,23,24,24,25,25,26,26,27,27,28,28,29,29,30,30,31,31,32,32,33,33,34,34,35,35,36,36,37,37,38,38,39,39,40,40,41,41,42,42,43,43,44,44,45,45,46,46,47,47,48,48,49,49,50,50,51,51,53,53,54,54,55,55,56,56,58,58,59,59,60,60,63,63,64,64,65,65,66,66,67,67,68,68,69,69,70,70,71,71,72,72,73,73,74,74,75,75,76,76,77,77,78,78,79,79,80,80,81,81,83,83,84,84,85,85,86,86,87,87,88,88,89,89,90,90,91,91,92,92,93,93,94,94,95,95,96,96,97,97,98,98,99,99,100,100,101,101,102,102,103,103,104,104,105,105,106,106,107,107,110,110,111,111,112,112,114,114,115,115,116,116,117,117],"right_children":[2,4,6,8,10,12,14,16,18,20,22,24,26,28,30,32,34,36,38,40,42,44,46,48,50,52,54,56,58,60,62,64,66,68,70,72,74,76,78,80,82,84,86,88,90,92,94,96,98,100,102,104,-1,106,108,110,112,-1,114,116,118,-1,-1,120,122,124,126,128,130,132,134,136,138,140,142,144,146,148,150,152,154,156,-1,158,160,162,164,166,168,170,172,174,176,178,180,182,184,186,188,190,192,194,196,198,200,202,204,206,-1,-1,208,210,212,-1,214,216,218,220,-1,-1,-1,-1,-1,-1,-1,-1,-1,-1,-1,-1,-1,-1,-1,-1,-1,-1,-1,-1,-1,-1,-1,-1,-1,-1,-1,-1,-1,-1,-1,-1,-1,-1,-1,-1,-1,-1,-1,-1,-1,-1,-1,-1,-1,-1,-1,-1,-1,-1,-1,-1,-1,-1,-1,-1,-1,-1,-1,-1,-1,-1,-1,-1,-1,-1,-1,-1,-1,-1,-1,-1,-1,-1,-1,-1,-1,-1,-1,-1,-1,-1,-1,-1,-1,-1,-1,-1,-1,-1,-1,-1,-1,-1,-1,-1,-1,-1,-1,-1,-1,-1,-1],"split_conditions":[1.6181149E1,8.069652E0,9.08775E0,6E-1,4E-1,2E-1,2.1523746E1,4.53709E-1,5.125317E0,2.9E0,-4.3E0,1.9E0,-9.175E0,1E-1,8E0,4.8581624E0,5.8E1,-5.45001E-1,4.7575E-1,3.5E1,2.018042E0,1.10272875E1,3.9E0,-3E-1,-2.4492937E-16,1E1,2.1523746E1,-2.7E0,4.2916667E-2,1.4E0,8E-1,-2.495875E0,1E-1,3.5E0,7.4E1,8E-1,6E-1,6.708918E0,4E-1,-2.4E0,2.6666668E-1,1.3050531E1,9.8E1,6.30375E-1,2.889614E0,1.10375E0,1.1246193E1,2.1523746E1,-7.5E0,-1.0739084E1,4.7083333E-2,3.9E0,6.336018E-2,-1E-1,6.4E0,1.7E1,5E-1,-1.5391987E-2,8.660254E-1,3E1,1.1E0,-5.8193E-1,-1.9139273E0,3.9272346E0,-7.8E0,4.8E0,-4.946458E0,1E-1,5.445503E0,7.2E1,3.53E2,4.456218E0,5E0,4.3080025E0,1.8E0,-1.828624E0,-6.171834E0,1.43E1,5.6E0,1.871209E0,5.1925E-1,1.1150241E5,7.463659E-1,8.4E0,-8.660254E-1,1.4251345E1,1.1E2,-5.592916E0,1.7E0,-6.54225E0,8E-1,-4.129541E0,7.844909E0,3.942071E0,-7.5E0,-8E0,2.7083334E-2,1.08333334E-1,8.0416664E-2,2.3E0,3.2E1,-1.1E0,2.1523746E1,-2.4492937E-16,2.32E1,-2.9E0,1.2E0,1.178911E0,-7.487562E-1,-1.3001616E-1,1.7844395E1,7E-1,3E0,-5.177579E-1,-2.2E0,1.1416667E-1,3E-1,5.778298E4,-1.0348287E-1,6.4638816E-2,4.944467E-2,4.9908534E-2,3.2307055E-2,3.272735E-2,7.160922E-3,3.6814786E-2,4.1925986E-3,2.3107989E-2,1.91825E-3,9.623906E-3,-2.0144813E-2,9.078592E-2,6.581997E-1,2.016639E-2,4.8580247E-1,2.5233798E-2,6.1934525E-3,3.32404E-2,5.4689687E-2,1.9979707E-3,-1.8930698E-2,1.0543927E-2,2.6719E-2,1.0782103E-2,-1.0961038E-2,1.3583604E-2,-3.0087952E-2,-5.0471228E-2,-8.721328E-2,-1.4462396E-2,-4.5976304E-2,-3.8677614E-2,-1.3045241E-1,1.8633118E-2,-8.89709E-3,4.113216E-1,7.160704E-2,-1.7375108E-2,-6.174127E-2,2.9983707E-2,-1.2356123E-1,-9.676432E-2,-2.0773758E-1,7.8354234E-1,-5.052185E-2,-3.430007E-2,-1.05687045E-1,-1.3666134E-1,-2.1447808E-1,-1.03638746E-1,-2.4155968E-1,-1.3705531E-1,-3.928895E-1,-6.327793E-3,-4.9077824E-2,-8.144582E-2,-1.938944E-1,-8.256213E-2,-1.5310553E-1,-6.374588E-2,-2.0177038E-1,5.5410556E-2,-1.2453757E-1,-6.594461E-2,-3.1451157E-1,-1.1122737E-1,2.6509058E-1,-2.911034E-2,-2.0917365E-1,8.493538E-2,-7.571071E-2,-2.2528774E-1,9.664548E-2,-2.0805173E-1,-5.483971E-2,-2.771621E-1,-5.9261966E-1,1.0139516E-1,-1.000327E-1,-3.0379814E-1,-1.3702157E-1,-3.7008387E-1,-9.707421E-2,-3.6793795E-1,-2.6921177E-1,-2.5381052E-1,-5.27133E-1,2.921207E-1,9.414776E-1,-2.61091E-1,-9.379252E-3,-1.5118274E-1,-5.2092665E-1,-6.080372E-2,-3.0207956E-1,-5.137766E-1,5.536527E-1,-1.655982E-1,-1.2134309E0,-1.7302911E0,-7.456321E-1],"split_indices":[1,1,9,8,8,8,1,9,1,11,10,10,9,8,8,1,12,9,9,12,9,1,11,10,2,12,1,11,15,10,11,9,8,11,12,10,10,1,10,10,15,1,12,9,9,9,1,1,9,9,15,11,0,11,8,12,2,0,2,12,8,0,0,1,11,11,9,8,1,12,12,1,12,1,10,9,9,8,8,9,9,14,0,11,2,1,12,9,8,9,8,9,9,9,9,11,15,15,15,10,12,11,1,2,8,10,10,9,0,0,1,10,12,0,11,15,10,14,0,0,0,0,0,0,0,0,0,0,0,0,0,0,0,0,0,0,0,0,0,0,0,0,0,0,0,0,0,0,0,0,0,0,0,0,0,0,0,0,0,0,0,0,0,0,0,0,0,0,0,0,0,0,0,0,0,0,0,0,0,0,0,0,0,0,0,0,0,0,0,0,0,0,0,0,0,0,0,0,0,0,0,0,0,0,0,0,0,0,0,0,0,0,0,0,0,0,0,0,0,0,0],"split_type":[0,0,0,0,0,0,0,0,0,0,0,0,0,0,0,0,0,0,0,0,0,0,0,0,0,0,0,0,0,0,0,0,0,0,0,0,0,0,0,0,0,0,0,0,0,0,0,0,0,0,0,0,0,0,0,0,0,0,0,0,0,0,0,0,0,0,0,0,0,0,0,0,0,0,0,0,0,0,0,0,0,0,0,0,0,0,0,0,0,0,0,0,0,0,0,0,0,0,0,0,0,0,0,0,0,0,0,0,0,0,0,0,0,0,0,0,0,0,0,0,0,0,0,0,0,0,0,0,0,0,0,0,0,0,0,0,0,0,0,0,0,0,0,0,0,0,0,0,0,0,0,0,0,0,0,0,0,0,0,0,0,0,0,0,0,0,0,0,0,0,0,0,0,0,0,0,0,0,0,0,0,0,0,0,0,0,0,0,0,0,0,0,0,0,0,0,0,0,0,0,0,0,0,0,0,0,0,0,0,0,0,0,0,0,0,0,0,0,0,0,0],"sum_hessian":[5.1053E4,5.0444E4,6.09E2,4.2479E4,7.965E3,4.57E2,1.52E2,2.5258E4,1.7221E4,4.784E3,3.181E3,3.15E2,1.42E2,8E1,7.2E1,1.4726E4,1.0532E4,9.876E3,7.345E3,3.311E3,1.473E3,2.61E2,2.92E3,2.5E2,6.5E1,2.4E1,1.18E2,4E1,4E1,6.4E1,8E0,7.833E3,6.893E3,1.039E4,1.42E2,3.967E3,5.909E3,3.962E3,3.383E3,3.046E3,2.65E2,8.4E2,6.33E2,1.63E2,9.8E1,1.866E3,1.054E3,7.3E1,1.77E2,3.7E1,2.8E1,2.1E1,3E0,9.6E1,2.2E1,8E0,3.2E1,2E0,3.8E1,4.1E1,2.3E1,4E0,4E0,1.14E3,6.693E3,5.027E3,1.866E3,7.814E3,2.576E3,6.4E1,7.8E1,2.819E3,1.148E3,3.987E3,1.922E3,2.682E3,1.28E3,2.219E3,1.164E3,3.03E2,2.743E3,2.63E2,2E0,7.62E2,7.8E1,6.27E2,6E0,7.7E1,8.6E1,6E1,3.8E1,1.089E3,7.77E2,7.66E2,2.88E2,5.2E1,2.1E1,3.7E1,1.4E2,1.2E1,2.5E1,9E0,1.9E1,4E0,1.7E1,1.5E1,8.1E1,1.5E1,7E0,3E0,5E0,2.2E1,1E1,3.1E1,7E0,2.6E1,1.5E1,2.1E1,2E0,5.51E2,5.89E2,8.94E2,5.799E3,4.172E3,8.55E2,1.48E2,1.718E3,5.756E3,2.058E3,1.4E3,1.176E3,5.1E1,1.3E1,7.4E1,4E0,2.031E3,7.88E2,8.84E2,2.64E2,2.651E3,1.336E3,1.397E3,5.25E2,1.034E3,1.648E3,1.61E2,1.119E3,1.925E3,2.94E2,8.31E2,3.33E2,2.13E2,9E1,1.359E3,1.384E3,8E0,2.55E2,5.47E2,2.15E2,8E0,7E1,5.78E2,4.9E1,2E0,4E0,1.1E1,6.6E1,2.6E1,6E1,1E1,5E1,2E0,3.6E1,3.48E2,7.41E2,7.16E2,6.1E1,6.12E2,1.54E2,2.9E1,2.59E2,3E0,4.9E1,2E0,1.9E1,1.6E1,2.1E1,9.6E1,4.4E1,2E0,1E1,2.3E1,2E0,2E0,7E0,1.3E1,6E0,2E0,2E0,1.2E1,5E0,4E0,1.1E1,4.7E1,3.4E1,1E1,5E0,3E0,2E0,5E0,1.7E1,3E0,7E0,3E0,4E0,1.9E1,7E0,5E0,1E1,4E0,1.7E1],"tree_param":{"num_deleted":"0","num_feature":"19","num_nodes":"221","size_leaf_vector":"1"}},{"base_weights":[3.4653074E-3,3.142326E-1,-3.1269867E0,7.898616E-1,-3.2825089E-1,-2.6753564E0,-1.3428524E1,1.1120104E0,4.4683295E-1,1.7846027E-1,-1.1232489E0,-6.505155E-1,-4.2615595E0,-1.0878496E1,-2.2679153E1,1.4826609E0,8.2282937E-1,8.0384004E-1,4.7902916E-2,1.0245225E0,-2.5532356E-1,-7.888034E-1,-1.9935949E0,-1.079443E0,3.323874E0,-3.3617818E0,-6.354524E0,-7.889892E0,-1.6936995E1,-2.4579184E1,3.435034E-2,1.4006029E0,3.6504576E0,1.1400878E0,5.9729373E-1,8.851211E-1,1.4430815E-1,2.6502138E-1,-2.6154852E-1,9.432776E-1,5.0983377E0,-1.0498103E0,-4.727795E-3,-5.2431816E-1,-1.2265483E0,-2.95803E0,-1.7002358E0,-1.7817079E-1,-2.8026073E0,2.3251746E0,1.2189792E1,-4.946141E0,-2.7969341E0,-4.4571853E0,-7.8326817E0,-5.369789E0,-2.3887005E1,-8.556886E0,-2.0283989E1,-3.1331484E1,-6.208379E-1,1.655286E0,1.0775725E0,3.260121E0,1.7029106E1,1.6528196E0,9.2400753E-1,5.517978E-1,3.2599266E0,1.1440543E0,6.754983E-1,-1.9823972E-2,6.403214E-1,1.22536555E-1,5.9958106E-1,-4.137426E-1,9.73543E-2,1.2961239E0,1.3315369E-1,7.5002313E0,2.746619E0,-7.737332E-1,-2.263925E0,-6.565158E-2,2.545524E0,1.4327954E-1,-6.7009836E-1,-1.2663413E0,4.0331554E0,-2.5853903E0,-4.0976973E0,-1.0874028E0,-2.012412E0,4.5913205E-1,-1.4024366E0,-2.288735E0,-8.101759E0,7.5071597E0,7.996328E-1,6.0425205E0,1.1131372E0,-4.713663E0,-2.4840559E-1,-3.9343286E0,-2.1536648E0,-4.73208E0,8.863994E0,-6.6867237E0,-1.055823E1,-2.8683565E0,-1.1609259E1,-3.1267406E1,-1.2039833E1,-1.1026834E1,1.9212045E-1,-9.858765E0,-2.5996222E1,-4.5183174E1,-1.8502151E1,1.1422116E-1,5.266211E-2,5.277197E-2,2.7289525E-2,8.123274E-2,1.547102E-1,1.0227E0,7.591577E-2,7.540195E-2,5.0149363E-2,1.05745584E-1,2.9944535E-2,1.0164361E-2,2.8773503E-2,2.0129654E-1,4.546808E-2,4.6135925E-2,2.4367077E-2,1.9022034E-2,4.1554037E-2,1.0429916E-2,-6.7395777E-3,1.009122E-2,4.490942E-2,1.7132299E-2,1.058967E-3,-7.787445E-3,2.475858E-2,-9.4696125E-3,-2.9558389E-2,-9.918253E-3,1.0036425E-2,4.7161706E-2,1.4658387E-2,8.804082E-3,-2.6707996E-2,3.5090905E-1,1.5165609E-1,2.5019598E-1,7.194948E-2,-1.0812683E-2,-4.0108852E-2,-6.3892506E-2,-1.1230471E-1,-2.4671646E-2,3.2430727E-3,7.1713394E-1,3.0604934E-2,1.6976254E-2,-1.2148256E-2,-2.8078038E-2,-2.5134261E-3,9.351551E-2,-4.3211907E-2,-6.339795E-3,3.1327203E-1,-5.718814E-2,-9.7554E-2,-1.15431085E-1,-1.5926786E-1,-3.851477E-2,1.11854404E-1,-9.081501E-2,-4.8856113E-2,2.092525E-2,-7.941241E-2,-1.27234105E-2,-7.306817E-2,4.2788804E-2,-8.0753356E-2,-3.138655E-1,-1.2861478E-1,-2.3353793E-2,3.0776703E-1,2.285643E-1,8.24007E-3,5.1281434E-1,-3.9924957E-2,-1.4327376E-1,-1.9303013E-1,-9.051378E-2,-1.7718464E-1,-9.238336E-2,-3.2612137E-2,-1.2488994E-1,-2.1811329E-1,9.5828927E-1,-1.6545703E-1,-2.9667145E-1,-2.0255001E-1,-3.0998635E-1,-5.003826E-1,-2.4497427E-1,4.4278002E-1,-1.5033992E-1,-5.1918775E-1,-4.7067347E-1,-1.2743803E0,-4.8178178E-1,-1.24097496E-1,-4.2901763E-1,1.7938063E-2,-1.7952149E-1,-3.657142E-1,-1.3106388E0,-6.061741E-1,-2.5043209E0,-5.8487004E-1,-1.7882286E-1,-7.7005976E-1],"categories":[],"categories_nodes":[],"categories_segments":[],"categories_sizes":[],"default_left":[0,0,0,0,0,0,0,0,0,0,0,0,0,0,0,0,0,0,0,0,0,0,0,0,0,0,0,0,0,0,0,0,0,0,0,0,0,0,0,0,0,0,0,0,0,0,0,0,0,0,0,0,0,0,0,0,0,0,0,0,0,0,0,0,0,0,0,0,0,0,0,0,0,0,0,0,0,0,0,0,0,0,0,0,0,0,0,0,0,0,0,0,0,0,0,0,0,0,0,0,0,0,0,0,0,0,0,0,0,0,0,0,0,0,0,0,0,0,0,0,0,0,0,0,0,0,0,0,0,0,0,0,0,0,0,0,0,0,0,0,0,0,0,0,0,0,0,0,0,0,0,0,0,0,0,0,0,0,0,0,0,0,0,0,0,0,0,0,0,0,0,0,0,0,0,0,0,0,0,0,0,0,0,0,0,0,0,0,0,0,0,0,0,0,0,0,0,0,0,0,0,0,0,0,0,0,0,0,0,0,0,0,0,0,0,0,0,0,0,0,0,0,0,0,0,0,0,0,0],"id":4,"left_children":[1,3,5,7,9,11,13,15,17,19,21,23,25,27,29,31,33,35,37,39,41,43,45,47,49,51,53,55,57,59,-1,61,63,65,67,69,71,73,75,77,79,81,83,85,87,89,91,93,95,97,99,101,103,105,107,109,111,113,115,117,-1,119,121,123,125,127,129,131,133,135,137,139,141,143,145,147,149,151,153,155,157,159,161,163,165,167,169,171,173,175,177,179,181,183,185,187,189,191,193,195,-1,197,-1,199,201,203,205,207,209,211,213,215,217,219,-1,221,223,225,227,-1,-1,-1,-1,-1,-1,-1,-1,-1,-1,-1,-1,-1,-1,-1,-1,-1,-1,-1,-1,-1,-1,-1,-1,-1,-1,-1,-1,-1,-1,-1,-1,-1,-1,-1,-1,-1,-1,-1,-1,-1,-1,-1,-1,-1,-1,-1,-1,-1,-1,-1,-1,-1,-1,-1,-1,-1,-1,-1,-1,-1,-1,-1,-1,-1,-1,-1,-1,-1,-1,-1,-1,-1,-1,-1,-1,-1,-1,-1,-1,-1,-1,-1,-1,-1,-1,-1,-1,-1,-1,-1,-1,-1,-1,-1,-1,-1,-1,-1,-1,-1,-1,-1,-1,-1,-1,-1,-1,-1,-1],"loss_changes":[4.982314E4,1.4237104E4,2.1481824E4,2.9578652E3,7.9839746E3,1.4231965E4,4.329621E3,1.4784688E3,1.8467332E3,4.442895E3,2.2441357E3,3.3243926E3,4.6583945E3,2.6547617E3,1.8734062E3,1.0709141E3,5.5435596E2,3.66708E2,4.115935E2,1.353189E3,1.5933523E3,6.448142E2,6.0071387E2,2.7312988E3,1.6539902E3,1.5433301E3,2.057295E3,4.1047417E3,1.2288408E3,8.900137E2,0E0,4.7785352E2,1.0933613E3,3.5544238E2,5.476876E2,3.2989062E2,6.1234303E1,1.7153737E2,1.3801772E2,1.1500847E3,4.312859E2,6.4147656E2,9.455997E2,3.384864E2,4.4442725E2,2.0089893E2,3.1232812E2,9.0258765E2,1.6262021E3,1.3537146E3,2.3122007E3,2.3816113E2,9.3169824E2,1.2467188E3,1.2349668E3,1.4026008E3,8.476616E2,6.3243115E2,1.8280049E3,2.0073408E3,0E0,3.4435352E2,3.35011E2,2.3363354E2,1.162535E3,7.681372E1,8.297095E1,3.4787964E2,3.9782477E2,2.796455E2,1.9410461E2,3.5121765E1,4.4660217E1,9.0599335E1,1.3552164E2,1.0814487E2,6.204765E1,3.170083E2,1.541278E2,3.0607764E2,9.847647E1,3.079472E2,1.2597949E2,6.6457477E2,4.388177E3,1.1863114E2,3.0632446E2,3.7207642E2,3.7093906E2,1.1435083E2,3.5995728E1,2.0272852E2,4.2393262E2,3.830748E2,3.2602515E2,3.1654053E2,2.7696948E2,5.8940625E2,4.4974353E2,1.1208484E3,0E0,1.5249023E2,0E0,7.768496E2,6.1667554E2,5.495762E2,2.1055032E3,3.2027637E2,5.1188867E2,5.0699434E3,6.845747E2,4.4909668E2,9.34411E1,3.267782E2,0E0,1.5399414E1,1.5726992E3,4.5571475E3,5.0586353E2,0E0,0E0,0E0,0E0,0E0,0E0,0E0,0E0,0E0,0E0,0E0,0E0,0E0,0E0,0E0,0E0,0E0,0E0,0E0,0E0,0E0,0E0,0E0,0E0,0E0,0E0,0E0,0E0,0E0,0E0,0E0,0E0,0E0,0E0,0E0,0E0,0E0,0E0,0E0,0E0,0E0,0E0,0E0,0E0,0E0,0E0,0E0,0E0,0E0,0E0,0E0,0E0,0E0,0E0,0E0,0E0,0E0,0E0,0E0,0E0,0E0,0E0,0E0,0E0,0E0,0E0,0E0,0E0,0E0,0E0,0E0,0E0,0E0,0E0,0E0,0E0,0E0,0E0,0E0,0E0,0E0,0E0,0E0,0E0,0E0,0E0,0E0,0E0,0E0,0E0,0E0,0E0,0E0,0E0,0E0,0E0,0E0,0E0,0E0,0E0,0E0,0E0,0E0,0E0,0E0,0E0,0E0,0E0,0E0,0E0],"parents":[2147483647,0,0,1,1,2,2,3,3,4,4,5,5,6,6,7,7,8,8,9,9,10,10,11,11,12,12,13,13,14,14,15,15,16,16,17,17,18,18,19,19,20,20,21,21,22,22,23,23,24,24,25,25,26,26,27,27,28,28,29,29,31,31,32,32,33,33,34,34,35,35,36,36,37,37,38,38,39,39,40,40,41,41,42,42,43,43,44,44,45,45,46,46,47,47,48,48,49,49,50,50,51,51,52,52,53,53,54,54,55,55,56,56,57,57,58,58,59,59,61,61,62,62,63,63,64,64,65,65,66,66,67,67,68,68,69,69,70,70,71,71,72,72,73,73,74,74,75,75,76,76,77,77,78,78,79,79,80,80,81,81,82,82,83,83,84,84,85,85,86,86,87,87,88,88,89,89,90,90,91,91,92,92,93,93,94,94,95,95,96,96,97,97,98,98,99,99,101,101,103,103,104,104,105,105,106,106,107,107,108,108,109,109,110,110,111,111,112,112,113,113,115,115,116,116,117,117,118,118],"right_children":[2,4,6,8,10,12,14,16,18,20,22,24,26,28,30,32,34,36,38,40,42,44,46,48,50,52,54,56,58,60,-1,62,64,66,68,70,72,74,76,78,80,82,84,86,88,90,92,94,96,98,100,102,104,106,108,110,112,114,116,118,-1,120,122,124,126,128,130,132,134,136,138,140,142,144,146,148,150,152,154,156,158,160,162,164,166,168,170,172,174,176,178,180,182,184,186,188,190,192,194,196,-1,198,-1,200,202,204,206,208,210,212,214,216,218,220,-1,222,224,226,228,-1,-1,-1,-1,-1,-1,-1,-1,-1,-1,-1,-1,-1,-1,-1,-1,-1,-1,-1,-1,-1,-1,-1,-1,-1,-1,-1,-1,-1,-1,-1,-1,-1,-1,-1,-1,-1,-1,-1,-1,-1,-1,-1,-1,-1,-1,-1,-1,-1,-1,-1,-1,-1,-1,-1,-1,-1,-1,-1,-1,-1,-1,-1,-1,-1,-1,-1,-1,-1,-1,-1,-1,-1,-1,-1,-1,-1,-1,-1,-1,-1,-1,-1,-1,-1,-1,-1,-1,-1,-1,-1,-1,-1,-1,-1,-1,-1,-1,-1,-1,-1,-1,-1,-1,-1,-1,-1,-1,-1,-1],"split_conditions":[1.05665E1,5.283417E0,2.4773912E1,3E-1,6E-1,1.53E1,2.18E1,1.68E1,3.66025E0,1.46E1,7.976083E0,3.9E1,1.4262217E1,2.9E1,3.2E1,3E1,3.327208E0,1.69E1,3.4E0,6.4E1,-1E0,4.9E0,-1.7E0,2E-1,1.90809E-1,-1.6E0,1E-1,1.31E1,4E-1,1E0,3.435034E-2,-1.8369701E-16,5.23475E0,-1.981417E0,4.2E1,-1.1515E0,6E-1,8E-1,5E-1,-1.8369701E-16,8.660254E-1,8.755348E0,3.8E1,1.36E1,9.0107703E-1,1.24E1,1.58E1,1.26E1,1.8461082E1,-2.4492937E-16,5.7E1,2.22E1,-5E-1,8.8E1,1.8461082E1,1.4E0,2.03E1,1.90809E-1,9.08775E0,1.8E0,-6.208379E-1,-6.54225E0,3.023583E0,3.09042E-1,3.3E1,1.3666667E0,-4.5E0,6E-1,-8.660254E-1,2.8083334E0,1.5E0,2.238958E0,5E-1,1.31E1,-5E-1,1.8E1,-1.8369701E-16,1.1E0,3.186416E0,2.294E0,-5.592916E0,2.02E1,2.56E1,-5E-1,3.9E1,-1.8369701E-16,9E-1,7.4E0,6.326375E0,8.676913E0,9.271208E0,9.0107703E-1,-1.8369701E-16,2.2E0,1.2490542E1,7.4E0,9.08775E0,4E-1,-6.54225E0,8.8E0,1.1131372E0,1.2756958E1,-2.4840559E-1,2E-1,1.3E0,2.22E1,1.2246469E-16,-4.3E0,1.28E1,1.2E0,3E0,1.2E1,1.2246469E-16,1.32E2,1.9212045E-1,1.15E1,1.18E1,2.81E1,2.5E0,1.1422116E-1,5.266211E-2,5.277197E-2,2.7289525E-2,8.123274E-2,1.547102E-1,1.0227E0,7.591577E-2,7.540195E-2,5.0149363E-2,1.05745584E-1,2.9944535E-2,1.0164361E-2,2.8773503E-2,2.0129654E-1,4.546808E-2,4.6135925E-2,2.4367077E-2,1.9022034E-2,4.1554037E-2,1.0429916E-2,-6.7395777E-3,1.009122E-2,4.490942E-2,1.7132299E-2,1.058967E-3,-7.787445E-3,2.475858E-2,-9.4696125E-3,-2.9558389E-2,-9.918253E-3,1.0036425E-2,4.7161706E-2,1.4658387E-2,8.804082E-3,-2.6707996E-2,3.5090905E-1,1.5165609E-1,2.5019598E-1,7.194948E-2,-1.0812683E-2,-4.0108852E-2,-6.3892506E-2,-1.1230471E-1,-2.4671646E-2,3.2430727E-3,7.1713394E-1,3.0604934E-2,1.6976254E-2,-1.2148256E-2,-2.8078038E-2,-2.5134261E-3,9.351551E-2,-4.3211907E-2,-6.339795E-3,3.1327203E-1,-5.718814E-2,-9.7554E-2,-1.15431085E-1,-1.5926786E-1,-3.851477E-2,1.11854404E-1,-9.081501E-2,-4.8856113E-2,2.092525E-2,-7.941241E-2,-1.27234105E-2,-7.306817E-2,4.2788804E-2,-8.0753356E-2,-3.138655E-1,-1.2861478E-1,-2.3353793E-2,3.0776703E-1,2.285643E-1,8.24007E-3,5.1281434E-1,-3.9924957E-2,-1.4327376E-1,-1.9303013E-1,-9.051378E-2,-1.7718464E-1,-9.238336E-2,-3.2612137E-2,-1.2488994E-1,-2.1811329E-1,9.5828927E-1,-1.6545703E-1,-2.9667145E-1,-2.0255001E-1,-3.0998635E-1,-5.003826E-1,-2.4497427E-1,4.4278002E-1,-1.5033992E-1,-5.1918775E-1,-4.7067347E-1,-1.2743803E0,-4.8178178E-1,-1.24097496E-1,-4.2901763E-1,1.7938063E-2,-1.7952149E-1,-3.657142E-1,-1.3106388E0,-6.061741E-1,-2.5043209E0,-5.8487004E-1,-1.7882286E-1,-7.7005976E-1],"split_indices":[0,0,0,8,8,7,7,7,0,7,0,12,0,12,12,12,0,8,8,12,10,8,10,8,18,10,8,8,10,12,0,3,0,9,12,9,10,10,10,3,2,0,12,7,18,8,7,7,0,2,12,8,3,12,0,10,8,18,9,10,0,9,0,9,12,0,10,10,2,0,10,0,3,7,3,8,3,10,9,9,9,7,7,3,12,3,10,7,0,0,0,18,3,10,0,7,9,10,9,7,0,0,0,8,10,7,2,10,8,10,12,7,2,12,0,7,7,7,10,0,0,0,0,0,0,0,0,0,0,0,0,0,0,0,0,0,0,0,0,0,0,0,0,0,0,0,0,0,0,0,0,0,0,0,0,0,0,0,0,0,0,0,0,0,0,0,0,0,0,0,0,0,0,0,0,0,0,0,0,0,0,0,0,0,0,0,0,0,0,0,0,0,0,0,0,0,0,0,0,0,0,0,0,0,0,0,0,0,0,0,0,0,0,0,0,0,0,0,0,0,0,0,0,0,0,0,0,0,0],"split_type":[0,0,0,0,0,0,0,0,0,0,0,0,0,0,0,0,0,0,0,0,0,0,0,0,0,0,0,0,0,0,0,0,0,0,0,0,0,0,0,0,0,0,0,0,0,0,0,0,0,0,0,0,0,0,0,0,0,0,0,0,0,0,0,0,0,0,0,0,0,0,0,0,0,0,0,0,0,0,0,0,0,0,0,0,0,0,0,0,0,0,0,0,0,0,0,0,0,0,0,0,0,0,0,0,0,0,0,0,0,0,0,0,0,0,0,0,0,0,0,0,0,0,0,0,0,0,0,0,0,0,0,0,0,0,0,0,0,0,0,0,0,0,0,0,0,0,0,0,0,0,0,0,0,0,0,0,0,0,0,0,0,0,0,0,0,0,0,0,0,0,0,0,0,0,0,0,0,0,0,0,0,0,0,0,0,0,0,0,0,0,0,0,0,0,0,0,0,0,0,0,0,0,0,0,0,0,0,0,0,0,0,0,0,0,0,0,0,0,0,0,0,0,0,0,0,0,0,0,0],"sum_hessian":[5.1212E4,4.6588E4,4.624E3,2.677E4,1.9818E4,4.431E3,1.93E2,1.3804E4,1.2966E4,1.2104E4,7.714E3,1.947E3,2.484E3,1.53E2,4E1,6.048E3,7.756E3,6.842E3,6.124E3,4.102E3,8.002E3,5.574E3,2.14E3,1.758E3,1.89E2,1.739E3,7.45E2,1.04E2,4.9E1,3.7E1,3E0,5.829E3,2.19E2,3.221E3,4.535E3,6.091E3,7.51E2,3.599E3,2.525E3,4.023E3,7.9E1,1.918E3,6.084E3,3.476E3,2.098E3,4.97E2,1.643E3,1.155E3,6.03E2,1.71E2,1.8E1,4.55E2,1.284E3,3.28E2,4.17E2,9.1E1,1.3E1,1.5E1,3.4E1,1.5E1,2.2E1,3.257E3,2.572E3,2.14E2,5E0,9.53E2,2.268E3,4.46E3,7.5E1,2.723E3,3.368E3,5.65E2,1.86E2,2.525E3,1.074E3,1.773E3,7.52E2,2.802E3,1.221E3,3.8E1,4.1E1,1.564E3,3.54E2,5.943E3,1.41E2,6.23E2,2.853E3,2.083E3,1.5E1,3.77E2,1.2E2,5.56E2,1.087E3,7.6E2,3.95E2,5.51E2,5.2E1,3.8E1,1.33E2,1.5E1,3E0,4.2E2,3.5E1,4.62E2,8.22E2,3.22E2,6E0,2.96E2,1.21E2,6.6E1,2.5E1,7E0,6E0,1.3E1,2E0,1.3E1,2.1E1,6E0,9E0,1.02E2,3.155E3,8.33E2,1.739E3,1.39E2,7.5E1,2E0,3E0,1.63E2,7.9E2,1.5E1,2.253E3,2.533E3,1.927E3,2.9E1,4.6E1,1.673E3,1.05E3,2.881E3,4.87E2,2E2,3.65E2,1.28E2,5.8E1,4.68E2,2.057E3,1.64E2,9.1E2,1.405E3,3.68E2,2.57E2,4.95E2,2.423E3,3.79E2,1.07E3,1.51E2,1.7E1,2.1E1,3E0,3.8E1,7.79E2,7.85E2,2.77E2,7.7E1,1.151E3,4.792E3,1E1,1.31E2,3.61E2,2.62E2,2.187E3,6.66E2,2.1E1,2.062E3,9E0,6E0,1.16E2,2.61E2,6.9E1,5.1E1,5.47E2,9E0,4.53E2,6.34E2,7.17E2,4.3E1,1.76E2,2.19E2,2.3E1,5.28E2,3.8E1,1.4E1,7E0,3.1E1,1E1,1.23E2,6E0,9E0,3.2E2,1E2,2.54E2,2.08E2,5.28E2,2.94E2,2.16E2,1.06E2,2E0,4E0,5.4E1,2.42E2,9.9E1,2.2E1,5.2E1,1.4E1,1E1,1.5E1,3E0,4E0,4E0,2E0,1.1E1,2E0,4E0,9E0,6E0,1.5E1,2E0,4E0,3E0,6E0],"tree_param":{"num_deleted":"0","num_feature":"19","num_nodes":"229","size_leaf_vector":"1"}},{"base_weights":[5.654223E-3,4.2062113E-1,-5.7867044E-1,8.5364705E-1,-3.1400733E-2,-3.2165715E-1,-1.1353382E0,7.873934E-1,2.4315934E0,1.5530625E-1,-4.1710946E-1,-1.6432272E-1,-6.9634837E-1,-6.9678503E-1,-1.4851023E0,1.0995808E0,5.4223806E-1,2.1173382E0,1.6494484E0,2.5612682E-1,-1.3250406E-1,-5.995538E-1,4.9977353E-1,1.5143035E-2,-4.2938414E-1,-6.5030104E-1,-4.241887E0,-9.1630626E-1,-1.3003759E-1,-1.3680084E0,-3.3507907E0,1.2244307E0,5.034434E-1,6.4352536E-1,-2.9544802E-2,1.1299316E1,1.7725395E0,1.4254251E-2,4.5426512E-1,-2.4538826E-2,-5.485736E-1,-4.416141E-1,-1.4055068E0,7.2132885E-1,-5.820754E0,1.7453082E-1,-2.4075314E-1,2.6673524E0,-4.6330935E-1,-3.9974096E-1,-9.433981E-1,-1.1799468E0,-1.1016815E1,-1.0085915E0,1.4534093E0,2.0017866E-2,-1.9056171E0,-1.4945631E0,-5.0406605E-1,-1.642095E0,-5.461187E0,1.2495338E0,-2.8497047E0,1.8208435E-1,1.7394007E0,7.3936254E-1,3.428248E-1,7.355147E-2,-1.8927536E0,1.8666046E1,5.7564673E0,1.625097E0,7.603303E-1,3.083716E-1,-2.5788134E-1,2.3024218E0,4.1807693E-1,3.7289318E-2,-9.09473E-1,4.95287E0,-6.3199586E-1,-4.180329E-1,-3.1162632E0,-5.041714E-1,-2.0517185E0,5.7268137E-1,2.637928E0,-1.5500145E-1,-1.7135036E1,9.0114725E-1,3.0584045E-2,6.885265E-3,-5.493006E-1,1.555488E0,4.5127797E-1,-5.8892673E-1,1.3336223E-1,-3.9029917E-1,-1.5319417E-1,-8.811697E-1,-4.337229E0,5.1284045E-2,-1.7290599E0,-1.4044812E1,-9.406596E-1,-2.9564004E0,-9.4797796E-1,4.6998854E0,7.636436E-1,1.4484811E-1,-2.456885E0,5.031829E-1,-2.5767226E0,-1.3446449E0,-2.5327392E0,-6.5546334E-1,2.6271856E0,-3.2732397E-1,-2.8890622E0,-7.036907E0,-4.046953E0,4.5969497E-2,2.2017082E-2,2.0375406E-2,-7.38843E-1,-3.8038325E-2,1.08283805E-2,4.232074E-2,3.2907408E-1,7.875727E-2,2.3540054E-2,8.37886E-3,4.1849267E-2,4.9128896E-3,-8.374165E-2,-1.873044E-2,-1.06972545E-1,1.21915884E-1,8.42692E-1,-1.0988032E-2,2.4576727E-1,6.5774806E-2,-4.8961926E-1,1.4833018E-2,-1.0741836E-2,-7.1436837E-3,-1.3670668E-1,1.1126751E-2,9.1490746E-2,2.0592008E-2,6.411924E-3,-1.6871416E-3,2.301049E-2,-1.6279096E-2,-8.332644E-2,-2.6921391E-2,3.6054114E-1,-8.281259E-2,-1.6767146E-2,-9.308737E-3,-2.641547E-2,-1.619732E-1,-5.5622025E-3,4.9614934E-3,-3.765094E-2,-8.276986E-2,2.8898766E-2,3.4584843E-2,7.3823165E-3,5.6979705E-2,3.7637484E-1,-4.2540558E-2,1.0818449E-1,-6.38872E-1,-2.0566726E-1,2.587837E-2,1.17362335E-1,1.3644174E-3,-1.5844232E-1,-6.8074197E-4,1.1769396E-1,-1.439259E-2,-7.8129984E-2,1.3856629E-1,2.67297E-2,-1.6620537E-2,-3.846719E-2,1.4908029E-2,-4.0695325E-2,-1.0523645E-2,-2.8647823E-2,-2.5649037E-2,-5.0736174E-2,8.2214335E-3,-1.6862759E-1,-5.371453E-2,2.3685897E-2,-9.2313E-2,-2.2701561E-2,-2.3880589E-1,-5.3679943E-1,-7.4503883E-3,-4.428589E-2,-7.628758E-2,-4.9051338E-1,-2.9804145E-3,-3.490487E-2,4.1735295E-2,2.992882E-1,1.3942519E-1,1.5882662E-2,4.9344817E-1,2.770719E-3,-1.3052699E-1,-1.5222942E-2,5.492978E-2,-1.5048105E-2,-1.1989191E-1,-2.9522605E-2,-1.1853118E-1,-4.213664E-2,-6.602617E-2,-1.8171415E-1,-1.8406913E-2,-9.4566286E-2,9.982859E-2,-2.5367875E-2,-1.0050567E-1,-4.428974E-3,-1.2029354E-1,-7.465101E-3,-2.711256E-1,-1.1558931E-1,-8.687621E-2,-2.3002204E-1],"categories":[],"categories_nodes":[],"categories_segments":[],"categories_sizes":[],"default_left":[0,0,0,0,0,0,0,0,0,0,0,0,0,0,0,0,0,0,0,0,0,0,0,0,0,0,0,0,0,0,0,0,0,0,0,0,0,0,0,0,0,0,0,0,0,0,0,0,0,0,0,0,0,0,0,0,0,0,0,0,0,0,0,0,0,0,0,0,0,0,0,0,0,0,0,0,0,0,0,0,0,0,0,0,0,0,0,0,0,0,0,0,0,0,0,0,0,0,0,0,0,0,0,0,0,0,0,0,0,0,0,0,0,0,0,0,0,0,0,0,0,0,0,0,0,0,0,0,0,0,0,0,0,0,0,0,0,0,0,0,0,0,0,0,0,0,0,0,0,0,0,0,0,0,0,0,0,0,0,0,0,0,0,0,0,0,0,0,0,0,0,0,0,0,0,0,0,0,0,0,0,0,0,0,0,0,0,0,0,0,0,0,0,0,0,0,0,0,0,0,0,0,0,0,0,0,0,0,0,0,0,0,0,0,0,0,0,0,0,0,0,0,0,0,0,0,0,0,0,0,0,0,0,0,0],"id":5,"left_children":[1,3,5,7,9,11,13,15,17,19,21,23,25,27,29,31,33,35,-1,37,39,41,43,45,47,49,51,53,55,57,59,61,63,65,67,69,71,73,75,77,79,81,83,85,87,89,91,93,95,97,99,101,103,105,107,109,111,113,115,117,119,121,123,125,127,129,131,133,135,137,139,141,-1,143,145,147,149,151,153,155,157,159,161,163,165,167,169,171,173,175,177,179,181,183,-1,185,187,189,-1,191,193,195,197,199,201,203,205,207,209,211,213,215,217,219,221,223,225,227,229,231,233,-1,-1,-1,-1,-1,-1,-1,-1,-1,-1,-1,-1,-1,-1,-1,-1,-1,-1,-1,-1,-1,-1,-1,-1,-1,-1,-1,-1,-1,-1,-1,-1,-1,-1,-1,-1,-1,-1,-1,-1,-1,-1,-1,-1,-1,-1,-1,-1,-1,-1,-1,-1,-1,-1,-1,-1,-1,-1,-1,-1,-1,-1,-1,-1,-1,-1,-1,-1,-1,-1,-1,-1,-1,-1,-1,-1,-1,-1,-1,-1,-1,-1,-1,-1,-1,-1,-1,-1,-1,-1,-1,-1,-1,-1,-1,-1,-1,-1,-1,-1,-1,-1,-1,-1,-1,-1,-1,-1,-1,-1,-1,-1,-1,-1],"loss_changes":[1.2421532E4,5.8633335E3,3.0431836E3,1.5975156E3,1.0555815E3,8.579293E2,1.0295938E3,1.1232354E3,9.099277E3,2.866368E2,8.0006586E2,4.8768854E2,6.999231E2,3.71005E2,8.118047E2,4.800376E2,4.7648022E2,1.9206895E3,0E0,3.5055917E2,1.1511919E2,5.0701978E2,1.1160737E3,2.4941208E2,4.3606854E2,3.117362E2,1.1279441E3,4.716494E2,2.2224527E2,3.8389062E2,7.8435767E2,5.4959863E2,4.4453168E2,2.0115747E2,2.3813858E2,7.9086816E2,1.8189353E3,2.6381067E2,2.6796765E2,1.1143129E2,2.4545187E2,2.0910315E2,3.7930774E2,2.1729068E2,1.7281501E3,3.94083E2,1.7933382E2,5.294885E2,3.0700818E2,9.0038605E1,4.096936E2,2.645599E1,5.0546826E2,2.4158911E2,1.7779488E2,2.3843402E2,1.0637288E2,4.7410303E2,2.1552438E2,2.007099E2,1.8990845E2,4.425039E2,2.2494463E3,1.7387457E2,8.5620886E2,2.2548169E2,1.3881468E2,2.3148178E2,1.1434326E2,8.313645E2,1.4664337E2,3.5985186E3,0E0,1.4183429E2,2.7448193E2,7.019125E1,1.816673E2,1.1114096E2,8.817657E1,2.845456E2,1.1992015E2,1.7176422E2,1.5236069E2,1.1436817E2,5.0997412E2,1.182061E2,4.1972635E2,7.820734E1,9.7642334E1,1.9068185E2,1.6379126E2,1.27686935E2,2.1398526E2,7.93689E1,0E0,1.6579395E2,3.1078735E2,7.781583E1,0E0,1.3003284E2,1.25308716E2,1.5715321E1,2.8106285E1,7.8934814E1,1.131578E0,4.415703E2,1.8900073E2,1.98668E2,6.4424194E1,6.6053455E2,1.0881793E2,1.7468382E1,8.737222E1,4.0405908E2,5.995862E2,9.144859E1,3.0703018E1,3.1612494E1,1.26034485E2,1.5873242E2,2.0492365E2,0E0,0E0,0E0,0E0,0E0,0E0,0E0,0E0,0E0,0E0,0E0,0E0,0E0,0E0,0E0,0E0,0E0,0E0,0E0,0E0,0E0,0E0,0E0,0E0,0E0,0E0,0E0,0E0,0E0,0E0,0E0,0E0,0E0,0E0,0E0,0E0,0E0,0E0,0E0,0E0,0E0,0E0,0E0,0E0,0E0,0E0,0E0,0E0,0E0,0E0,0E0,0E0,0E0,0E0,0E0,0E0,0E0,0E0,0E0,0E0,0E0,0E0,0E0,0E0,0E0,0E0,0E0,0E0,0E0,0E0,0E0,0E0,0E0,0E0,0E0,0E0,0E0,0E0,0E0,0E0,0E0,0E0,0E0,0E0,0E0,0E0,0E0,0E0,0E0,0E0,0E0,0E0,0E0,0E0,0E0,0E0,0E0,0E0,0E0,0E0,0E0,0E0,0E0,0E0,0E0,0E0,0E0,0E0,0E0,0E0,0E0,0E0,0E0,0E0],"parents":[2147483647,0,0,1,1,2,2,3,3,4,4,5,5,6,6,7,7,8,8,9,9,10,10,11,11,12,12,13,13,14,14,15,15,16,16,17,17,19,19,20,20,21,21,22,22,23,23,24,24,25,25,26,26,27,27,28,28,29,29,30,30,31,31,32,32,33,33,34,34,35,35,36,36,37,37,38,38,39,39,40,40,41,41,42,42,43,43,44,44,45,45,46,46,47,47,48,48,49,49,50,50,51,51,52,52,53,53,54,54,55,55,56,56,57,57,58,58,59,59,60,60,61,61,62,62,63,63,64,64,65,65,66,66,67,67,68,68,69,69,70,70,71,71,73,73,74,74,75,75,76,76,77,77,78,78,79,79,80,80,81,81,82,82,83,83,84,84,85,85,86,86,87,87,88,88,89,89,90,90,91,91,92,92,93,93,95,95,96,96,97,97,99,99,100,100,101,101,102,102,103,103,104,104,105,105,106,106,107,107,108,108,109,109,110,110,111,111,112,112,113,113,114,114,115,115,116,116,117,117,118,118,119,119,120,120],"right_children":[2,4,6,8,10,12,14,16,18,20,22,24,26,28,30,32,34,36,-1,38,40,42,44,46,48,50,52,54,56,58,60,62,64,66,68,70,72,74,76,78,80,82,84,86,88,90,92,94,96,98,100,102,104,106,108,110,112,114,116,118,120,122,124,126,128,130,132,134,136,138,140,142,-1,144,146,148,150,152,154,156,158,160,162,164,166,168,170,172,174,176,178,180,182,184,-1,186,188,190,-1,192,194,196,198,200,202,204,206,208,210,212,214,216,218,220,222,224,226,228,230,232,234,-1,-1,-1,-1,-1,-1,-1,-1,-1,-1,-1,-1,-1,-1,-1,-1,-1,-1,-1,-1,-1,-1,-1,-1,-1,-1,-1,-1,-1,-1,-1,-1,-1,-1,-1,-1,-1,-1,-1,-1,-1,-1,-1,-1,-1,-1,-1,-1,-1,-1,-1,-1,-1,-1,-1,-1,-1,-1,-1,-1,-1,-1,-1,-1,-1,-1,-1,-1,-1,-1,-1,-1,-1,-1,-1,-1,-1,-1,-1,-1,-1,-1,-1,-1,-1,-1,-1,-1,-1,-1,-1,-1,-1,-1,-1,-1,-1,-1,-1,-1,-1,-1,-1,-1,-1,-1,-1,-1,-1,-1,-1,-1,-1,-1],"split_conditions":[5E-1,1.74E1,3.4E0,1.236326E4,4.8E0,1.2833333E-1,3.2E0,1.3E1,1.72E1,1E-1,1.225E-1,3.9E0,3.09E1,6.166212E-1,2.3E-1,6E-1,3.2E0,-3.9874908E-1,1.6494484E0,8.3333336E-2,2.98212E3,1.22E1,8.99611E3,5.610336E-1,7.4E0,1.72E1,2.9666665E-1,5.86272E3,1.8166667E-1,9.540666E-1,2.56E1,1.131999E4,8.4024805E-1,1E-1,7.22722E3,1.04E1,3.325E-1,-1.2E0,-9.987235E-1,9.373419E-1,-9.947883E-1,1.90809E-1,-5.4310524E-1,3.29E1,1.575E-1,1.24E1,1.6E0,-3E-1,1.24514E3,8.26092E3,3.325E-1,-1.8E0,-1.7752916E-1,9.8357147E-1,6.29057E3,1.270152E5,8.6709857E-1,2.19616E3,9.9974513E-1,-3.8937813E-1,-9.020987E-1,1E-1,1.1333334E-1,-8.4372824E-1,9.42376E3,-1.68E1,2.1E0,1.90809E-1,-2.091735E-1,2.2294044E5,1.684872E4,2.55E-1,7.603303E-1,7.083333E-2,1.90809E-1,9.708333E-2,-1.07308134E-1,7.350337E-1,1.425E-1,-9.975591E-1,3.16891E3,8.852568E4,2.9538E2,8.416667E-2,9.540666E-1,1.5375E-1,2.7833334E-1,2.52E1,-9.6206754E-1,4.86975E3,2.2294044E5,1.348817E4,4.087E3,-6.2E0,4.5127797E-1,2.1E0,8.271893E-1,1.21E1,-1.5319417E-1,1.05E1,2.4E0,-6.531601E-1,0E0,1.7E1,1.62E1,6.489044E4,-9.6206754E-1,2.68E1,4.375E-2,-9.612617E-1,8.367329E-1,8E-1,2.9538E2,9.2118543E-1,1.48E1,1.8458334E-1,9.999856E-1,-9.975591E-1,2.17278E3,2.47628E3,2.8829065E-1,4.5969497E-2,2.2017082E-2,2.0375406E-2,-7.38843E-1,-3.8038325E-2,1.08283805E-2,4.232074E-2,3.2907408E-1,7.875727E-2,2.3540054E-2,8.37886E-3,4.1849267E-2,4.9128896E-3,-8.374165E-2,-1.873044E-2,-1.06972545E-1,1.21915884E-1,8.42692E-1,-1.0988032E-2,2.4576727E-1,6.5774806E-2,-4.8961926E-1,1.4833018E-2,-1.0741836E-2,-7.1436837E-3,-1.3670668E-1,1.1126751E-2,9.1490746E-2,2.0592008E-2,6.411924E-3,-1.6871416E-3,2.301049E-2,-1.6279096E-2,-8.332644E-2,-2.6921391E-2,3.6054114E-1,-8.281259E-2,-1.6767146E-2,-9.308737E-3,-2.641547E-2,-1.619732E-1,-5.5622025E-3,4.9614934E-3,-3.765094E-2,-8.276986E-2,2.8898766E-2,3.4584843E-2,7.3823165E-3,5.6979705E-2,3.7637484E-1,-4.2540558E-2,1.0818449E-1,-6.38872E-1,-2.0566726E-1,2.587837E-2,1.17362335E-1,1.3644174E-3,-1.5844232E-1,-6.8074197E-4,1.1769396E-1,-1.439259E-2,-7.8129984E-2,1.3856629E-1,2.67297E-2,-1.6620537E-2,-3.846719E-2,1.4908029E-2,-4.0695325E-2,-1.0523645E-2,-2.8647823E-2,-2.5649037E-2,-5.0736174E-2,8.2214335E-3,-1.6862759E-1,-5.371453E-2,2.3685897E-2,-9.2313E-2,-2.2701561E-2,-2.3880589E-1,-5.3679943E-1,-7.4503883E-3,-4.428589E-2,-7.628758E-2,-4.9051338E-1,-2.9804145E-3,-3.490487E-2,4.1735295E-2,2.992882E-1,1.3942519E-1,1.5882662E-2,4.9344817E-1,2.770719E-3,-1.3052699E-1,-1.5222942E-2,5.492978E-2,-1.5048105E-2,-1.1989191E-1,-2.9522605E-2,-1.1853118E-1,-4.213664E-2,-6.602617E-2,-1.8171415E-1,-1.8406913E-2,-9.4566286E-2,9.982859E-2,-2.5367875E-2,-1.0050567E-1,-4.428974E-3,-1.2029354E-1,-7.465101E-3,-2.711256E-1,-1.1558931E-1,-8.687621E-2,-2.3002204E-1],"split_indices":[8,7,11,13,11,15,8,7,7,8,15,8,8,4,15,11,11,17,0,15,13,11,13,4,7,7,15,13,15,4,7,13,4,8,13,7,15,11,4,4,4,18,4,7,15,7,8,11,13,13,15,11,4,17,13,14,4,13,4,4,4,8,15,4,13,11,11,18,4,14,13,15,0,15,18,15,4,4,15,4,13,14,13,15,4,15,15,7,4,13,14,13,13,11,0,11,4,8,0,8,8,4,11,7,7,14,4,7,15,17,4,8,13,17,8,15,4,4,13,13,4,0,0,0,0,0,0,0,0,0,0,0,0,0,0,0,0,0,0,0,0,0,0,0,0,0,0,0,0,0,0,0,0,0,0,0,0,0,0,0,0,0,0,0,0,0,0,0,0,0,0,0,0,0,0,0,0,0,0,0,0,0,0,0,0,0,0,0,0,0,0,0,0,0,0,0,0,0,0,0,0,0,0,0,0,0,0,0,0,0,0,0,0,0,0,0,0,0,0,0,0,0,0,0,0,0,0,0,0,0,0,0,0,0,0],"split_type":[0,0,0,0,0,0,0,0,0,0,0,0,0,0,0,0,0,0,0,0,0,0,0,0,0,0,0,0,0,0,0,0,0,0,0,0,0,0,0,0,0,0,0,0,0,0,0,0,0,0,0,0,0,0,0,0,0,0,0,0,0,0,0,0,0,0,0,0,0,0,0,0,0,0,0,0,0,0,0,0,0,0,0,0,0,0,0,0,0,0,0,0,0,0,0,0,0,0,0,0,0,0,0,0,0,0,0,0,0,0,0,0,0,0,0,0,0,0,0,0,0,0,0,0,0,0,0,0,0,0,0,0,0,0,0,0,0,0,0,0,0,0,0,0,0,0,0,0,0,0,0,0,0,0,0,0,0,0,0,0,0,0,0,0,0,0,0,0,0,0,0,0,0,0,0,0,0,0,0,0,0,0,0,0,0,0,0,0,0,0,0,0,0,0,0,0,0,0,0,0,0,0,0,0,0,0,0,0,0,0,0,0,0,0,0,0,0,0,0,0,0,0,0,0,0,0,0,0,0,0,0,0,0,0,0],"sum_hessian":[5.1226E4,2.9954E4,2.1272E4,1.5298E4,1.4656E4,1.4554E4,6.718E3,1.4683E4,6.15E2,9.876E3,4.78E3,1.0251E4,4.303E3,2.982E3,3.736E3,6.457E3,8.226E3,6.12E2,3E0,7.314E3,2.562E3,3.987E3,7.93E2,6.113E3,4.138E3,4.249E3,5.4E1,2.149E3,8.33E2,3.517E3,2.19E2,5.338E3,1.119E3,6.988E3,1.238E3,2.1E1,5.91E2,3.294E3,4.02E3,2.035E3,5.27E2,3.335E3,6.52E2,7.67E2,2.6E1,3.767E3,2.346E3,4.4E1,4.094E3,2.292E3,1.957E3,3.8E1,1.6E1,2.069E3,8E1,7.69E2,6.4E1,3.067E3,4.5E2,1.22E2,9.7E1,5.306E3,3.2E1,8.89E2,2.3E2,5.298E3,1.69E3,1.174E3,6.4E1,8E0,1.3E1,5.88E2,3E0,1.583E3,1.711E3,7.6E1,3.944E3,1.903E3,1.32E2,7E0,5.2E2,3.307E3,2.8E1,2.73E2,3.79E2,7.13E2,5.4E1,1.8E1,8E0,6.22E2,3.145E3,1.302E3,1.044E3,4.1E1,3E0,3.382E3,7.12E2,2.288E3,4E0,1.923E3,3.4E1,1.2E1,2.6E1,1.2E1,4E0,6.1E1,2.008E3,1.3E1,6.7E1,7.33E2,3.6E1,1.4E1,5E1,2.682E3,3.85E2,4.3E2,2E1,6E1,6.2E1,4.4E1,5.3E1,4.256E3,1.05E3,2.8E1,4E0,8.7E1,8.02E2,2.19E2,1.1E1,8.1E1,5.217E3,1.543E3,1.47E2,1.142E3,3.2E1,3.3E1,3.1E1,3E0,5E0,3E0,1E1,5.76E2,1.2E1,1.295E3,2.88E2,1.694E3,1.7E1,1.5E1,6.1E1,2.053E3,1.891E3,1.679E3,2.24E2,1.06E2,2.6E1,4E0,3E0,3.1E1,4.89E2,2.441E3,8.66E2,1.7E1,1.1E1,1.35E2,1.38E2,3.28E2,5.1E1,3.01E2,4.12E2,5E1,4E0,1.4E1,4E0,6E0,2E0,5.97E2,2.5E1,3.139E3,6E0,1.293E3,9E0,9.84E2,6E1,8E0,3.3E1,2.948E3,4.34E2,5.78E2,1.34E2,1.992E3,2.96E2,1.662E3,2.61E2,5E0,2.9E1,3E0,9E0,1.2E1,1.4E1,4E0,8E0,2E0,2E0,5.9E1,2E0,2.28E2,1.78E3,8E0,5E0,4E0,6.3E1,2E0,7.31E2,2E1,1.6E1,6E0,8E0,3E1,2E1,7.7E1,2.605E3,3.28E2,5.7E1,4.13E2,1.7E1,1.8E1,2E0,3E0,5.7E1,4.8E1,1.4E1,3.2E1,1.2E1,3.7E1,1.6E1],"tree_param":{"num_deleted":"0","num_feature":"19","num_nodes":"235","size_leaf_vector":"1"}},{"base_weights":[-6.0297297E-3,9.395097E-2,-4.2107735E0,4.7489694E-1,-4.395281E-1,-3.1745253E0,-9.24805E0,1.0622942E0,1.6099712E-1,-1.16763696E-1,-1.3192743E0,4.472169E-2,-4.38855E0,-5.287162E0,-1.6641623E1,9.79407E-1,3.653758E0,3.224314E-1,-1.187257E0,-2.0640604E-2,-7.6762134E-1,-1.0337299E0,-2.133782E0,8.607464E-1,-2.0992994E0,-3.808384E0,-6.748314E0,-1.1905464E0,-9.820059E0,-3.59663E0,-1.8266836E1,1.1832092E0,5.668014E-1,7.679031E0,2.5925722E0,5.787206E-1,1.4886105E-1,-9.1287214E-1,-1.7723597E0,2.1252802E-1,-1.7785017E-1,-2.6545644E0,-6.592654E-1,-5.5751765E-1,-1.310897E0,-1.0797876E0,-2.410594E0,1.0749853E0,-6.1383557E0,-3.1666553E0,5.155179E0,-2.9739923E0,-4.7795396E0,-5.5980983E0,-3.6792505E-1,1.0713577E1,-4.5704646E0,-1.9124063E1,-3.6041572E0,-1.0583799E0,-2.1465997E-1,-1.434243E1,-2.388288E1,1.1267219E0,2.3142328E0,6.826692E-1,-1.0812782E0,6.467026E0,6.906795E-1,1.0363445E1,1.8717855E0,7.362945E-1,2.856351E-1,-2.624934E-1,4.002388E-1,-5.693855E-1,-1.4772556E0,-3.495485E0,-1.3323176E0,-2.3752847E0,2.339838E-1,-7.4168867E-1,8.771571E-2,-3.2360878E0,-1.4668007E-1,8.9424625E-2,-7.5296277E-1,-4.1780385E-1,-1.4743525E0,-2.1260571E0,-9.778937E-1,-4.151919E-2,-1.7236252E0,-2.9572766E0,-1.9029123E0,-1.3396171E0,1.5127956E0,-3.5093424E-1,-4.0647935E-2,-1.4367573E0,-4.853015E0,-3.226345E0,6.116237E-1,-2.4127884E0,-3.906272E0,-8.449667E0,-3.7103748E0,-6.2585073E0,-4.8102868E-1,3.693422E0,8.3883476E-1,-1.6005971E0,-8.761988E0,-2.2232603E1,3.657311E-1,-1.715024E1,4.4483942E-1,-1.2245769E-1,3.9453458E-2,-2.476396E1,-1.0390507E1,-1.3684399E0,-1.8292484E1,4.1316602E-2,2.003944E-2,7.120944E-2,3.7896693E-1,2.2664528E-1,2.1914562E-2,-8.2609184E-2,-2.8752863E-2,2.793076E-1,-5.1380705E-2,4.1422296E-1,2.8015487E-2,5.3806823E-2,3.077321E-1,2.2460544E-2,5.643885E-2,7.5216535E-3,6.989547E-2,-2.8497658E-3,-2.4530845E-2,2.0006627E-2,1.6566071E-3,-1.9499267E-2,1.9087653E-1,2.0810027E-2,-5.4242358E-2,-1.0446127E-1,-1.6194364E-1,-5.545845E-2,-1.889256E-2,-5.08773E-3,-6.490809E-1,1.791815E-2,4.9114674E-3,1.308741E-1,-2.5514008E-2,8.672638E-3,-7.554321E-3,-8.8724114E-2,-2.35226E-1,-3.7374206E-2,7.662246E-3,-2.485144E-3,2.5021432E-2,-3.697396E-2,-1.8239122E-2,-1.7351152E-2,1.5283509E-2,5.0372303E-2,-5.040843E-2,-5.9240066E-2,-1.0959013E-1,-1.5979208E-2,-4.51092E-2,5.9948727E-3,-1.6754526E-1,-4.341021E-2,-8.761327E-2,-6.9262154E-2,-1.17135994E-1,-5.6858543E-2,-1.8142508E-1,2.9235385E-2,-3.4285092E-1,8.7265275E-2,1.3763163E-2,4.4770776E-3,-1.4291789E-1,-1.8061095E-1,-9.443113E-3,-1.2958331E-2,-2.2683135E-1,-6.452151E-2,-1.6899933E-1,1.0819387E-1,-1.3615917E-1,-2.967755E-1,-1.6127278E-1,-1.077736E-1,-2.4089456E-1,-1.5240906E-1,-2.74729E-1,3.90517E-2,-1.6295098E-1,-4.532043E-2,3.6503172E-1,-7.8248076E-2,2.3602286E-1,-1.8516707E-1,-4.609595E-1,-9.281943E-1,-5.423288E-1,3.2233484E-2,-8.704259E-1,1.8988438E-1,-5.127693E-1,-4.2562273E-1,-1.5890416E0,-3.8812417E-1,-3.907457E-2,-2.551044E-1,-6.501543E-1],"categories":[],"categories_nodes":[],"categories_segments":[],"categories_sizes":[],"default_left":[0,0,0,0,0,0,0,0,0,0,0,0,0,0,0,0,0,0,0,0,0,0,0,0,0,0,0,0,0,0,0,0,0,0,0,0,0,0,0,0,0,0,0,0,0,0,0,0,0,0,0,0,0,0,0,0,0,0,0,0,0,0,0,0,0,0,0,0,0,0,0,0,0,0,0,0,0,0,0,0,0,0,0,0,0,0,0,0,0,0,0,0,0,0,0,0,0,0,0,0,0,0,0,0,0,0,0,0,0,0,0,0,0,0,0,0,0,0,0,0,0,0,0,0,0,0,0,0,0,0,0,0,0,0,0,0,0,0,0,0,0,0,0,0,0,0,0,0,0,0,0,0,0,0,0,0,0,0,0,0,0,0,0,0,0,0,0,0,0,0,0,0,0,0,0,0,0,0,0,0,0,0,0,0,0,0,0,0,0,0,0,0,0,0,0,0,0,0,0,0,0,0,0,0,0,0,0,0,0,0,0,0,0,0,0,0,0,0,0,0,0,0,0,0,0],"id":6,"left_children":[1,3,5,7,9,11,13,15,17,19,21,23,25,27,29,31,33,35,37,39,41,43,45,47,49,51,53,55,57,59,61,63,65,67,69,71,73,75,77,79,81,83,85,87,89,91,93,95,97,99,101,103,105,107,-1,109,111,113,115,117,-1,119,121,123,125,127,129,131,-1,133,135,137,139,141,143,145,147,149,151,153,155,157,159,161,163,165,167,169,171,173,175,177,179,181,183,185,187,-1,-1,189,191,193,-1,195,197,199,201,203,205,207,-1,209,211,213,-1,215,217,-1,-1,219,221,-1,223,-1,-1,-1,-1,-1,-1,-1,-1,-1,-1,-1,-1,-1,-1,-1,-1,-1,-1,-1,-1,-1,-1,-1,-1,-1,-1,-1,-1,-1,-1,-1,-1,-1,-1,-1,-1,-1,-1,-1,-1,-1,-1,-1,-1,-1,-1,-1,-1,-1,-1,-1,-1,-1,-1,-1,-1,-1,-1,-1,-1,-1,-1,-1,-1,-1,-1,-1,-1,-1,-1,-1,-1,-1,-1,-1,-1,-1,-1,-1,-1,-1,-1,-1,-1,-1,-1,-1,-1,-1,-1,-1,-1,-1,-1,-1,-1,-1,-1,-1,-1,-1,-1],"loss_changes":[2.1485014E4,1.0145286E4,6.166625E3,5.3698257E3,5.9051704E3,3.8537246E3,5.8276074E3,2.1751328E3,4.131899E3,9.519343E2,1.2960449E3,4.7594156E2,9.5454297E2,2.4580571E3,1.4183633E3,8.2593164E2,1.3213623E3,7.540548E2,3.2428516E2,4.860642E2,3.985857E2,5.450498E2,4.198628E2,3.0199615E2,5.970579E2,4.533418E2,6.462676E2,2.9056487E3,3.574539E3,5.9551453E1,1.02391797E3,4.1771582E2,6.217379E2,9.0853735E2,1.3808871E3,3.1590942E2,1.0454298E3,2.674585E2,4.859292E2,2.9705142E2,1.1859764E3,1.5411505E2,1.3005579E2,1.944719E2,7.072217E2,2.0247675E2,3.1243457E2,2.0499706E2,1.1926193E2,1.8556464E2,1.1811506E3,1.5433643E2,1.008501E3,3.7885718E2,0E0,1.5578917E3,6.830786E2,2.593877E3,2.1467026E3,4.030742E1,0E0,1.3489087E3,1.6008184E3,4.0720654E2,4.2258447E2,3.4491077E2,6.1718597E1,9.9056177E2,0E0,4.2666846E2,3.9841168E2,2.4018237E2,2.5276793E2,3.247532E2,4.5249683E2,1.2117517E2,1.8453564E2,4.550061E1,1.3583563E2,1.6870745E3,1.3928851E2,3.7868518E2,2.9860464E2,1.6408167E2,8.106813E0,2.2862883E1,1.2058081E2,1.2610254E2,3.440503E1,2.9334277E2,3.5600342E2,1.3241365E2,6.7592224E1,2.7219385E2,3.7666772E2,6.1342474E2,2.0100659E2,0E0,0E0,1.553127E2,9.187848E1,6.9648186E1,0E0,2.3537671E2,1.9668811E2,7.029639E1,3.0643726E2,3.0048608E2,1.09696724E2,4.6318353E2,0E0,2.4627313E2,2.9893445E2,3.2386133E2,0E0,1.5309714E3,2.7200408E3,0E0,0E0,2.154329E3,3.6468774E2,0E0,1.4537012E2,0E0,0E0,0E0,0E0,0E0,0E0,0E0,0E0,0E0,0E0,0E0,0E0,0E0,0E0,0E0,0E0,0E0,0E0,0E0,0E0,0E0,0E0,0E0,0E0,0E0,0E0,0E0,0E0,0E0,0E0,0E0,0E0,0E0,0E0,0E0,0E0,0E0,0E0,0E0,0E0,0E0,0E0,0E0,0E0,0E0,0E0,0E0,0E0,0E0,0E0,0E0,0E0,0E0,0E0,0E0,0E0,0E0,0E0,0E0,0E0,0E0,0E0,0E0,0E0,0E0,0E0,0E0,0E0,0E0,0E0,0E0,0E0,0E0,0E0,0E0,0E0,0E0,0E0,0E0,0E0,0E0,0E0,0E0,0E0,0E0,0E0,0E0,0E0,0E0,0E0,0E0,0E0,0E0,0E0,0E0,0E0,0E0,0E0,0E0,0E0,0E0,0E0],"parents":[2147483647,0,0,1,1,2,2,3,3,4,4,5,5,6,6,7,7,8,8,9,9,10,10,11,11,12,12,13,13,14,14,15,15,16,16,17,17,18,18,19,19,20,20,21,21,22,22,23,23,24,24,25,25,26,26,27,27,28,28,29,29,30,30,31,31,32,32,33,33,34,34,35,35,36,36,37,37,38,38,39,39,40,40,41,41,42,42,43,43,44,44,45,45,46,46,47,47,48,48,49,49,50,50,51,51,52,52,53,53,55,55,56,56,57,57,58,58,59,59,61,61,62,62,63,63,64,64,65,65,66,66,67,67,69,69,70,70,71,71,72,72,73,73,74,74,75,75,76,76,77,77,78,78,79,79,80,80,81,81,82,82,83,83,84,84,85,85,86,86,87,87,88,88,89,89,90,90,91,91,92,92,93,93,94,94,95,95,96,96,99,99,100,100,101,101,103,103,104,104,105,105,106,106,107,107,108,108,109,109,111,111,112,112,113,113,115,115,116,116,119,119,120,120,122,122],"right_children":[2,4,6,8,10,12,14,16,18,20,22,24,26,28,30,32,34,36,38,40,42,44,46,48,50,52,54,56,58,60,62,64,66,68,70,72,74,76,78,80,82,84,86,88,90,92,94,96,98,100,102,104,106,108,-1,110,112,114,116,118,-1,120,122,124,126,128,130,132,-1,134,136,138,140,142,144,146,148,150,152,154,156,158,160,162,164,166,168,170,172,174,176,178,180,182,184,186,188,-1,-1,190,192,194,-1,196,198,200,202,204,206,208,-1,210,212,214,-1,216,218,-1,-1,220,222,-1,224,-1,-1,-1,-1,-1,-1,-1,-1,-1,-1,-1,-1,-1,-1,-1,-1,-1,-1,-1,-1,-1,-1,-1,-1,-1,-1,-1,-1,-1,-1,-1,-1,-1,-1,-1,-1,-1,-1,-1,-1,-1,-1,-1,-1,-1,-1,-1,-1,-1,-1,-1,-1,-1,-1,-1,-1,-1,-1,-1,-1,-1,-1,-1,-1,-1,-1,-1,-1,-1,-1,-1,-1,-1,-1,-1,-1,-1,-1,-1,-1,-1,-1,-1,-1,-1,-1,-1,-1,-1,-1,-1,-1,-1,-1,-1,-1,-1,-1,-1,-1,-1,-1],"split_conditions":[6.214625E0,5E-1,1.1991875E1,1.5E1,1.252667E0,1.24E1,5E-1,4.9E1,2.72058E0,1.48E1,3.321958E0,1E-1,9.08775E0,6.19495E3,1.14E1,-1.8369701E-16,1.2246469E-16,1.9E1,2.25E1,1.69E1,-5.8403053E0,1.66E1,1.43E1,9.9E1,9.9E0,2.01E1,7.2E0,-8.660254E-1,-8.660254E-1,4E0,1.24E1,2.8E1,3.186416E0,4.720748E5,6.454577E-1,4.10042E-1,-1.8369701E-16,4.050925E0,-5E-1,-1.0739084E1,-1.8369701E-16,-1.8369701E-16,1.3E1,1.15E1,-1.8369701E-16,-5E-1,5E-1,8.7E0,5.165333E-1,2.685592E3,5E-1,2E-1,-5E-1,1.6500155E5,-3.6792505E-1,7.854812E4,1.67E1,4.720748E5,1.2210118E5,2.9404032E-1,-2.1465997E-1,1.1E0,1.43E1,1E-1,5.825E0,-1.3859666E1,1.07E1,7.3E1,6.906795E-1,1.26E1,3.19E2,2.49166E-1,1.7819131E5,8.430798E4,3.09042E-1,1.44E2,1.54E1,8.751541E4,1.2246469E-16,5.6E0,1E0,-7.749445E-1,-2.02167E-1,3.028E2,1.8E1,2.685592E3,6.123234E-17,3.77239E3,7.9E0,2.67E1,2.5E0,1.48E1,4.733708E0,1.87E1,2.32E1,-5E-1,1.05E1,-3.5093424E-1,-4.0647935E-2,7.844909E0,5E-1,-2.4492937E-16,6.116237E-1,3E1,-6.087614E-1,7.4E0,2.1E1,1.85E1,-5E-1,1.8E1,8.3883476E-1,5E-1,1.83398E3,1.33E1,3.657311E-1,8.660254E-1,4.720748E5,-1.2245769E-1,3.9453458E-2,1E0,8E0,-1.3684399E0,1.69E1,4.1316602E-2,2.003944E-2,7.120944E-2,3.7896693E-1,2.2664528E-1,2.1914562E-2,-8.2609184E-2,-2.8752863E-2,2.793076E-1,-5.1380705E-2,4.1422296E-1,2.8015487E-2,5.3806823E-2,3.077321E-1,2.2460544E-2,5.643885E-2,7.5216535E-3,6.989547E-2,-2.8497658E-3,-2.4530845E-2,2.0006627E-2,1.6566071E-3,-1.9499267E-2,1.9087653E-1,2.0810027E-2,-5.4242358E-2,-1.0446127E-1,-1.6194364E-1,-5.545845E-2,-1.889256E-2,-5.08773E-3,-6.490809E-1,1.791815E-2,4.9114674E-3,1.308741E-1,-2.5514008E-2,8.672638E-3,-7.554321E-3,-8.8724114E-2,-2.35226E-1,-3.7374206E-2,7.662246E-3,-2.485144E-3,2.5021432E-2,-3.697396E-2,-1.8239122E-2,-1.7351152E-2,1.5283509E-2,5.0372303E-2,-5.040843E-2,-5.9240066E-2,-1.0959013E-1,-1.5979208E-2,-4.51092E-2,5.9948727E-3,-1.6754526E-1,-4.341021E-2,-8.761327E-2,-6.9262154E-2,-1.17135994E-1,-5.6858543E-2,-1.8142508E-1,2.9235385E-2,-3.4285092E-1,8.7265275E-2,1.3763163E-2,4.4770776E-3,-1.4291789E-1,-1.8061095E-1,-9.443113E-3,-1.2958331E-2,-2.2683135E-1,-6.452151E-2,-1.6899933E-1,1.0819387E-1,-1.3615917E-1,-2.967755E-1,-1.6127278E-1,-1.077736E-1,-2.4089456E-1,-1.5240906E-1,-2.74729E-1,3.90517E-2,-1.6295098E-1,-4.532043E-2,3.6503172E-1,-7.8248076E-2,2.3602286E-1,-1.8516707E-1,-4.609595E-1,-9.281943E-1,-5.423288E-1,3.2233484E-2,-8.704259E-1,1.8988438E-1,-5.127693E-1,-4.2562273E-1,-1.5890416E0,-3.8812417E-1,-3.907457E-2,-2.551044E-1,-6.501543E-1],"split_indices":[9,8,9,7,9,7,8,12,9,8,9,8,9,13,7,3,2,7,7,7,9,7,7,12,8,7,8,2,2,12,8,12,9,14,17,9,3,9,3,9,3,3,7,8,3,3,3,7,17,14,2,8,3,14,0,14,7,14,14,17,0,8,8,8,9,9,7,12,0,7,12,9,14,14,9,12,7,14,2,8,8,17,9,13,8,14,3,13,7,7,8,8,9,7,8,3,7,0,0,9,3,2,0,12,17,8,12,7,2,12,0,3,13,7,0,2,14,0,0,8,8,0,8,0,0,0,0,0,0,0,0,0,0,0,0,0,0,0,0,0,0,0,0,0,0,0,0,0,0,0,0,0,0,0,0,0,0,0,0,0,0,0,0,0,0,0,0,0,0,0,0,0,0,0,0,0,0,0,0,0,0,0,0,0,0,0,0,0,0,0,0,0,0,0,0,0,0,0,0,0,0,0,0,0,0,0,0,0,0,0,0,0,0,0,0,0,0,0,0,0,0,0,0,0,0],"split_type":[0,0,0,0,0,0,0,0,0,0,0,0,0,0,0,0,0,0,0,0,0,0,0,0,0,0,0,0,0,0,0,0,0,0,0,0,0,0,0,0,0,0,0,0,0,0,0,0,0,0,0,0,0,0,0,0,0,0,0,0,0,0,0,0,0,0,0,0,0,0,0,0,0,0,0,0,0,0,0,0,0,0,0,0,0,0,0,0,0,0,0,0,0,0,0,0,0,0,0,0,0,0,0,0,0,0,0,0,0,0,0,0,0,0,0,0,0,0,0,0,0,0,0,0,0,0,0,0,0,0,0,0,0,0,0,0,0,0,0,0,0,0,0,0,0,0,0,0,0,0,0,0,0,0,0,0,0,0,0,0,0,0,0,0,0,0,0,0,0,0,0,0,0,0,0,0,0,0,0,0,0,0,0,0,0,0,0,0,0,0,0,0,0,0,0,0,0,0,0,0,0,0,0,0,0,0,0,0,0,0,0,0,0,0,0,0,0,0,0,0,0,0,0,0,0],"sum_hessian":[5.1105E4,4.9919E4,1.186E3,2.9123E4,2.0796E4,9.85E2,2.01E2,1.0142E4,1.8981E4,1.5215E4,5.581E3,2.7E2,7.15E2,1.32E2,6.9E1,9.829E3,3.13E2,1.6952E4,2.029E3,1.3258E4,1.957E3,4.134E3,1.447E3,1.96E2,7.4E1,5.76E2,1.39E2,7E1,6.2E1,8E0,6.1E1,6.578E3,3.251E3,6.4E1,2.49E2,6.844E3,1.0108E4,1.383E3,6.46E2,5.339E3,7.919E3,1.05E2,1.852E3,1.522E3,2.612E3,3.02E2,1.145E3,1.91E2,5E0,6.5E1,9E0,3.12E2,2.64E2,1.12E2,2.7E1,1.5E1,5.5E1,2.4E1,3.8E1,5E0,3E0,3.8E1,2.3E1,6.267E3,3.11E2,3.038E3,2.13E2,6E1,4E0,2E1,2.29E2,4.45E3,2.394E3,3.834E3,6.274E3,8.61E2,5.22E2,1.3E2,5.16E2,4.3E1,5.296E3,2.535E3,5.384E3,8.5E1,2E1,2.06E2,1.646E3,1.322E3,2E2,7.56E2,1.856E3,1.16E2,1.86E2,5.49E2,5.96E2,2.9E1,1.62E2,2E0,3E0,3.3E1,3.2E1,6E0,3E0,1.97E2,1.15E2,5.8E1,2.06E2,9.9E1,1.3E1,1.1E1,4E0,3.3E1,2.2E1,2.2E1,2E0,8E0,3E1,2E0,3E0,9E0,2.9E1,4E0,1.9E1,5.048E3,1.219E3,3.07E2,4E0,8E0,3.03E3,2.6E1,1.87E2,4.8E1,1.2E1,1.6E1,4E0,2.23E2,6E0,4.211E3,2.39E2,2.322E3,7.2E1,2.807E3,1.027E3,3.949E3,2.325E3,8.59E2,2E0,3.8E1,4.84E2,1.08E2,2.2E1,3.53E2,1.63E2,3.9E1,4E0,1.143E3,4.153E3,1.6E1,2.519E3,3.467E3,1.917E3,7.6E1,9E0,5E0,1.5E1,1.66E2,4E1,5.79E2,1.067E3,1.178E3,1.44E2,3E0,1.97E2,5.94E2,1.62E2,8.19E2,1.037E3,1.12E2,4E0,1.31E2,5.5E1,2.26E2,3.23E2,5.69E2,2.7E1,2.4E1,5E0,7.9E1,8.3E1,2.2E1,1.1E1,2.8E1,4E0,4E0,2E0,1.7E2,2.7E1,3E0,1.12E2,4.9E1,9E0,1.85E2,2.1E1,5.7E1,4.2E1,1E1,3E0,7E0,4E0,3.1E1,2E0,1.5E1,7E0,9E0,1.3E1,3E0,5E0,2.3E1,7E0,7E0,2E0,2.5E1,4E0,3E0,1.6E1],"tree_param":{"num_deleted":"0","num_feature":"19","num_nodes":"225","size_leaf_vector":"1"}},{"base_weights":[9.97446E-3,3.5882512E-1,-2.4681327E0,8.129171E-1,-1.4841877E-1,-2.1502178E0,-1.2323878E1,1.0743824E0,5.343531E-1,2.9198128E-1,-8.379731E-1,-1.042785E0,-3.5523877E0,-8.477514E0,-2.0562292E1,1.0403049E0,2.9427786E0,8.5649294E-1,1.9597597E-1,2.0191364E-1,2.2876344E0,-9.990923E-1,3.018625E-1,1.0214165E-2,-1.4844542E0,-2.7771976E0,-6.513666E0,-4.000974E0,-1.56319065E1,-3.507538E1,-1.5184173E1,3.0337903E0,1.0101633E0,2.1020267E0,5.280656E0,7.9577225E-1,1.7540294E0,6.073007E-2,9.425193E-1,1.0477551E0,3.1081716E-2,2.1903765E0,6.4515746E-1,-7.4048793E-1,-1.7710758E0,1.247325E0,-5.787101E-2,3.8474923E-1,-1.781192E0,-1.7247864E0,1.2518529E0,-2.9398687E0,1.1279175E-1,-6.8077106E0,3.8909647E0,-7.6860876E0,2.3426857E0,-3.9938037E0,-1.7974909E1,-1.2608667E1,-4.4141273E1,-9.456839E0,-1.907639E1,2.4541392E0,4.1053486E0,1.4679224E0,8.718663E-1,1.0771705E1,1.7573128E0,7.316594E-1,4.263325E0,1.2924122E0,6.8896204E-1,1.5317454E0,2.3492768E0,2.3744683E-1,-1.7521285E-1,7.501194E-1,1.4173414E0,1.1988142E0,-3.0165997E-1,-1.0214478E-1,7.36389E-1,1.6516972E0,4.6603236E0,-6.131554E-1,-1.6051002E0,-1.5259752E0,-2.3345273E0,7.518426E-1,2.075406E0,-1.5508881E-1,3.130852E0,-8.861362E-1,8.254671E-1,-7.786223E0,-1.1695564E0,-1.1492742E0,-3.0722873E0,1.0048773E1,5.682884E-1,-2.4284258E0,-3.7762158E0,-6.023215E-1,3.1631489E0,-6.3184676E0,-1.1130131E1,6.8314424E0,-2.148405E0,-2.1866715E0,-8.458625E0,1.168427E1,-9.023394E0,9.1872014E-2,-7.2962914E0,-1.9782614E1,-5.8520517E0,-5.5306435E-1,-9.475301E-2,-6.264022E1,-6.0341984E-1,-1.4161453E1,-2.8656163E0,-2.3045998E1,-1.4364304E1,4.5848098E-2,8.685305E-2,1.0073026E-1,1.8850374E-1,5.592567E-2,4.0949173E-2,2.3981435E-2,3.845085E-2,5.1100457E-1,2.9593144E-2,2.6213136E-1,5.2312415E-2,1.6536158E-1,2.6969427E-2,3.8832232E-2,6.3809454E-2,2.5382094E-2,4.3936335E-3,4.749134E-2,8.027745E-2,8.630602E-2,2.2605015E-2,2.1761067E-2,4.6773874E-3,-9.678084E-3,5.0737686E-3,3.0855767E-2,1.4403416E-3,5.0983045E-2,-1.6944189E-2,5.3789813E-2,2.6514798E-2,-2.0987581E-2,4.2198263E-2,4.3359734E-3,-1.7587775E-2,7.0416755E-3,3.5624947E-2,1.03496596E-1,3.1016896E-2,1.3196284E0,9.0811945E-2,-8.922277E-3,-2.6861042E-2,-4.104646E-2,-7.0703425E-2,-2.2986032E-2,-5.268291E-2,-1.6784362E-2,-8.074362E-2,1.2044835E-1,1.4621614E-2,8.7985545E-2,3.5907842E-2,1.095811E-2,-1.9653456E-2,1.8418784E-1,5.7040383E-3,6.335608E-3,-5.0636284E-2,2.4414688E-2,1.6884696E-1,-5.419562E-2,-3.7317562E-1,-9.284897E-2,-5.9833582E-3,-3.3632938E-2,-1.04202844E-1,-1.16492614E-1,-3.5553314E-2,5.5935573E-2,8.166355E-1,-7.6382206E-4,3.2222888E-1,-8.175724E-2,2.2137673E-1,-1.13895744E-1,-1.5725332E-1,-4.5541595E-3,-1.0710817E-1,-1.2169669E-1,2.7026254E-1,-1.8624564E-1,-2.6584032E-1,-2.8264526E-1,-4.6909758E-1,6.740671E-2,2.7627334E-1,-1.7442647E-1,9.0773895E-2,4.10487E-2,-1.9563119E-1,-2.3506531E-1,-4.0199184E-1,-1.7817773E-1,5.1021117E-1,2.996687E-1,-5.422658E-1,-5.426345E-2,-3.045306E-1,-4.615192E-1,-8.0977404E-1,-2.4621798E-1,-9.1738E-2,-7.541314E-1,-2.5350924E0,-1.8502125E-1,-5.4087234E-1,-1.6817236E-1,1.3324183E-1,-3.5735595E-1,-8.4573084E-1,-1.523726E-1,-5.117856E-1],"categories":[],"categories_nodes":[],"categories_segments":[],"categories_sizes":[],"default_left":[0,0,0,0,0,0,0,0,0,0,0,0,0,0,0,0,0,0,0,0,0,0,0,0,0,0,0,0,0,0,0,0,0,0,0,0,0,0,0,0,0,0,0,0,0,0,0,0,0,0,0,0,0,0,0,0,0,0,0,0,0,0,0,0,0,0,0,0,0,0,0,0,0,0,0,0,0,0,0,0,0,0,0,0,0,0,0,0,0,0,0,0,0,0,0,0,0,0,0,0,0,0,0,0,0,0,0,0,0,0,0,0,0,0,0,0,0,0,0,0,0,0,0,0,0,0,0,0,0,0,0,0,0,0,0,0,0,0,0,0,0,0,0,0,0,0,0,0,0,0,0,0,0,0,0,0,0,0,0,0,0,0,0,0,0,0,0,0,0,0,0,0,0,0,0,0,0,0,0,0,0,0,0,0,0,0,0,0,0,0,0,0,0,0,0,0,0,0,0,0,0,0,0,0,0,0,0,0,0,0,0,0,0,0,0,0,0,0,0,0,0,0,0,0,0,0,0,0,0,0,0,0,0,0,0,0,0,0,0],"id":7,"left_children":[1,3,5,7,9,11,13,15,17,19,21,23,25,27,29,31,33,35,37,39,41,43,45,47,49,51,53,55,57,59,61,63,65,67,69,71,73,75,77,79,81,83,-1,85,87,89,91,93,95,97,99,101,103,105,107,109,111,113,115,117,119,121,123,125,127,129,131,133,135,-1,137,139,141,143,145,147,149,151,153,155,157,159,161,163,165,167,169,171,173,175,177,179,181,183,185,187,189,191,193,195,197,199,201,203,205,207,209,211,213,215,217,219,221,-1,223,225,227,-1,-1,229,-1,231,233,235,237,-1,-1,-1,-1,-1,-1,-1,-1,-1,-1,-1,-1,-1,-1,-1,-1,-1,-1,-1,-1,-1,-1,-1,-1,-1,-1,-1,-1,-1,-1,-1,-1,-1,-1,-1,-1,-1,-1,-1,-1,-1,-1,-1,-1,-1,-1,-1,-1,-1,-1,-1,-1,-1,-1,-1,-1,-1,-1,-1,-1,-1,-1,-1,-1,-1,-1,-1,-1,-1,-1,-1,-1,-1,-1,-1,-1,-1,-1,-1,-1,-1,-1,-1,-1,-1,-1,-1,-1,-1,-1,-1,-1,-1,-1,-1,-1,-1,-1,-1,-1,-1,-1,-1,-1,-1,-1,-1,-1,-1,-1,-1,-1,-1,-1],"loss_changes":[4.421173E4,1.0326286E4,1.9747691E4,1.722334E3,6.431271E3,9.491721E3,6.068209E3,7.737793E2,1.2484819E3,2.3225464E3,1.516144E3,1.5896497E3,6.1753125E3,4.293117E3,4.306705E3,7.170127E2,4.1739502E2,3.184048E2,5.6414594E2,1.7869583E3,8.9401733E2,1.4424722E3,3.4800934E2,6.7901013E2,1.5857139E3,1.0063828E3,1.7367109E3,2.0050603E3,1.3461543E3,2.70233E3,8.6732227E2,1.0048596E2,7.461836E2,4.652173E2,8.849392E2,2.9075757E2,4.5490112E1,1.9734265E2,7.72287E1,4.2394434E2,9.669813E2,7.320657E2,0E0,5.9561084E2,2.4695508E2,1.14144104E2,2.3050603E2,4.6953674E2,6.3364935E2,1.7134331E3,1.1668755E3,8.5743945E2,2.5276057E2,1.0800781E3,2.9881482E2,2.1092285E2,3.503102E3,2.44149E2,8.2655566E2,1.9438873E2,4.115957E3,6.106112E2,1.7399902E2,1.8679749E1,8.577063E1,1.3887988E2,3.853169E2,2.6537396E2,1.5454196E2,0E0,1.3760638E2,6.982141E1,2.0167798E2,1.927716E1,4.2044983E1,1.0919304E2,7.877017E1,7.990445E1,6.1400085E1,3.1728125E2,1.11770836E2,8.709707E2,2.932058E2,4.810205E2,6.5647715E3,3.2503113E2,1.322732E2,7.295093E1,1.1107178E2,1.5766241E2,5.834671E1,1.5490735E2,1.5851045E2,1.5126659E2,2.2476181E2,3.2766394E2,2.594449E2,4.0254956E2,6.0077246E2,1.6769949E3,9.901173E2,5.814912E2,2.2996582E2,1.1492445E2,7.87817E2,5.300293E2,3.0556445E2,6.4047E1,1.0675799E2,1.1005925E2,1.4690015E2,1.2448237E3,2.1612104E3,0E0,6.125891E1,6.76958E2,1.3861771E1,0E0,0E0,1.6297734E3,0E0,1.3688867E2,1.7455432E2,1.325835E2,9.569971E1,0E0,0E0,0E0,0E0,0E0,0E0,0E0,0E0,0E0,0E0,0E0,0E0,0E0,0E0,0E0,0E0,0E0,0E0,0E0,0E0,0E0,0E0,0E0,0E0,0E0,0E0,0E0,0E0,0E0,0E0,0E0,0E0,0E0,0E0,0E0,0E0,0E0,0E0,0E0,0E0,0E0,0E0,0E0,0E0,0E0,0E0,0E0,0E0,0E0,0E0,0E0,0E0,0E0,0E0,0E0,0E0,0E0,0E0,0E0,0E0,0E0,0E0,0E0,0E0,0E0,0E0,0E0,0E0,0E0,0E0,0E0,0E0,0E0,0E0,0E0,0E0,0E0,0E0,0E0,0E0,0E0,0E0,0E0,0E0,0E0,0E0,0E0,0E0,0E0,0E0,0E0,0E0,0E0,0E0,0E0,0E0,0E0,0E0,0E0,0E0,0E0,0E0,0E0,0E0,0E0,0E0,0E0,0E0,0E0,0E0,0E0,0E0,0E0,0E0],"parents":[2147483647,0,0,1,1,2,2,3,3,4,4,5,5,6,6,7,7,8,8,9,9,10,10,11,11,12,12,13,13,14,14,15,15,16,16,17,17,18,18,19,19,20,20,21,21,22,22,23,23,24,24,25,25,26,26,27,27,28,28,29,29,30,30,31,31,32,32,33,33,34,34,35,35,36,36,37,37,38,38,39,39,40,40,41,41,43,43,44,44,45,45,46,46,47,47,48,48,49,49,50,50,51,51,52,52,53,53,54,54,55,55,56,56,57,57,58,58,59,59,60,60,61,61,62,62,63,63,64,64,65,65,66,66,67,67,68,68,70,70,71,71,72,72,73,73,74,74,75,75,76,76,77,77,78,78,79,79,80,80,81,81,82,82,83,83,84,84,85,85,86,86,87,87,88,88,89,89,90,90,91,91,92,92,93,93,94,94,95,95,96,96,97,97,98,98,99,99,100,100,101,101,102,102,103,103,104,104,105,105,106,106,107,107,108,108,109,109,110,110,111,111,112,112,114,114,115,115,116,116,119,119,121,121,122,122,123,123,124,124],"right_children":[2,4,6,8,10,12,14,16,18,20,22,24,26,28,30,32,34,36,38,40,42,44,46,48,50,52,54,56,58,60,62,64,66,68,70,72,74,76,78,80,82,84,-1,86,88,90,92,94,96,98,100,102,104,106,108,110,112,114,116,118,120,122,124,126,128,130,132,134,136,-1,138,140,142,144,146,148,150,152,154,156,158,160,162,164,166,168,170,172,174,176,178,180,182,184,186,188,190,192,194,196,198,200,202,204,206,208,210,212,214,216,218,220,222,-1,224,226,228,-1,-1,230,-1,232,234,236,238,-1,-1,-1,-1,-1,-1,-1,-1,-1,-1,-1,-1,-1,-1,-1,-1,-1,-1,-1,-1,-1,-1,-1,-1,-1,-1,-1,-1,-1,-1,-1,-1,-1,-1,-1,-1,-1,-1,-1,-1,-1,-1,-1,-1,-1,-1,-1,-1,-1,-1,-1,-1,-1,-1,-1,-1,-1,-1,-1,-1,-1,-1,-1,-1,-1,-1,-1,-1,-1,-1,-1,-1,-1,-1,-1,-1,-1,-1,-1,-1,-1,-1,-1,-1,-1,-1,-1,-1,-1,-1,-1,-1,-1,-1,-1,-1,-1,-1,-1,-1,-1,-1,-1,-1,-1,-1,-1,-1,-1,-1,-1,-1,-1,-1],"split_conditions":[9.471667E0,4.8635E0,2.4773912E1,3E-1,6E-1,2E-1,4E-1,3.7E1,3.403958E0,3E1,2.28E1,1.09E1,1.4262217E1,2.9E1,-5E-1,6.2E0,9.583333E-2,2.26E1,2.18E1,1.14E1,5.84E2,7.517208E0,6.874572E-1,1.6210417E1,5E1,2.46E1,4.9E1,1.1333334E-1,1.19E1,1.07083336E-1,1.49E1,3.8791666E0,2.515125E0,8.6E0,9.708333E-2,1.526625E0,9.9436E2,3.4E0,9.7609E2,-1.8369701E-16,2.32E1,1.1416667E-1,6.4515746E-1,1.43E1,6.1E0,2.42E1,2.7833334E-1,3.0602E2,-9.957283E-1,1.3102E1,-7.2251886E-1,1.136325E1,9.750985E-1,1.8E1,-4.5848712E-1,5.6E0,-3.1596187E-1,5.8333334E-2,2.9666665E-1,1.24E1,1.15833335E-1,1.41E1,1.8E1,-9.9351287E-1,6.4573E2,1.908667E0,1.0666667E-1,8.660254E-1,1.236326E4,7.316594E-1,4.457429E0,6E0,1.53E1,1E0,4.83603E3,3.68487E0,1.97E1,7.2E0,1.8E1,9.7E0,9E0,6.915208E0,1.0458333E-1,5.94025E0,1.14583336E-1,5.63613E0,6.22375E0,1.05E1,-9.736476E-1,3.0574307E-1,1.2375E-1,6.326375E0,1.2246469E-16,6.2916666E-2,6.1E1,5.9166666E-2,-8.660254E-1,9.6118265E-1,1.1708333E-1,7.2E1,1.725E-1,5E1,4.0614724E-1,2.7833334E-1,1.1708333E-1,1.8461082E1,1.8461082E1,1.08333334E-1,1.77E1,4E0,5.367E3,1.12E1,1.57E1,9.1872014E-2,-5E-1,1.1416667E-1,1.46E1,-5.5306435E-1,-9.475301E-2,9E-1,-6.0341984E-1,-9.8091614E-1,1.46E1,1E-1,-8.2048595E-1,4.5848098E-2,8.685305E-2,1.0073026E-1,1.8850374E-1,5.592567E-2,4.0949173E-2,2.3981435E-2,3.845085E-2,5.1100457E-1,2.9593144E-2,2.6213136E-1,5.2312415E-2,1.6536158E-1,2.6969427E-2,3.8832232E-2,6.3809454E-2,2.5382094E-2,4.3936335E-3,4.749134E-2,8.027745E-2,8.630602E-2,2.2605015E-2,2.1761067E-2,4.6773874E-3,-9.678084E-3,5.0737686E-3,3.0855767E-2,1.4403416E-3,5.0983045E-2,-1.6944189E-2,5.3789813E-2,2.6514798E-2,-2.0987581E-2,4.2198263E-2,4.3359734E-3,-1.7587775E-2,7.0416755E-3,3.5624947E-2,1.03496596E-1,3.1016896E-2,1.3196284E0,9.0811945E-2,-8.922277E-3,-2.6861042E-2,-4.104646E-2,-7.0703425E-2,-2.2986032E-2,-5.268291E-2,-1.6784362E-2,-8.074362E-2,1.2044835E-1,1.4621614E-2,8.7985545E-2,3.5907842E-2,1.095811E-2,-1.9653456E-2,1.8418784E-1,5.7040383E-3,6.335608E-3,-5.0636284E-2,2.4414688E-2,1.6884696E-1,-5.419562E-2,-3.7317562E-1,-9.284897E-2,-5.9833582E-3,-3.3632938E-2,-1.04202844E-1,-1.16492614E-1,-3.5553314E-2,5.5935573E-2,8.166355E-1,-7.6382206E-4,3.2222888E-1,-8.175724E-2,2.2137673E-1,-1.13895744E-1,-1.5725332E-1,-4.5541595E-3,-1.0710817E-1,-1.2169669E-1,2.7026254E-1,-1.8624564E-1,-2.6584032E-1,-2.8264526E-1,-4.6909758E-1,6.740671E-2,2.7627334E-1,-1.7442647E-1,9.0773895E-2,4.10487E-2,-1.9563119E-1,-2.3506531E-1,-4.0199184E-1,-1.7817773E-1,5.1021117E-1,2.996687E-1,-5.422658E-1,-5.426345E-2,-3.045306E-1,-4.615192E-1,-8.0977404E-1,-2.4621798E-1,-9.1738E-2,-7.541314E-1,-2.5350924E0,