{"learner":{"attributes":{"scikit_learn":"{\"_estimator_type\": \"regressor\"}"},"feature_names":["pm25_lag_7","pm25_ema_3d","month_sin","month_cos","day_of_year_sin","day_of_year_cos","future_temp","future_wind","future_precip","pm25_momentum","future_temp_momentum","future_wind_momentum","fire_density_100km","fire_radiative_power_total","fire_wind_interaction","aod_mean_lag_1","aod_max_lag_1","wind_u","wind_v"],"feature_types":["float","float","float","float","float","float","float","float","float","float","float","float","float","float","float","float","float","float","float"],"gradient_booster":{"model":{"cats":{"enc":[],"feature_segments":[],"sorted_idx":[]},"gbtree_model_param":{"num_parallel_tree":"1","num_trees":"300"},"iteration_indptr":[0,1,2,3,4,5,6,7,8,9,10,11,12,13,14,15,16,17,18,19,20,21,22,23,24,25,26,27,28,29,30,31,32,33,34,35,36,37,38,39,40,41,42,43,44,45,46,47,48,49,50,51,52,53,54,55,56,57,58,59,60,61,62,63,64,65,66,67,68,69,70,71,72,73,74,75,76,77,78,79,80,81,82,83,84,85,86,87,88,89,90,91,92,93,94,95,96,97,98,99,100,101,102,103,104,105,106,107,108,109,110,111,112,113,114,115,116,117,118,119,120,121,122,123,124,125,126,127,128,129,130,131,132,133,134,135,136,137,138,139,140,141,142,143,144,145,146,147,148,149,150,151,152,153,154,155,156,157,158,159,160,161,162,163,164,165,166,167,168,169,170,171,172,173,174,175,176,177,178,179,180,181,182,183,184,185,186,187,188,189,190,191,192,193,194,195,196,197,198,199,200,201,202,203,204,205,206,207,208,209,210,211,212,213,214,215,216,217,218,219,220,221,222,223,224,225,226,227,228,229,230,231,232,233,234,235,236,237,238,239,240,241,242,243,244,245,246,247,248,249,250,251,252,253,254,255,256,257,258,259,260,261,262,263,264,265,266,267,268,269,270,271,272,273,274,275,276,277,278,279,280,281,282,283,284,285,286,287,288,289,290,291,292,293,294,295,296,297,298,299,300],"tree_info":[0,0,0,0,0,0,0,0,0,0,0,0,0,0,0,0,0,0,0,0,0,0,0,0,0,0,0,0,0,0,0,0,0,0,0,0,0,0,0,0,0,0,0,0,0,0,0,0,0,0,0,0,0,0,0,0,0,0,0,0,0,0,0,0,0,0,0,0,0,0,0,0,0,0,0,0,0,0,0,0,0,0,0,0,0,0,0,0,0,0,0,0,0,0,0,0,0,0,0,0,0,0,0,0,0,0,0,0,0,0,0,0,0,0,0,0,0,0,0,0,0,0,0,0,0,0,0,0,0,0,0,0,0,0,0,0,0,0,0,0,0,0,0,0,0,0,0,0,0,0,0,0,0,0,0,0,0,0,0,0,0,0,0,0,0,0,0,0,0,0,0,0,0,0,0,0,0,0,0,0,0,0,0,0,0,0,0,0,0,0,0,0,0,0,0,0,0,0,0,0,0,0,0,0,0,0,0,0,0,0,0,0,0,0,0,0,0,0,0,0,0,0,0,0,0,0,0,0,0,0,0,0,0,0,0,0,0,0,0,0,0,0,0,0,0,0,0,0,0,0,0,0,0,0,0,0,0,0,0,0,0,0,0,0,0,0,0,0,0,0,0,0,0,0,0,0,0,0,0,0,0,0,0,0,0,0,0,0,0,0,0,0,0,0,0,0,0,0,0,0],"trees":[{"base_weights":[4.4818126E-2,1.7209178E0,-1.5875717E1,7.2392616E0,4.731738E-1,-1.1514441E1,-2.6667316E1,1.9088954E0,1.150114E1,1.9280547E0,-2.6989825E0,2.3989428E1,-1.2213176E1,-2.322512E1,-4.5588043E1,3.1910622E0,-1.7232593E0,4.2334824E0,1.5008799E1,3.6805012E0,1.2627867E0,-1.8236992E0,-6.0889645E0,1.6020492E0,1.1021805E1,-1.5233746E1,-8.022325E0,-1.324253E1,-2.5183804E1,-8.575751E1,-3.4962963E1,1.6519984E0,4.9971E0,-7.582005E-1,-4.0622435E0,7.463201E0,2.3744378E0,1.709612E1,1.0967966E1,1.8142749E0,6.024649E0,2.4323885E0,3.057559E-1,-1.8815548E0,1.5428677E0,-8.531094E0,-9.544024E-1,8.243562E0,4.8646367E-1,-1.2109203E1,-1.8270626E1,-4.5268005E-1,-8.888336E0,-1.5461439E1,9.253411E0,-2.2315844E1,-2.819291E1,-6.750143E-1,-1.0764434E2,-2.616578E0,-3.9796066E1,2.7962055E0,6.420404E-1,4.1000576E0,7.0069227E0,-1.6060852E0,8.6751217E-1,-4.2782855E0,1.48277E-1,1.4521954E1,6.637433E0,1.7690075E1,1.9156448E0,1.5481394E1,2.157751E1,1.736851E1,8.395925E0,8.199321E-1,3.9185066E0,1.1657148E1,3.3052483E0,8.609907E-1,2.8038437E0,-1.5062448E-1,1.7255471E0,-2.5878878E0,2.3970565E-1,-7.3826046E0,-9.954738E0,3.906875E0,-4.257836E0,1.155489E-1,9.435202E0,-6.95118E0,-1.2777595E1,-1.1501737E1,-1.8665325E1,-6.458421E0,4.017795E0,-5.004166E0,-1.1195746E1,-8.096087E0,-1.9302082E1,9.385009E-1,-4.108876E0,-1.866984E1,-8.100004E-1,-1.3549534E1,-2.8748873E1,-5.9679956E0,-7.128252E1,2.9517084E-1,-9.887915E0,-2.0051923E-1,-1.3529757E0,4.310655E-2,1.3353391E-1,5.4131866E-2,-1.0774083E-2,5.862866E-2,1.7464198E-1,2.726465E-1,1.877204E-1,-1.1474382E-2,-8.873416E-2,5.327703E-2,-1.13884665E-1,-1.6832718E-1,-8.097253E-2,3.1131852E-1,6.1599857E-1,2.749365E-1,1.6496676E-1,5.661263E-2,7.0848584E-1,9.265061E-2,-1.7237271E-1,4.1516677E-1,5.828024E-1,6.0614014E-1,9.7543454E-1,1.0436049E0,4.759441E-1,3.4314066E-1,1.12127885E-1,2.2859852E-1,2.002588E-2,1.670971E-1,9.060967E-2,1.4811458E-1,4.5453286E-1,9.0787254E-2,2.2471116E-1,2.1710134E-1,2.4318628E-2,1.891631E-1,7.993389E-2,-7.949643E-3,1.2464957E-1,4.3769885E-2,2.514067E-1,-7.6365713E-3,-1.0946796E-1,7.760625E-2,-4.8347436E-2,-2.6731E-1,-1.5153745E-1,-1.5182508E-2,-3.3090422E-1,2.5642708E-1,-1.5127571E-2,-8.490724E-2,-2.482093E-1,1.1934266E-1,3.874807E-1,-3.6166605E-1,-1.3407741E-1,-3.3986485E-1,-4.414683E-1,-4.3536946E-1,-1.9560307E-2,-5.709294E-1,-6.934318E-1,-2.7866182E-1,3.1665233E-1,-6.765492E-2,2.6261675E-1,-2.7742317E-1,-9.1915764E-2,-4.3121785E-1,-2.9710928E-1,-3.761364E-1,1.2241507E-1,-6.721911E-1,-3.1360248E-1,5.607409E-2,-2.8206226E-1,-7.03795E-1,-4.7901756E-1,-6.017616E-1,1.11641325E-2,-8.7329E-1,-1.0768237E0,-1.203761E0,-3.0304208E0,-3.976331E-1,-1.2242487E-1],"categories":[],"categories_nodes":[],"categories_segments":[],"categories_sizes":[],"default_left":[0,0,0,0,0,0,0,0,0,0,0,0,0,0,0,0,0,0,0,0,0,0,0,0,0,0,0,0,0,0,0,0,0,0,0,0,0,0,0,0,0,0,0,0,0,0,0,0,0,0,0,0,0,0,0,0,0,0,0,0,0,0,0,0,0,0,0,0,0,0,0,0,0,0,0,0,0,0,0,0,0,0,0,0,0,0,0,0,0,0,0,0,0,0,0,0,0,0,0,0,0,0,0,0,0,0,0,0,0,0,0,0,0,0,0,0,0,0,0,0,0,0,0,0,0,0,0,0,0,0,0,0,0,0,0,0,0,0,0,0,0,0,0,0,0,0,0,0,0,0,0,0,0,0,0,0,0,0,0,0,0,0,0,0,0,0,0,0,0,0,0,0,0,0,0,0,0,0,0,0,0,0,0,0,0,0,0,0,0,0,0,0,0,0,0,0,0,0,0,0,0,0,0,0,0,0,0],"id":0,"left_children":[1,3,5,7,9,11,13,15,17,19,21,23,25,27,29,31,33,35,37,39,41,43,45,-1,47,49,51,53,55,57,59,61,63,65,67,69,71,73,75,77,79,81,83,85,-1,87,89,91,-1,93,95,97,99,101,103,105,107,-1,109,111,113,115,117,119,121,123,125,127,-1,129,131,133,135,137,139,141,143,145,147,149,151,153,155,157,159,161,163,165,167,169,171,-1,173,175,177,179,181,183,185,187,189,191,193,-1,195,197,-1,199,201,-1,203,-1,205,-1,-1,-1,-1,-1,-1,-1,-1,-1,-1,-1,-1,-1,-1,-1,-1,-1,-1,-1,-1,-1,-1,-1,-1,-1,-1,-1,-1,-1,-1,-1,-1,-1,-1,-1,-1,-1,-1,-1,-1,-1,-1,-1,-1,-1,-1,-1,-1,-1,-1,-1,-1,-1,-1,-1,-1,-1,-1,-1,-1,-1,-1,-1,-1,-1,-1,-1,-1,-1,-1,-1,-1,-1,-1,-1,-1,-1,-1,-1,-1,-1,-1,-1,-1,-1,-1,-1,-1,-1,-1,-1,-1,-1,-1],"loss_changes":[4.8157406E5,1.12422695E5,8.059794E4,6.838005E4,6.1469234E4,3.070736E4,3.1114875E4,6.2412607E3,4.2585375E4,1.0640699E4,1.2415504E4,7.10779E3,1.5106281E4,7.8786562E3,2.9011953E4,2.7435557E3,7.8695996E2,3.2605684E3,9.326625E3,1.0978344E4,7.4093203E3,9.446815E3,1.0763086E4,0E0,5.4152344E1,6.4019844E3,3.313004E3,3.6871377E3,2.3913438E3,1.9237125E4,9.432211E3,6.1760693E2,7.9158887E2,3.4461908E2,2.0775452E2,1.0635615E3,2.4114058E3,5.03525E3,6.2251523E3,2.9260454E3,1.700932E4,1.7364414E3,2.360148E3,4.9855205E3,0E0,8.7810156E2,4.4810107E3,3.477301E1,0E0,1.1074883E3,7.2575E2,1.4489199E3,4.0128906E3,1.6824277E3,1.9114368E3,1.0375156E3,9.700469E2,0E0,1.6388812E4,8.450282E2,1.9011562E3,4.6228845E2,2.770689E2,8.6863086E2,1.8301074E2,2.225325E2,2.829836E2,1.3756213E2,0E0,2.4566748E2,4.5793652E2,5.668777E2,2.1733083E3,3.2481562E3,4.4266484E3,4.1635977E3,2.7467832E3,1.2347168E3,5.890405E2,5.4309336E3,1.4414512E3,4.002019E2,2.678123E3,9.7850104E2,2.0740725E3,4.2889375E3,2.9990552E3,6.15709E2,1.7269727E2,1.9094097E3,8.9346533E2,0E0,7.8332214E1,4.4171277E2,3.1747656E2,3.9808276E2,6.9677344E2,8.142942E2,7.575083E2,1.2676035E3,1.0476172E3,9.7785046E2,2.4570215E2,0E0,1.4341882E2,5.0728906E2,0E0,5.267593E2,5.56125E2,0E0,3.0869023E3,0E0,3.5424377E1,0E0,0E0,0E0,0E0,0E0,0E0,0E0,0E0,0E0,0E0,0E0,0E0,0E0,0E0,0E0,0E0,0E0,0E0,0E0,0E0,0E0,0E0,0E0,0E0,0E0,0E0,0E0,0E0,0E0,0E0,0E0,0E0,0E0,0E0,0E0,0E0,0E0,0E0,0E0,0E0,0E0,0E0,0E0,0E0,0E0,0E0,0E0,0E0,0E0,0E0,0E0,0E0,0E0,0E0,0E0,0E0,0E0,0E0,0E0,0E0,0E0,0E0,0E0,0E0,0E0,0E0,0E0,0E0,0E0,0E0,0E0,0E0,0E0,0E0,0E0,0E0,0E0,0E0,0E0,0E0,0E0,0E0,0E0,0E0,0E0,0E0,0E0,0E0,0E0,0E0,0E0,0E0,0E0,0E0],"parents":[2147483647,0,0,1,1,2,2,3,3,4,4,5,5,6,6,7,7,8,8,9,9,10,10,11,11,12,12,13,13,14,14,15,15,16,16,17,17,18,18,19,19,20,20,21,21,22,22,24,24,25,25,26,26,27,27,28,28,29,29,30,30,31,31,32,32,33,33,34,34,35,35,36,36,37,37,38,38,39,39,40,40,41,41,42,42,43,43,45,45,46,46,47,47,49,49,50,50,51,51,52,52,53,53,54,54,55,55,56,56,58,58,59,59,60,60,61,61,62,62,63,63,64,64,65,65,66,66,67,67,69,69,70,70,71,71,72,72,73,73,74,74,75,75,76,76,77,77,78,78,79,79,80,80,81,81,82,82,83,83,84,84,85,85,86,86,87,87,88,88,89,89,90,90,92,92,93,93,94,94,95,95,96,96,97,97,98,98,99,99,100,100,101,101,102,102,104,104,105,105,107,107,108,108,110,110,112,112],"right_children":[2,4,6,8,10,12,14,16,18,20,22,24,26,28,30,32,34,36,38,40,42,44,46,-1,48,50,52,54,56,58,60,62,64,66,68,70,72,74,76,78,80,82,84,86,-1,88,90,92,-1,94,96,98,100,102,104,106,108,-1,110,112,114,116,118,120,122,124,126,128,-1,130,132,134,136,138,140,142,144,146,148,150,152,154,156,158,160,162,164,166,168,170,172,-1,174,176,178,180,182,184,186,188,190,192,194,-1,196,198,-1,200,202,-1,204,-1,206,-1,-1,-1,-1,-1,-1,-1,-1,-1,-1,-1,-1,-1,-1,-1,-1,-1,-1,-1,-1,-1,-1,-1,-1,-1,-1,-1,-1,-1,-1,-1,-1,-1,-1,-1,-1,-1,-1,-1,-1,-1,-1,-1,-1,-1,-1,-1,-1,-1,-1,-1,-1,-1,-1,-1,-1,-1,-1,-1,-1,-1,-1,-1,-1,-1,-1,-1,-1,-1,-1,-1,-1,-1,-1,-1,-1,-1,-1,-1,-1,-1,-1,-1,-1,-1,-1,-1,-1,-1,-1,-1,-1,-1,-1],"split_conditions":[1.700875E1,1.41E1,2.8781584E1,1.2546124E-1,8.041667E0,7.7E0,4.550386E1,8.970166E0,-5.4E0,1.89E1,1.3612458E1,6E0,3.7447366E-1,1.61E1,1.2E-1,3E-1,1.3041667E1,5.6369166E0,4.6801534E-1,1.2546124E-1,4.7363634E0,2.9913515E1,8.041872E-1,1.6020492E0,9.7113943E-1,2.1183292E1,1.25E1,3.1E0,3.3140793E1,4.0148186E1,-8.811917E-1,5.2004166E0,1.9E0,3.302E2,5.3E-1,2.4372971E-1,7.1E0,6.6735E2,1.03E1,5E-1,4.8314747E-1,-5.1850516E-1,8.142924E-1,7.93844E-1,1.5428677E0,1.5291667E1,3.589855E0,1.5628543E1,4.8646367E-1,1.51E1,1.49E1,-3.3E0,1.9508198E1,1.24E1,-1.2E0,2.43E1,9E-2,-6.750143E-1,1.55E1,-8.0425E0,-1.4237416E1,-6.9E0,-3.8044736E-1,-4.9253273E-1,3.4296E2,1.0672334E1,-1.1478762E-1,1.4E0,1.48277E-1,-1.6705834E0,1.17E1,-9.6E0,1.2889125E1,-2E-1,3E-1,1E-1,9.198083E0,-4.6E0,5.06788E0,-3.5E0,2.1E-1,-4.9E0,1.8307692E0,3.12351E3,1.0277827E1,1.76E1,7.8229165E-1,3.3239E2,5E-2,-4E-1,8.950459E0,1.155489E-1,-1.3E0,-6.2E0,1.775E1,1.8E0,2.5633E1,2.9528E2,1.6E-1,7.832659E-1,1.6E-1,-2.4E0,1.57E1,9.385009E-1,2.4781393E1,3.9E0,-8.100004E-1,3.8625E1,3.8625E1,-5.9679956E0,-3E-1,2.9517084E-1,7E0,-2.0051923E-1,-1.3529757E0,4.310655E-2,1.3353391E-1,5.4131866E-2,-1.0774083E-2,5.862866E-2,1.7464198E-1,2.726465E-1,1.877204E-1,-1.1474382E-2,-8.873416E-2,5.327703E-2,-1.13884665E-1,-1.6832718E-1,-8.097253E-2,3.1131852E-1,6.1599857E-1,2.749365E-1,1.6496676E-1,5.661263E-2,7.0848584E-1,9.265061E-2,-1.7237271E-1,4.1516677E-1,5.828024E-1,6.0614014E-1,9.7543454E-1,1.0436049E0,4.759441E-1,3.4314066E-1,1.12127885E-1,2.2859852E-1,2.002588E-2,1.670971E-1,9.060967E-2,1.4811458E-1,4.5453286E-1,9.0787254E-2,2.2471116E-1,2.1710134E-1,2.4318628E-2,1.891631E-1,7.993389E-2,-7.949643E-3,1.2464957E-1,4.3769885E-2,2.514067E-1,-7.6365713E-3,-1.0946796E-1,7.760625E-2,-4.8347436E-2,-2.6731E-1,-1.5153745E-1,-1.5182508E-2,-3.3090422E-1,2.5642708E-1,-1.5127571E-2,-8.490724E-2,-2.482093E-1,1.1934266E-1,3.874807E-1,-3.6166605E-1,-1.3407741E-1,-3.3986485E-1,-4.414683E-1,-4.3536946E-1,-1.9560307E-2,-5.709294E-1,-6.934318E-1,-2.7866182E-1,3.1665233E-1,-6.765492E-2,2.6261675E-1,-2.7742317E-1,-9.1915764E-2,-4.3121785E-1,-2.9710928E-1,-3.761364E-1,1.2241507E-1,-6.721911E-1,-3.1360248E-1,5.607409E-2,-2.8206226E-1,-7.03795E-1,-4.7901756E-1,-6.017616E-1,1.11641325E-2,-8.7329E-1,-1.0768237E0,-1.203761E0,-3.0304208E0,-3.976331E-1,-1.2242487E-1],"split_indices":[0,7,0,5,0,7,0,0,11,7,0,7,5,7,16,10,0,0,5,5,0,1,5,0,5,0,7,11,0,1,5,0,10,13,16,5,7,13,7,10,5,5,5,5,0,0,9,1,0,7,7,11,0,7,10,7,16,0,7,9,9,11,5,5,13,0,5,10,0,9,7,11,0,10,10,16,0,10,0,11,16,10,0,13,1,7,9,13,16,10,9,0,10,11,0,10,0,13,16,5,16,11,7,0,1,11,0,0,0,0,10,0,9,0,0,0,0,0,0,0,0,0,0,0,0,0,0,0,0,0,0,0,0,0,0,0,0,0,0,0,0,0,0,0,0,0,0,0,0,0,0,0,0,0,0,0,0,0,0,0,0,0,0,0,0,0,0,0,0,0,0,0,0,0,0,0,0,0,0,0,0,0,0,0,0,0,0,0,0,0,0,0,0,0,0,0,0,0,0,0,0,0,0,0,0,0,0],"split_type":[0,0,0,0,0,0,0,0,0,0,0,0,0,0,0,0,0,0,0,0,0,0,0,0,0,0,0,0,0,0,0,0,0,0,0,0,0,0,0,0,0,0,0,0,0,0,0,0,0,0,0,0,0,0,0,0,0,0,0,0,0,0,0,0,0,0,0,0,0,0,0,0,0,0,0,0,0,0,0,0,0,0,0,0,0,0,0,0,0,0,0,0,0,0,0,0,0,0,0,0,0,0,0,0,0,0,0,0,0,0,0,0,0,0,0,0,0,0,0,0,0,0,0,0,0,0,0,0,0,0,0,0,0,0,0,0,0,0,0,0,0,0,0,0,0,0,0,0,0,0,0,0,0,0,0,0,0,0,0,0,0,0,0,0,0,0,0,0,0,0,0,0,0,0,0,0,0,0,0,0,0,0,0,0,0,0,0,0,0,0,0,0,0,0,0,0,0,0,0,0,0,0,0,0,0,0,0],"sum_hessian":[1.8045E4,1.6327E4,1.718E3,3.01E3,1.3317E4,1.225E3,4.93E2,1.338E3,1.672E3,9.13E3,4.187E3,2.3E1,1.202E3,4.19E2,7.4E1,9.89E2,3.49E2,5.45E2,1.127E3,2.511E3,6.619E3,3.329E3,8.58E2,7E0,1.6E1,6.97E2,5.05E2,7E1,3.49E2,1.4E1,6E1,5.35E2,4.54E2,2.48E2,1.01E2,1.98E2,3.47E2,7.41E2,3.86E2,1.399E3,1.112E3,2.978E3,3.641E3,3.326E3,3E0,5.81E2,2.77E2,1.1E1,5E0,3.46E2,3.51E2,5.2E1,4.53E2,6.4E1,6E0,1.83E2,1.66E2,4E0,1E1,8E0,5.2E1,2.5E2,2.85E2,3.16E2,1.38E2,1.63E2,8.5E1,9.9E1,2E0,1.9E1,1.79E2,9E0,3.38E2,5.48E2,1.93E2,1.09E2,2.77E2,9.51E2,4.48E2,3.61E2,7.51E2,5.7E2,2.408E3,2.756E3,8.85E2,2.495E3,8.31E2,3.25E2,2.56E2,1.12E2,1.65E2,3E0,8E0,4.1E1,3.05E2,2.1E1,3.3E2,2.2E1,3E1,1.7E2,2.83E2,2.3E1,4.1E1,2E0,4E0,7.3E1,1.1E2,7E0,1.59E2,2E0,8E0,3E0,5E0,2E0,5E1,1.15E2,1.35E2,1.4E2,1.45E2,1.08E2,2.08E2,6.8E1,7E1,7.6E1,8.7E1,7.3E1,1.2E1,6.7E1,3.2E1,1E1,9E0,8.6E1,9.3E1,2E0,7E0,3.01E2,3.7E1,2.38E2,3.1E2,1.4E2,5.3E1,1.7E1,9.2E1,1.97E2,8E1,3.1E1,9.2E2,2.25E2,2.23E2,8.3E1,2.78E2,6.5E2,1.01E2,1.1E1,5.59E2,2.76E2,2.132E3,2.695E3,6.1E1,8.3E2,5.5E1,5.9E2,1.905E3,3.71E2,4.6E2,2.57E2,6.8E1,2E0,2.54E2,5.9E1,5.3E1,1.1E2,5.5E1,3E0,5E0,1.6E1,2.5E1,6.3E1,2.42E2,1.8E1,3E0,2.14E2,1.16E2,2E1,2E0,1.2E1,1.8E1,6.6E1,1.04E2,1.5E2,1.33E2,1.8E1,5E0,3.6E1,5E0,2E0,2E0,4.2E1,3.1E1,5E0,2E0,1.05E2,5.4E1,4E0,4E0,3E0,2E0],"tree_param":{"num_deleted":"0","num_feature":"19","num_nodes":"207","size_leaf_vector":"1"}},{"base_weights":[-4.5613308E-2,1.7320535E0,-1.4520749E1,3.2072673E0,-1.4920979E0,-1.08171015E1,-2.5624802E1,2.054104E0,8.597888E0,-6.5119123E-1,-4.4583607E0,-1.2633743E1,-3.4276533E0,-2.2494213E1,-4.3704597E1,3.40999E0,1.3074994E0,6.34991E0,1.2483601E1,4.0595722E-1,-1.5597137E0,-5.665523E0,-8.035869E-1,-9.527573E0,-1.5227481E1,1.6984028E1,-4.581794E0,-2.4641607E1,-1.9172972E1,-1.0663945E2,-3.4171497E1,6.335904E0,2.8365052E0,9.320008E0,1.219195E0,1.0188805E1,3.897205E0,1.1331156E1,2.0878386E1,-2.8395483E-1,3.9874463E0,-2.1179328E0,9.7523206E-1,-9.987951E0,-5.308683E0,3.9551933E0,-3.402016E0,-1.0397406E1,-7.6398706E0,-1.2425353E1,-1.7216217E1,-4.168697E0,3.0092531E1,-2.8741908E0,-1.2985991E1,-2.20963E1,-2.7387922E1,-2.1857422E1,-1.2783864E1,-6.3838978E1,-4.75795E0,-8.026309E0,-4.005065E1,3.8169131E0,8.996867E0,2.9420707E-2,3.2190096E0,4.6716765E-1,1.3047493E1,7.871882E-1,2.7317796E0,7.244036E0,1.4795557E1,2.4890459E0,6.56371E0,1.4181855E1,9.667834E0,1.5619774E1,2.4247019E1,-7.5962925E-1,1.4712358E0,-2.3782809E0,5.203444E0,-1.5955904E0,-4.0163975E0,8.748737E0,9.620913E-2,-1.062636E1,-2.152007E0,-4.555359E0,-7.289088E0,1.0578165E-1,7.8810053E0,-3.6684802E0,4.981274E0,-1.0523922E1,-9.4699776E-1,-6.680853E0,-1.343528E1,-1.2706929E1,3.1968325E-1,-1.554142E1,-6.5018624E-1,2.9133594E-2,-2.1007396E-1,1.3683071E0,8.809647E-2,-5.48383E-1,-5.5363703E0,-1.4335224E1,-1.3770214E0,-3.1934568E-1,-2.2493412E1,-2.4564335E1,-1.002782E0,6.11851E-4,-2.223153E1,-1.5115321E1,-6.447662E0,-5.3953534E-1,-2.7553778E0,1.0616264E1,-1.7491482E1,-1.7512654E-1,-1.3640308E0,4.387425E-2,1.5284081E-1,1.2232897E-1,3.9185643E-1,2.1246238E-2,-2.4802456E-2,1.6076691E-1,9.257963E-2,-9.936023E-2,5.0320733E-2,1.1569874E0,3.314778E-1,2.1018652E-2,1.4780535E-1,8.176935E-2,2.4225838E-1,1.0733496E-1,2.8326827E-1,5.4297614E-1,2.9236832E-1,2.7464437E-1,6.8300165E-2,-4.351139E-3,2.60205E-1,8.4112436E-1,4.5425183E-1,3.5314295E-1,2.0229329E-1,5.4371446E-1,1.5342838E-1,9.1782415E-1,6.086674E-1,2.6923427E-1,-2.8251065E-2,1.04857326E-1,-9.445743E-3,-9.106037E-2,2.4733126E-2,1.0864885E-1,2.7213752E-1,-1.911548E-1,-4.5257118E-2,-1.5056896E-1,-5.963459E-2,8.2892895E-1,1.4463103E-1,6.41431E-2,-2.293155E-2,-2.6660252E-1,-3.7379566E-1,4.1373085E-2,-1.3755417E-1,-1.5620334E-1,7.634243E-2,-2.5907195E-1,-1.03279404E-1,-1.5715347E-1,4.6505336E-2,-2.643581E-2,3.1662214E-1,2.3264889E-2,-1.3465077E-1,2.998683E-1,-7.10603E-2,-3.489098E-1,-3.4920294E-2,6.814484E-2,-9.798502E-2,-1.4092807E-1,-2.5334588E-1,-1.7829886E-1,-4.593566E-1,-5.349944E-1,-3.5654077E-1,-4.5426795E-1,-5.3087664E-1,6.8053484E-2,-1.0812344E-1,-2.9497766E-1,-3.9197713E-2,-3.9209494E-1,-5.4252183E-1,1.6079779E-1,-1.8876089E-1,-3.0768153E-1,-7.4660194E-1,-8.931162E-1,-6.667712E-1,-1.2518744E-1,-7.4313366E-1,-2.8293592E-1,-6.272886E-1,1.7789158E-1,-3.1661016E-1,3.1233959E-2,5.526606E-1,-2.3067757E-1,-8.0831647E-1],"categories":[],"categories_nodes":[],"categories_segments":[],"categories_sizes":[],"default_left":[0,0,0,0,0,0,0,0,0,0,0,0,0,0,0,0,0,0,0,0,0,0,0,0,0,0,0,0,0,0,0,0,0,0,0,0,0,0,0,0,0,0,0,0,0,0,0,0,0,0,0,0,0,0,0,0,0,0,0,0,0,0,0,0,0,0,0,0,0,0,0,0,0,0,0,0,0,0,0,0,0,0,0,0,0,0,0,0,0,0,0,0,0,0,0,0,0,0,0,0,0,0,0,0,0,0,0,0,0,0,0,0,0,0,0,0,0,0,0,0,0,0,0,0,0,0,0,0,0,0,0,0,0,0,0,0,0,0,0,0,0,0,0,0,0,0,0,0,0,0,0,0,0,0,0,0,0,0,0,0,0,0,0,0,0,0,0,0,0,0,0,0,0,0,0,0,0,0,0,0,0,0,0,0,0,0,0,0,0,0,0,0,0,0,0,0,0,0,0,0,0,0,0,0,0,0,0,0,0,0,0,0,0,0,0,0,0,0,0,0,0,0,0],"id":1,"left_children":[1,3,5,7,9,11,13,15,17,19,21,23,25,27,29,31,33,35,37,39,41,43,45,47,49,51,53,55,57,59,61,63,65,67,69,71,73,75,77,79,81,83,85,87,89,91,93,95,97,99,101,103,105,107,109,111,113,115,117,119,-1,121,123,125,127,129,131,133,135,137,139,141,143,145,147,149,151,153,155,157,159,161,163,165,167,169,171,173,175,177,179,181,183,185,187,189,191,193,195,197,-1,199,-1,-1,-1,-1,-1,201,203,205,207,-1,209,211,-1,-1,213,215,217,-1,-1,219,221,-1,-1,-1,-1,-1,-1,-1,-1,-1,-1,-1,-1,-1,-1,-1,-1,-1,-1,-1,-1,-1,-1,-1,-1,-1,-1,-1,-1,-1,-1,-1,-1,-1,-1,-1,-1,-1,-1,-1,-1,-1,-1,-1,-1,-1,-1,-1,-1,-1,-1,-1,-1,-1,-1,-1,-1,-1,-1,-1,-1,-1,-1,-1,-1,-1,-1,-1,-1,-1,-1,-1,-1,-1,-1,-1,-1,-1,-1,-1,-1,-1,-1,-1,-1,-1,-1,-1,-1,-1,-1,-1,-1,-1,-1,-1,-1,-1,-1,-1,-1],"loss_changes":[4.6628844E5,7.676692E4,8.123353E4,6.881503E4,1.2635971E4,1.9931562E4,2.7034094E4,9.230855E3,1.6962719E4,3.7934236E3,4.932369E3,9.474484E3,7.027409E3,2.5515312E3,3.955339E4,5.416965E3,4.152508E3,1.1616898E4,6.6710312E3,4.513018E3,3.0076426E3,1.2441504E3,3.463389E3,8.1708984E2,3.4027812E3,4.561936E3,3.9809644E3,1.1703438E3,2.6534414E3,5.2565703E3,9.516086E3,3.5182188E3,2.9096895E3,2.10583E3,3.8022168E3,6.431547E3,2.8260947E3,2.850125E3,1.1269844E3,1.2801833E3,2.2958853E3,1.7200522E3,2.6230642E3,2.92292E2,1.1289746E3,1.4952609E3,4.2260034E2,4.3360938E2,8.8843066E2,1.8229062E3,1.2636953E3,8.331394E1,3.0076592E3,1.4458257E3,7.1643164E2,4.5798438E2,2.5290625E2,9.742969E2,6.854883E2,4.235961E3,0E0,2.4796116E3,2.0997266E3,5.4904614E2,3.8680742E3,1.5691708E2,1.616498E3,7.8166855E1,2.6222314E3,2.5100361E3,1.4951592E3,1.5550762E3,1.6949258E3,1.1985596E3,2.3100479E3,7.3266016E2,1.4005117E3,2.616289E2,5.2155273E2,1.0444894E3,9.8148413E2,5.9287445E1,1.4151226E3,1.2781377E3,4.44354E2,2.6773352E3,5.0705826E2,1.2033203E1,4.642787E1,7.044834E2,4.7296094E2,3.3032184E2,7.3669214E2,3.1988745E2,1.9532042E2,1.5892578E2,4.267741E1,3.3462402E2,1.821289E1,1.6254375E3,0E0,1.4414062E0,0E0,0E0,0E0,0E0,0E0,9.041243E2,1.6020715E3,2.156543E1,1.9072617E2,0E0,1.6601562E1,1.7236719E2,0E0,0E0,5.3515234E2,8.0483887E2,6.4772345E2,0E0,0E0,2.8057733E2,4.9063647E2,0E0,0E0,0E0,0E0,0E0,0E0,0E0,0E0,0E0,0E0,0E0,0E0,0E0,0E0,0E0,0E0,0E0,0E0,0E0,0E0,0E0,0E0,0E0,0E0,0E0,0E0,0E0,0E0,0E0,0E0,0E0,0E0,0E0,0E0,0E0,0E0,0E0,0E0,0E0,0E0,0E0,0E0,0E0,0E0,0E0,0E0,0E0,0E0,0E0,0E0,0E0,0E0,0E0,0E0,0E0,0E0,0E0,0E0,0E0,0E0,0E0,0E0,0E0,0E0,0E0,0E0,0E0,0E0,0E0,0E0,0E0,0E0,0E0,0E0,0E0,0E0,0E0,0E0,0E0,0E0,0E0,0E0,0E0,0E0,0E0,0E0,0E0,0E0,0E0,0E0,0E0,0E0,0E0,0E0,0E0,0E0,0E0,0E0,0E0,0E0],"parents":[2147483647,0,0,1,1,2,2,3,3,4,4,5,5,6,6,7,7,8,8,9,9,10,10,11,11,12,12,13,13,14,14,15,15,16,16,17,17,18,18,19,19,20,20,21,21,22,22,23,23,24,24,25,25,26,26,27,27,28,28,29,29,30,30,31,31,32,32,33,33,34,34,35,35,36,36,37,37,38,38,39,39,40,40,41,41,42,42,43,43,44,44,45,45,46,46,47,47,48,48,49,49,50,50,51,51,52,52,53,53,54,54,55,55,56,56,57,57,58,58,59,59,61,61,62,62,63,63,64,64,65,65,66,66,67,67,68,68,69,69,70,70,71,71,72,72,73,73,74,74,75,75,76,76,77,77,78,78,79,79,80,80,81,81,82,82,83,83,84,84,85,85,86,86,87,87,88,88,89,89,90,90,91,91,92,92,93,93,94,94,95,95,96,96,97,97,98,98,99,99,101,101,107,107,108,108,109,109,110,110,112,112,113,113,116,116,117,117,118,118,121,121,122,122],"right_children":[2,4,6,8,10,12,14,16,18,20,22,24,26,28,30,32,34,36,38,40,42,44,46,48,50,52,54,56,58,60,62,64,66,68,70,72,74,76,78,80,82,84,86,88,90,92,94,96,98,100,102,104,106,108,110,112,114,116,118,120,-1,122,124,126,128,130,132,134,136,138,140,142,144,146,148,150,152,154,156,158,160,162,164,166,168,170,172,174,176,178,180,182,184,186,188,190,192,194,196,198,-1,200,-1,-1,-1,-1,-1,202,204,206,208,-1,210,212,-1,-1,214,216,218,-1,-1,220,222,-1,-1,-1,-1,-1,-1,-1,-1,-1,-1,-1,-1,-1,-1,-1,-1,-1,-1,-1,-1,-1,-1,-1,-1,-1,-1,-1,-1,-1,-1,-1,-1,-1,-1,-1,-1,-1,-1,-1,-1,-1,-1,-1,-1,-1,-1,-1,-1,-1,-1,-1,-1,-1,-1,-1,-1,-1,-1,-1,-1,-1,-1,-1,-1,-1,-1,-1,-1,-1,-1,-1,-1,-1,-1,-1,-1,-1,-1,-1,-1,-1,-1,-1,-1,-1,-1,-1,-1,-1,-1,-1,-1,-1,-1,-1,-1,-1,-1,-1,-1],"split_conditions":[1.6154167E1,7.8333335E0,2.8781584E1,1E0,1.2733586E1,8.660254E-1,4.550386E1,4.2059584E0,3.1E-1,9.449792E0,8.660254E-1,2.0004084E1,6E-2,5E-1,-2.4492937E-16,1.2246469E-16,-1.53875E1,4.2059584E0,1.23248E3,1E0,8.660254E-1,0E0,2.0636287E0,5E-1,1E0,2.9518E2,1E0,3.3140793E1,1.9E-1,3.0041E2,-7.922896E-1,1.5E-1,0E0,5E-1,8.660254E-1,3.5401E2,3.2686E2,-2.0054166E-1,4.4300833E0,8.660254E-1,-9.260959E0,4.6433425E0,-2.4492937E-16,3.8E-1,1E0,1.5E-1,2.3E-1,4.74848E3,3.0032E2,1.8738131E-1,2.4833334E1,-1.125E0,5.3906665E0,1.9508198E1,1.3E-1,5E-1,1.3824708E1,6E-2,8.660254E-1,8E-2,-4.75795E0,-7.134375E0,-9.744667E0,8.660254E-1,6.123234E-17,1.9325E0,2.2083333E0,-2.4458334E1,9E-2,3.21027E3,2.4E-1,-7.134375E0,5.6881754E4,1.1E-1,-7.134375E0,1.0775E0,2.1895E0,3.4849E3,2.534328E4,-1.53875E1,1.0612917E0,1.32052E3,2.9518E2,-3.9874908E-1,3.0056E2,-8.431666E0,2.7666667E-2,-2.86175E0,4.213792E0,1.8738131E-1,2.7E-1,-8.812959E0,-2.4492937E-16,1.2889125E1,2.5E-1,1.5047916E1,3.93075E0,1.700875E1,8E-2,8.660254E-1,3.1968325E-1,2.1183292E1,-6.5018624E-1,2.9133594E-2,-2.1007396E-1,1.3683071E0,8.809647E-2,5.9157915E0,1.6E-1,9.347375E0,1.4E-1,-3.1934568E-1,-1.8836584E1,7E0,-1.002782E0,6.11851E-4,-5E-1,3.1454708E1,3.589855E0,-5.3953534E-1,-2.7553778E0,-1.1992958E1,-3.3380687E-1,-1.7512654E-1,-1.3640308E0,4.387425E-2,1.5284081E-1,1.2232897E-1,3.9185643E-1,2.1246238E-2,-2.4802456E-2,1.6076691E-1,9.257963E-2,-9.936023E-2,5.0320733E-2,1.1569874E0,3.314778E-1,2.1018652E-2,1.4780535E-1,8.176935E-2,2.4225838E-1,1.0733496E-1,2.8326827E-1,5.4297614E-1,2.9236832E-1,2.7464437E-1,6.8300165E-2,-4.351139E-3,2.60205E-1,8.4112436E-1,4.5425183E-1,3.5314295E-1,2.0229329E-1,5.4371446E-1,1.5342838E-1,9.1782415E-1,6.086674E-1,2.6923427E-1,-2.8251065E-2,1.04857326E-1,-9.445743E-3,-9.106037E-2,2.4733126E-2,1.0864885E-1,2.7213752E-1,-1.911548E-1,-4.5257118E-2,-1.5056896E-1,-5.963459E-2,8.2892895E-1,1.4463103E-1,6.41431E-2,-2.293155E-2,-2.6660252E-1,-3.7379566E-1,4.1373085E-2,-1.3755417E-1,-1.5620334E-1,7.634243E-2,-2.5907195E-1,-1.03279404E-1,-1.5715347E-1,4.6505336E-2,-2.643581E-2,3.1662214E-1,2.3264889E-2,-1.3465077E-1,2.998683E-1,-7.10603E-2,-3.489098E-1,-3.4920294E-2,6.814484E-2,-9.798502E-2,-1.4092807E-1,-2.5334588E-1,-1.7829886E-1,-4.593566E-1,-5.349944E-1,-3.5654077E-1,-4.5426795E-1,-5.3087664E-1,6.8053484E-2,-1.0812344E-1,-2.9497766E-1,-3.9197713E-2,-3.9209494E-1,-5.4252183E-1,1.6079779E-1,-1.8876089E-1,-3.0768153E-1,-7.4660194E-1,-8.931162E-1,-6.667712E-1,-1.2518744E-1,-7.4313366E-1,-2.8293592E-1,-6.272886E-1,1.7789158E-1,-3.1661016E-1,3.1233959E-2,5.526606E-1,-2.3067757E-1,-8.0831647E-1],"split_indices":[0,0,0,2,0,3,0,0,16,0,3,0,16,3,2,2,9,0,13,2,3,18,9,3,2,13,3,0,16,13,18,16,18,2,3,13,13,9,0,3,9,9,2,16,2,16,16,13,13,18,0,9,9,0,16,2,9,16,3,16,0,9,9,3,3,0,0,9,16,13,16,9,14,16,9,0,9,13,14,9,9,13,13,18,13,9,9,9,9,18,16,9,2,0,16,9,9,0,16,2,0,0,0,0,0,0,0,9,16,9,16,0,9,9,0,0,2,0,9,0,0,9,17,0,0,0,0,0,0,0,0,0,0,0,0,0,0,0,0,0,0,0,0,0,0,0,0,0,0,0,0,0,0,0,0,0,0,0,0,0,0,0,0,0,0,0,0,0,0,0,0,0,0,0,0,0,0,0,0,0,0,0,0,0,0,0,0,0,0,0,0,0,0,0,0,0,0,0,0,0,0,0,0,0,0,0,0,0,0,0,0,0,0,0,0,0,0,0,0,0,0,0,0],"split_type":[0,0,0,0,0,0,0,0,0,0,0,0,0,0,0,0,0,0,0,0,0,0,0,0,0,0,0,0,0,0,0,0,0,0,0,0,0,0,0,0,0,0,0,0,0,0,0,0,0,0,0,0,0,0,0,0,0,0,0,0,0,0,0,0,0,0,0,0,0,0,0,0,0,0,0,0,0,0,0,0,0,0,0,0,0,0,0,0,0,0,0,0,0,0,0,0,0,0,0,0,0,0,0,0,0,0,0,0,0,0,0,0,0,0,0,0,0,0,0,0,0,0,0,0,0,0,0,0,0,0,0,0,0,0,0,0,0,0,0,0,0,0,0,0,0,0,0,0,0,0,0,0,0,0,0,0,0,0,0,0,0,0,0,0,0,0,0,0,0,0,0,0,0,0,0,0,0,0,0,0,0,0,0,0,0,0,0,0,0,0,0,0,0,0,0,0,0,0,0,0,0,0,0,0,0,0,0,0,0,0,0,0,0,0,0,0,0,0,0,0,0,0,0],"sum_hessian":[1.8119E4,1.6138E4,1.981E3,1.1072E4,5.066E3,1.487E3,4.94E2,9.122E3,1.95E3,3.948E3,1.118E3,1.193E3,2.94E2,4.23E2,7.1E1,3.238E3,5.884E3,1.237E3,7.13E2,1.825E3,2.123E3,8.4E2,2.78E2,5.45E2,6.48E2,1.5E1,2.79E2,2.53E2,1.7E2,8E0,6.3E1,5.29E2,2.709E3,6.3E1,5.821E3,4.81E2,7.56E2,6.29E2,8.4E1,1.531E3,2.94E2,1.74E3,3.83E2,6.2E1,7.78E2,9.8E1,1.8E2,3.7E2,1.75E2,2.72E2,3.76E2,6E0,9E0,2.33E2,4.6E1,1.36E2,1.17E2,1.18E2,5.2E1,5E0,3E0,1.2E1,5.1E1,2.73E2,2.56E2,3.25E2,2.384E3,1.9E1,4.4E1,4.529E3,1.292E3,2.95E2,1.86E2,4.96E2,2.6E2,2.29E2,4E2,3.5E1,4.9E1,1.205E3,3.26E2,4.7E1,2.47E2,1.366E3,3.74E2,3.8E1,3.45E2,5.7E1,5E0,5.66E2,2.12E2,5E1,4.8E1,1.75E2,5E0,3.65E2,5E0,1.52E2,2.3E1,2.69E2,3E0,2.29E2,1.47E2,2E0,4E0,6E0,3E0,1.25E2,1.08E2,4.1E1,5E0,5E0,1.31E2,6.5E1,5.2E1,2E0,1.16E2,3.7E1,1.5E1,2E0,3E0,4E0,8E0,2E0,4.9E1,6.8E1,2.05E2,9.1E1,1.65E2,1.82E2,1.43E2,4.75E2,1.909E3,4E0,1.5E1,4E0,4E1,4.353E3,1.76E2,1.226E3,6.6E1,7.5E1,2.2E2,1.44E2,4.2E1,3.2E1,4.64E2,4.3E1,2.17E2,6E0,2.23E2,3.08E2,9.2E1,3.2E1,3E0,2.8E1,2.1E1,1.2E1,1.193E3,1.65E2,1.61E2,4.2E1,5E0,1.53E2,9.4E1,6.8E1,1.298E3,2.99E2,7.5E1,7E0,3.1E1,1.03E2,2.42E2,1.5E1,4.2E1,2E0,3E0,5.52E2,1.4E1,1.86E2,2.6E1,1E1,4E1,8E0,4E1,1.5E1,1.6E2,3E0,2E0,3.63E2,2E0,2E0,3E0,4.6E1,1.06E2,2E0,2.1E1,9.2E1,1.77E2,6E1,1.69E2,6.4E1,6.1E1,6E1,4.8E1,2.2E1,1.9E1,2E0,3E0,2E0,1.29E2,3.8E1,2.7E1,2E0,1.14E2,1.5E1,2.2E1,3E0,1.2E1,2E0,2E0,4E0,4E0],"tree_param":{"num_deleted":"0","num_feature":"19","num_nodes":"223","size_leaf_vector":"1"}},{"base_weights":[1.6647995E-2,1.6172515E0,-1.4658416E1,6.807101E0,4.3323916E-1,-1.0708357E1,-2.5053942E1,4.6223526E0,1.1955543E1,1.589458E0,-2.944211E0,3.6904054E0,-1.2314164E1,-2.2057648E1,-4.323609E1,1.34885845E1,3.8834035E0,1.4551618E1,5.0717015E0,2.5799406E0,4.4561484E-1,-2.0041554E0,-5.683626E0,1.521561E0,9.0154E-1,-9.127759E0,-1.4795321E1,-1.1979587E1,-2.3864092E1,-3.803535E0,-3.9307247E1,1.4984571E1,6.635201E0,4.926877E0,-8.867829E-1,1.1635829E1,1.7740261E1,8.028469E0,-1.1775985E-1,4.9493694E0,2.0286434E0,1.8202521E0,-2.9514992E-1,5.654993E-1,-2.5620775E0,-1.0685015E0,-7.2227273E0,1.0321127E1,-1.3681763E0,-4.7616644E0,-1.0039448E1,-2.4063666E0,-1.5560638E1,-2.153289E1,-6.7135506E0,-2.0813036E1,-2.7116959E1,-1.5090342E1,-4.4409332E1,4.7065067E0,1.6349892E1,9.282592E0,3.1924782E0,7.726086E0,3.7239115E0,2.1149968E-1,-3.5183585E0,1.3221331E1,6.9445443E0,1.6727596E1,3.323863E1,1.2066151E1,6.98787E0,4.775962E0,-1.389855E0,2.871589E0,7.7325125E0,3.2010658E0,1.5564092E0,2.3046716E-1,3.0372596E0,1.806829E0,-5.373334E-1,1.6618137E0,-3.8382232E0,-1.2707669E0,-3.4365826E0,6.32768E-1,-7.585193E0,5.927167E0,-7.313749E0,5.0911546E-1,7.7618256E0,-1.0644247E1,1.7699704E-2,2.0919077E0,-5.7424393E0,-7.3624806E0,-1.1009519E1,-9.807312E0,2.1304553E0,-1.3844785E1,-1.6691647E1,-2.3456697E1,-2.1551086E-1,-9.420868E0,6.6469874E0,-1.776108E1,-7.5291765E-1,-1.2101079E1,-2.7500973E1,-1.0145644E0,-1.4635228E0,-2.9180913E0,-4.1015823E1,-5.1789716E-2,2.033935E-1,4.265508E-1,6.6794586E-1,3.4556338E-1,9.241168E-2,4.9262304E-2,2.0767826E-1,1.598629E-1,3.5381395E-1,1.6982207E-1,8.798812E-2,-1.03833236E-1,2.921468E-2,1.4543621E-1,-1.584061E-1,4.1534755E-1,7.960773E-1,3.4776548E-1,1.380969E-1,1.1297401E0,5.359963E-1,4.7092748E-1,1.1456853E0,6.01691E-3,4.2502144E-1,1.9564398E-1,4.3334898E-1,-6.4258486E-2,2.0322262E-1,-6.66175E-2,1.969715E-1,2.3096358E-2,1.02788724E-1,2.1548009E-1,3.5231337E-1,1.669128E-2,1.24316216E-1,4.800471E-2,1.4455056E-1,1.5255433E-4,2.0793223E-1,9.666126E-2,6.2114835E-1,8.0104224E-2,-1.11471405E-2,-1.9137887E-2,2.505521E-1,1.6232927E-1,-1.641389E-2,-1.5217945E-1,2.2735339E-2,-9.815215E-2,1.798493E-2,-1.6472094E-1,-9.815795E-2,9.39859E-2,-5.769355E-2,-5.3949483E-2,-3.0487335E-1,-3.2205097E-2,3.5819927E-1,-2.1707807E-1,-2.861012E-1,1.4697762E-3,2.8788218E-1,-1.21142045E-1,-4.400746E-1,2.6194619E-2,-2.9950842E-1,-1.7077477E-1,1.3407198E-1,-2.4035311E-1,-6.294853E-2,-1.4922486E-1,-3.908278E-1,-2.9519776E-1,-3.9064464E-1,-2.3964229E-1,-4.4371083E-1,-1.7065026E-1,1.5537776E-1,-4.7079748E-1,-2.8333193E-1,-4.985905E-1,-6.1358756E-1,-2.2153609E-1,-8.2315624E-1,-6.317997E-2,-4.966105E-1,9.33401E-1,-1.7423305E-1,-6.0960793E-1,-1.9869183E-1,-6.590042E-2,-5.4957813E-1,-8.4265035E-1,-1.0426086E0,1.8671228E-1,-1.5775114E-1,-9.35362E-1,-1.5856423E0],"categories":[],"categories_nodes":[],"categories_segments":[],"categories_sizes":[],"default_left":[0,0,0,0,0,0,0,0,0,0,0,0,0,0,0,0,0,0,0,0,0,0,0,0,0,0,0,0,0,0,0,0,0,0,0,0,0,0,0,0,0,0,0,0,0,0,0,0,0,0,0,0,0,0,0,0,0,0,0,0,0,0,0,0,0,0,0,0,0,0,0,0,0,0,0,0,0,0,0,0,0,0,0,0,0,0,0,0,0,0,0,0,0,0,0,0,0,0,0,0,0,0,0,0,0,0,0,0,0,0,0,0,0,0,0,0,0,0,0,0,0,0,0,0,0,0,0,0,0,0,0,0,0,0,0,0,0,0,0,0,0,0,0,0,0,0,0,0,0,0,0,0,0,0,0,0,0,0,0,0,0,0,0,0,0,0,0,0,0,0,0,0,0,0,0,0,0,0,0,0,0,0,0,0,0,0,0,0,0,0,0,0,0,0,0,0,0,0,0,0,0,0,0,0,0,0,0,0,0,0,0,0,0,0,0,0,0],"id":2,"left_children":[1,3,5,7,9,11,13,15,17,19,21,23,25,27,29,31,33,35,37,39,41,43,45,-1,47,49,51,53,55,-1,57,59,61,63,65,67,69,71,73,75,77,79,81,83,85,87,89,91,93,95,97,99,101,103,105,107,109,111,113,115,117,119,121,123,125,127,129,131,133,135,137,139,141,143,145,147,149,151,153,155,157,159,161,163,165,167,169,171,173,175,177,-1,179,181,183,185,187,189,191,193,195,197,199,201,-1,203,205,207,-1,209,211,-1,213,-1,215,-1,-1,-1,-1,-1,-1,-1,-1,-1,-1,-1,-1,-1,-1,-1,-1,-1,-1,-1,-1,-1,-1,-1,-1,-1,-1,-1,-1,-1,-1,-1,-1,-1,-1,-1,-1,-1,-1,-1,-1,-1,-1,-1,-1,-1,-1,-1,-1,-1,-1,-1,-1,-1,-1,-1,-1,-1,-1,-1,-1,-1,-1,-1,-1,-1,-1,-1,-1,-1,-1,-1,-1,-1,-1,-1,-1,-1,-1,-1,-1,-1,-1,-1,-1,-1,-1,-1,-1,-1,-1,-1,-1,-1,-1,-1,-1,-1,-1,-1,-1,-1,-1],"loss_changes":[4.239524E5,9.999825E4,7.261841E4,3.3947594E4,5.175468E4,2.9826125E4,2.5632094E4,1.3863418E4,1.601007E4,1.1184533E4,8.692793E3,1.5337004E4,9.027969E3,7.378625E3,1.4711141E4,1.5717441E3,9.770348E3,5.8647812E3,3.8062651E3,6.901375E3,4.667328E3,3.6114219E3,6.122291E3,0E0,2.6438354E3,1.9822578E3,6.1255156E3,3.1757676E3,2.9687812E3,0E0,7.484586E3,1.789418E3,2.5290686E2,5.392668E3,1.0209894E3,2.4668672E3,4.3093438E3,5.795371E2,5.7313837E2,5.748992E3,2.3724238E3,3.104622E3,1.5174744E3,2.1789175E3,2.3320684E3,2.4106025E3,8.177617E2,1.9391748E2,1.2857367E3,6.169757E2,1.01221484E3,1.330388E3,9.565781E2,5.1062695E2,1.6541543E3,7.438281E2,6.4171094E2,2.7280952E3,4.4393047E3,1.6511319E2,1.2971445E3,1.0170398E2,6.966104E1,4.1175254E3,1.6829453E3,5.684288E2,1.0777056E3,1.4687578E3,8.3861475E2,1.9332266E3,9.564453E0,2.9726465E2,7.551753E2,1.8856726E2,3.4986142E2,3.004795E2,1.4386074E3,1.8778457E3,8.73479E2,9.5555096E2,1.4964209E3,4.1073456E2,9.298531E2,2.5413884E3,3.1824475E2,2.5906543E3,8.711201E2,9.1750775E2,4.2761914E2,1.8066273E2,5.8435547E2,0E0,1.3322693E2,1.9502307E2,6.28257E2,1.9289111E2,4.529607E2,1.4101353E3,4.1892578E2,4.128003E1,4.949342E2,4.2985938E2,8.148672E2,3.3063965E2,0E0,1.5342566E3,2.2139004E3,5.4902734E2,0E0,2.427544E2,5.130781E2,0E0,2.1601172E2,0E0,3.2728672E3,0E0,0E0,0E0,0E0,0E0,0E0,0E0,0E0,0E0,0E0,0E0,0E0,0E0,0E0,0E0,0E0,0E0,0E0,0E0,0E0,0E0,0E0,0E0,0E0,0E0,0E0,0E0,0E0,0E0,0E0,0E0,0E0,0E0,0E0,0E0,0E0,0E0,0E0,0E0,0E0,0E0,0E0,0E0,0E0,0E0,0E0,0E0,0E0,0E0,0E0,0E0,0E0,0E0,0E0,0E0,0E0,0E0,0E0,0E0,0E0,0E0,0E0,0E0,0E0,0E0,0E0,0E0,0E0,0E0,0E0,0E0,0E0,0E0,0E0,0E0,0E0,0E0,0E0,0E0,0E0,0E0,0E0,0E0,0E0,0E0,0E0,0E0,0E0,0E0,0E0,0E0,0E0,0E0,0E0,0E0,0E0,0E0,0E0,0E0,0E0,0E0,0E0],"parents":[2147483647,0,0,1,1,2,2,3,3,4,4,5,5,6,6,7,7,8,8,9,9,10,10,11,11,12,12,13,13,14,14,15,15,16,16,17,17,18,18,19,19,20,20,21,21,22,22,24,24,25,25,26,26,27,27,28,28,30,30,31,31,32,32,33,33,34,34,35,35,36,36,37,37,38,38,39,39,40,40,41,41,42,42,43,43,44,44,45,45,46,46,47,47,48,48,49,49,50,50,51,51,52,52,53,53,54,54,55,55,56,56,57,57,58,58,59,59,60,60,61,61,62,62,63,63,64,64,65,65,66,66,67,67,68,68,69,69,70,70,71,71,72,72,73,73,74,74,75,75,76,76,77,77,78,78,79,79,80,80,81,81,82,82,83,83,84,84,85,85,86,86,87,87,88,88,89,89,90,90,92,92,93,93,94,94,95,95,96,96,97,97,98,98,99,99,100,100,101,101,102,102,103,103,105,105,106,106,107,107,109,109,110,110,112,112,114,114],"right_children":[2,4,6,8,10,12,14,16,18,20,22,24,26,28,30,32,34,36,38,40,42,44,46,-1,48,50,52,54,56,-1,58,60,62,64,66,68,70,72,74,76,78,80,82,84,86,88,90,92,94,96,98,100,102,104,106,108,110,112,114,116,118,120,122,124,126,128,130,132,134,136,138,140,142,144,146,148,150,152,154,156,158,160,162,164,166,168,170,172,174,176,178,-1,180,182,184,186,188,190,192,194,196,198,200,202,-1,204,206,208,-1,210,212,-1,214,-1,216,-1,-1,-1,-1,-1,-1,-1,-1,-1,-1,-1,-1,-1,-1,-1,-1,-1,-1,-1,-1,-1,-1,-1,-1,-1,-1,-1,-1,-1,-1,-1,-1,-1,-1,-1,-1,-1,-1,-1,-1,-1,-1,-1,-1,-1,-1,-1,-1,-1,-1,-1,-1,-1,-1,-1,-1,-1,-1,-1,-1,-1,-1,-1,-1,-1,-1,-1,-1,-1,-1,-1,-1,-1,-1,-1,-1,-1,-1,-1,-1,-1,-1,-1,-1,-1,-1,-1,-1,-1,-1,-1,-1,-1,-1,-1,-1,-1,-1,-1,-1,-1,-1],"split_conditions":[1.700875E1,1.41E1,2.8781584E1,-1E0,8.833333E0,3.8E0,4.550386E1,7.7E0,1.05E1,5.455917E0,1.3612458E1,6E0,2.0538708E1,1.61E1,2.3E0,1.02E1,9.791667E0,4E-1,8.9E0,1.76E1,2.01E1,5.4E0,5.4E0,1.521561E0,1.02E1,1.56E1,1.29E1,-6.4E0,3.3140793E1,-3.803535E0,-3.3380687E-1,-8.6E0,8E-1,4.4654164E0,1.3416667E1,7.881292E0,2.17746E3,3.06225E0,1.17E1,-9E-1,2.8931668E0,-2.9E0,4.2E0,2.9627E2,2.05E1,1E0,1.43E1,-5.1E0,-2.4E0,9.7E0,6E0,-5.3E0,2.22E1,1.57E1,3.1E0,2.41E1,3.5E0,-6.238796E-1,-2.9E0,-3.5E0,1E0,8.6635E0,5.1666665E0,-4.5E0,1.15E1,-1.24E1,4.4E0,6.2E0,1.2E1,4E-1,-8E-1,-2.6E0,2.06E1,9.2E0,5E0,3.0403307E-1,1.4E0,-9.584575E-2,3.12351E3,3.21027E3,1.07E1,8E0,1.98E1,-9E-1,3E0,-7E-1,-9E-1,-3E-1,1.425E1,1E0,1.5625042E1,5.0911546E-1,4E-1,2.5E0,4.915736E3,-1.48E1,1.25E1,1E0,2.06E1,-9.4E0,-1.3E0,5.8E0,2.4833334E1,7.1E0,-2.1551086E-1,1.24E1,-1.2E0,1.25E1,-7.5291765E-1,1.92E1,3.8625E1,-1.0145644E0,-1.5E0,-2.9180913E0,1.63E1,-5.1789716E-2,2.033935E-1,4.265508E-1,6.6794586E-1,3.4556338E-1,9.241168E-2,4.9262304E-2,2.0767826E-1,1.598629E-1,3.5381395E-1,1.6982207E-1,8.798812E-2,-1.03833236E-1,2.921468E-2,1.4543621E-1,-1.584061E-1,4.1534755E-1,7.960773E-1,3.4776548E-1,1.380969E-1,1.1297401E0,5.359963E-1,4.7092748E-1,1.1456853E0,6.01691E-3,4.2502144E-1,1.9564398E-1,4.3334898E-1,-6.4258486E-2,2.0322262E-1,-6.66175E-2,1.969715E-1,2.3096358E-2,1.02788724E-1,2.1548009E-1,3.5231337E-1,1.669128E-2,1.24316216E-1,4.800471E-2,1.4455056E-1,1.5255433E-4,2.0793223E-1,9.666126E-2,6.2114835E-1,8.0104224E-2,-1.11471405E-2,-1.9137887E-2,2.505521E-1,1.6232927E-1,-1.641389E-2,-1.5217945E-1,2.2735339E-2,-9.815215E-2,1.798493E-2,-1.6472094E-1,-9.815795E-2,9.39859E-2,-5.769355E-2,-5.3949483E-2,-3.0487335E-1,-3.2205097E-2,3.5819927E-1,-2.1707807E-1,-2.861012E-1,1.4697762E-3,2.8788218E-1,-1.21142045E-1,-4.400746E-1,2.6194619E-2,-2.9950842E-1,-1.7077477E-1,1.3407198E-1,-2.4035311E-1,-6.294853E-2,-1.4922486E-1,-3.908278E-1,-2.9519776E-1,-3.9064464E-1,-2.3964229E-1,-4.4371083E-1,-1.7065026E-1,1.5537776E-1,-4.7079748E-1,-2.8333193E-1,-4.985905E-1,-6.1358756E-1,-2.2153609E-1,-8.2315624E-1,-6.317997E-2,-4.966105E-1,9.33401E-1,-1.7423305E-1,-6.0960793E-1,-1.9869183E-1,-6.590042E-2,-5.4957813E-1,-8.4265035E-1,-1.0426086E0,1.8671228E-1,-1.5775114E-1,-9.35362E-1,-1.5856423E0],"split_indices":[0,7,0,11,0,6,0,7,6,0,0,7,0,7,6,6,0,10,0,7,7,6,6,0,7,7,7,11,0,0,17,11,10,0,0,0,13,0,7,11,0,11,6,13,7,12,7,11,10,7,6,11,7,7,11,7,6,17,10,10,12,0,0,11,7,11,6,11,7,6,11,10,6,7,12,17,10,17,13,13,11,11,6,10,11,11,10,10,0,12,0,0,6,6,14,11,6,12,7,11,10,11,0,7,0,7,10,6,0,7,0,0,10,0,7,0,0,0,0,0,0,0,0,0,0,0,0,0,0,0,0,0,0,0,0,0,0,0,0,0,0,0,0,0,0,0,0,0,0,0,0,0,0,0,0,0,0,0,0,0,0,0,0,0,0,0,0,0,0,0,0,0,0,0,0,0,0,0,0,0,0,0,0,0,0,0,0,0,0,0,0,0,0,0,0,0,0,0,0,0,0,0,0,0,0,0,0,0,0,0,0,0,0,0,0,0,0],"split_type":[0,0,0,0,0,0,0,0,0,0,0,0,0,0,0,0,0,0,0,0,0,0,0,0,0,0,0,0,0,0,0,0,0,0,0,0,0,0,0,0,0,0,0,0,0,0,0,0,0,0,0,0,0,0,0,0,0,0,0,0,0,0,0,0,0,0,0,0,0,0,0,0,0,0,0,0,0,0,0,0,0,0,0,0,0,0,0,0,0,0,0,0,0,0,0,0,0,0,0,0,0,0,0,0,0,0,0,0,0,0,0,0,0,0,0,0,0,0,0,0,0,0,0,0,0,0,0,0,0,0,0,0,0,0,0,0,0,0,0,0,0,0,0,0,0,0,0,0,0,0,0,0,0,0,0,0,0,0,0,0,0,0,0,0,0,0,0,0,0,0,0,0,0,0,0,0,0,0,0,0,0,0,0,0,0,0,0,0,0,0,0,0,0,0,0,0,0,0,0,0,0,0,0,0,0,0,0,0,0,0,0,0,0,0,0,0,0],"sum_hessian":[1.8047E4,1.6273E4,1.774E3,3.022E3,1.3251E4,1.287E3,4.87E2,2.123E3,8.99E2,9.872E3,3.379E3,1.29E2,1.158E3,4.2E2,6.7E1,1.62E2,1.961E3,6.52E2,2.47E2,5.29E3,4.582E3,2.517E3,8.62E2,7E0,1.22E2,5.09E2,6.49E2,6.5E1,3.55E2,2E0,6.5E1,1.32E2,3E1,1.609E3,3.52E2,3.43E2,3.09E2,1.57E2,9E1,9.97E2,4.293E3,1.604E3,2.978E3,4.49E2,2.068E3,2.16E2,6.46E2,2.3E1,9.9E1,8.9E1,4.2E2,3.8E1,6.11E2,2.2E1,4.3E1,1.87E2,1.68E2,1.2E1,5.3E1,1.6E1,1.16E2,1.6E1,1.4E1,4.82E2,1.127E3,2.49E2,1.03E2,2.55E2,8.8E1,2.92E2,1.7E1,3E1,1.27E2,1.8E1,7.2E1,5.72E2,4.25E2,1.231E3,3.062E3,6.96E2,9.08E2,3.07E2,2.671E3,3.6E2,8.9E1,8.36E2,1.232E3,1.72E2,4.4E1,4E0,6.42E2,6E0,1.7E1,1.2E1,8.7E1,1.1E1,7.8E1,1.14E2,3.06E2,1.4E1,2.4E1,2.48E2,3.63E2,1.9E1,3E0,3.6E1,7E0,7.8E1,1.09E2,5E0,1.63E2,5E0,7E0,2E0,5.1E1,3E0,1.3E1,6.4E1,5.2E1,1.3E1,3E0,1E1,4E0,2.47E2,2.35E2,4.79E2,6.48E2,4.1E1,2.08E2,1.4E1,8.9E1,2.43E2,1.2E1,3.7E1,5.1E1,6E0,2.86E2,2E0,1.5E1,2E0,2.8E1,1.1E2,1.7E1,3E0,1.5E1,6.7E1,5E0,5.8E1,5.14E2,3.04E2,1.21E2,2.14E2,1.017E3,2.957E3,1.05E2,6.72E2,2.4E1,9.03E2,5E0,2.38E2,6.9E1,2.658E3,1.3E1,1.43E2,2.17E2,7.6E1,1.3E1,4.31E2,4.05E2,2.8E2,9.52E2,8.9E1,8.3E1,1E1,3.4E1,2E0,2E0,4.2E2,2.22E2,2E0,1.5E1,4E0,8E0,8.1E1,6E0,2E0,9E0,5.5E1,2.3E1,7.1E1,4.3E1,9.1E1,2.15E2,1E1,4E0,6E0,1.8E1,2.28E2,2E1,2.03E2,1.6E2,2E0,1.7E1,1.6E1,2E1,2E0,5E0,7.3E1,5E0,2E0,3E0,1.15E2,4.8E1,2E0,5E0,2E1,3.1E1],"tree_param":{"num_deleted":"0","num_feature":"19","num_nodes":"217","size_leaf_vector":"1"}},{"base_weights":[-8.437565E-3,1.3043067E0,-1.3296736E1,2.1752646E0,-4.249074E0,-3.4756668E0,-1.6121138E1,1.2354617E0,6.806719E0,-2.4602494E0,-7.003955E0,-4.3601003E0,1.1177702E1,-1.4371675E1,-3.3429955E1,1.8917302E0,-1.6493995E-1,1.0707173E1,2.9330068E0,1.555933E-1,-3.6543E0,-5.8866477E0,-9.961928E0,-5.6899834E-1,-7.3939724E0,3.7803316E-1,1.8803989E0,-1.0624102E1,-1.8377884E1,-6.940151E1,-3.0091879E1,3.6523552E0,1.3004494E0,9.2852205E-1,-1.106196E0,3.3173747E0,1.2244603E1,-1.7197491E-1,8.422439E0,-9.925307E-1,5.4409595E0,-2.9793413E0,-6.671988E0,-1.9381082E0,-6.8336005E0,-7.4869604E0,-1.1114478E1,-4.5410748E0,1.0106446E0,-6.0823135E0,-1.62675E1,1.4021853E1,-1.1939209E1,-8.811355E0,-1.6794737E1,-1.5475131E1,-2.2387077E1,-4.05062E0,-7.3496133E-1,-2.7290333E1,-3.8643463E1,6.582786E0,3.1697168E0,7.6705203E0,1.2166817E0,2.361307E0,2.0019214E-1,1.7308626E1,-1.1969007E0,3.5371833E0,-2.5925112E0,1.4193244E0,1.2918202E1,2.9114573E0,-2.0825644E0,8.660185E-2,1.0688949E1,-5.228173E0,-2.1907215E-1,-1.4821379E0,9.070613E0,-3.0971272E0,1.5449301E1,-3.5332805E-1,-6.058529E0,-6.429937E-1,-1.0720889E1,-6.0861726E0,-9.764222E0,-7.825909E0,1.2237616E-1,-1.02023325E1,-1.3308083E1,-1.7074401E0,-1.1955147E1,5.284859E0,-1.1978799E0,-4.4552402E0,-8.863323E0,-7.3838496E0,-6.9647926E-1,5.946784E-1,5.8051874E-4,6.5854114E-1,-8.14066E-1,-7.295932E0,-1.617836E1,-1.464587E1,-2.2927761E1,-1.1857822E1,-1.7382347E1,-1.9592821E1,-2.515609E1,-1.8288969E1,-3.10101E1,-1.4135938E0,-2.4903517E1,2.630543E-1,1.6342642E-2,8.1218414E-2,1.4995931E-1,3.8229445E-1,9.9663585E-2,5.7860494E-2,3.2032272E-3,1.9608216E-1,5.701311E-2,2.326447E-2,-2.384133E-2,1.6174203E-1,1.1449132E0,-2.6027627E-2,-9.0379834E-2,1.0540483E-1,2.1903841E-1,9.406508E-2,-1.6110304E-1,6.452806E-2,-7.400434E-2,3.7661707E-1,5.110133E-1,6.272742E-1,1.74675E-2,-1.927071E-2,-1.3687466E-1,-1.3725683E-1,1.1866697E-1,4.6822256E-1,6.0417775E-2,-1.3130385E-1,-2.011336E-1,4.3609936E-2,-5.601432E-2,-2.5000113E-1,3.397122E-2,4.4691798E-1,-1.3452947E-2,-6.5488204E-2,-1.3807793E-1,9.212918E-2,7.575824E-1,-1.6768172E-1,-2.684976E-1,-2.5012946E-1,2.6286878E-2,-3.950324E-1,-2.1921214E-1,-1.3409357E-1,-2.429575E-1,-2.7287602E-1,-3.821825E-1,-2.8944257E-1,-1.3115524E-1,-7.536716E-2,-3.405326E-1,-4.5818707E-1,-1.3441658E-1,-3.5973755E-3,-1.6151477E-1,-2.0899548E-1,-6.124549E-1,-1.3877091E-1,2.625384E-1,-1.9118685E-1,9.055099E-3,-1.9498257E-1,4.0775267E-3,-3.163714E-1,-6.3063264E-2,-4.478702E-1,5.0110154E-2,8.426006E-2,-6.888303E-2,-1.6980448E-1,-3.32381E-1,-6.866954E-1,-4.065657E-1,-5.2997994E-1,-3.0956605E-1,-2.6579756E-1,-8.151498E-1,-1.4333856E-1,-4.24261E-1,-5.206784E-1,-6.4247745E-1,-1.6305779E-1,-6.5766186E-1,-7.530388E-1,-9.7202545E-1,-6.9328684E-1,-1.7386036E-1,-4.0554446E-1,-1.0381553E0,-4.623783E-1,-1.0656592E0],"categories":[],"categories_nodes":[],"categories_segments":[],"categories_sizes":[],"default_left":[0,0,0,0,0,0,0,0,0,0,0,0,0,0,0,0,0,0,0,0,0,0,0,0,0,0,0,0,0,0,0,0,0,0,0,0,0,0,0,0,0,0,0,0,0,0,0,0,0,0,0,0,0,0,0,0,0,0,0,0,0,0,0,0,0,0,0,0,0,0,0,0,0,0,0,0,0,0,0,0,0,0,0,0,0,0,0,0,0,0,0,0,0,0,0,0,0,0,0,0,0,0,0,0,0,0,0,0,0,0,0,0,0,0,0,0,0,0,0,0,0,0,0,0,0,0,0,0,0,0,0,0,0,0,0,0,0,0,0,0,0,0,0,0,0,0,0,0,0,0,0,0,0,0,0,0,0,0,0,0,0,0,0,0,0,0,0,0,0,0,0,0,0,0,0,0,0,0,0,0,0,0,0,0,0,0,0,0,0,0,0,0,0,0,0,0,0,0,0,0,0,0,0,0,0,0,0,0,0,0,0,0,0,0,0],"id":3,"left_children":[1,3,5,7,9,11,13,15,17,19,21,23,25,27,29,31,33,35,37,39,41,43,45,47,49,51,-1,53,55,57,59,61,63,65,67,69,71,73,75,77,79,81,83,85,87,89,91,93,95,97,99,101,103,105,107,109,111,-1,-1,113,115,117,119,121,123,125,127,129,131,133,135,137,139,141,143,145,147,149,151,153,155,157,159,-1,161,163,165,167,169,171,-1,173,175,177,179,181,183,185,187,189,-1,-1,-1,191,-1,193,195,197,199,201,203,205,207,209,211,-1,213,-1,-1,-1,-1,-1,-1,-1,-1,-1,-1,-1,-1,-1,-1,-1,-1,-1,-1,-1,-1,-1,-1,-1,-1,-1,-1,-1,-1,-1,-1,-1,-1,-1,-1,-1,-1,-1,-1,-1,-1,-1,-1,-1,-1,-1,-1,-1,-1,-1,-1,-1,-1,-1,-1,-1,-1,-1,-1,-1,-1,-1,-1,-1,-1,-1,-1,-1,-1,-1,-1,-1,-1,-1,-1,-1,-1,-1,-1,-1,-1,-1,-1,-1,-1,-1,-1,-1,-1,-1,-1,-1,-1,-1,-1,-1,-1,-1,-1],"loss_changes":[3.1509334E5,7.952075E4,4.4991562E4,6.184715E4,1.0967277E4,4.7661484E3,3.7704062E4,1.085876E4,3.618543E4,4.226594E3,2.8398086E3,3.9523848E3,1.0366506E4,1.7025312E4,1.1720281E4,8.370287E3,3.882245E3,1.3524781E4,2.052313E4,2.584409E3,1.8723223E3,2.3760273E3,5.98541E2,9.7085657E2,2.1241123E3,3.1923862E3,0E0,6.5075703E3,6.089203E3,1.9893395E4,1.508875E3,2.8389277E3,3.2051074E3,1.8205044E3,3.4064363E3,2.7807202E2,7.1860625E3,4.542266E3,8.217639E3,1.1454875E3,1.9232058E3,1.6996997E3,3.5345068E2,1.414945E3,1.0686465E3,3.2879785E2,1.863711E2,9.039733E2,1.0541382E3,7.206958E2,8.7564453E2,5.0367322E2,1.6198704E3,5.039789E3,1.4301992E3,2.0291562E3,1.2867031E3,0E0,0E0,2.2454258E3,3.158125E2,2.4051328E3,1.6814707E3,1.3848047E3,3.5731416E3,1.3237803E3,5.398473E2,1.98706E3,1.2679141E3,1.9154321E2,1.1360468E2,1.2020382E2,3.4175938E3,1.1301698E4,1.4707244E3,1.4155962E3,1.0576004E4,3.422229E1,6.786594E2,4.210238E2,2.1250327E3,9.072842E2,4.1105505E2,0E0,2.6120557E2,1.1044775E3,2.029541E0,1.0361846E3,1.8408301E2,2.4541846E2,0E0,8.560254E1,1.7764551E2,1.6757205E2,3.2799512E2,9.96621E2,5.0228006E2,7.194133E2,2.8858887E2,5.7148315E2,0E0,0E0,0E0,3.65473E1,0E0,2.2465547E3,1.1371562E3,6.087832E2,6.716328E2,8.070576E2,3.9578516E2,4.879297E2,4.5301562E2,8.454414E2,1.0108594E2,0E0,1.9139941E2,0E0,0E0,0E0,0E0,0E0,0E0,0E0,0E0,0E0,0E0,0E0,0E0,0E0,0E0,0E0,0E0,0E0,0E0,0E0,0E0,0E0,0E0,0E0,0E0,0E0,0E0,0E0,0E0,0E0,0E0,0E0,0E0,0E0,0E0,0E0,0E0,0E0,0E0,0E0,0E0,0E0,0E0,0E0,0E0,0E0,0E0,0E0,0E0,0E0,0E0,0E0,0E0,0E0,0E0,0E0,0E0,0E0,0E0,0E0,0E0,0E0,0E0,0E0,0E0,0E0,0E0,0E0,0E0,0E0,0E0,0E0,0E0,0E0,0E0,0E0,0E0,0E0,0E0,0E0,0E0,0E0,0E0,0E0,0E0,0E0,0E0,0E0,0E0,0E0,0E0,0E0,0E0,0E0,0E0,0E0,0E0,0E0,0E0],"parents":[2147483647,0,0,1,1,2,2,3,3,4,4,5,5,6,6,7,7,8,8,9,9,10,10,11,11,12,12,13,13,14,14,15,15,16,16,17,17,18,18,19,19,20,20,21,21,22,22,23,23,24,24,25,25,27,27,28,28,29,29,30,30,31,31,32,32,33,33,34,34,35,35,36,36,37,37,38,38,39,39,40,40,41,41,42,42,43,43,44,44,45,45,46,46,47,47,48,48,49,49,50,50,51,51,52,52,53,53,54,54,55,55,56,56,59,59,60,60,61,61,62,62,63,63,64,64,65,65,66,66,67,67,68,68,69,69,70,70,71,71,72,72,73,73,74,74,75,75,76,76,77,77,78,78,79,79,80,80,81,81,82,82,84,84,85,85,86,86,87,87,88,88,89,89,91,91,92,92,93,93,94,94,95,95,96,96,97,97,98,98,99,99,103,103,105,105,106,106,107,107,108,108,109,109,110,110,111,111,112,112,113,113,114,114,116,116],"right_children":[2,4,6,8,10,12,14,16,18,20,22,24,26,28,30,32,34,36,38,40,42,44,46,48,50,52,-1,54,56,58,60,62,64,66,68,70,72,74,76,78,80,82,84,86,88,90,92,94,96,98,100,102,104,106,108,110,112,-1,-1,114,116,118,120,122,124,126,128,130,132,134,136,138,140,142,144,146,148,150,152,154,156,158,160,-1,162,164,166,168,170,172,-1,174,176,178,180,182,184,186,188,190,-1,-1,-1,192,-1,194,196,198,200,202,204,206,208,210,212,-1,214,-1,-1,-1,-1,-1,-1,-1,-1,-1,-1,-1,-1,-1,-1,-1,-1,-1,-1,-1,-1,-1,-1,-1,-1,-1,-1,-1,-1,-1,-1,-1,-1,-1,-1,-1,-1,-1,-1,-1,-1,-1,-1,-1,-1,-1,-1,-1,-1,-1,-1,-1,-1,-1,-1,-1,-1,-1,-1,-1,-1,-1,-1,-1,-1,-1,-1,-1,-1,-1,-1,-1,-1,-1,-1,-1,-1,-1,-1,-1,-1,-1,-1,-1,-1,-1,-1,-1,-1,-1,-1,-1,-1,-1,-1,-1,-1,-1,-1],"split_conditions":[1.6184484E1,3.8561666E0,-6.6194167E0,1E0,1.0791757E1,4.0148186E1,3.3195038E1,7.50875E-1,1E-1,2E-1,1E0,-1.6776793E1,-9.744667E0,1E0,5.75E-2,1E-1,6.170067E0,-7.7E0,1.9041666E-1,1E0,7.5354586E0,1E-1,1.2303305E1,9.875E-2,2.7728504E1,5E-1,1.8803989E0,1.1875E1,2.1389132E1,-4.6E0,1.9201086E1,1.2246469E-16,-1.53875E1,3E-1,3.9166667E-2,1.4044891E1,-1.1992958E1,6.5781384E0,-2.8E0,-1.37E1,-8.2E0,5.595833E-1,-4.3E0,2.35E-1,1.0668292E1,5.3E0,9.6875E0,2.7728504E1,1E0,3E0,1E0,1.4E0,5E-1,2.6077168E1,2.3817997E1,4.387E0,9.6875E0,-4.05062E0,-7.3496133E-1,5E-1,1.4125E-1,9.421917E0,1.1E0,-1.8E0,7.7943435E0,1.2246469E-16,5.195336E0,1E0,1.0102492E1,5.17986E4,-2.1666666E1,1.4666666E-1,2.1E-1,-5.0904164E0,1.21944475E1,2.5333333E-1,1.01E1,5.1179585E0,8.117303E0,1E-1,2E0,8.660254E-1,3E-1,-3.5332805E-1,9.6875E0,-8.2E0,2.8666666E-1,9.3333334E-2,1.3863004E1,8E-1,1.2237616E-1,5.9166666E-2,2.3E0,2E-1,2.3E0,-5E-1,-1.07E1,1.2958333E-1,1.34E1,8.660254E-1,-6.9647926E-1,5.946784E-1,5.8051874E-4,4.6E0,-8.14066E-1,4.764375E0,8.375E-2,2E-1,4.916667E-2,2E-1,1.1875E1,7.375E-2,3.5E0,8.333333E0,-3.7E0,-1.4135938E0,1.7291667E-1,2.630543E-1,1.6342642E-2,8.1218414E-2,1.4995931E-1,3.8229445E-1,9.9663585E-2,5.7860494E-2,3.2032272E-3,1.9608216E-1,5.701311E-2,2.326447E-2,-2.384133E-2,1.6174203E-1,1.1449132E0,-2.6027627E-2,-9.0379834E-2,1.0540483E-1,2.1903841E-1,9.406508E-2,-1.6110304E-1,6.452806E-2,-7.400434E-2,3.7661707E-1,5.110133E-1,6.272742E-1,1.74675E-2,-1.927071E-2,-1.3687466E-1,-1.3725683E-1,1.1866697E-1,4.6822256E-1,6.0417775E-2,-1.3130385E-1,-2.011336E-1,4.3609936E-2,-5.601432E-2,-2.5000113E-1,3.397122E-2,4.4691798E-1,-1.3452947E-2,-6.5488204E-2,-1.3807793E-1,9.212918E-2,7.575824E-1,-1.6768172E-1,-2.684976E-1,-2.5012946E-1,2.6286878E-2,-3.950324E-1,-2.1921214E-1,-1.3409357E-1,-2.429575E-1,-2.7287602E-1,-3.821825E-1,-2.8944257E-1,-1.3115524E-1,-7.536716E-2,-3.405326E-1,-4.5818707E-1,-1.3441658E-1,-3.5973755E-3,-1.6151477E-1,-2.0899548E-1,-6.124549E-1,-1.3877091E-1,2.625384E-1,-1.9118685E-1,9.055099E-3,-1.9498257E-1,4.0775267E-3,-3.163714E-1,-6.3063264E-2,-4.478702E-1,5.0110154E-2,8.426006E-2,-6.888303E-2,-1.6980448E-1,-3.32381E-1,-6.866954E-1,-4.065657E-1,-5.2997994E-1,-3.0956605E-1,-2.6579756E-1,-8.151498E-1,-1.4333856E-1,-4.24261E-1,-5.206784E-1,-6.4247745E-1,-1.6305779E-1,-6.5766186E-1,-7.530388E-1,-9.7202545E-1,-6.9328684E-1,-1.7386036E-1,-4.0554446E-1,-1.0381553E0,-4.623783E-1,-1.0656592E0],"split_indices":[1,9,9,2,1,1,1,9,8,8,2,9,9,2,15,8,1,11,15,2,9,8,1,15,1,8,0,9,1,11,9,2,9,8,15,1,9,1,10,11,11,15,10,15,9,8,9,1,2,8,12,11,2,1,9,9,9,0,0,8,15,1,10,10,1,2,1,12,1,14,9,15,15,9,1,15,11,9,1,15,11,2,8,0,9,11,15,15,1,10,0,15,10,11,11,2,11,15,11,2,0,0,0,8,0,9,15,10,15,8,9,15,8,9,10,0,15,0,0,0,0,0,0,0,0,0,0,0,0,0,0,0,0,0,0,0,0,0,0,0,0,0,0,0,0,0,0,0,0,0,0,0,0,0,0,0,0,0,0,0,0,0,0,0,0,0,0,0,0,0,0,0,0,0,0,0,0,0,0,0,0,0,0,0,0,0,0,0,0,0,0,0,0,0,0,0,0,0,0,0,0,0,0,0,0,0,0,0,0,0,0,0,0,0,0],"split_type":[0,0,0,0,0,0,0,0,0,0,0,0,0,0,0,0,0,0,0,0,0,0,0,0,0,0,0,0,0,0,0,0,0,0,0,0,0,0,0,0,0,0,0,0,0,0,0,0,0,0,0,0,0,0,0,0,0,0,0,0,0,0,0,0,0,0,0,0,0,0,0,0,0,0,0,0,0,0,0,0,0,0,0,0,0,0,0,0,0,0,0,0,0,0,0,0,0,0,0,0,0,0,0,0,0,0,0,0,0,0,0,0,0,0,0,0,0,0,0,0,0,0,0,0,0,0,0,0,0,0,0,0,0,0,0,0,0,0,0,0,0,0,0,0,0,0,0,0,0,0,0,0,0,0,0,0,0,0,0,0,0,0,0,0,0,0,0,0,0,0,0,0,0,0,0,0,0,0,0,0,0,0,0,0,0,0,0,0,0,0,0,0,0,0,0,0,0,0,0,0,0,0,0,0,0,0,0,0,0,0,0,0,0,0,0],"sum_hessian":[1.8061E4,1.6438E4,1.623E3,1.421E4,2.228E3,3.63E2,1.26E3,1.1814E4,2.396E3,1.352E3,8.76E2,3.43E2,2E1,1.146E3,1.14E2,8.044E3,3.77E3,1.193E3,1.203E3,4.24E2,9.28E2,6.38E2,2.38E2,1.53E2,1.9E2,1.7E1,3E0,5.94E2,5.52E2,8E0,1.06E2,2.021E3,6.023E3,1.744E3,2.026E3,2.06E2,9.87E2,7.69E2,4.34E2,3.49E2,7.5E1,7.6E2,1.68E2,1.24E2,5.14E2,7.8E1,1.6E2,4.3E1,1.1E2,1.67E2,2.3E1,8E0,9E0,4.61E2,1.33E2,3.23E2,2.29E2,3E0,5E0,8.3E1,2.3E1,2.84E2,1.737E3,7.7E1,5.946E3,5.87E2,1.157E3,9E0,2.017E3,1.99E2,7E0,5.8E1,9.29E2,2.94E2,4.75E2,9.3E1,3.41E2,5.3E1,2.96E2,2.6E1,4.9E1,7.56E2,4E0,2E1,1.48E2,1.09E2,1.5E1,4.12E2,1.02E2,7.6E1,2E0,1.17E2,4.3E1,3.2E1,1.1E1,3.7E1,7.3E1,1.07E2,6E1,9E0,1.4E1,6E0,2E0,5E0,4E0,3.84E2,7.7E1,1.01E2,3.2E1,1.14E2,2.09E2,1.18E2,1.11E2,2.6E1,5.7E1,1.6E1,7E0,2.31E2,5.3E1,1.148E3,5.89E2,4.1E1,3.6E1,4.019E3,1.927E3,8.7E1,5E2,7.48E2,4.09E2,6E0,3E0,1.596E3,4.21E2,1.81E2,1.8E1,2E0,5E0,5.1E1,7E0,5.89E2,3.4E2,3.7E1,2.57E2,2.76E2,1.99E2,4.2E1,5.1E1,2.44E2,9.7E1,2.4E1,2.9E1,1.45E2,1.51E2,7E0,1.9E1,3.3E1,1.6E1,3.75E2,3.81E2,2E0,2E0,1.03E2,4.5E1,1.8E1,9.1E1,1E1,5E0,1.61E2,2.51E2,5.9E1,4.3E1,6E1,1.6E1,2E0,1.15E2,4E1,3E0,2.2E1,1E1,7E0,4E0,8E0,2.9E1,1.7E1,5.6E1,8.1E1,2.6E1,5.4E1,6E0,5E0,4E0,3E0,2E0,2.18E2,1.66E2,3.3E1,4.4E1,7.8E1,2.3E1,4E0,2.8E1,1.4E1,1E2,1.23E2,8.6E1,3E0,1.15E2,7.6E1,3.5E1,2.1E1,5E0,2E0,5.5E1,4E0,3E0],"tree_param":{"num_deleted":"0","num_feature":"19","num_nodes":"215","size_leaf_vector":"1"}},{"base_weights":[-3.0340431E-2,1.4701414E0,-1.3741419E1,6.368136E0,3.9962795E-1,-1.0188768E1,-2.287775E1,1.5343492E0,9.937762E0,1.4140416E0,-3.1147854E0,1.1565667E1,-1.1007757E1,-2.0350927E1,-3.660724E1,2.4541056E0,-1.1945596E0,1.1888882E1,5.8669267E0,2.4424388E0,2.9554552E-1,-3.9289672E0,-1.9293936E-1,1.3877193E0,6.9350896E0,-8.694319E0,-1.4240457E1,-1.5309711E1,-2.3965792E1,-8.0142456E1,-2.9563068E1,1.7162886E0,5.444376E0,-2.0307672E0,5.300456E-1,1.0571792E1,1.6541044E1,8.431557E0,5.759426E-1,2.0110095E0,5.5372996E0,2.222162E0,-2.5885248E-1,-2.9162204E0,-6.442878E0,4.6218033E0,-1.846991E0,1.0074103E1,-4.1171656E0,-6.5934973E0,-1.0422107E1,-1.1350457E1,-1.6167807E1,-7.781284E0,-1.7420185E1,-2.2571304E1,-1.006942E0,-1.1814103E2,-3.5119904E1,-7.5702844E0,-3.4717438E1,1.6298487E0,3.9900827E-1,8.493704E0,4.6398215E0,-9.761117E-1,-4.3330235E0,2.316587E0,-1.1339749E0,1.6473877E1,9.712819E0,7.5913577E0,1.8595987E1,1.2774068E1,5.1963525E0,-2.1476293E0,4.7490892E0,2.9629176E0,1.4735408E0,1.0994209E1,2.323301E0,8.4258085E-1,1.0390915E1,2.5161266E-1,-1.0785991E0,1.1153629E0,-3.1742127E0,-7.5208616E0,-4.0123525E0,2.4767241E0,3.3132389E0,-1.1004333E0,-5.923454E0,4.0610336E-2,1.0604954E1,2.4522816E-1,-2.6179364E-1,-8.03647E0,-3.4386163E0,-4.943179E0,-1.1407949E1,-9.47306E-1,-1.1653274E1,2.9428697E0,-1.6430674E1,-9.15025E0,4.1609845E-1,-1.8262083E1,-9.243033E0,-6.941731E-1,-8.0434597E-1,-5.5979805E0,-8.99776E-1,-4.217008E-1,-1.4221596E0,8.045817E0,-1.7139875E1,-1.1648817E0,-4.3087375E-1,2.852521E-2,9.179208E-2,4.3899757E-1,2.1360132E-1,8.328961E-2,1.8717647E-1,-6.017862E-2,2.6141196E-2,-1.6622443E-1,-5.9992462E-2,2.2410761E-1,2.9053262E-2,-1.07464995E-2,-1.5371509E-1,4.1654372E-1,7.0783985E-1,3.861931E-1,2.3668733E-1,2.8142038E-1,-7.155711E-2,8.205265E-1,5.7544464E-1,2.3012694E-2,4.6067402E-1,2.2515295E-1,-1.6594946E-2,8.252986E-3,-2.0230435E-1,2.99497E-1,6.2299974E-2,3.8373112E-3,1.13666065E-1,9.161816E-2,3.778338E-2,1.4012936E-1,4.019346E-1,1.4099416E-1,1.8161792E-2,7.4702026E-3,1.20279625E-1,2.883782E-1,5.695496E-1,-9.534063E-2,1.1308346E-2,-1.4477005E-3,-5.606506E-2,-1.0048937E-1,2.9857978E-1,-6.253661E-2,-1.2541415E-1,-1.9768454E-1,-2.790376E-1,3.673044E-1,-1.4151222E-1,3.4787443E-1,-3.5111601E-3,3.7859987E-2,-7.064238E-2,-1.4177924E-1,-2.856802E-1,1.1144136E-1,3.7153938E-1,-3.6488593E-1,-2.3080698E-1,1.3197188E-1,-1.8782842E-1,-2.1287183E-1,3.3665848E-1,3.261083E-1,-3.8167694E-1,-1.0985733E-1,5.5150405E-2,-3.2097325E-1,-3.9866912E-1,-2.3123759E-1,3.9309543E-1,-4.8216736E-1,-5.8723515E-1,-4.0932432E-1,-1.2203679E-1,-7.513228E-1,-5.456251E-1,2.8936377E-1,-4.187225E-1,1.23768635E-2,5.145215E-1,-1.998415E-1,-8.1826717E-1],"categories":[],"categories_nodes":[],"categories_segments":[],"categories_sizes":[],"default_left":[0,0,0,0,0,0,0,0,0,0,0,0,0,0,0,0,0,0,0,0,0,0,0,0,0,0,0,0,0,0,0,0,0,0,0,0,0,0,0,0,0,0,0,0,0,0,0,0,0,0,0,0,0,0,0,0,0,0,0,0,0,0,0,0,0,0,0,0,0,0,0,0,0,0,0,0,0,0,0,0,0,0,0,0,0,0,0,0,0,0,0,0,0,0,0,0,0,0,0,0,0,0,0,0,0,0,0,0,0,0,0,0,0,0,0,0,0,0,0,0,0,0,0,0,0,0,0,0,0,0,0,0,0,0,0,0,0,0,0,0,0,0,0,0,0,0,0,0,0,0,0,0,0,0,0,0,0,0,0,0,0,0,0,0,0,0,0,0,0,0,0,0,0,0,0,0,0,0,0,0,0,0,0,0,0,0,0,0,0,0,0,0,0,0,0,0,0,0,0,0,0,0,0,0,0,0,0],"id":4,"left_children":[1,3,5,7,9,11,13,15,17,19,21,23,25,27,29,31,33,35,37,39,41,43,45,-1,47,49,51,53,55,57,59,61,63,65,67,69,71,73,75,77,79,81,83,85,87,89,91,93,95,97,99,101,103,105,107,109,-1,111,113,115,117,119,-1,121,123,125,127,129,131,133,135,137,139,141,143,145,147,149,151,153,155,157,159,161,163,165,167,169,171,-1,173,175,177,-1,179,-1,-1,181,183,185,187,189,191,193,195,197,-1,199,201,-1,-1,-1,-1,-1,-1,203,205,-1,-1,-1,-1,-1,-1,-1,-1,-1,-1,-1,-1,-1,-1,-1,-1,-1,-1,-1,-1,-1,-1,-1,-1,-1,-1,-1,-1,-1,-1,-1,-1,-1,-1,-1,-1,-1,-1,-1,-1,-1,-1,-1,-1,-1,-1,-1,-1,-1,-1,-1,-1,-1,-1,-1,-1,-1,-1,-1,-1,-1,-1,-1,-1,-1,-1,-1,-1,-1,-1,-1,-1,-1,-1,-1,-1,-1,-1,-1,-1,-1,-1,-1,-1,-1,-1,-1,-1,-1,-1],"loss_changes":[3.7083197E5,8.518647E4,5.7477594E4,5.0265266E4,4.7541035E4,2.2968234E4,1.6496938E4,3.1127363E3,1.3242203E4,1.190215E4,7.1050566E3,6.3433457E3,9.119797E3,7.3233438E3,2.0937625E4,2.0358701E3,4.5246243E2,6.7612656E3,7.3904785E3,7.187002E3,5.2962764E3,5.9285625E3,5.2009556E3,0E0,1.4985907E3,2.5556055E3,2.6794844E3,2.7085E3,1.5391094E3,1.2958828E4,7.3322266E3,6.484114E2,4.095542E2,5.080968E2,3.0882962E2,4.3266953E3,4.419836E3,5.0895703E3,2.0446891E3,2.4171348E3,1.1532328E4,1.2477805E4,1.6117302E3,1.737415E3,1.7252695E3,1.5142519E4,1.4725322E3,1.4186987E2,4.9963345E2,1.4701094E3,2.0771484E3,6.473594E2,1.5855703E3,1.2598367E3,7.881211E2,5.4867188E1,0E0,1.8772672E4,5.184214E2,2.2300605E3,2.1986328E2,6.499718E2,0E0,2.7350317E2,3.067339E2,2.2023695E2,1.0771643E2,3.153354E2,1.5230637E2,1.8564043E3,3.8341094E3,4.5722778E2,1.0257969E3,2.2241816E3,1.9685854E3,1.0424453E3,8.617931E2,2.3393496E3,1.2926069E3,1.9003906E3,1.4353066E3,1.6378904E3,1.6647695E3,6.7997363E2,9.486334E2,3.360872E3,1.2480176E3,6.117461E2,9.167217E2,0E0,4.0796821E3,9.6577966E2,2.9638794E2,0E0,1.0847681E2,0E0,0E0,6.310791E2,1.7823972E3,1.481315E3,1.2379414E3,4.921947E1,4.9751953E1,5.296861E2,4.896953E2,6.4593945E2,0E0,5.966953E2,1.0421548E3,0E0,0E0,0E0,0E0,0E0,0E0,3.414418E2,6.1358716E2,0E0,0E0,0E0,0E0,0E0,0E0,0E0,0E0,0E0,0E0,0E0,0E0,0E0,0E0,0E0,0E0,0E0,0E0,0E0,0E0,0E0,0E0,0E0,0E0,0E0,0E0,0E0,0E0,0E0,0E0,0E0,0E0,0E0,0E0,0E0,0E0,0E0,0E0,0E0,0E0,0E0,0E0,0E0,0E0,0E0,0E0,0E0,0E0,0E0,0E0,0E0,0E0,0E0,0E0,0E0,0E0,0E0,0E0,0E0,0E0,0E0,0E0,0E0,0E0,0E0,0E0,0E0,0E0,0E0,0E0,0E0,0E0,0E0,0E0,0E0,0E0,0E0,0E0,0E0,0E0,0E0,0E0,0E0,0E0,0E0,0E0,0E0,0E0,0E0,0E0],"parents":[2147483647,0,0,1,1,2,2,3,3,4,4,5,5,6,6,7,7,8,8,9,9,10,10,11,11,12,12,13,13,14,14,15,15,16,16,17,17,18,18,19,19,20,20,21,21,22,22,24,24,25,25,26,26,27,27,28,28,29,29,30,30,31,31,32,32,33,33,34,34,35,35,36,36,37,37,38,38,39,39,40,40,41,41,42,42,43,43,44,44,45,45,46,46,47,47,48,48,49,49,50,50,51,51,52,52,53,53,54,54,55,55,57,57,58,58,59,59,60,60,61,61,63,63,64,64,65,65,66,66,67,67,68,68,69,69,70,70,71,71,72,72,73,73,74,74,75,75,76,76,77,77,78,78,79,79,80,80,81,81,82,82,83,83,84,84,85,85,86,86,87,87,88,88,90,90,91,91,92,92,94,94,97,97,98,98,99,99,100,100,101,101,102,102,103,103,104,104,105,105,107,107,108,108,115,115,116,116],"right_children":[2,4,6,8,10,12,14,16,18,20,22,24,26,28,30,32,34,36,38,40,42,44,46,-1,48,50,52,54,56,58,60,62,64,66,68,70,72,74,76,78,80,82,84,86,88,90,92,94,96,98,100,102,104,106,108,110,-1,112,114,116,118,120,-1,122,124,126,128,130,132,134,136,138,140,142,144,146,148,150,152,154,156,158,160,162,164,166,168,170,172,-1,174,176,178,-1,180,-1,-1,182,184,186,188,190,192,194,196,198,-1,200,202,-1,-1,-1,-1,-1,-1,204,206,-1,-1,-1,-1,-1,-1,-1,-1,-1,-1,-1,-1,-1,-1,-1,-1,-1,-1,-1,-1,-1,-1,-1,-1,-1,-1,-1,-1,-1,-1,-1,-1,-1,-1,-1,-1,-1,-1,-1,-1,-1,-1,-1,-1,-1,-1,-1,-1,-1,-1,-1,-1,-1,-1,-1,-1,-1,-1,-1,-1,-1,-1,-1,-1,-1,-1,-1,-1,-1,-1,-1,-1,-1,-1,-1,-1,-1,-1,-1,-1,-1,-1,-1,-1,-1,-1,-1,-1,-1,-1],"split_conditions":[1.700875E1,1.4E1,2.8781584E1,-1.8369701E-16,9.375E0,1.02E1,4.550386E1,8.970166E0,2E-1,5.455917E0,8.660254E-1,6E0,1E0,2.25E1,-2.4492937E-16,1.4E0,1E0,5E-1,8.1E0,1E0,1.77E1,1.3416667E1,-2.3191667E-1,1.3877193E0,8.660254E-1,2.0004084E1,2.1183292E1,1.38E1,3.8625E1,-1.5E0,-8.660254E-1,9.7437006E-1,-1.631125E0,1.2598375E1,1.23E1,7.7E0,1.2246469E-16,5E-1,8.660254E-1,3.2665E0,1.88E1,1E0,1.1729584E0,-1.4237416E1,5E-1,1.46E1,8.687041E0,-5E-1,7.7E0,8.660254E-1,1.46E1,1.29E1,1.17E1,1.37E1,3.4E0,3.3140793E1,-1.006942E0,1.55E1,1.39E1,-7.134375E0,2.8E0,0E0,3.9900827E-1,1.7E0,1.9E0,1.2E0,1.1E0,-1.1395834E-1,1.425E1,1E0,5.7083335E0,1.3416667E1,-4.485E0,-2.3E0,8.660254E-1,1.2456833E1,4.1666666E-1,0E0,1E-1,-2.5E0,2.58E1,8.660254E-1,1.7E0,0E0,6E-1,5E-1,3E-1,1.4610917E1,-1.53875E1,2.4767241E0,-9E-1,2.04E1,2.4E1,4.0610336E-2,-2.8836542E1,2.4522816E-1,-2.6179364E-1,-1.1E0,-8E-1,1.9E0,-2.8836542E1,1.8510416E1,1.775E1,1.13E1,2.395377E1,9.6875E0,4.1609845E-1,-1.2E0,3.6E0,-6.941731E-1,-8.0434597E-1,-5.5979805E0,-8.99776E-1,-4.217008E-1,-1.4221596E0,-9.744667E0,-7.922896E-1,-1.1648817E0,-4.3087375E-1,2.852521E-2,9.179208E-2,4.3899757E-1,2.1360132E-1,8.328961E-2,1.8717647E-1,-6.017862E-2,2.6141196E-2,-1.6622443E-1,-5.9992462E-2,2.2410761E-1,2.9053262E-2,-1.07464995E-2,-1.5371509E-1,4.1654372E-1,7.0783985E-1,3.861931E-1,2.3668733E-1,2.8142038E-1,-7.155711E-2,8.205265E-1,5.7544464E-1,2.3012694E-2,4.6067402E-1,2.2515295E-1,-1.6594946E-2,8.252986E-3,-2.0230435E-1,2.99497E-1,6.2299974E-2,3.8373112E-3,1.13666065E-1,9.161816E-2,3.778338E-2,1.4012936E-1,4.019346E-1,1.4099416E-1,1.8161792E-2,7.4702026E-3,1.20279625E-1,2.883782E-1,5.695496E-1,-9.534063E-2,1.1308346E-2,-1.4477005E-3,-5.606506E-2,-1.0048937E-1,2.9857978E-1,-6.253661E-2,-1.2541415E-1,-1.9768454E-1,-2.790376E-1,3.673044E-1,-1.4151222E-1,3.4787443E-1,-3.5111601E-3,3.7859987E-2,-7.064238E-2,-1.4177924E-1,-2.856802E-1,1.1144136E-1,3.7153938E-1,-3.6488593E-1,-2.3080698E-1,1.3197188E-1,-1.8782842E-1,-2.1287183E-1,3.3665848E-1,3.261083E-1,-3.8167694E-1,-1.0985733E-1,5.5150405E-2,-3.2097325E-1,-3.9866912E-1,-2.3123759E-1,3.9309543E-1,-4.8216736E-1,-5.8723515E-1,-4.0932432E-1,-1.2203679E-1,-7.513228E-1,-5.456251E-1,2.8936377E-1,-4.187225E-1,1.23768635E-2,5.145215E-1,-1.998415E-1,-8.1826717E-1],"split_indices":[0,7,0,3,0,7,0,0,8,0,3,7,2,7,2,10,12,10,0,2,7,0,9,0,2,0,0,7,0,10,3,18,9,0,7,7,2,3,3,0,7,2,9,9,3,7,9,2,7,3,7,7,7,7,8,0,0,7,7,9,10,10,0,10,10,8,10,9,0,12,0,0,9,10,2,0,9,18,8,10,7,3,10,18,8,3,8,0,9,0,10,7,7,0,9,0,0,10,10,10,9,0,0,7,0,9,0,10,8,0,0,0,0,0,0,9,18,0,0,0,0,0,0,0,0,0,0,0,0,0,0,0,0,0,0,0,0,0,0,0,0,0,0,0,0,0,0,0,0,0,0,0,0,0,0,0,0,0,0,0,0,0,0,0,0,0,0,0,0,0,0,0,0,0,0,0,0,0,0,0,0,0,0,0,0,0,0,0,0,0,0,0,0,0,0,0,0,0,0,0,0,0,0,0,0,0,0],"split_type":[0,0,0,0,0,0,0,0,0,0,0,0,0,0,0,0,0,0,0,0,0,0,0,0,0,0,0,0,0,0,0,0,0,0,0,0,0,0,0,0,0,0,0,0,0,0,0,0,0,0,0,0,0,0,0,0,0,0,0,0,0,0,0,0,0,0,0,0,0,0,0,0,0,0,0,0,0,0,0,0,0,0,0,0,0,0,0,0,0,0,0,0,0,0,0,0,0,0,0,0,0,0,0,0,0,0,0,0,0,0,0,0,0,0,0,0,0,0,0,0,0,0,0,0,0,0,0,0,0,0,0,0,0,0,0,0,0,0,0,0,0,0,0,0,0,0,0,0,0,0,0,0,0,0,0,0,0,0,0,0,0,0,0,0,0,0,0,0,0,0,0,0,0,0,0,0,0,0,0,0,0,0,0,0,0,0,0,0,0,0,0,0,0,0,0,0,0,0,0,0,0,0,0,0,0,0,0],"sum_hessian":[1.8023E4,1.6246E4,1.777E3,2.913E3,1.3333E4,1.281E3,4.96E2,1.238E3,1.675E3,1.0347E4,2.986E3,4.6E1,1.235E3,4.21E2,7.5E1,9.26E2,3.12E2,1.131E3,5.44E2,5.39E3,4.957E3,2.335E3,6.51E2,5E0,4.1E1,7.22E2,5.13E2,1.78E2,2.43E2,9E0,6.6E1,7.44E2,1.82E2,2.1E2,1.02E2,8.84E2,2.47E2,3.66E2,1.78E2,4.732E3,6.58E2,1.107E3,3.85E3,1.666E3,6.69E2,1.66E2,4.85E2,3.2E1,9E0,3.28E2,3.94E2,2.08E2,3.05E2,4E1,1.38E2,2.04E2,3.9E1,4E0,5E0,1.3E1,5.3E1,7.39E2,5E0,3.6E1,1.46E2,1.45E2,6.5E1,4.9E1,5.3E1,1.1E2,7.74E2,4.7E1,2E2,1.55E2,2.11E2,1.08E2,7E1,1.706E3,3.026E3,2.43E2,4.15E2,9.48E2,1.59E2,2.373E3,1.477E3,1E2,1.566E3,4.62E2,2.07E2,2E0,1.64E2,4.11E2,7.4E1,2E0,3E1,2E0,7E0,2.24E2,1.04E2,6.1E1,3.33E2,6E0,2.02E2,4E0,3.01E2,3.8E1,2E0,1.24E2,1.4E1,1.17E2,8.7E1,2E0,2E0,2E0,3E0,5E0,8E0,5.1E1,2E0,4.45E2,2.94E2,9E0,2.7E1,4.9E1,9.7E1,9.8E1,4.7E1,5E1,1.5E1,1.1E1,3.8E1,4.4E1,9E0,6.4E1,4.6E1,4.32E2,3.42E2,4.3E1,4E0,2.8E1,1.72E2,1.4E1,1.41E2,1.64E2,4.7E1,6.8E1,4E1,2.7E1,4.3E1,2.47E2,1.459E3,6.08E2,2.418E3,3.7E1,2.06E2,1.97E2,2.18E2,7.78E2,1.7E2,1.3E2,2.9E1,6.6E1,2.307E3,5.54E2,9.23E2,6.6E1,3.4E1,5.16E2,1.05E3,1.78E2,2.84E2,3E0,2.04E2,5.2E1,1.12E2,1.3E2,2.81E2,4.8E1,2.6E1,3E0,2.7E1,5.5E1,1.69E2,2.4E1,8E1,5.6E1,5E0,2E0,3.31E2,3E0,3E0,4.1E1,1.61E2,2E0,2E0,1.34E2,1.67E2,2.3E1,1.5E1,3.1E1,9.3E1,2E0,1.2E1,3E0,2E0,4E0,4E0],"tree_param":{"num_deleted":"0","num_feature":"19","num_nodes":"207","size_leaf_vector":"1"}},{"base_weights":[-1.6917666E-2,5.1241336E0,-1.2948602E0,2.1921735E0,8.027503E0,-8.21143E-1,-5.1603055E0,4.324609E0,-1.07195124E-1,4.299375E0,1.1490142E1,-1.0695949E0,3.2219183E0,-7.579352E0,-1.7276334E0,8.545841E0,2.7228713E0,3.8528605E0,-1.1113199E0,9.936392E0,1.385983E0,9.192348E0,1.4930718E1,-4.9539888E-1,-5.062511E0,8.517276E0,1.5528324E0,-3.3513758E0,-9.802031E0,-3.0264122E0,-1.5376428E-1,6.314192E0,1.3404439E1,3.241615E0,-2.8960989E0,-1.8825111E0,4.4381633E0,-2.8445702E0,7.0166576E-1,1.8746563E1,6.173162E0,1.3562672E1,1.1485628E0,1.4682218E1,7.578072E0,5.9270706E0,1.786857E1,-8.4592843E-1,2.4381874E0,-3.5945182E0,-1.407907E1,6.629466E0,2.111539E1,7.276017E-1,3.7540731E0,-7.7025695E0,2.812619E-1,-6.0218687E0,-1.3110045E1,-5.9513345E0,-1.5084549E0,-9.008759E-1,1.8343345E0,1.1347355E1,3.7234023E0,1.9600607E1,6.3879385E0,2.2618563E0,8.166011E0,-4.0762014E0,1.5024253E0,4.233787E0,-5.6035633E0,4.842513E0,-2.1113362E0,-3.1236691E0,3.1850982E-1,4.3028216E0,-1.4387476E0,4.406986E1,1.3017922E1,7.4958634E0,-2.4347006E1,1.8088866E-2,1.83746E1,6.985669E0,7.652656E-1,9.999512E0,2.1556116E1,3.6915371E0,1.1000384E1,4.834817E0,9.984135E0,1.5368983E1,2.108811E1,-4.17047E0,-6.112127E-1,6.4718156E0,-1.2549435E0,-6.990219E0,-1.8616334E0,-1.8202808E1,-9.666898E0,3.3447475E0,9.011129E0,1.1056157E0,6.0522544E-1,1.0713155E0,-2.7377295E0,3.3738792E0,3.7503803E-1,-1.0360445E1,-3.9942837E0,1.3107232E0,-5.747945E0,-9.47615E0,-4.521423E0,-1.06775465E1,-1.757918E1,-8.444513E0,7.185291E-2,-4.944133E-1,-2.3548865E0,-2.282877E0,-3.4291044E-2,1.5992599E0,1.9860968E-1,1.1977771E-1,4.3563858E-1,9.318495E-2,3.7981892E-1,4.802758E-2,6.755589E-1,-5.499079E-2,2.2665538E-1,1.1522506E-1,5.500017E-2,3.4757212E-1,2.1222968E-1,-1.4391015E-1,-4.7892865E-2,8.260302E-2,-1.9777354E-2,4.1429434E-2,2.0307176E-1,-2.526886E-1,-8.6327E-2,1.9519459E-1,9.6277915E-2,-3.813904E-2,-9.3581334E-2,-3.3431873E-1,-9.454122E-2,1.00066535E-1,2.3755623E-1,-1.9162393E-1,-4.6437555E-3,6.035722E-1,1.5327264E0,2.1315737E-1,4.765401E-1,2.0935918E-1,6.784539E-1,-2.4943626E0,3.6003906E-2,2.760662E-1,7.4932593E-1,1.5621032E-1,5.054783E-1,1.0330889E-1,-5.9120893E-3,6.8616205E-1,2.7358148E-1,9.6948105E-1,5.76868E-1,1.758589E-1,-4.798031E-2,4.567018E-1,2.4754338E-1,9.822877E-2,1.7969494E-1,4.0611896E-1,-5.946271E-2,4.1984567E-1,5.683948E-1,6.627944E-1,8.717887E-1,-2.3357438E-2,-2.313503E-1,-2.0697837E-1,-1.665027E-2,4.0259054E-1,1.692395E-1,-8.007028E-2,1.14537984E-1,-3.2038054E-1,-4.9120437E-2,-3.194752E-2,-2.0432816E-1,-6.619711E-1,-3.975927E-1,-3.5401607E-1,1.5521095E-2,5.148527E-1,8.378774E-2,4.3051952E-1,1.7445067E-1,-3.6729938E-1,3.8447358E-2,-6.908704E-2,-1.02665134E-1,2.484346E-2,1.3186279E-1,-3.5481894E-1,-6.414292E-2,-4.0806092E-2,-1.6192366E-1,1.8834041E-1,1.9844234E-2,-2.0414611E-2,-2.9419848E-1,-2.1914849E-1,-4.2513257E-1,-2.0750609E-1,-6.136056E-2,-4.3453258E-1,-1.7074582E-1,-4.1404402E-1,-7.053415E-1,1.0340375E-1,-3.2407993E-1,-1.7685995E-1,5.0087065E-2,-3.944988E-2,3.0393818E-2,2.637831E-1,-8.5107915E-2,-2.3645206E-1,-5.9909876E-2,6.1886743E-2,-2.0510985E-2,8.446009E-3,6.973706E-2],"categories":[],"categories_nodes":[],"categories_segments":[],"categories_sizes":[],"default_left":[0,0,0,0,0,0,0,0,0,0,0,0,0,0,0,0,0,0,0,0,0,0,0,0,0,0,0,0,0,0,0,0,0,0,0,0,0,0,0,0,0,0,0,0,0,0,0,0,0,0,0,0,0,0,0,0,0,0,0,0,0,0,0,0,0,0,0,0,0,0,0,0,0,0,0,0,0,0,0,0,0,0,0,0,0,0,0,0,0,0,0,0,0,0,0,0,0,0,0,0,0,0,0,0,0,0,0,0,0,0,0,0,0,0,0,0,0,0,0,0,0,0,0,0,0,0,0,0,0,0,0,0,0,0,0,0,0,0,0,0,0,0,0,0,0,0,0,0,0,0,0,0,0,0,0,0,0,0,0,0,0,0,0,0,0,0,0,0,0,0,0,0,0,0,0,0,0,0,0,0,0,0,0,0,0,0,0,0,0,0,0,0,0,0,0,0,0,0,0,0,0,0,0,0,0,0,0,0,0,0,0,0,0,0,0,0,0,0,0,0,0,0,0,0,0,0,0,0,0,0,0,0,0,0,0,0,0,0,0,0,0,0,0],"id":5,"left_children":[1,3,5,7,9,11,13,15,17,19,21,23,25,27,29,31,33,35,37,39,41,43,45,47,49,51,53,55,57,59,61,63,65,67,69,71,73,75,77,79,81,83,85,87,89,91,93,95,97,99,101,103,105,107,109,111,113,115,117,119,121,123,125,127,129,131,133,135,137,139,141,143,145,147,149,151,-1,153,155,157,159,161,163,-1,165,167,169,171,173,175,177,179,181,183,185,187,189,191,193,195,197,199,201,203,205,-1,-1,207,209,211,-1,213,215,217,219,221,223,225,227,229,231,233,235,237,239,241,-1,-1,-1,-1,-1,-1,-1,-1,-1,-1,-1,-1,-1,-1,-1,-1,-1,-1,-1,-1,-1,-1,-1,-1,-1,-1,-1,-1,-1,-1,-1,-1,-1,-1,-1,-1,-1,-1,-1,-1,-1,-1,-1,-1,-1,-1,-1,-1,-1,-1,-1,-1,-1,-1,-1,-1,-1,-1,-1,-1,-1,-1,-1,-1,-1,-1,-1,-1,-1,-1,-1,-1,-1,-1,-1,-1,-1,-1,-1,-1,-1,-1,-1,-1,-1,-1,-1,-1,-1,-1,-1,-1,-1,-1,-1,-1,-1,-1,-1,-1,-1,-1,-1,-1,-1,-1,-1,-1,-1,-1,-1,-1,-1,-1,-1,-1,-1],"loss_changes":[1.1956035E5,3.0823414E4,2.668445E4,8.845936E3,2.3445273E4,1.3046961E4,1.3198246E4,6.3053125E3,3.4597644E3,1.4405484E4,7.3178594E3,2.8046586E4,6.6332554E3,8.734953E3,1.3466018E3,2.7019336E3,1.9914556E3,5.991743E2,2.1827922E3,9.797527E3,1.6611982E3,4.9224414E3,9.8398125E3,1.1001879E4,2.0306742E4,4.140927E3,1.0381409E3,5.1076045E3,7.561508E3,1.5938291E3,4.4576672E2,2.2788457E3,3.3528252E3,2.9873306E3,3.0718536E2,4.1062842E2,4.3395044E2,1.2682927E3,2.6268977E3,1.2337359E4,8.700375E3,6.7880273E2,1.2699414E3,3.9045703E3,5.8251055E3,3.682749E2,1.9533438E3,7.454211E3,1.7020172E4,7.777877E3,3.7358828E3,1.2059092E3,1.7627637E2,5.0080548E2,4.1305005E2,1.4074736E3,1.1061438E3,1.4446641E3,3.3454219E3,1.8476831E3,2.0397351E2,2.6100314E2,7.102887E1,8.1051807E2,8.010521E2,6.339004E2,1.623501E2,3.7553442E2,3.5511768E2,2.8048767E1,2.8841799E1,3.2301414E1,4.7459656E1,2.9448438E2,3.6455994E0,6.02022E2,0E0,4.4542798E2,1.2125273E3,1.3070312E2,5.9720605E2,2.9235713E3,1.181341E4,0E0,1.5693286E2,5.842157E2,1.1979005E3,1.266523E3,1.1121777E3,1.7603225E3,2.2207637E3,7.000537E1,5.4226355E2,5.8108203E2,1.16515625E2,6.1907617E3,5.386795E3,4.1386562E3,3.31337E3,6.670535E3,3.3910632E3,1.0154492E3,1.1449902E3,6.3193164E2,1.2986763E3,0E0,0E0,4.4882086E2,2.625702E0,2.41521E2,0E0,2.5929102E2,1.5246674E2,4.7063248E2,4.1686493E2,7.451079E2,9.3827734E2,2.8508516E3,1.8897812E3,1.4168857E3,2.9870422E2,1.1025134E2,3.2214795E2,1.7869095E2,1.5256107E2,5.4004333E1,0E0,0E0,0E0,0E0,0E0,0E0,0E0,0E0,0E0,0E0,0E0,0E0,0E0,0E0,0E0,0E0,0E0,0E0,0E0,0E0,0E0,0E0,0E0,0E0,0E0,0E0,0E0,0E0,0E0,0E0,0E0,0E0,0E0,0E0,0E0,0E0,0E0,0E0,0E0,0E0,0E0,0E0,0E0,0E0,0E0,0E0,0E0,0E0,0E0,0E0,0E0,0E0,0E0,0E0,0E0,0E0,0E0,0E0,0E0,0E0,0E0,0E0,0E0,0E0,0E0,0E0,0E0,0E0,0E0,0E0,0E0,0E0,0E0,0E0,0E0,0E0,0E0,0E0,0E0,0E0,0E0,0E0,0E0,0E0,0E0,0E0,0E0,0E0,0E0,0E0,0E0,0E0,0E0,0E0,0E0,0E0,0E0,0E0,0E0,0E0,0E0,0E0,0E0,0E0,0E0,0E0,0E0,0E0,0E0,0E0,0E0,0E0,0E0,0E0,0E0,0E0,0E0],"parents":[2147483647,0,0,1,1,2,2,3,3,4,4,5,5,6,6,7,7,8,8,9,9,10,10,11,11,12,12,13,13,14,14,15,15,16,16,17,17,18,18,19,19,20,20,21,21,22,22,23,23,24,24,25,25,26,26,27,27,28,28,29,29,30,30,31,31,32,32,33,33,34,34,35,35,36,36,37,37,38,38,39,39,40,40,41,41,42,42,43,43,44,44,45,45,46,46,47,47,48,48,49,49,50,50,51,51,52,52,53,53,54,54,55,55,56,56,57,57,58,58,59,59,60,60,61,61,62,62,63,63,64,64,65,65,66,66,67,67,68,68,69,69,70,70,71,71,72,72,73,73,74,74,75,75,77,77,78,78,79,79,80,80,81,81,82,82,84,84,85,85,86,86,87,87,88,88,89,89,90,90,91,91,92,92,93,93,94,94,95,95,96,96,97,97,98,98,99,99,100,100,101,101,102,102,103,103,104,104,107,107,108,108,109,109,111,111,112,112,113,113,114,114,115,115,116,116,117,117,118,118,119,119,120,120,121,121,122,122,123,123,124,124,125,125],"right_children":[2,4,6,8,10,12,14,16,18,20,22,24,26,28,30,32,34,36,38,40,42,44,46,48,50,52,54,56,58,60,62,64,66,68,70,72,74,76,78,80,82,84,86,88,90,92,94,96,98,100,102,104,106,108,110,112,114,116,118,120,122,124,126,128,130,132,134,136,138,140,142,144,146,148,150,152,-1,154,156,158,160,162,164,-1,166,168,170,172,174,176,178,180,182,184,186,188,190,192,194,196,198,200,202,204,206,-1,-1,208,210,212,-1,214,216,218,220,222,224,226,228,230,232,234,236,238,240,242,-1,-1,-1,-1,-1,-1,-1,-1,-1,-1,-1,-1,-1,-1,-1,-1,-1,-1,-1,-1,-1,-1,-1,-1,-1,-1,-1,-1,-1,-1,-1,-1,-1,-1,-1,-1,-1,-1,-1,-1,-1,-1,-1,-1,-1,-1,-1,-1,-1,-1,-1,-1,-1,-1,-1,-1,-1,-1,-1,-1,-1,-1,-1,-1,-1,-1,-1,-1,-1,-1,-1,-1,-1,-1,-1,-1,-1,-1,-1,-1,-1,-1,-1,-1,-1,-1,-1,-1,-1,-1,-1,-1,-1,-1,-1,-1,-1,-1,-1,-1,-1,-1,-1,-1,-1,-1,-1,-1,-1,-1,-1,-1,-1,-1,-1,-1,-1],"split_conditions":[1.46E1,-3.3E0,9.920985E-1,1E-1,8.6709857E-1,9.776531E-1,9.989315E-1,1.02E1,3.2105765E-1,2.5518242E-1,2.1E-1,9.3957E-1,2.05E1,2E-1,9.9974513E-1,9.724076E-1,9.9410987E-1,-9.2883945E-1,8.550745E-1,9.7E0,5.75E-2,8.9645624E-1,9.1116863E-1,8.8372034E-1,3.48E1,6.3E0,2.1916667E-1,-8.9E0,1.4E0,2E0,9.999856E-1,2.6556304E-1,9.8314697E-1,9.724076E-1,-1.42E1,2E-1,1.7875E-1,2.14428E3,9.248026E-1,5.9166666E-2,1.54676E3,4.5E-2,-2.605045E-1,8.916402E-1,9.5597935E-1,2.4E0,3.4291667E-1,-3.9874908E-1,2.14E1,1.0916667E-1,9.431965E-1,-2.3E0,1.3458334E-1,1.9E1,3.2918E2,9.952176E-1,1.2583333E-1,1.1416667E-1,3.0056E2,9E-1,9.9920887E-1,1.2958333E-1,6.2E0,-1.05E1,1E1,-1.6E1,7.1E0,8.916666E-2,9.798568E-1,1.97779E3,2.9518E2,1.13E1,1.19166665E-1,1.24E1,1.27E1,4.324994E-1,3.1850982E-1,9.0668607E-1,9.540666E-1,-5.1205516E-1,1.08333334E-1,3.1E0,-6.2504965E-1,1.8088866E-2,1.13E1,2.25E-1,3.7945285E-1,1E1,1.4166667E-1,9.3121004E-1,9.798568E-1,1.14E1,3.05E-1,2.9518E2,4.2E0,4.4794494E-1,4.25E-2,8.9645624E-1,1.3039047E4,9.638074E-1,4.5E0,1.0625E-1,9.638074E-1,9.798568E-1,2.9833335E-1,1.1056157E0,6.0522544E-1,9.798568E-1,4.4E0,9.897936E-1,3.7503803E-1,1.0625E-1,6.875E-2,9.9410987E-1,1.2E0,-1E0,9.9798876E-1,1.1125E-1,5.6E0,9.9920887E-1,1.15E-1,1.4958334E-1,8.708333E-2,1.55E1,-9.6E0,1E-1,1.9860968E-1,1.1977771E-1,4.3563858E-1,9.318495E-2,3.7981892E-1,4.802758E-2,6.755589E-1,-5.499079E-2,2.2665538E-1,1.1522506E-1,5.500017E-2,3.4757212E-1,2.1222968E-1,-1.4391015E-1,-4.7892865E-2,8.260302E-2,-1.9777354E-2,4.1429434E-2,2.0307176E-1,-2.526886E-1,-8.6327E-2,1.9519459E-1,9.6277915E-2,-3.813904E-2,-9.3581334E-2,-3.3431873E-1,-9.454122E-2,1.00066535E-1,2.3755623E-1,-1.9162393E-1,-4.6437555E-3,6.035722E-1,1.5327264E0,2.1315737E-1,4.765401E-1,2.0935918E-1,6.784539E-1,-2.4943626E0,3.6003906E-2,2.760662E-1,7.4932593E-1,1.5621032E-1,5.054783E-1,1.0330889E-1,-5.9120893E-3,6.8616205E-1,2.7358148E-1,9.6948105E-1,5.76868E-1,1.758589E-1,-4.798031E-2,4.567018E-1,2.4754338E-1,9.822877E-2,1.7969494E-1,4.0611896E-1,-5.946271E-2,4.1984567E-1,5.683948E-1,6.627944E-1,8.717887E-1,-2.3357438E-2,-2.313503E-1,-2.0697837E-1,-1.665027E-2,4.0259054E-1,1.692395E-1,-8.007028E-2,1.14537984E-1,-3.2038054E-1,-4.9120437E-2,-3.194752E-2,-2.0432816E-1,-6.619711E-1,-3.975927E-1,-3.5401607E-1,1.5521095E-2,5.148527E-1,8.378774E-2,4.3051952E-1,1.7445067E-1,-3.6729938E-1,3.8447358E-2,-6.908704E-2,-1.02665134E-1,2.484346E-2,1.3186279E-1,-3.5481894E-1,-6.414292E-2,-4.0806092E-2,-1.6192366E-1,1.8834041E-1,1.9844234E-2,-2.0414611E-2,-2.9419848E-1,-2.1914849E-1,-4.2513257E-1,-2.0750609E-1,-6.136056E-2,-4.3453258E-1,-1.7074582E-1,-4.1404402E-1,-7.053415E-1,1.0340375E-1,-3.2407993E-1,-1.7685995E-1,5.0087065E-2,-3.944988E-2,3.0393818E-2,2.637831E-1,-8.5107915E-2,-2.3645206E-1,-5.9909876E-2,6.1886743E-2,-2.0510985E-2,8.446009E-3,6.973706E-2],"split_indices":[7,11,4,8,4,4,4,7,4,4,15,4,7,8,4,4,4,4,4,7,15,4,4,4,7,11,15,11,11,11,4,4,4,4,11,8,15,13,4,15,13,15,17,4,4,8,15,18,7,15,4,11,15,11,13,4,15,15,13,8,4,15,11,11,7,11,7,15,4,13,13,7,15,7,7,4,0,4,4,4,15,8,4,0,7,15,4,7,15,4,4,7,15,13,11,4,15,4,14,4,8,15,4,4,15,0,0,4,8,4,0,15,15,4,11,11,4,15,11,4,15,15,15,7,11,15,0,0,0,0,0,0,0,0,0,0,0,0,0,0,0,0,0,0,0,0,0,0,0,0,0,0,0,0,0,0,0,0,0,0,0,0,0,0,0,0,0,0,0,0,0,0,0,0,0,0,0,0,0,0,0,0,0,0,0,0,0,0,0,0,0,0,0,0,0,0,0,0,0,0,0,0,0,0,0,0,0,0,0,0,0,0,0,0,0,0,0,0,0,0,0,0,0,0,0,0,0,0,0,0,0,0,0,0,0,0,0,0,0,0,0,0,0],"split_type":[0,0,0,0,0,0,0,0,0,0,0,0,0,0,0,0,0,0,0,0,0,0,0,0,0,0,0,0,0,0,0,0,0,0,0,0,0,0,0,0,0,0,0,0,0,0,0,0,0,0,0,0,0,0,0,0,0,0,0,0,0,0,0,0,0,0,0,0,0,0,0,0,0,0,0,0,0,0,0,0,0,0,0,0,0,0,0,0,0,0,0,0,0,0,0,0,0,0,0,0,0,0,0,0,0,0,0,0,0,0,0,0,0,0,0,0,0,0,0,0,0,0,0,0,0,0,0,0,0,0,0,0,0,0,0,0,0,0,0,0,0,0,0,0,0,0,0,0,0,0,0,0,0,0,0,0,0,0,0,0,0,0,0,0,0,0,0,0,0,0,0,0,0,0,0,0,0,0,0,0,0,0,0,0,0,0,0,0,0,0,0,0,0,0,0,0,0,0,0,0,0,0,0,0,0,0,0,0,0,0,0,0,0,0,0,0,0,0,0,0,0,0,0,0,0,0,0,0,0,0,0,0,0,0,0,0,0,0,0,0,0,0,0],"sum_hessian":[1.8196E4,3.622E3,1.4574E4,1.803E3,1.819E3,1.2984E4,1.59E3,9.35E2,8.68E2,8.77E2,9.42E2,1.2233E4,7.51E2,9.32E2,6.58E2,2.56E2,6.79E2,1.75E2,6.93E2,2.98E2,5.79E2,5.67E2,3.75E2,1.0696E4,1.537E3,1.79E2,5.72E2,3.22E2,6.1E2,3.6E2,2.98E2,1.77E2,7.9E1,6.22E2,5.7E1,1.6E1,1.59E2,3.54E2,3.39E2,8.8E1,2.1E2,1E1,5.69E2,1.27E2,4.4E2,9.3E1,2.82E2,9.555E3,1.141E3,1.323E3,2.14E2,1.57E2,2.2E1,4.17E2,1.55E2,1.46E2,1.76E2,2.86E2,3.24E2,1.22E2,2.38E2,2.17E2,8.1E1,5.9E1,1.18E2,4.1E1,3.8E1,5.2E2,1.02E2,4.5E1,1.2E1,6E0,1E1,1.5E2,9E0,3.47E2,7E0,1.26E2,2.13E2,1.5E1,7.3E1,2.02E2,8E0,3E0,7E0,3.4E1,5.35E2,7.7E1,5E1,2.07E2,2.33E2,7.5E1,1.8E1,1.62E2,1.2E2,6.29E2,8.926E3,5.45E2,5.96E2,4.46E2,8.77E2,1.09E2,1.05E2,6.7E1,9E1,2E0,2E1,3.8E2,3.7E1,1.49E2,6E0,8.4E1,6.2E1,1.51E2,2.5E1,8.5E1,2.01E2,2.12E2,1.12E2,8.6E1,3.6E1,1.09E2,1.29E2,8.3E1,1.34E2,7.8E1,3E0,1.2E1,4.7E1,1.07E2,1.1E1,2E0,3.9E1,2E0,3.6E1,1.68E2,3.52E2,4.1E1,6.1E1,4E1,5E0,8E0,4E0,3E0,3E0,5E0,5E0,9.5E1,5.5E1,5E0,4E0,1.1E1,3.36E2,8.9E1,3.7E1,4.8E1,1.65E2,2E0,1.3E1,1.4E1,5.9E1,1.87E2,1.5E1,2E0,6E0,3E0,4E0,2.8E1,6E0,1.52E2,3.83E2,9E0,6.8E1,1.5E1,3.5E1,1.57E2,5E1,1.27E2,1.06E2,2E1,5.5E1,1.5E1,3E0,7E1,9.2E1,1.05E2,1.5E1,2.84E2,3.45E2,1.64E2,8.762E3,1.02E2,4.43E2,4.78E2,1.18E2,2.98E2,1.48E2,7.28E2,1.49E2,8.2E1,2.7E1,9.5E1,1E1,3E0,6.4E1,4.2E1,4.8E1,2E0,3.78E2,1.6E1,2.1E1,2.9E1,1.2E2,8E1,4E0,1.6E1,4.6E1,2E1,1.31E2,1E1,1.5E1,4.8E1,3.7E1,1.2E2,8.1E1,1.45E2,6.7E1,5E1,6.2E1,9E0,7.7E1,7E0,2.9E1,7.3E1,3.6E1,2E0,1.27E2,6E0,7.7E1,3.1E1,1.03E2,2.2E1,5.6E1],"tree_param":{"num_deleted":"0","num_feature":"19","num_nodes":"243","size_leaf_vector":"1"}},{"base_weights":[-2.5194604E-2,1.2669265E0,-9.424428E0,5.7056155E0,1.3362613E-1,-8.0556555E0,-2.8234467E1,3.0432982E0,1.1366553E1,7.022448E-1,-2.2941222E0,-6.0169153E0,-1.3256407E1,-6.053124E1,-2.3827751E1,1.6438285E0,7.9409394E0,-2.4767199E-1,1.1727926E1,1.8432294E0,-2.1956065E-1,-2.4882962E-1,-2.9508753E0,1.172348E1,-6.3851414E0,-3.9516323E0,-1.5300177E1,-5.5548924E-1,-9.750378E1,-2.6893526E1,-1.9751692E1,2.9042609E0,5.7346307E-2,1.337812E1,6.425638E0,-2.598836E0,8.520604E0,1.6758453E1,1.1282725E1,1.2999326E0,5.7374473E0,2.8317505E-1,-2.9058433E0,-1.2126085E0,1.2528822E0,-2.015322E0,-4.444059E0,2.8881927E1,7.136513E0,-8.28789E0,-4.1430326E0,8.551379E0,-5.5224333E0,-1.2340689E1,-1.829608E1,-5.7414505E1,-4.397638E0,-7.724315E-1,-1.0228155E0,-9.943046E-1,-1.7329355E1,1.8229403E0,8.839037E0,8.2474947E-1,-2.261496E0,1.2051341E1,2.477739E1,5.846137E0,2.124066E1,2.0066388E-1,-3.9953315E0,3.6519316E-1,1.2687173E-1,1.2523461E1,2.402492E1,1.1995404E1,7.127175E0,6.9931036E-1,3.6485028E0,-1.8478748E0,7.297822E0,-1.3754054E0,5.75048E-1,-1.2080971E0,-5.1707897E0,-2.0057738E0,2.104074E0,4.4414825E0,4.0036458E-1,-1.6364028E0,-4.1542435E0,-3.737159E0,-6.928434E0,1.2432164E0,2.4858524E-1,8.716015E0,-9.246951E-1,-3.2648346E0,-9.405143E0,-2.8877306E0,-6.716107E0,3.740447E-1,1.280056E-1,1.9839154E0,-7.227589E0,-1.4166597E1,-1.1194857E1,-1.0343677E1,-1.8648285E1,-5.0557894E-1,-3.1152523E0,8.603894E-1,-1.8895723E1,4.3790575E-2,1.495554E-1,3.2467324E-1,3.3927732E-3,4.5785278E-2,-5.051216E-2,-4.7983892E-2,-1.3502538E-1,7.7115524E-1,3.501965E-1,1.233083E0,1.5560801E-1,2.3671386E-1,5.4539222E-2,2.41247E0,2.1464781E-1,-1.6004328E-1,4.210221E-2,4.4420338E-1,-6.8926245E-2,2.3367624E-1,8.2684606E-1,5.755402E-1,3.8692302E-1,2.4736367E-1,3.4671627E-2,1.7470684E-2,1.244278E-1,1.4225264E-1,5.990553E-2,2.4247846E-1,-8.757185E-2,3.2847518E-1,1.2695272E-1,-1.2998092E-1,-3.5075463E-2,2.8136248E-2,-3.760661E-2,2.4367528E-2,-6.594674E-2,-1.2643844E-1,-2.9028994E-1,-1.23025015E-1,-5.03059E-2,-4.1232813E-2,1.2566443E-1,2.4032325E-1,9.667081E-2,-1.1655116E-2,1.250906E-1,-1.7408644E-1,-4.6979636E-2,6.5137064E-1,-1.5548487E-1,-2.7956232E-1,-1.1301548E-1,-1.6015762E-1,-2.7479526E-1,3.6539373E-1,3.2316435E-2,4.3353833E-2,-9.4212055E-2,-1.1533015E-1,2.824021E-1,-2.6336443E-1,-3.4217668E-1,-4.2440493E-2,-1.396397E-1,-6.4837895E-2,-2.4670705E-1,-1.2887163E-1,1.5012889E-1,-1.2057258E-1,-3.2621688E-1,-3.2239133E-1,-5.027822E-1,-5.396148E-1,-3.4948817E-1,-4.048036E-1,-1.6019937E-2,-5.7546806E-1,-7.093724E-1,-1.5109979E-1,1.9842121E-1,-4.857525E-1,-7.161813E-1],"categories":[],"categories_nodes":[],"categories_segments":[],"categories_sizes":[],"default_left":[0,0,0,0,0,0,0,0,0,0,0,0,0,0,0,0,0,0,0,0,0,0,0,0,0,0,0,0,0,0,0,0,0,0,0,0,0,0,0,0,0,0,0,0,0,0,0,0,0,0,0,0,0,0,0,0,0,0,0,0,0,0,0,0,0,0,0,0,0,0,0,0,0,0,0,0,0,0,0,0,0,0,0,0,0,0,0,0,0,0,0,0,0,0,0,0,0,0,0,0,0,0,0,0,0,0,0,0,0,0,0,0,0,0,0,0,0,0,0,0,0,0,0,0,0,0,0,0,0,0,0,0,0,0,0,0,0,0,0,0,0,0,0,0,0,0,0,0,0,0,0,0,0,0,0,0,0,0,0,0,0,0,0,0,0,0,0,0,0,0,0,0,0,0,0,0,0,0,0,0,0,0,0,0,0,0,0,0,0,0,0,0,0,0,0,0,0,0,0],"id":6,"left_children":[1,3,5,7,9,11,13,15,17,19,21,23,25,27,29,31,33,35,37,39,41,43,45,47,49,51,53,-1,55,57,59,61,63,65,67,69,71,73,75,77,79,81,83,85,87,89,91,93,95,97,99,101,103,105,107,109,-1,-1,-1,-1,111,113,115,117,119,121,123,125,127,-1,129,-1,-1,131,133,135,137,139,141,143,145,147,149,151,153,155,157,159,161,163,165,167,169,-1,-1,171,173,175,177,179,181,-1,-1,183,185,187,189,191,193,-1,-1,195,197,-1,-1,-1,-1,-1,-1,-1,-1,-1,-1,-1,-1,-1,-1,-1,-1,-1,-1,-1,-1,-1,-1,-1,-1,-1,-1,-1,-1,-1,-1,-1,-1,-1,-1,-1,-1,-1,-1,-1,-1,-1,-1,-1,-1,-1,-1,-1,-1,-1,-1,-1,-1,-1,-1,-1,-1,-1,-1,-1,-1,-1,-1,-1,-1,-1,-1,-1,-1,-1,-1,-1,-1,-1,-1,-1,-1,-1,-1,-1,-1,-1,-1,-1,-1,-1,-1],"loss_changes":[2.1836595E5,7.951426E4,5.5720016E4,4.841935E4,1.7385785E4,2.1412469E4,1.947911E4,1.4983717E4,4.3175E3,1.0732623E4,3.2096387E3,9.599203E3,1.0779125E4,2.58245E4,1.1058203E3,3.4052432E3,3.9181738E3,6.8184454E2,2.0437812E3,9.640206E3,7.6243394E3,8.438584E2,2.5181318E3,2.1550405E3,6.0620273E3,2.0897578E3,3.9147969E3,0E0,5.2504453E3,3.0394922E2,9.8631055E2,6.073993E3,1.3453778E3,1.2894531E3,3.155418E3,3.3943964E2,4.0784943E1,2.1302266E3,2.6361953E3,5.6440947E3,6.6179434E3,2.3031458E3,3.4160732E3,9.381109E2,6.1800287E2,8.960742E2,1.1964258E3,8.4232666E2,3.263767E2,4.3017695E3,2.1059346E3,1.1209076E2,1.2046921E3,3.3935156E2,4.513047E2,7.8953047E3,0E0,0E0,0E0,0E0,1.4693418E3,1.0742065E3,1.2738984E3,7.549258E2,2.7186932E2,1.3157451E3,2.3493613E3,2.0415303E3,1.0224473E4,0E0,1.0977991E2,0E0,0E0,7.4026416E2,3.117207E2,9.4866406E2,2.9905615E2,1.6619875E3,9.8150586E2,7.308651E2,4.205168E3,5.661953E2,1.926091E3,7.860104E2,1.8165137E3,2.3224365E2,3.9904135E2,1.8486652E2,4.6374493E2,7.2651245E2,2.3171538E3,7.757041E2,4.0367383E2,0E0,0E0,3.720243E2,2.535408E1,4.160608E2,7.835508E2,9.501633E2,7.6153906E2,0E0,0E0,2.8971384E2,6.85771E2,2.6489258E2,2.9741016E2,2.2154517E2,3.7970312E2,0E0,0E0,1.6765436E2,2.3142188E2,0E0,0E0,0E0,0E0,0E0,0E0,0E0,0E0,0E0,0E0,0E0,0E0,0E0,0E0,0E0,0E0,0E0,0E0,0E0,0E0,0E0,0E0,0E0,0E0,0E0,0E0,0E0,0E0,0E0,0E0,0E0,0E0,0E0,0E0,0E0,0E0,0E0,0E0,0E0,0E0,0E0,0E0,0E0,0E0,0E0,0E0,0E0,0E0,0E0,0E0,0E0,0E0,0E0,0E0,0E0,0E0,0E0,0E0,0E0,0E0,0E0,0E0,0E0,0E0,0E0,0E0,0E0,0E0,0E0,0E0,0E0,0E0,0E0,0E0,0E0,0E0,0E0,0E0,0E0,0E0,0E0,0E0,0E0,0E0,0E0,0E0],"parents":[2147483647,0,0,1,1,2,2,3,3,4,4,5,5,6,6,7,7,8,8,9,9,10,10,11,11,12,12,13,13,14,14,15,15,16,16,17,17,18,18,19,19,20,20,21,21,22,22,23,23,24,24,25,25,26,26,28,28,29,29,30,30,31,31,32,32,33,33,34,34,35,35,36,36,37,37,38,38,39,39,40,40,41,41,42,42,43,43,44,44,45,45,46,46,47,47,48,48,49,49,50,50,51,51,52,52,53,53,54,54,55,55,60,60,61,61,62,62,63,63,64,64,65,65,66,66,67,67,68,68,70,70,73,73,74,74,75,75,76,76,77,77,78,78,79,79,80,80,81,81,82,82,83,83,84,84,85,85,86,86,87,87,88,88,89,89,90,90,91,91,92,92,95,95,96,96,97,97,98,98,99,99,100,100,103,103,104,104,105,105,106,106,107,107,108,108,111,111,112,112],"right_children":[2,4,6,8,10,12,14,16,18,20,22,24,26,28,30,32,34,36,38,40,42,44,46,48,50,52,54,-1,56,58,60,62,64,66,68,70,72,74,76,78,80,82,84,86,88,90,92,94,96,98,100,102,104,106,108,110,-1,-1,-1,-1,112,114,116,118,120,122,124,126,128,-1,130,-1,-1,132,134,136,138,140,142,144,146,148,150,152,154,156,158,160,162,164,166,168,170,-1,-1,172,174,176,178,180,182,-1,-1,184,186,188,190,192,194,-1,-1,196,198,-1,-1,-1,-1,-1,-1,-1,-1,-1,-1,-1,-1,-1,-1,-1,-1,-1,-1,-1,-1,-1,-1,-1,-1,-1,-1,-1,-1,-1,-1,-1,-1,-1,-1,-1,-1,-1,-1,-1,-1,-1,-1,-1,-1,-1,-1,-1,-1,-1,-1,-1,-1,-1,-1,-1,-1,-1,-1,-1,-1,-1,-1,-1,-1,-1,-1,-1,-1,-1,-1,-1,-1,-1,-1,-1,-1,-1,-1,-1,-1,-1,-1,-1,-1,-1,-1],"split_conditions":[5.1179585E0,1.46E1,1.9201086E1,1E0,2.0636287E0,1.009825E1,-2.4492937E-16,8.660254E-1,-9.744667E0,2.24E1,1E-1,9.7E0,1.51E1,2.3817997E1,5E-1,2E-1,9.5E0,5E0,7.7E0,1E0,1E0,2.9717E2,3.5374136E0,6E0,5E-1,7.7E0,1E0,-5.5548924E-1,3.0041E2,2.3817997E1,1E1,-1.8369701E-16,2.103E0,1E0,1.45E1,1.1E1,1.3E1,4.87408E3,2.375E0,8.660254E-1,-9.260959E0,-5E-1,1.8E0,8.660254E-1,3.3249E2,1E0,1E0,5.9157915E0,3E-1,1.52E1,7.77525E0,1.3824708E1,1.2246469E-16,5E-1,1.8E1,1.48E1,-4.397638E0,-7.724315E-1,-1.0228155E0,-9.943046E-1,1.63E1,1.67497E3,1.38E1,6.123234E-17,-1.8369701E-16,-1.6776793E1,6E0,9.3541664E-1,-2.4492937E-16,2.0066388E-1,8E-1,3.6519316E-1,1.2687173E-1,1E-1,-5E-2,-5.2541666E0,4.764375E0,2.98039E3,-8.3333336E-2,-2.8836542E1,1.77E1,-6.1704545E0,9.1E0,2.57E1,7.524475E3,-5E-1,1.2246469E-16,1.68E1,1E0,-8.660254E-1,1.53E1,-1.4090124E-1,9E-1,1.2432164E0,2.4858524E-1,8.660254E-1,-1.8369701E-16,6.4E0,-1.8369701E-16,2.02E1,2E-1,3.740447E-1,1.280056E-1,-5E-1,2E-1,1.1166667E1,1.5298584E-1,1.3E0,3.0056E2,-5.0557894E-1,-3.1152523E0,1.2E1,2.3817997E1,4.3790575E-2,1.495554E-1,3.2467324E-1,3.3927732E-3,4.5785278E-2,-5.051216E-2,-4.7983892E-2,-1.3502538E-1,7.7115524E-1,3.501965E-1,1.233083E0,1.5560801E-1,2.3671386E-1,5.4539222E-2,2.41247E0,2.1464781E-1,-1.6004328E-1,4.210221E-2,4.4420338E-1,-6.8926245E-2,2.3367624E-1,8.2684606E-1,5.755402E-1,3.8692302E-1,2.4736367E-1,3.4671627E-2,1.7470684E-2,1.244278E-1,1.4225264E-1,5.990553E-2,2.4247846E-1,-8.757185E-2,3.2847518E-1,1.2695272E-1,-1.2998092E-1,-3.5075463E-2,2.8136248E-2,-3.760661E-2,2.4367528E-2,-6.594674E-2,-1.2643844E-1,-2.9028994E-1,-1.23025015E-1,-5.03059E-2,-4.1232813E-2,1.2566443E-1,2.4032325E-1,9.667081E-2,-1.1655116E-2,1.250906E-1,-1.7408644E-1,-4.6979636E-2,6.5137064E-1,-1.5548487E-1,-2.7956232E-1,-1.1301548E-1,-1.6015762E-1,-2.7479526E-1,3.6539373E-1,3.2316435E-2,4.3353833E-2,-9.4212055E-2,-1.1533015E-1,2.824021E-1,-2.6336443E-1,-3.4217668E-1,-4.2440493E-2,-1.396397E-1,-6.4837895E-2,-2.4670705E-1,-1.2887163E-1,1.5012889E-1,-1.2057258E-1,-3.2621688E-1,-3.2239133E-1,-5.027822E-1,-5.396148E-1,-3.4948817E-1,-4.048036E-1,-1.6019937E-2,-5.7546806E-1,-7.093724E-1,-1.5109979E-1,1.9842121E-1,-4.857525E-1,-7.161813E-1],"split_indices":[9,7,9,2,9,9,2,3,9,7,8,7,7,9,3,8,7,12,7,2,2,13,9,7,3,7,2,0,13,9,7,3,9,12,7,7,7,14,9,3,9,3,8,3,13,2,2,9,8,7,9,9,2,2,7,7,0,0,0,0,7,13,7,3,3,9,7,9,2,0,8,0,0,8,9,9,9,13,9,9,7,9,8,7,14,3,2,7,2,3,7,17,8,0,0,2,3,8,3,7,8,0,0,2,8,9,17,8,13,0,0,7,9,0,0,0,0,0,0,0,0,0,0,0,0,0,0,0,0,0,0,0,0,0,0,0,0,0,0,0,0,0,0,0,0,0,0,0,0,0,0,0,0,0,0,0,0,0,0,0,0,0,0,0,0,0,0,0,0,0,0,0,0,0,0,0,0,0,0,0,0,0,0,0,0,0,0,0,0,0,0,0,0,0,0,0,0,0,0],"split_type":[0,0,0,0,0,0,0,0,0,0,0,0,0,0,0,0,0,0,0,0,0,0,0,0,0,0,0,0,0,0,0,0,0,0,0,0,0,0,0,0,0,0,0,0,0,0,0,0,0,0,0,0,0,0,0,0,0,0,0,0,0,0,0,0,0,0,0,0,0,0,0,0,0,0,0,0,0,0,0,0,0,0,0,0,0,0,0,0,0,0,0,0,0,0,0,0,0,0,0,0,0,0,0,0,0,0,0,0,0,0,0,0,0,0,0,0,0,0,0,0,0,0,0,0,0,0,0,0,0,0,0,0,0,0,0,0,0,0,0,0,0,0,0,0,0,0,0,0,0,0,0,0,0,0,0,0,0,0,0,0,0,0,0,0,0,0,0,0,0,0,0,0,0,0,0,0,0,0,0,0,0,0,0,0,0,0,0,0,0,0,0,0,0,0,0,0,0,0,0],"sum_hessian":[1.7978E4,1.5806E4,2.172E3,3.214E3,1.2592E4,2.026E3,1.46E2,2.187E3,1.027E3,1.0203E4,2.389E3,1.457E3,5.69E2,1.6E1,1.3E2,1.702E3,4.85E2,3.1E1,9.96E2,4.559E3,5.644E3,5.81E2,1.808E3,2.9E1,1.428E3,1.03E2,4.66E2,8E0,8E0,7.1E1,5.9E1,9.48E2,7.54E2,1.04E2,3.81E2,2.5E1,6E0,7.8E1,9.18E2,4.002E3,5.57E2,4.755E3,8.89E2,3.54E2,2.27E2,1.113E3,6.95E2,5E0,2.4E1,7.71E2,6.57E2,1.1E1,9.2E1,2.37E2,2.29E2,5E0,3E0,4.2E1,2.9E1,9E0,5E1,8.03E2,1.45E2,5.67E2,1.87E2,9.5E1,9E0,3.68E2,1.3E1,3E0,2.2E1,3E0,3E0,5.1E1,2.7E1,7.82E2,1.36E2,3.188E3,8.14E2,9.5E1,4.62E2,7.11E2,4.044E3,5.09E2,3.8E2,2.86E2,6.8E1,4.7E1,1.8E2,9.47E2,1.66E2,5.43E2,1.52E2,3E0,2E0,2E1,4E0,1.41E2,6.3E2,4.43E2,2.14E2,6E0,5E0,1.7E1,7.5E1,8.7E1,1.5E2,1.1E1,2.18E2,3E0,2E0,4E0,4.6E1,6.8E2,1.23E2,1.3E2,1.5E1,4.58E2,1.09E2,1.31E2,5.6E1,9E0,8.6E1,5E0,4E0,2.79E2,8.9E1,2E0,1.1E1,1.9E1,3E0,4.8E1,3E0,2E0,2.5E1,3.4E1,7.48E2,1.28E2,8E0,3.022E3,1.66E2,5.97E2,2.17E2,7E0,8.8E1,2.6E2,2.02E2,7.6E1,6.35E2,3.481E3,5.63E2,1.47E2,3.62E2,2.79E2,1.01E2,6.1E1,2.25E2,2.3E1,4.5E1,1.5E1,3.2E1,1.48E2,3.2E1,5.1E1,8.96E2,3E0,1.63E2,3.2E1,5.11E2,6.3E1,8.9E1,1.5E1,5E0,2E0,2E0,1.39E2,2E0,2.58E2,3.72E2,2.03E2,2.4E2,3E1,1.84E2,5E0,1.2E1,3.3E1,4.2E1,1.9E1,6.8E1,1.3E1,1.37E2,9E0,2E0,1.58E2,6E1,2E0,2E0,2.1E1,2.5E1],"tree_param":{"num_deleted":"0","num_feature":"19","num_nodes":"199","size_leaf_vector":"1"}},{"base_weights":[2.6018385E-2,1.2350615E0,-1.5029959E1,2.432965E0,-2.6367972E0,-1.1720007E1,-2.4298382E1,1.5048449E0,6.8020377E0,2.2143152E0,-3.2194476E0,2.8744166E0,-1.2984595E1,-3.1655872E0,-2.3616945E1,2.8036556E0,7.9193646E-1,9.439715E0,3.8543608E0,-3.886268E0,4.798127E0,-1.7719797E0,-5.9911046E0,5.6509633E0,-7.747548E0,-1.4622701E1,-9.838362E0,-2.0970781E1,-3.3939823E1,4.6982727E0,2.1602592E0,2.4700595E-1,2.4531314E0,1.0650635E1,1.5243239E0,7.18467E-1,7.286311E0,-7.18743E-1,-5.3880095E0,1.0793225E1,3.4025383E0,-3.2651806E-1,-2.4609623E0,-7.0591674E0,-2.847028E0,2.0492931E1,4.045831E0,-1.0751463E1,1.5520029E-1,-1.2112845E1,-1.6361536E1,-1.1374907E1,-2.952482E0,-2.3282843E1,-1.7359297E1,-5.3339815E0,-3.918271E1,3.1885698E0,7.790183E0,1.2280608E0,2.9984024E0,-4.2569655E-1,1.9555E0,5.104412E0,7.161906E-1,1.1947082E1,4.738452E0,4.880888E-1,1.1721349E0,-2.0808823E-1,4.885439E0,1.0896118E1,-6.6022515E-1,-2.9508204E0,9.136438E0,-4.5360317E0,-8.831911E0,8.316066E0,3.4397038E1,-2.386682E0,4.6881003E0,-1.9744791E0,2.6681921E0,-3.0195186E0,-2.6442924E-1,-7.3758516E0,5.608677E-1,1.459431E0,-4.8243203E0,1.0287223E0,-1.909621E-2,-4.576094E0,5.8987975E0,-4.2209956E-1,3.2672964E-2,-1.2304793E1,-3.7191122E0,-1.6760098E1,-3.70552E0,-9.524232E0,-1.3423814E1,7.413214E0,-6.654724E0,-2.365906E1,-1.1196249E1,-2.1567743E1,-5.901163E0,4.0601924E-1,-1.0091862E1,-6.478352E1,-3.449061E1,9.042243E-2,2.7379918E-1,1.8602718E-1,4.3141058E-1,3.292078E-2,1.615925E-1,9.0575434E-2,2.3429345E-1,5.620061E-3,-4.5540273E-2,1.825795E-2,1.3099474E-1,5.1380277E-1,1.513473E-1,-1.2937489E-3,1.4711581E-1,2.1593828E-1,4.3492657E-1,1.01392664E-1,5.063603E-1,1.2738362E-1,1.45675605E-2,5.1412147E-2,-3.5697307E-2,9.614934E-2,6.3581055E-1,8.517016E-2,5.1109266E-1,2.4188405E-3,-4.1344978E-2,6.321114E-2,-1.4729992E-1,4.468692E-1,-8.97318E-2,-1.7267081E-1,-5.98973E-2,-4.360724E-2,-3.237448E-1,8.348841E-1,1.21110566E-1,1.967144E0,-7.530698E-2,-2.1488209E-1,-1.674605E-2,4.2228572E-2,2.5405422E-1,-1.3623694E-1,-1.6480481E-2,-1.8523758E-2,1.7784734E-1,-1.214262E-1,-2.8422264E-2,-3.5365064E-2,9.1572523E-1,-2.5977364E-1,-1.4019184E-1,1.960186E-1,-1.5997547E-1,1.3736184E-1,-6.443411E-2,-2.0551272E-1,8.928921E-2,-3.383805E-1,1.4150827E-1,2.5340182E-1,1.2499148E-2,-9.840015E-2,-4.094939E-1,2.3239891E-1,-3.1126234E-1,-5.0073457E-1,-6.0072184E-1,4.6089286E-1,-3.6788416E-1,1.02210045E-1,-3.2112613E-1,-4.525754E-1,8.186584E-2,3.2790518E-1,-2.2549844E-1,-8.229597E-2,-3.959455E-1,-7.3222166E-1,-9.07288E-1,-1.9093084E-3,-5.161211E-1,7.04964E-2,-7.319202E-1,6.1600035E-1,-2.6932096E-1,-1.343365E-1,-5.974897E-1,-5.7495743E-1,-2.9606042E0,-3.5288596E-1,-1.1962802E0],"categories":[],"categories_nodes":[],"categories_segments":[],"categories_sizes":[],"default_left":[0,0,0,0,0,0,0,0,0,0,0,0,0,0,0,0,0,0,0,0,0,0,0,0,0,0,0,0,0,0,0,0,0,0,0,0,0,0,0,0,0,0,0,0,0,0,0,0,0,0,0,0,0,0,0,0,0,0,0,0,0,0,0,0,0,0,0,0,0,0,0,0,0,0,0,0,0,0,0,0,0,0,0,0,0,0,0,0,0,0,0,0,0,0,0,0,0,0,0,0,0,0,0,0,0,0,0,0,0,0,0,0,0,0,0,0,0,0,0,0,0,0,0,0,0,0,0,0,0,0,0,0,0,0,0,0,0,0,0,0,0,0,0,0,0,0,0,0,0,0,0,0,0,0,0,0,0,0,0,0,0,0,0,0,0,0,0,0,0,0,0,0,0,0,0,0,0,0,0,0,0,0,0,0,0,0,0,0,0,0,0,0,0,0,0,0,0,0,0,0,0,0,0,0,0,0,0],"id":7,"left_children":[1,3,5,7,9,11,13,15,17,19,21,23,25,-1,27,29,31,33,35,37,39,41,43,45,47,49,51,53,55,57,59,61,63,65,67,69,71,73,75,77,79,81,83,85,87,89,91,93,-1,95,97,99,101,103,105,107,109,111,113,115,117,119,121,123,125,127,129,-1,131,133,135,137,139,141,143,145,147,149,151,153,155,157,159,161,163,165,167,169,171,-1,-1,173,175,-1,-1,177,179,181,183,185,187,189,191,193,195,197,199,-1,201,203,205,-1,-1,-1,-1,-1,-1,-1,-1,-1,-1,-1,-1,-1,-1,-1,-1,-1,-1,-1,-1,-1,-1,-1,-1,-1,-1,-1,-1,-1,-1,-1,-1,-1,-1,-1,-1,-1,-1,-1,-1,-1,-1,-1,-1,-1,-1,-1,-1,-1,-1,-1,-1,-1,-1,-1,-1,-1,-1,-1,-1,-1,-1,-1,-1,-1,-1,-1,-1,-1,-1,-1,-1,-1,-1,-1,-1,-1,-1,-1,-1,-1,-1,-1,-1,-1,-1,-1,-1,-1,-1,-1,-1,-1,-1,-1,-1],"loss_changes":[3.2937134E5,7.769018E4,4.0977188E4,5.1861633E4,1.1194424E4,1.8364062E4,1.4964516E4,9.768227E3,1.7387438E4,6.7178193E3,1.4167383E4,2.4031714E3,4.5667812E3,0E0,8.876172E3,4.5476523E3,6.1676714E3,1.1313117E4,1.14027295E4,6.0024146E2,2.464916E3,2.312668E3,4.0498867E3,1.4417812E3,6.86373E2,2.4159844E3,3.3098438E3,1.9505156E3,1.0289406E4,4.395633E3,2.1785332E3,5.899082E3,7.746758E3,7.7998438E3,7.2087524E2,2.1438325E3,1.4522041E4,9.5085614E2,2.1227295E2,2.9882944E3,1.827135E3,3.7115776E3,1.9290947E3,2.185621E3,2.6382153E3,1.3683674E3,9.6958545E2,3.4790955E2,0E0,3.5541797E2,1.7084062E3,8.504453E2,2.3135356E3,5.0357812E2,5.369914E3,1.1311771E3,4.85275E3,1.4389785E3,3.4522383E3,1.1145427E3,1.5100371E3,2.0950193E3,4.092809E3,3.5399258E3,2.8776394E3,5.508047E3,3.239234E3,0E0,3.027293E2,7.037006E2,2.8080076E3,1.324652E4,6.921307E1,2.662137E2,4.5461707E2,1.2504248E2,1.04624756E2,4.0102593E3,4.7600503E3,3.4551828E2,2.0423828E3,1.5388673E3,2.3493975E3,1.7832451E3,7.266136E3,1.3132891E3,1.105251E3,9.119568E2,2.257099E3,0E0,0E0,5.975983E2,4.7856128E2,0E0,0E0,1.9886719E2,4.9679443E2,5.0239062E2,1.7339785E3,3.930586E2,5.8863477E2,6.430716E2,9.4838855E2,3.0907812E2,3.4557147E2,1.2507773E3,1.9291512E3,0E0,4.0881598E2,7.8831523E3,1.7906445E3,0E0,0E0,0E0,0E0,0E0,0E0,0E0,0E0,0E0,0E0,0E0,0E0,0E0,0E0,0E0,0E0,0E0,0E0,0E0,0E0,0E0,0E0,0E0,0E0,0E0,0E0,0E0,0E0,0E0,0E0,0E0,0E0,0E0,0E0,0E0,0E0,0E0,0E0,0E0,0E0,0E0,0E0,0E0,0E0,0E0,0E0,0E0,0E0,0E0,0E0,0E0,0E0,0E0,0E0,0E0,0E0,0E0,0E0,0E0,0E0,0E0,0E0,0E0,0E0,0E0,0E0,0E0,0E0,0E0,0E0,0E0,0E0,0E0,0E0,0E0,0E0,0E0,0E0,0E0,0E0,0E0,0E0,0E0,0E0,0E0,0E0,0E0,0E0,0E0,0E0,0E0,0E0,0E0,0E0,0E0,0E0],"parents":[2147483647,0,0,1,1,2,2,3,3,4,4,5,5,6,6,7,7,8,8,9,9,10,10,11,11,12,12,14,14,15,15,16,16,17,17,18,18,19,19,20,20,21,21,22,22,23,23,24,24,25,25,26,26,27,27,28,28,29,29,30,30,31,31,32,32,33,33,34,34,35,35,36,36,37,37,38,38,39,39,40,40,41,41,42,42,43,43,44,44,45,45,46,46,47,47,49,49,50,50,51,51,52,52,53,53,54,54,55,55,56,56,57,57,58,58,59,59,60,60,61,61,62,62,63,63,64,64,65,65,66,66,68,68,69,69,70,70,71,71,72,72,73,73,74,74,75,75,76,76,77,77,78,78,79,79,80,80,81,81,82,82,83,83,84,84,85,85,86,86,87,87,88,88,91,91,92,92,95,95,96,96,97,97,98,98,99,99,100,100,101,101,102,102,103,103,104,104,105,105,106,106,108,108,109,109,110,110],"right_children":[2,4,6,8,10,12,14,16,18,20,22,24,26,-1,28,30,32,34,36,38,40,42,44,46,48,50,52,54,56,58,60,62,64,66,68,70,72,74,76,78,80,82,84,86,88,90,92,94,-1,96,98,100,102,104,106,108,110,112,114,116,118,120,122,124,126,128,130,-1,132,134,136,138,140,142,144,146,148,150,152,154,156,158,160,162,164,166,168,170,172,-1,-1,174,176,-1,-1,178,180,182,184,186,188,190,192,194,196,198,200,-1,202,204,206,-1,-1,-1,-1,-1,-1,-1,-1,-1,-1,-1,-1,-1,-1,-1,-1,-1,-1,-1,-1,-1,-1,-1,-1,-1,-1,-1,-1,-1,-1,-1,-1,-1,-1,-1,-1,-1,-1,-1,-1,-1,-1,-1,-1,-1,-1,-1,-1,-1,-1,-1,-1,-1,-1,-1,-1,-1,-1,-1,-1,-1,-1,-1,-1,-1,-1,-1,-1,-1,-1,-1,-1,-1,-1,-1,-1,-1,-1,-1,-1,-1,-1,-1,-1,-1,-1,-1,-1,-1,-1,-1,-1,-1,-1,-1,-1],"split_conditions":[1.9508198E1,9.375E0,3.1454708E1,1E0,4.2E0,3.8E0,9E-1,4.5008335E0,1E-1,7.3866796E-1,1.3612458E1,1.5E0,4.0614724E-1,-3.1655872E0,4.550386E1,1E-1,8.142924E-1,4.8314747E-1,3.8640523E-1,1E-1,5.9166666E-2,3E-1,7.832659E-1,3.9166667E-2,1.7291667E-1,2.325875E1,1.5208334E-1,3.7447366E-1,-8.466016E-1,6.123234E-17,-1.8369701E-16,1.17E1,5.6E0,1.03E1,4.2E0,2.3791666E-1,4.8314747E-1,8.208334E-2,1.5860982E1,5E0,8.142924E-1,1.4250833E-1,8.660254E-1,8.660254E-1,5.4E0,2.9598E2,7.2696364E-1,8.142924E-1,1.5520029E-1,1.85E1,1.81E1,2.395377E1,1E-1,1.44E1,1.1416667E-1,1E-1,-2.4492937E-16,2.06E1,1.08333334E-1,1.81E1,1.5208334E-1,6.7727275E0,2.967E2,4E-1,1.19166665E-1,6.8E0,2.7281126E-1,4.880888E-1,9.25E-2,4.4300833E0,3.2918E2,7.5E0,4.6666665E0,5.422022E-1,1.4E-1,9.625E-2,2E-1,-3E-1,7.4E0,7.614175E-1,9.9583335E-2,1.17E1,1.04166664E-1,2.0375E-1,1.18E1,2.0041667E-1,6.6528654E-1,2.9E0,1E-1,1.0287223E0,-1.909621E-2,1.0458333E-1,9.4139683E-1,-4.2209956E-1,3.2672964E-2,4.375E-2,-8.660254E-1,2.675E1,1.5125E-1,3.4583334E-2,1.14E1,6.6528654E-1,2.5E0,3.8625E1,3.3140793E1,4.373401E-1,3.8640523E-1,4.0601924E-1,1.63E1,6.780306E-1,2.5E0,9.042243E-2,2.7379918E-1,1.8602718E-1,4.3141058E-1,3.292078E-2,1.615925E-1,9.0575434E-2,2.3429345E-1,5.620061E-3,-4.5540273E-2,1.825795E-2,1.3099474E-1,5.1380277E-1,1.513473E-1,-1.2937489E-3,1.4711581E-1,2.1593828E-1,4.3492657E-1,1.01392664E-1,5.063603E-1,1.2738362E-1,1.45675605E-2,5.1412147E-2,-3.5697307E-2,9.614934E-2,6.3581055E-1,8.517016E-2,5.1109266E-1,2.4188405E-3,-4.1344978E-2,6.321114E-2,-1.4729992E-1,4.468692E-1,-8.97318E-2,-1.7267081E-1,-5.98973E-2,-4.360724E-2,-3.237448E-1,8.348841E-1,1.21110566E-1,1.967144E0,-7.530698E-2,-2.1488209E-1,-1.674605E-2,4.2228572E-2,2.5405422E-1,-1.3623694E-1,-1.6480481E-2,-1.8523758E-2,1.7784734E-1,-1.214262E-1,-2.8422264E-2,-3.5365064E-2,9.1572523E-1,-2.5977364E-1,-1.4019184E-1,1.960186E-1,-1.5997547E-1,1.3736184E-1,-6.443411E-2,-2.0551272E-1,8.928921E-2,-3.383805E-1,1.4150827E-1,2.5340182E-1,1.2499148E-2,-9.840015E-2,-4.094939E-1,2.3239891E-1,-3.1126234E-1,-5.0073457E-1,-6.0072184E-1,4.6089286E-1,-3.6788416E-1,1.02210045E-1,-3.2112613E-1,-4.525754E-1,8.186584E-2,3.2790518E-1,-2.2549844E-1,-8.229597E-2,-3.959455E-1,-7.3222166E-1,-9.07288E-1,-1.9093084E-3,-5.161211E-1,7.04964E-2,-7.319202E-1,6.1600035E-1,-2.6932096E-1,-1.343365E-1,-5.974897E-1,-5.7495743E-1,-2.9606042E0,-3.5288596E-1,-1.1962802E0],"split_indices":[0,0,0,2,6,6,6,0,8,5,0,8,5,0,0,8,5,5,5,8,15,8,5,15,15,0,15,5,5,3,3,6,6,6,6,15,5,15,0,8,5,5,3,3,6,13,5,5,0,6,6,0,8,6,15,15,2,6,15,6,15,0,13,6,15,6,5,0,15,0,13,6,0,5,15,15,8,6,8,5,15,6,15,15,6,15,5,8,15,0,0,15,5,0,0,15,2,0,15,15,6,5,8,0,0,5,5,0,6,5,6,0,0,0,0,0,0,0,0,0,0,0,0,0,0,0,0,0,0,0,0,0,0,0,0,0,0,0,0,0,0,0,0,0,0,0,0,0,0,0,0,0,0,0,0,0,0,0,0,0,0,0,0,0,0,0,0,0,0,0,0,0,0,0,0,0,0,0,0,0,0,0,0,0,0,0,0,0,0,0,0,0,0,0,0,0,0,0,0,0,0,0,0,0,0,0,0],"split_type":[0,0,0,0,0,0,0,0,0,0,0,0,0,0,0,0,0,0,0,0,0,0,0,0,0,0,0,0,0,0,0,0,0,0,0,0,0,0,0,0,0,0,0,0,0,0,0,0,0,0,0,0,0,0,0,0,0,0,0,0,0,0,0,0,0,0,0,0,0,0,0,0,0,0,0,0,0,0,0,0,0,0,0,0,0,0,0,0,0,0,0,0,0,0,0,0,0,0,0,0,0,0,0,0,0,0,0,0,0,0,0,0,0,0,0,0,0,0,0,0,0,0,0,0,0,0,0,0,0,0,0,0,0,0,0,0,0,0,0,0,0,0,0,0,0,0,0,0,0,0,0,0,0,0,0,0,0,0,0,0,0,0,0,0,0,0,0,0,0,0,0,0,0,0,0,0,0,0,0,0,0,0,0,0,0,0,0,0,0,0,0,0,0,0,0,0,0,0,0,0,0,0,0,0,0,0,0],"sum_hessian":[1.8092E4,1.6748E4,1.344E3,1.2791E4,3.957E3,9.92E2,3.52E2,1.0551E4,2.24E3,4.24E2,3.533E3,7.9E1,9.13E2,2E0,3.5E2,3.738E3,6.813E3,1.181E3,1.059E3,1.26E2,2.98E2,2.322E3,1.211E3,6.3E1,1.6E1,5.98E2,3.15E2,2.81E2,6.9E1,9.46E2,2.792E3,5.131E3,1.682E3,1.024E3,1.57E2,5.54E2,5.05E2,4.1E1,8.5E1,5.5E1,2.43E2,7.5E2,1.572E3,9.03E2,3.08E2,5E0,5.8E1,1.3E1,3E0,2.48E2,3.5E2,2.57E2,5.8E1,1.68E2,1.13E2,1.1E1,5.8E1,6.37E2,3.09E2,1.323E3,1.469E3,3.682E3,1.449E3,6.65E2,1.017E3,8.39E2,1.85E2,3E0,1.54E2,4.54E2,1E2,3.47E2,1.58E2,3.4E1,7E0,7E1,1.5E1,5.1E1,4E0,4.4E1,1.99E2,4.84E2,2.66E2,1.253E3,3.19E2,8.67E2,3.6E1,9.7E1,2.11E2,3E0,2E0,1E1,4.8E1,1.1E1,2E0,2.42E2,6E0,3.39E2,1.1E1,1.38E2,1.19E2,1.5E1,4.3E1,1.62E2,6E0,8.2E1,3.1E1,2E0,9E0,7E0,5.1E1,5.87E2,5E1,2.21E2,8.8E1,1.246E3,7.7E1,1.385E3,8.4E1,2.267E3,1.415E3,8.55E2,5.94E2,3E1,6.35E2,8.47E2,1.7E2,1.57E2,6.82E2,1.61E2,2.4E1,3.2E1,1.22E2,1.5E2,3.04E2,8.9E1,1.1E1,1.24E2,2.23E2,7.1E1,8.7E1,8E0,2.6E1,5E0,2E0,5.5E1,1.5E1,2E0,1.3E1,1E1,4.1E1,2E0,2E0,1.3E1,3.1E1,9.4E1,1.05E2,1.96E2,2.88E2,1.22E2,1.44E2,9.59E2,2.94E2,3.11E2,8E0,7.47E2,1.2E2,1.8E1,1.8E1,5.4E1,4.3E1,1.78E2,3.3E1,6E0,4E0,3.6E1,1.2E1,3E0,2.39E2,2E0,4E0,1.67E2,1.72E2,3E0,8E0,2E0,1.36E2,1.17E2,2E0,1.3E1,2E0,2.5E1,1.8E1,1.22E2,4E1,2E0,4E0,2E0,8E1,2E0,2.9E1,6E0,3E0,3E0,4E0,4E0,4.7E1],"tree_param":{"num_deleted":"0","num_feature":"19","num_nodes":"207","size_leaf_vector":"1"}},{"base_weights":[-3.1374565E-3,1.1047729E0,-1.2939916E1,2.214267E0,-1.6722356E0,-1.1488232E1,-2.5655525E1,1.2741586E0,7.006379E0,3.0792983E0,-2.2794743E0,4.484172E-1,-1.2512043E1,-4.943552E1,-2.1455242E1,3.439897E0,7.1734375E-1,9.269772E0,2.2600963E0,6.5265727E0,-1.7452503E0,-1.4365394E0,-5.728053E0,4.656253E0,-7.069571E0,-1.0423528E1,-1.5045881E1,-1.05286835E2,-3.010069E1,-1.7142262E1,-9.571799E-1,6.403051E0,2.4776237E0,1.4725664E0,4.1131396E-2,7.969688E-1,1.092978E1,6.564149E0,-1.4303136E0,1.5864419E1,5.336033E0,-2.115376E0,8.695228E-1,2.8371835E-1,-2.346569E0,-3.0583398E0,-6.301528E0,-2.0735028E0,7.842883E0,-6.479634E-1,-1.3811937E1,-4.690037E0,-1.1164507E1,-6.905972E0,-1.6031494E1,-5.280974E0,-5.0980204E-1,-2.212894E1,-1.9775541E0,-2.7950544E1,-1.3204903E1,7.222229E0,3.7978184E0,2.0382628E0,6.0379143E0,2.5353098E0,1.0051782E0,-4.0886417E-1,1.744971E0,4.3655238E-1,6.197937E-1,5.3692245E0,1.2141749E1,-1.0590695E0,1.01501E1,-2.629471E0,1.1351438E0,5.494093E0,2.9325249E1,-1.8674593E-1,7.108371E0,-2.4313931E0,7.216995E-1,8.382908E-1,-3.0553777E0,-1.0031698E0,-3.4420826E0,2.4274157E-1,-7.9039717E0,-2.7124536E0,-7.3228116E0,3.1724954E0,-1.1650561E1,-2.79067E-1,1.009173E1,2.443315E0,-6.737954E0,-4.9109408E-1,-1.15595095E-1,-1.3668257E1,-3.2800035E0,-1.1804352E1,-4.3715034E0,-1.2251526E1,-2.8904054E0,-1.5127505E1,-2.1179785E1,-2.7448065E1,-9.575576E0,-9.6483105E-1,-3.4597903E-1,-4.327495E0,-2.1942713E1,2.1101168E-1,4.0503734E-1,6.740935E-2,2.7773505E-1,9.786504E-2,3.6918383E-2,2.0779541E-1,2.5214447E-2,6.401769E-2,1.2634876E-1,3.0071883E-2,1.6810006E-1,5.2985907E-2,-2.3185968E-2,-7.0417123E-3,1.3657072E-1,6.130539E-2,-1.9099407E-2,1.4808515E-1,5.00752E-1,4.1308302E-1,1.6569072E-1,-2.2440212E-2,-7.049911E-2,5.8765028E-2,4.8889506E-1,3.298585E-2,-1.08937286E-1,-4.1860253E-2,1.8090232E-1,4.5996368E-1,9.121202E-3,1.4425935E0,1.5010477E-2,-1.9434857E-1,3.2878663E-2,3.9125866E-1,7.420268E-2,-1.6144085E-1,-2.1070946E-2,-1.9564912E-2,1.7424822E-1,-2.975314E-1,-6.7674704E-3,-1.929783E-1,-1.6602546E-2,-1.411809E-1,-5.7437852E-2,-3.1822008E-1,3.542738E-2,-1.7400332E-1,-3.676826E-1,-1.7111295E-1,-2.657715E-2,-2.5219944E-1,-7.0298456E-2,1.7440324E-1,-1.3061339E-1,-5.2730525E-1,-1.09805495E-1,8.0496633E-1,2.8700486E-1,-1.4899282E-1,1.5679844E-1,-3.450322E-1,5.6231167E-2,-1.460819E-1,-5.090349E-1,-1.3426512E-1,3.3522025E-1,-2.2790089E-1,-4.160365E-1,-5.229946E-2,-2.3067133E-1,-4.8650664E-1,-1.6879867E-1,-1.568551E-1,4.2023632E-1,-4.259623E-1,-5.4728353E-1,-3.4762016E-1,-7.535106E-1,-3.0636907E-1,-1.0173442E0,-7.9067856E-2,-4.146901E-1,-3.102263E-1,3.195107E-1,-1.1472442E-1,-8.368865E-1],"categories":[],"categories_nodes":[],"categories_segments":[],"categories_sizes":[],"default_left":[0,0,0,0,