{"learner":{"attributes":{"scikit_learn":"{\"_estimator_type\": \"regressor\"}"},"feature_names":["pm25_lag_7","pm25_ema_3d","month_sin","month_cos","day_of_year_sin","day_of_year_cos","future_temp","future_wind","future_precip","pm25_momentum","future_temp_momentum","future_wind_momentum","fire_density_100km","fire_radiative_power_total","fire_wind_interaction","aod_mean_lag_1","aod_max_lag_1","wind_u","wind_v"],"feature_types":["float","float","float","float","float","float","float","float","float","float","float","float","float","float","float","float","float","float","float"],"gradient_booster":{"model":{"cats":{"enc":[],"feature_segments":[],"sorted_idx":[]},"gbtree_model_param":{"num_parallel_tree":"1","num_trees":"300"},"iteration_indptr":[0,1,2,3,4,5,6,7,8,9,10,11,12,13,14,15,16,17,18,19,20,21,22,23,24,25,26,27,28,29,30,31,32,33,34,35,36,37,38,39,40,41,42,43,44,45,46,47,48,49,50,51,52,53,54,55,56,57,58,59,60,61,62,63,64,65,66,67,68,69,70,71,72,73,74,75,76,77,78,79,80,81,82,83,84,85,86,87,88,89,90,91,92,93,94,95,96,97,98,99,100,101,102,103,104,105,106,107,108,109,110,111,112,113,114,115,116,117,118,119,120,121,122,123,124,125,126,127,128,129,130,131,132,133,134,135,136,137,138,139,140,141,142,143,144,145,146,147,148,149,150,151,152,153,154,155,156,157,158,159,160,161,162,163,164,165,166,167,168,169,170,171,172,173,174,175,176,177,178,179,180,181,182,183,184,185,186,187,188,189,190,191,192,193,194,195,196,197,198,199,200,201,202,203,204,205,206,207,208,209,210,211,212,213,214,215,216,217,218,219,220,221,222,223,224,225,226,227,228,229,230,231,232,233,234,235,236,237,238,239,240,241,242,243,244,245,246,247,248,249,250,251,252,253,254,255,256,257,258,259,260,261,262,263,264,265,266,267,268,269,270,271,272,273,274,275,276,277,278,279,280,281,282,283,284,285,286,287,288,289,290,291,292,293,294,295,296,297,298,299,300],"tree_info":[0,0,0,0,0,0,0,0,0,0,0,0,0,0,0,0,0,0,0,0,0,0,0,0,0,0,0,0,0,0,0,0,0,0,0,0,0,0,0,0,0,0,0,0,0,0,0,0,0,0,0,0,0,0,0,0,0,0,0,0,0,0,0,0,0,0,0,0,0,0,0,0,0,0,0,0,0,0,0,0,0,0,0,0,0,0,0,0,0,0,0,0,0,0,0,0,0,0,0,0,0,0,0,0,0,0,0,0,0,0,0,0,0,0,0,0,0,0,0,0,0,0,0,0,0,0,0,0,0,0,0,0,0,0,0,0,0,0,0,0,0,0,0,0,0,0,0,0,0,0,0,0,0,0,0,0,0,0,0,0,0,0,0,0,0,0,0,0,0,0,0,0,0,0,0,0,0,0,0,0,0,0,0,0,0,0,0,0,0,0,0,0,0,0,0,0,0,0,0,0,0,0,0,0,0,0,0,0,0,0,0,0,0,0,0,0,0,0,0,0,0,0,0,0,0,0,0,0,0,0,0,0,0,0,0,0,0,0,0,0,0,0,0,0,0,0,0,0,0,0,0,0,0,0,0,0,0,0,0,0,0,0,0,0,0,0,0,0,0,0,0,0,0,0,0,0,0,0,0,0,0,0,0,0,0,0,0,0,0,0,0,0,0,0,0,0,0,0,0,0],"trees":[{"base_weights":[-5.781113E-4,1.9482553E-1,-4.9681206E1,1.3522893E0,-5.676282E0,-7.18914E1,-4.2788143E1,2.2376783E0,-3.662618E-1,-4.415691E0,-1.3237104E1,-3.682723E1,-8.0220406E1,-3.3706738E1,-5.1469814E1,1.7944669E0,3.264058E0,-2.072077E0,1.10759154E-1,-4.586599E0,1.8219774E1,-1.1020976E1,-1.7650871E1,-2.7674627E1,-1.2867181E0,-6.2008144E1,-9.480921E1,-3.6424435E1,-1.7779346E1,-3.5357094E1,-6.6466995E1,2.5890303E0,1.3234515E0,3.1930227E0,2.2361485E1,-1.412803E0,-3.1480844E0,5.57798E-2,1.3177863E1,-3.343576E0,-6.5010886E0,5.6094467E1,1.2112546E1,-1.1322803E1,1.0239763E1,-1.8202654E1,1.0669862E1,3.4221712E-2,-2.9446152E1,-5.2730545E1,-8.135065E1,-8.642023E1,-1.1379195E2,-5.035614E1,-3.3900806E1,-2.4615007E1,4.100765E1,-3.570745E1,3.3285499E0,-7.151934E1,-4.5033752E1,1.419408E0,3.0260382E0,1.3003258E0,1.2779836E1,3.1373696E0,2.160892E1,1.8184229E1,4.224207E1,-2.3701236E0,-9.319977E-1,-3.2160203E0,1.3651089E1,8.0083305E-1,-7.6832E-1,1.744724E1,5.834445E0,-5.5143566E0,-2.8318446E0,-8.62205E0,-5.7992306E0,-1.6241416E0,8.338595E1,2.1456663E1,5.637937E0,-1.1571774E1,1.5152016E1,3.0482464E1,2.7847264E0,-1.3764726E1,-1.9973154E1,-7.5409713E0,1.4964706E1,-9.332242E0,-3.1898684E1,-2.9759747E1,-5.7444107E1,-8.778466E1,-4.787811E1,-7.734492E1,-9.3748856E1,-1.3627393E2,-8.164662E1,-4.049032E1,-5.953762E1,-3.6832127E1,-2.8654524E1,-4.4203575E1,-1.428011E1,-8.02215E-1,6.875516E1,-3.6389385E1,-1.5779075E1,5.326744E-1,-3.404506E-1,-7.5557205E1,-4.3054405E1,-4.848336E1,4.066294E1,6.2889025E-2,1.0708983E-2,1.3054058E-1,8.45327E-2,1.3569239E-2,5.2102443E-2,6.624777E-1,3.4636873E-1,6.1773606E-2,1.1926623E-1,1.6923248E0,3.4631458E-1,2.544276E-1,7.1754557E-1,3.7158626E-1,1.8462342E0,-4.179685E-2,-8.92286E-2,-3.2579716E-2,1.6716664E-1,-8.053774E-2,-1.2778357E-1,8.6238015E-1,2.8353324E-2,2.5473785E-2,7.1837574E-1,-4.14864E-2,7.997865E-3,4.5627636E-1,1.3535421E0,1.549363E-1,1.6113846E0,-1.0047244E-1,-1.9309977E-1,-9.503572E-2,5.6070364E-1,-1.3859764E-1,-3.0573756E-1,-1.9507498E-1,2.6359773E-1,1.0880216E0,-1.3386473E-1,1.8046342E0,3.3114493E0,3.0648887E-1,1.4843563E0,1.7321467E-1,1.7153118E0,-2.631138E-1,-4.2005607E-1,1.3664743E0,1.9739452E-1,1.6438118E0,3.3616582E-3,1.1451832E0,-1.1107035E-1,-3.820958E-1,-6.081615E-1,-5.781087E-1,-7.469968E-1,-3.5391483E-1,7.0962167E-1,2.3627867E-1,9.698701E-1,-4.64445E-1,-4.8828322E-2,-1.1210548E0,-5.0013405E-1,-5.220883E-1,-1.5195754E0,-2.2154706E0,-1.7450374E0,-1.7349758E0,-3.274649E0,-2.119823E0,-1.2092814E0,-1.2415863E0,-2.6080394E0,-1.5587212E0,-3.1731286E0,-3.9126763E0,-5.5351024E0,9.6921645E-2,-2.8151777E0,-7.2742736E-1,-1.452901E0,-2.0968666E0,-5.7199055E-1,-1.3086226E0,-7.6499283E-1,-8.4863025E-1,-1.1973636E0,-2.3442001E0,-8.610789E-1,-3.0979903E-2,-7.1413964E-1,2.646134E0,-1.2197836E-1,-1.2307329E0,-7.7240044E-1,-8.316568E-1,3.532564E-1,-3.5944939E0,-2.4364986E0,-8.699079E-1,-1.9070016E0,-7.760342E-1,-1.9725572E0,2.8810368E0,-1.1576283E0],"categories":[],"categories_nodes":[],"categories_segments":[],"categories_sizes":[],"default_left":[0,0,0,0,0,0,0,0,0,0,0,0,0,0,0,0,0,0,0,0,0,0,0,0,0,0,0,0,0,0,0,0,0,0,0,0,0,0,0,0,0,0,0,0,0,0,0,0,0,0,0,0,0,0,0,0,0,0,0,0,0,0,0,0,0,0,0,0,0,0,0,0,0,0,0,0,0,0,0,0,0,0,0,0,0,0,0,0,0,0,0,0,0,0,0,0,0,0,0,0,0,0,0,0,0,0,0,0,0,0,0,0,0,0,0,0,0,0,0,0,0,0,0,0,0,0,0,0,0,0,0,0,0,0,0,0,0,0,0,0,0,0,0,0,0,0,0,0,0,0,0,0,0,0,0,0,0,0,0,0,0,0,0,0,0,0,0,0,0,0,0,0,0,0,0,0,0,0,0,0,0,0,0,0,0,0,0,0,0,0,0,0,0,0,0,0,0,0,0,0,0,0,0,0,0,0,0,0,0,0,0,0,0,0,0,0,0,0,0,0,0,0,0,0,0,0,0,0,0],"id":0,"left_children":[1,3,5,7,9,11,13,15,17,19,21,23,25,27,29,31,33,35,37,39,41,43,45,47,-1,49,51,53,55,57,59,61,63,65,67,69,71,73,75,77,79,81,83,85,87,89,91,-1,93,95,97,99,101,103,105,107,109,111,113,115,117,119,121,123,125,127,129,131,133,135,137,139,141,143,145,147,149,151,153,155,157,159,161,163,165,167,169,171,173,175,177,179,181,183,185,187,189,191,193,195,197,199,201,203,205,207,209,211,213,-1,215,217,219,-1,-1,221,223,225,227,-1,-1,-1,-1,-1,-1,-1,-1,-1,-1,-1,-1,-1,-1,-1,-1,-1,-1,-1,-1,-1,-1,-1,-1,-1,-1,-1,-1,-1,-1,-1,-1,-1,-1,-1,-1,-1,-1,-1,-1,-1,-1,-1,-1,-1,-1,-1,-1,-1,-1,-1,-1,-1,-1,-1,-1,-1,-1,-1,-1,-1,-1,-1,-1,-1,-1,-1,-1,-1,-1,-1,-1,-1,-1,-1,-1,-1,-1,-1,-1,-1,-1,-1,-1,-1,-1,-1,-1,-1,-1,-1,-1,-1,-1,-1,-1,-1,-1,-1,-1,-1,-1,-1,-1,-1,-1,-1,-1,-1,-1],"loss_changes":[8.907952E6,6.2112825E6,5.47305E5,1.1617259E6,1.4345635E6,2.452875E5,2.14765E5,2.29217E5,2.1124252E5,4.99177E5,2.1019525E5,2.1892812E3,1.76388E5,5.7571875E4,3.3643675E5,1.3170575E5,2.06086E5,4.024028E4,1.4574748E5,3.0469625E5,2.2299675E5,9.2021E4,1.1252E5,1.8107559E3,0E0,5.09815E4,5.05205E4,3.8654875E4,8.057528E4,9.3085E3,7.5288E4,6.694256E4,5.8521875E4,1.551075E5,4.5986906E4,1.6190609E4,2.4641625E4,1.24043E5,2.654725E4,8.623131E4,7.49865E4,2.1121569E5,5.0335617E4,9.325975E4,3.024804E4,5.51275E4,1.09062E4,0E0,1.3302031E3,2.1136375E4,1.6902562E4,1.0507E4,7.053775E4,1.33506875E4,1.3938625E4,3.5404117E4,3.9731598E4,8.5580625E3,1.3903925E3,6.39855E4,4.3653875E4,1.8970172E4,4.1162688E4,5.4609406E4,7.2034375E3,9.1062875E4,1.498547E5,1.7244E4,4.055514E4,4.328586E3,7.76799E3,1.0914656E4,1.3868307E4,6.4278562E4,4.7392918E4,4.5258625E4,1.5153352E4,1.2314125E4,5.9864375E4,3.5576812E4,5.8604E4,3.8361885E3,3.8809625E4,9.719841E4,8.632546E3,5.8161625E4,3.1535234E4,3.1706828E4,2.9170713E4,2.0322719E4,3.25375E4,2.7273125E3,1.2399178E4,1.653544E2,4.9153125E2,7.898871E3,4.1465E3,2.7429875E4,9.5378125E2,5.400625E3,1.1465625E4,1.631975E4,1.5427219E4,4.7059844E3,1.376875E4,2.3050562E4,7.0029688E3,2.7789328E4,1.1567125E4,0E0,1.2718969E4,6.7575E3,6.2589214E3,0E0,0E0,2.13515E4,1.6923281E4,3.6933688E4,2.4258953E4,0E0,0E0,0E0,0E0,0E0,0E0,0E0,0E0,0E0,0E0,0E0,0E0,0E0,0E0,0E0,0E0,0E0,0E0,0E0,0E0,0E0,0E0,0E0,0E0,0E0,0E0,0E0,0E0,0E0,0E0,0E0,0E0,0E0,0E0,0E0,0E0,0E0,0E0,0E0,0E0,0E0,0E0,0E0,0E0,0E0,0E0,0E0,0E0,0E0,0E0,0E0,0E0,0E0,0E0,0E0,0E0,0E0,0E0,0E0,0E0,0E0,0E0,0E0,0E0,0E0,0E0,0E0,0E0,0E0,0E0,0E0,0E0,0E0,0E0,0E0,0E0,0E0,0E0,0E0,0E0,0E0,0E0,0E0,0E0,0E0,0E0,0E0,0E0,0E0,0E0,0E0,0E0,0E0,0E0,0E0,0E0,0E0,0E0,0E0,0E0,0E0,0E0,0E0,0E0,0E0,0E0,0E0,0E0,0E0,0E0],"parents":[2147483647,0,0,1,1,2,2,3,3,4,4,5,5,6,6,7,7,8,8,9,9,10,10,11,11,12,12,13,13,14,14,15,15,16,16,17,17,18,18,19,19,20,20,21,21,22,22,23,23,25,25,26,26,27,27,28,28,29,29,30,30,31,31,32,32,33,33,34,34,35,35,36,36,37,37,38,38,39,39,40,40,41,41,42,42,43,43,44,44,45,45,46,46,48,48,49,49,50,50,51,51,52,52,53,53,54,54,55,55,56,56,57,57,58,58,59,59,60,60,61,61,62,62,63,63,64,64,65,65,66,66,67,67,68,68,69,69,70,70,71,71,72,72,73,73,74,74,75,75,76,76,77,77,78,78,79,79,80,80,81,81,82,82,83,83,84,84,85,85,86,86,87,87,88,88,89,89,90,90,91,91,92,92,93,93,94,94,95,95,96,96,97,97,98,98,99,99,100,100,101,101,102,102,103,103,104,104,105,105,106,106,107,107,108,108,110,110,111,111,112,112,115,115,116,116,117,117,118,118],"right_children":[2,4,6,8,10,12,14,16,18,20,22,24,26,28,30,32,34,36,38,40,42,44,46,48,-1,50,52,54,56,58,60,62,64,66,68,70,72,74,76,78,80,82,84,86,88,90,92,-1,94,96,98,100,102,104,106,108,110,112,114,116,118,120,122,124,126,128,130,132,134,136,138,140,142,144,146,148,150,152,154,156,158,160,162,164,166,168,170,172,174,176,178,180,182,184,186,188,190,192,194,196,198,200,202,204,206,208,210,212,214,-1,216,218,220,-1,-1,222,224,226,228,-1,-1,-1,-1,-1,-1,-1,-1,-1,-1,-1,-1,-1,-1,-1,-1,-1,-1,-1,-1,-1,-1,-1,-1,-1,-1,-1,-1,-1,-1,-1,-1,-1,-1,-1,-1,-1,-1,-1,-1,-1,-1,-1,-1,-1,-1,-1,-1,-1,-1,-1,-1,-1,-1,-1,-1,-1,-1,-1,-1,-1,-1,-1,-1,-1,-1,-1,-1,-1,-1,-1,-1,-1,-1,-1,-1,-1,-1,-1,-1,-1,-1,-1,-1,-1,-1,-1,-1,-1,-1,-1,-1,-1,-1,-1,-1,-1,-1,-1,-1,-1,-1,-1,-1,-1,-1,-1,-1,-1,-1],"split_conditions":[4.21E1,1.135E1,-9.4911104E-1,7E0,2.115E1,3.679759E1,1.98E1,8.985E2,-1.6E0,1.16E0,2.81E1,-9.983151E-1,1.98E1,1.942056E4,3.679759E1,-1E0,7.18478E4,9.2E0,1.16E0,1.47E1,-9.9683666E-1,1.16E0,7.18478E4,1.3E-1,-1.2867181E0,1.89434E3,-9.640935E-1,-1.98E1,4.2E-1,9.984376E-1,3.623501E4,-1.3E0,1.16E0,1.16E0,3.6E-1,-4.2E0,1.16E0,8.8E0,-8.9882547E-1,-1.9E0,-1.3E0,-9.9898064E-1,-6E-1,7.18478E4,2.0109386E1,1.19E1,-1.7E0,3.4221712E-2,-2.4E0,2.5E-1,4.1E-1,3E-1,4E-1,-6.0384524E-1,6.0897464E-1,-1.26E1,-9E-1,9.4E-1,-1E-1,7.2696364E-1,5.6952197E-2,5.05E0,1.42E1,-1.5E0,-9.68519E-1,-8E-1,-9.983151E-1,-9.37716E-1,-7.074868E-1,1.58E1,9.4E-1,1.76E1,-9.0623206E-1,7.18478E4,1.51203E3,-9.18547E-1,3.623501E4,-8.466016E-1,7.18478E4,-8.644082E-1,3.623501E4,1.01E1,-9.983151E-1,1.3138E3,7.18478E4,1.19E1,-7.1E0,-9.0623206E-1,-9.9683666E-1,2.3E-1,3.225E1,2.19E1,1.5E1,1.28E1,-9.9898064E-1,-9.8334295E-1,-1.6E0,-4E-1,-9.9683666E-1,-1.7E0,1.2E-1,3.36077E3,-9.593828E-1,-8.729291E-1,7.1504414E-1,5.6E-1,1.53E1,-7E-1,0E0,-8.02215E-1,1.84E1,1.942056E4,6.8E0,5.326744E-1,-3.404506E-1,7.9E0,1.33E1,-6.0384524E-1,8.9E0,6.2889025E-2,1.0708983E-2,1.3054058E-1,8.45327E-2,1.3569239E-2,5.2102443E-2,6.624777E-1,3.4636873E-1,6.1773606E-2,1.1926623E-1,1.6923248E0,3.4631458E-1,2.544276E-1,7.1754557E-1,3.7158626E-1,1.8462342E0,-4.179685E-2,-8.92286E-2,-3.2579716E-2,1.6716664E-1,-8.053774E-2,-1.2778357E-1,8.6238015E-1,2.8353324E-2,2.5473785E-2,7.1837574E-1,-4.14864E-2,7.997865E-3,4.5627636E-1,1.3535421E0,1.549363E-1,1.6113846E0,-1.0047244E-1,-1.9309977E-1,-9.503572E-2,5.6070364E-1,-1.3859764E-1,-3.0573756E-1,-1.9507498E-1,2.6359773E-1,1.0880216E0,-1.3386473E-1,1.8046342E0,3.3114493E0,3.0648887E-1,1.4843563E0,1.7321467E-1,1.7153118E0,-2.631138E-1,-4.2005607E-1,1.3664743E0,1.9739452E-1,1.6438118E0,3.3616582E-3,1.1451832E0,-1.1107035E-1,-3.820958E-1,-6.081615E-1,-5.781087E-1,-7.469968E-1,-3.5391483E-1,7.0962167E-1,2.3627867E-1,9.698701E-1,-4.64445E-1,-4.8828322E-2,-1.1210548E0,-5.0013405E-1,-5.220883E-1,-1.5195754E0,-2.2154706E0,-1.7450374E0,-1.7349758E0,-3.274649E0,-2.119823E0,-1.2092814E0,-1.2415863E0,-2.6080394E0,-1.5587212E0,-3.1731286E0,-3.9126763E0,-5.5351024E0,9.6921645E-2,-2.8151777E0,-7.2742736E-1,-1.452901E0,-2.0968666E0,-5.7199055E-1,-1.3086226E0,-7.6499283E-1,-8.4863025E-1,-1.1973636E0,-2.3442001E0,-8.610789E-1,-3.0979903E-2,-7.1413964E-1,2.646134E0,-1.2197836E-1,-1.2307329E0,-7.7240044E-1,-8.316568E-1,3.532564E-1,-3.5944939E0,-2.4364986E0,-8.699079E-1,-1.9070016E0,-7.760342E-1,-1.9725572E0,2.8810368E0,-1.1576283E0],"split_indices":[0,0,5,0,0,1,9,13,10,16,0,5,9,13,1,9,13,0,16,0,5,16,13,16,0,13,5,9,16,5,13,10,16,16,16,10,16,0,5,10,10,5,10,13,1,7,10,0,10,16,16,11,10,5,5,9,11,16,10,5,5,0,7,10,5,10,5,5,5,7,16,7,5,13,13,5,13,5,13,5,13,7,5,13,13,7,9,5,5,16,0,7,7,7,5,5,10,10,5,10,16,13,5,5,5,16,7,10,10,0,7,13,11,0,0,7,7,5,7,0,0,0,0,0,0,0,0,0,0,0,0,0,0,0,0,0,0,0,0,0,0,0,0,0,0,0,0,0,0,0,0,0,0,0,0,0,0,0,0,0,0,0,0,0,0,0,0,0,0,0,0,0,0,0,0,0,0,0,0,0,0,0,0,0,0,0,0,0,0,0,0,0,0,0,0,0,0,0,0,0,0,0,0,0,0,0,0,0,0,0,0,0,0,0,0,0,0,0,0,0,0,0,0,0,0,0,0,0,0],"split_type":[0,0,0,0,0,0,0,0,0,0,0,0,0,0,0,0,0,0,0,0,0,0,0,0,0,0,0,0,0,0,0,0,0,0,0,0,0,0,0,0,0,0,0,0,0,0,0,0,0,0,0,0,0,0,0,0,0,0,0,0,0,0,0,0,0,0,0,0,0,0,0,0,0,0,0,0,0,0,0,0,0,0,0,0,0,0,0,0,0,0,0,0,0,0,0,0,0,0,0,0,0,0,0,0,0,0,0,0,0,0,0,0,0,0,0,0,0,0,0,0,0,0,0,0,0,0,0,0,0,0,0,0,0,0,0,0,0,0,0,0,0,0,0,0,0,0,0,0,0,0,0,0,0,0,0,0,0,0,0,0,0,0,0,0,0,0,0,0,0,0,0,0,0,0,0,0,0,0,0,0,0,0,0,0,0,0,0,0,0,0,0,0,0,0,0,0,0,0,0,0,0,0,0,0,0,0,0,0,0,0,0,0,0,0,0,0,0,0,0,0,0,0,0,0,0,0,0,0,0],"sum_hessian":[9.17608E5,9.14014E5,3.594E3,7.63495E5,1.50519E5,8.49E2,2.745E3,5.03892E5,2.59603E5,1.29011E5,2.1508E4,1.64E2,6.85E2,1.344E3,1.401E3,3.51926E5,1.51966E5,5.6731E4,2.02872E5,1.28045E5,9.66E2,1.4321E4,7.187E3,3.4E1,1.3E2,3.07E2,3.78E2,1.147E3,1.97E2,6.77E2,7.24E2,1.30976E5,2.2095E5,1.51404E5,5.62E2,3.5179E4,2.1552E4,2.02023E5,8.49E2,7.7639E4,5.0406E4,1.33E2,8.33E2,1.4121E4,2E2,7.05E3,1.37E2,2E0,3.2E1,2.1E2,9.7E1,2.66E2,1.12E2,1.73E2,9.74E2,1.77E2,2E1,6.71E2,6E0,5.84E2,1.4E2,3.5627E4,9.5349E4,2.20506E5,4.44E2,1.50949E5,4.55E2,4.66E2,9.6E1,1.176E4,2.3419E4,2.1466E4,8.6E1,1.061E5,9.5923E4,5.36E2,3.13E2,1.4809E4,6.283E4,1.253E4,3.7876E4,4.3E1,9E1,3.4E2,4.93E2,1.399E4,1.31E2,5.3E1,1.47E2,2.013E3,5.037E3,2.6E1,1.11E2,4E0,2.8E1,3.7E1,1.73E2,8E1,1.7E1,1.24E2,1.42E2,6.4E1,4.8E1,8.6E1,8.7E1,6.21E2,3.53E2,6E1,1.17E2,6E0,1.4E1,6.48E2,2.3E1,3E0,3E0,5.1E2,7.4E1,1.35E2,5E0,2.4669E4,1.0958E4,3.1761E4,6.3588E4,5.26E4,1.67906E5,1.04E2,3.4E2,4.1309E4,1.0964E5,1.23E2,3.32E2,1.19E2,3.47E2,3E1,6.6E1,2.732E3,9.028E3,2.3206E4,2.13E2,9.841E3,1.1625E4,4.3E1,4.3E1,1.05955E5,1.45E2,6.4652E4,3.1271E4,4.66E2,7E1,3.06E2,7E0,1.78E3,1.3029E4,6.2679E4,1.51E2,1.591E3,1.0939E4,3.7571E4,3.05E2,2E0,4.1E1,3.5E1,5.5E1,2.25E2,1.15E2,4.9E2,3E0,3.406E3,1.0584E4,3.3E1,9.8E1,3.2E1,2.1E1,2.3E1,1.24E2,1.373E3,6.4E2,2.625E3,2.412E3,2.4E1,2E0,7.3E1,3.8E1,2E0,2E0,2.4E1,4E0,2.1E1,1.6E1,5.1E1,1.22E2,2.1E1,5.9E1,5E0,1.2E1,6E0,1.18E2,8E0,1.34E2,4.4E1,2E1,2E0,4.6E1,1.5E1,7.1E1,7.9E1,8E0,5.13E2,1.08E2,2.58E2,9.5E1,2.3E1,3.7E1,4.2E1,7.5E1,1.2E1,2E0,6.04E2,4.4E1,1.7E1,6E0,2.2E1,4.88E2,3.6E1,3.8E1,4.3E1,9.2E1,3E0,2E0],"tree_param":{"num_deleted":"0","num_feature":"19","num_nodes":"229","size_leaf_vector":"1"}},{"base_weights":[7.080043E-3,8.985507E-1,-9.869315E0,1.931941E0,-1.5558517E0,-8.023577E0,-4.7380863E1,1.8969804E0,1.5403403E1,-7.5295126E-1,-3.0015812E0,-6.451798E0,-1.4357491E1,-3.7654453E1,-5.5990604E1,2.375211E0,9.188322E-1,3.5270992E1,1.1054999E1,-8.0574244E-1,1.0750494E1,-3.1036947E0,1.3845338E1,-6.788177E0,1.3084603E1,-1.4783479E1,1.3303933E1,-5.013582E1,-3.382059E1,-6.4408585E1,-4.9528835E1,1.888361E0,3.2845414E0,4.008526E-1,1.8110216E0,6.512988E1,2.6990135E1,1.4651569E1,3.3703532E0,-1.4632062E0,-1.0010673E-1,2.6357908E1,7.05388E0,-3.1630952E0,9.460502E0,3.1336796E1,4.8641853E0,-5.8549705E0,-8.856894E0,2.774578E1,-1.3664855E0,-1.3116953E1,-1.987221E1,2.779317E1,7.661497E0,-7.667959E1,-4.6986E1,-3.628715E1,-8.629518E0,-4.8497364E1,-6.892476E1,-5.0206303E1,-1.6418081E1,2.730747E0,1.4655253E0,3.2047694E0,1.44940195E1,9.247587E-1,4.2128555E-2,1.755169E0,1.7006887E1,3.9847958E1,8.824082E1,2.5587202E1,3.1448815E0,9.180753E0,1.7824257E1,4.0300922E0,-7.0508105E-1,-9.448726E-1,-2.032686E0,-1.7414984E-1,9.192042E0,4.0228367E1,1.3076413E1,6.100751E0,5.2772255E1,-3.7368846E0,-2.3626754E0,5.2631706E1,7.606708E0,1.919112E1,4.8408745E1,4.00096E0,5.4552166E1,-5.9249825E0,1.2848593E1,-9.03497E0,6.123445E0,1.7784882E1,4.1295242E1,-2.5102637E0,4.929194E1,-1.34155855E1,7.266987E0,-2.0470762E1,-9.164828E0,4.8467125E1,9.950117E0,2.011158E1,3.1651838E0,-3.9377098E1,-3.1432846E0,-5.008821E1,-3.2996124E1,-3.9175323E1,-2.596597E1,-3.7461853E1,1.8638778E0,-5.1028416E1,-1.6578972E1,-8.023334E1,-6.110439E1,-5.1984055E1,-3.873989E1,-2.9785984E1,1.2428979E0,1.0225422E-1,7.288039E-2,4.0256698E-2,6.764531E-2,1.3116539E-1,8.672365E-2,7.2651535E-1,2.8543103E-1,4.2210046E-2,1.765241E-2,1.2299892E-2,-1.1012462E-2,4.367171E-2,7.5216435E-2,1.8979775E0,4.891832E-1,5.556884E-1,1.4446139E0,2.104253E0,3.8062963E0,4.135215E-1,1.1036696E0,2.1359934E-1,4.6689004E-1,5.659527E-1,1.3321091E0,2.4931327E-1,8.354823E-2,1.6881771E-2,-8.335302E-2,-8.281505E-3,-4.042252E-2,-4.73192E-2,-7.57305E-2,9.369959E-3,-2.645879E-2,2.4621649E-1,1.2056724E0,9.1176885E-1,1.9251171E0,8.290741E-2,4.7925007E-1,2.745631E-1,-3.4591638E-2,2.8948572E0,8.0294085E-1,-1.0314526E-1,-1.490683E-1,-5.7088107E-2,-9.902423E-2,2.1346254E0,-8.959321E-2,3.8543677E-1,1.0987328E-1,7.221818E-1,1.4881153E-1,2.7987506E0,1.4524695E0,1.7794512E-1,-8.0682874E-2,5.224936E-1,2.9037848E0,-1.5280591E-1,-2.1010822E-1,1.4758695E0,3.1957197E-1,-3.0842334E-1,-9.8957084E-2,6.7464167E-1,3.7197113E-2,2.3515113E-1,7.5239116E-1,9.0397775E-1,1.8399944E0,-9.116147E-2,9.428452E-1,4.6803632E-1,2.2218275E0,-4.1030538E-1,-5.065385E-1,1.092347E-2,1.3750225E0,-6.071084E-1,-7.759077E-1,-3.464547E-1,6.065817E-1,9.3224853E-1,2.0415244E0,5.6636435E-1,-2.9950762E-1,-2.854417E-2,1.0907654E0,2.1758805E-1,-1.0545368E-1,-7.64508E-1,-1.571123E0,-1.5489738E0,-2.053992E0,-1.3175081E0,7.620068E-1,-1.3917501E0,-9.3301845E-1,-9.3153733E-1,-2.0765944E-1,-1.3442836E0,-1.7088383E-1,-1.491785E-1,7.642322E-1,-1.6140051E0,-2.5480535E0,-7.732422E-1,-7.9028256E-2,-2.3915482E0,-3.2690947E0,-1.8908253E0,-2.8847163E0,-1.8129004E0,-1.4029967E0,-8.7022585E-1,-1.4102019E0,-2.5620958E-1,-2.1921556E0],"categories":[],"categories_nodes":[],"categories_segments":[],"categories_sizes":[],"default_left":[0,0,0,0,0,0,0,0,0,0,0,0,0,0,0,0,0,0,0,0,0,0,0,0,0,0,0,0,0,0,0,0,0,0,0,0,0,0,0,0,0,0,0,0,0,0,0,0,0,0,0,0,0,0,0,0,0,0,0,0,0,0,0,0,0,0,0,0,0,0,0,0,0,0,0,0,0,0,0,0,0,0,0,0,0,0,0,0,0,0,0,0,0,0,0,0,0,0,0,0,0,0,0,0,0,0,0,0,0,0,0,0,0,0,0,0,0,0,0,0,0,0,0,0,0,0,0,0,0,0,0,0,0,0,0,0,0,0,0,0,0,0,0,0,0,0,0,0,0,0,0,0,0,0,0,0,0,0,0,0,0,0,0,0,0,0,0,0,0,0,0,0,0,0,0,0,0,0,0,0,0,0,0,0,0,0,0,0,0,0,0,0,0,0,0,0,0,0,0,0,0,0,0,0,0,0,0,0,0,0,0,0,0,0,0,0,0,0,0,0,0,0,0,0,0,0,0,0,0,0,0,0,0,0,0,0,0,0,0,0,0,0,0,0,0,0,0,0,0],"id":1,"left_children":[1,3,5,7,9,11,13,15,17,19,21,23,25,27,29,31,33,35,37,39,41,43,45,47,49,51,53,55,57,59,61,63,65,67,69,71,73,75,77,79,81,83,85,87,89,91,93,95,97,99,101,103,105,107,109,111,113,115,117,119,121,123,125,127,129,131,133,135,137,139,141,143,145,147,-1,149,151,153,155,157,159,161,163,165,167,169,171,173,175,177,179,181,183,185,187,189,191,193,195,197,199,201,203,205,207,209,211,213,215,217,219,221,-1,223,225,227,229,231,233,235,237,239,241,243,245,247,-1,-1,-1,-1,-1,-1,-1,-1,-1,-1,-1,-1,-1,-1,-1,-1,-1,-1,-1,-1,-1,-1,-1,-1,-1,-1,-1,-1,-1,-1,-1,-1,-1,-1,-1,-1,-1,-1,-1,-1,-1,-1,-1,-1,-1,-1,-1,-1,-1,-1,-1,-1,-1,-1,-1,-1,-1,-1,-1,-1,-1,-1,-1,-1,-1,-1,-1,-1,-1,-1,-1,-1,-1,-1,-1,-1,-1,-1,-1,-1,-1,-1,-1,-1,-1,-1,-1,-1,-1,-1,-1,-1,-1,-1,-1,-1,-1,-1,-1,-1,-1,-1,-1,-1,-1,-1,-1,-1,-1,-1,-1,-1,-1,-1,-1,-1,-1,-1,-1,-1,-1,-1,-1],"loss_changes":[8.084765E6,2.1361975E6,5.263118E6,2.791095E5,2.8966144E5,7.212635E5,2.964315E5,2.7652875E5,1.3213588E5,9.744187E4,1.5332512E5,3.8159875E5,1.69937E5,7.8552E4,9.95625E4,1.75765E5,8.9708625E4,6.623784E4,3.4774984E4,7.409411E4,4.2104203E4,6.6128625E4,8.420676E4,1.10128E5,2.0830612E5,1.20052E5,1.769132E4,2.91715E4,7.9592875E4,5.536525E4,2.324475E4,9.210406E4,1.23752E5,2.3081906E4,6.0486984E4,3.0956844E4,1.8357375E4,1.4728828E4,1.0863965E3,2.4402719E4,5.3002504E4,2.526482E4,2.5561912E4,4.0476062E4,3.297235E4,3.6808734E4,1.5051262E4,5.1582E4,4.7379375E4,6.5128406E4,2.8862969E4,6.517075E4,2.2230875E4,2.2019816E4,8.837079E3,2.395975E4,1.36673125E4,3.38895E4,3.5165523E4,1.4018844E4,5.116675E4,1.941025E4,1.774989E4,1.6596062E4,2.4708938E4,6.103775E4,4.2803125E4,6.894336E3,9.058259E3,1.6074375E4,2.2228766E4,1.974375E3,1.2544891E4,2.1534578E4,0E0,4.172715E3,7.5448594E3,1.8135146E3,1.2756068E2,8.411219E3,6.180953E3,2.1973512E4,2.8551277E4,1.3902344E4,1.0788799E3,9.258629E3,9.793836E3,2.4475812E4,1.4855344E4,1.1517066E4,6.9473027E3,4.171672E3,8.264781E3,3.1610508E3,6.375676E3,2.238875E4,1.4394867E4,3.2904625E4,1.4930416E4,1.4964945E4,3.98895E4,3.888618E3,6.0106445E3,1.9821625E4,3.6969207E4,2.0455625E4,7.063535E3,5.8362656E3,4.8214043E3,1.1430617E4,2.5943142E3,8.988301E2,0E0,8.064875E3,2.6957617E4,2.8657625E4,1.13503125E4,3.0656562E3,1.179678E4,5.6570312E3,1.4018652E3,3.02385E4,3.2951125E4,2.302E4,6.0356875E3,1.4816369E4,0E0,0E0,0E0,0E0,0E0,0E0,0E0,0E0,0E0,0E0,0E0,0E0,0E0,0E0,0E0,0E0,0E0,0E0,0E0,0E0,0E0,0E0,0E0,0E0,0E0,0E0,0E0,0E0,0E0,0E0,0E0,0E0,0E0,0E0,0E0,0E0,0E0,0E0,0E0,0E0,0E0,0E0,0E0,0E0,0E0,0E0,0E0,0E0,0E0,0E0,0E0,0E0,0E0,0E0,0E0,0E0,0E0,0E0,0E0,0E0,0E0,0E0,0E0,0E0,0E0,0E0,0E0,0E0,0E0,0E0,0E0,0E0,0E0,0E0,0E0,0E0,0E0,0E0,0E0,0E0,0E0,0E0,0E0,0E0,0E0,0E0,0E0,0E0,0E0,0E0,0E0,0E0,0E0,0E0,0E0,0E0,0E0,0E0,0E0,0E0,0E0,0E0,0E0,0E0,0E0,0E0,0E0,0E0,0E0,0E0,0E0,0E0,0E0,0E0,0E0,0E0,0E0,0E0,0E0,0E0,0E0,0E0,0E0],"parents":[2147483647,0,0,1,1,2,2,3,3,4,4,5,5,6,6,7,7,8,8,9,9,10,10,11,11,12,12,13,13,14,14,15,15,16,16,17,17,18,18,19,19,20,20,21,21,22,22,23,23,24,24,25,25,26,26,27,27,28,28,29,29,30,30,31,31,32,32,33,33,34,34,35,35,36,36,37,37,38,38,39,39,40,40,41,41,42,42,43,43,44,44,45,45,46,46,47,47,48,48,49,49,50,50,51,51,52,52,53,53,54,54,55,55,56,56,57,57,58,58,59,59,60,60,61,61,62,62,63,63,64,64,65,65,66,66,67,67,68,68,69,69,70,70,71,71,72,72,73,73,75,75,76,76,77,77,78,78,79,79,80,80,81,81,82,82,83,83,84,84,85,85,86,86,87,87,88,88,89,89,90,90,91,91,92,92,93,93,94,94,95,95,96,96,97,97,98,98,99,99,100,100,101,101,102,102,103,103,104,104,105,105,106,106,107,107,108,108,109,109,110,110,111,111,113,113,114,114,115,115,116,116,117,117,118,118,119,119,120,120,121,121,122,122,123,123,124,124,125,125],"right_children":[2,4,6,8,10,12,14,16,18,20,22,24,26,28,30,32,34,36,38,40,42,44,46,48,50,52,54,56,58,60,62,64,66,68,70,72,74,76,78,80,82,84,86,88,90,92,94,96,98,100,102,104,106,108,110,112,114,116,118,120,122,124,126,128,130,132,134,136,138,140,142,144,146,148,-1,150,152,154,156,158,160,162,164,166,168,170,172,174,176,178,180,182,184,186,188,190,192,194,196,198,200,202,204,206,208,210,212,214,216,218,220,222,-1,224,226,228,230,232,234,236,238,240,242,244,246,248,-1,-1,-1,-1,-1,-1,-1,-1,-1,-1,-1,-1,-1,-1,-1,-1,-1,-1,-1,-1,-1,-1,-1,-1,-1,-1,-1,-1,-1,-1,-1,-1,-1,-1,-1,-1,-1,-1,-1,-1,-1,-1,-1,-1,-1,-1,-1,-1,-1,-1,-1,-1,-1,-1,-1,-1,-1,-1,-1,-1,-1,-1,-1,-1,-1,-1,-1,-1,-1,-1,-1,-1,-1,-1,-1,-1,-1,-1,-1,-1,-1,-1,-1,-1,-1,-1,-1,-1,-1,-1,-1,-1,-1,-1,-1,-1,-1,-1,-1,-1,-1,-1,-1,-1,-1,-1,-1,-1,-1,-1,-1,-1,-1,-1,-1,-1,-1,-1,-1,-1,-1,-1,-1],"split_conditions":[1.47E1,8.1E0,4.21E1,1.16E0,1.105E1,2.365E1,1.98E1,5.9E0,-8.660254E-1,1.16E0,1.16E0,9.4E-1,7.18478E4,-1.98E1,-5E-1,5.9987E2,9.087E2,-7.45E0,-2.4492937E-16,5.9537E2,-8.660254E-1,3.623501E4,-8.660254E-1,1.88E1,-8.660254E-1,3.225E1,-7.1E0,-8.660254E-1,2.675706E4,2.8E-1,1.16E0,-1.3E0,3.623501E4,-2E-1,7.18478E4,3.09657E3,3.75E0,-1E0,8.660254E-1,9.4E0,3.623501E4,5.6666666E-1,3.623501E4,8.9474E2,-1.98E1,9.7618E2,7.18478E4,7.18478E4,3.623501E4,1.84223E3,7.18478E4,1.16E0,1.36848E4,3.225E1,1.2E-1,5.9537E2,1.472115E4,5E-1,-8.660254E-1,6.73229E3,4.3E-1,8.660254E-1,1.942056E4,4.1E0,2.3E-1,-1.1E0,-5E-1,6.85E0,7E0,2.35E-1,-1.26E1,-1.26E1,-1.0183333E1,3.3553E2,3.1448815E0,3.84943E3,2.675706E4,3.2193E2,5.8E0,-7E-1,-2.5E-1,9.6E0,5.6E-1,1E1,8.7E0,-2.4492937E-16,1.13266E6,1.27E1,1.25E1,1.425E1,-5E-1,5.2E0,1.19824E3,-2.4492937E-16,-1.8369701E-16,-1E-1,-1.98E1,6E-1,-4.65E0,1.16E0,1.1E0,5E-1,1.88E1,2.81E1,6.19712E4,1.41E1,6.8E-1,1.2E-1,-1.48E1,6.2E0,1.41E1,3.752088E3,-3.1432846E0,3.212673E4,4E-1,8.660254E-1,5.6E-1,3.5E-1,1.41E1,5.01519E3,7.18478E4,5.3648523E4,5E-1,1.8578642E5,9E-2,4.83628E3,1.2428979E0,1.0225422E-1,7.288039E-2,4.0256698E-2,6.764531E-2,1.3116539E-1,8.672365E-2,7.2651535E-1,2.8543103E-1,4.2210046E-2,1.765241E-2,1.2299892E-2,-1.1012462E-2,4.367171E-2,7.5216435E-2,1.8979775E0,4.891832E-1,5.556884E-1,1.4446139E0,2.104253E0,3.8062963E0,4.135215E-1,1.1036696E0,2.1359934E-1,4.6689004E-1,5.659527E-1,1.3321091E0,2.4931327E-1,8.354823E-2,1.6881771E-2,-8.335302E-2,-8.281505E-3,-4.042252E-2,-4.73192E-2,-7.57305E-2,9.369959E-3,-2.645879E-2,2.4621649E-1,1.2056724E0,9.1176885E-1,1.9251171E0,8.290741E-2,4.7925007E-1,2.745631E-1,-3.4591638E-2,2.8948572E0,8.0294085E-1,-1.0314526E-1,-1.490683E-1,-5.7088107E-2,-9.902423E-2,2.1346254E0,-8.959321E-2,3.8543677E-1,1.0987328E-1,7.221818E-1,1.4881153E-1,2.7987506E0,1.4524695E0,1.7794512E-1,-8.0682874E-2,5.224936E-1,2.9037848E0,-1.5280591E-1,-2.1010822E-1,1.4758695E0,3.1957197E-1,-3.0842334E-1,-9.8957084E-2,6.7464167E-1,3.7197113E-2,2.3515113E-1,7.5239116E-1,9.0397775E-1,1.8399944E0,-9.116147E-2,9.428452E-1,4.6803632E-1,2.2218275E0,-4.1030538E-1,-5.065385E-1,1.092347E-2,1.3750225E0,-6.071084E-1,-7.759077E-1,-3.464547E-1,6.065817E-1,9.3224853E-1,2.0415244E0,5.6636435E-1,-2.9950762E-1,-2.854417E-2,1.0907654E0,2.1758805E-1,-1.0545368E-1,-7.64508E-1,-1.571123E0,-1.5489738E0,-2.053992E0,-1.3175081E0,7.620068E-1,-1.3917501E0,-9.3301845E-1,-9.3153733E-1,-2.0765944E-1,-1.3442836E0,-1.7088383E-1,-1.491785E-1,7.642322E-1,-1.6140051E0,-2.5480535E0,-7.732422E-1,-7.9028256E-2,-2.3915482E0,-3.2690947E0,-1.8908253E0,-2.8847163E0,-1.8129004E0,-1.4029967E0,-8.7022585E-1,-1.4102019E0,-2.5620958E-1,-2.1921556E0],"split_indices":[0,0,0,16,0,0,9,0,3,16,16,16,13,9,3,13,13,9,2,13,3,13,3,0,3,0,9,3,13,16,16,9,13,9,13,13,9,9,2,0,13,9,13,13,9,13,13,13,13,13,13,16,13,0,16,13,13,2,2,13,16,3,13,0,16,9,2,0,0,16,9,9,9,13,0,14,13,13,0,9,9,0,16,0,0,2,14,0,0,0,2,9,13,2,3,9,9,16,9,16,9,3,0,0,14,9,16,16,9,9,9,14,0,14,16,3,16,16,9,13,13,14,2,14,16,13,0,0,0,0,0,0,0,0,0,0,0,0,0,0,0,0,0,0,0,0,0,0,0,0,0,0,0,0,0,0,0,0,0,0,0,0,0,0,0,0,0,0,0,0,0,0,0,0,0,0,0,0,0,0,0,0,0,0,0,0,0,0,0,0,0,0,0,0,0,0,0,0,0,0,0,0,0,0,0,0,0,0,0,0,0,0,0,0,0,0,0,0,0,0,0,0,0,0,0,0,0,0,0,0,0,0,0,0,0,0,0,0,0,0,0,0,0,0,0,0,0,0,0],"split_type":[0,0,0,0,0,0,0,0,0,0,0,0,0,0,0,0,0,0,0,0,0,0,0,0,0,0,0,0,0,0,0,0,0,0,0,0,0,0,0,0,0,0,0,0,0,0,0,0,0,0,0,0,0,0,0,0,0,0,0,0,0,0,0,0,0,0,0,0,0,0,0,0,0,0,0,0,0,0,0,0,0,0,0,0,0,0,0,0,0,0,0,0,0,0,0,0,0,0,0,0,0,0,0,0,0,0,0,0,0,0,0,0,0,0,0,0,0,0,0,0,0,0,0,0,0,0,0,0,0,0,0,0,0,0,0,0,0,0,0,0,0,0,0,0,0,0,0,0,0,0,0,0,0,0,0,0,0,0,0,0,0,0,0,0,0,0,0,0,0,0,0,0,0,0,0,0,0,0,0,0,0,0,0,0,0,0,0,0,0,0,0,0,0,0,0,0,0,0,0,0,0,0,0,0,0,0,0,0,0,0,0,0,0,0,0,0,0,0,0,0,0,0,0,0,0,0,0,0,0,0,0,0,0,0,0,0,0,0,0,0,0,0,0,0,0,0,0,0,0],"sum_hessian":[9.1825E5,8.42229E5,7.6021E4,5.92687E5,2.49542E5,7.2457E4,3.564E3,5.91154E5,1.533E3,1.60441E5,8.9101E4,5.8053E4,1.4404E4,1.676E3,1.888E3,3.97036E5,1.94118E5,2.74E2,1.259E3,1.59709E5,7.32E2,8.8565E4,5.36E2,5.7071E4,9.82E2,1.4186E4,2.18E2,3.91E2,1.285E3,8.16E2,1.072E3,2.58591E5,1.38445E5,1.22816E5,7.1302E4,5.8E1,2.16E2,8.57E2,4.02E2,8.2676E4,7.7033E4,1.39E2,5.93E2,8.8149E4,4.16E2,1.81E2,3.55E2,3.9332E4,1.7739E4,4.87E2,4.95E2,1.0689E4,3.497E3,6E1,1.58E2,3.9E1,3.52E2,1.17E3,1.15E2,1.83E2,6.33E2,1.05E3,2.2E1,8.6419E4,1.72172E5,1.37468E5,9.77E2,4.9915E4,7.2901E4,7.1042E4,2.6E2,2.9E1,2.9E1,2.13E2,3E0,3.16E2,5.41E2,3.46E2,5.6E1,4.3283E4,3.9393E4,7.6425E4,6.08E2,6.7E1,7.2E1,5.82E2,1.1E1,5.1341E4,3.6808E4,1.6E1,4E2,1.07E2,7.4E1,3.5E2,5E0,3.9186E4,1.46E2,1.7531E4,2.08E2,2.82E2,2.05E2,4.85E2,1E1,1.0535E4,1.54E2,3.311E3,1.86E2,2.7E1,3.3E1,4.1E1,1.17E2,1.4E1,2.5E1,2.86E2,6.6E1,9.12E2,2.58E2,3E1,8.5E1,1.69E2,1.4E1,2.55E2,3.78E2,9.06E2,1.44E2,1.8E1,4E0,5.0701E4,3.5718E4,1.2122E5,5.0952E4,5.8873E4,7.8595E4,4.26E2,5.51E2,2.6147E4,2.3768E4,3.8785E4,3.4116E4,3.8954E4,3.2088E4,1.2E1,2.48E2,5E0,2.4E1,1.7E1,1.2E1,8.1E1,1.32E2,2.06E2,1.1E2,5.27E2,1.4E1,1.02E2,2.44E2,3.4E1,2.2E1,1.2446E4,3.0837E4,1.1998E4,2.7395E4,4.418E4,3.2245E4,5.73E2,3.5E1,4.1E1,2.6E1,9E0,6.3E1,4.44E2,1.38E2,4E0,7E0,2.8792E4,2.2549E4,1.8483E4,1.8325E4,1.3E1,3E0,2.04E2,1.96E2,9E1,1.7E1,6E0,6.8E1,2.88E2,6.2E1,3E0,2E0,9.976E3,2.921E4,1.2E1,1.34E2,1.6671E4,8.6E2,5.3E1,1.55E2,9.1E1,1.91E2,1.06E2,9.9E1,4.82E2,3E0,4E0,6E0,6.992E3,3.543E3,1.29E2,2.5E1,1.973E3,1.338E3,1.78E2,8E0,1.2E1,1.5E1,2.4E1,9E0,1.6E1,2.5E1,7.6E1,4.1E1,6E0,8E0,2.31E2,5.5E1,5.9E1,7E0,7.13E2,1.99E2,2.31E2,2.7E1,2.7E1,3E0,6.6E1,1.9E1,1.59E2,1E1,9E0,5E0,1.84E2,7.1E1,3.33E2,4.5E1,6.87E2,2.19E2,3.7E1,1.07E2,1.2E1,6E0],"tree_param":{"num_deleted":"0","num_feature":"19","num_nodes":"249","size_leaf_vector":"1"}},{"base_weights":[-3.0590023E-3,1.7895548E-1,-4.6264732E1,1.3105115E0,-5.1002054E0,-4.8566914E1,-2.8095654E1,2.158177E0,-1.5241273E-1,-3.8588376E0,-1.1740393E1,-5.0125896E1,-3.525487E1,-2.2642778E1,-3.5955975E1,1.7420493E0,3.1391635E0,-1.6831651E0,3.269649E-1,-2.8556342E0,-5.578561E0,-9.765168E0,-1.669879E1,-3.8700745E1,-5.260604E1,-3.8419872E1,-2.3028343E1,-4.8827328E1,-1.8001978E1,-2.1266174E1,-4.7380856E1,1.2063022E0,2.3038557E0,3.0769284E0,1.9529598E1,-2.2756114E0,-3.1576645E-1,9.530809E-1,-4.905954E-1,-5.1924825E0,-2.412672E0,-8.205548E0,-5.0085173E0,-1.0015749E1,1.7659004E1,-1.7392735E1,-5.6930124E-3,-3.3997963E1,-4.560054E1,-5.0553864E1,-6.0184826E1,-3.9329044E1,1.7086493E1,-2.0828928E1,-4.375044E1,-5.5596485E0,-5.9079536E1,-2.284426E1,4.548412E-2,2.569216E1,-2.431654E1,-6.2284576E1,-2.5530037E1,2.0424283E0,8.6251247E-1,2.9155426E0,1.9137329E0,2.5695527E0,4.2232537E0,9.021902E0,2.289779E1,-1.5840389E0,-3.2047849E0,-4.1835856E-1,1.068951E1,3.7763393E-1,1.8230249E0,-1.026741E0,4.018781E-1,-5.9473686E0,-3.5494761E0,-2.4737284E0,1.053853E1,-9.397238E0,-5.9134007E0,-5.088608E0,1.4806404E1,-6.4725323E0,-1.0869746E1,6.6240597E-1,2.3644178E1,-1.3300069E1,-1.9099194E1,-6.2502713E0,7.210306E0,-6.467987E1,-3.2431934E1,-5.9661415E1,-4.172153E1,-1.1429453E1,-5.0845974E1,-5.3456074E1,-7.5704704E1,-3.693112E1,-5.6721855E1,1.5969354E0,-6.571783E-1,-1.7654877E1,-3.0655312E1,-6.397893E-1,-2.0344765E0,-3.749124E1,1.9851727E0,-6.567109E1,-2.2866753E1,-3.1611614E1,-2.222453E0,2.0382454E1,-5.158263E1,1.4013579E0,1.1710893E-2,-3.695185E1,-6.2377267E0,-7.804059E1,-3.1597322E1,8.434005E0,-3.4567017E1,8.289739E-2,5.399876E-2,1.250359E-2,5.563162E-2,1.272292E-1,8.435232E-2,5.2218515E-2,8.699831E-2,4.105532E-2,9.880232E-2,1.682283E-1,1.219369E-1,2.3787397E-1,8.2727164E-1,9.67033E-1,5.1259404E-1,-1.616675E-2,-7.0441976E-2,-7.183839E-2,-1.2889521E-1,4.2976844E-3,-5.0541487E-2,3.2203083E0,3.0354825E-1,3.856056E-2,1.7962365E-3,5.8193274E-2,6.0335726E-1,1.5250284E-2,-5.2054327E-2,1.1956091E-2,5.142797E-1,-1.498114E-1,-2.183431E-1,-1.201145E-1,1.3937703E-1,-2.3346655E-2,-9.358762E-2,9.058382E-1,2.2935972E-1,-2.3863791E-1,-3.3353913E-1,-2.0117301E-1,3.0269977E-1,-9.142406E-2,-1.8428801E-1,6.606835E-1,1.7360586E-1,-2.6792032E-1,-1.458702E-1,-4.312E-1,-3.124091E-1,-1.16591804E-1,1.125097E0,-2.3354244E-1,8.7286097E-1,-5.589282E-1,-3.7261522E-1,-5.502707E-1,-7.146092E-1,1.7696435E0,-2.5656843E-1,-2.4945457E-1,3.4557006E-1,-5.0529104E-1,-3.2931328E0,-1.199102E0,-8.570309E-1,-1.1184254E0,-2.1996262E0,-1.3867542E0,-3.809178E-1,-1.2526792E0,5.4548186E-1,-1.6900806E0,-7.2918445E-1,-1.3799344E0,-2.1768765E0,-2.9696772E0,-2.0060942E0,-1.1829115E0,-2.082654E0,-2.4547656E0,-1.0302588E0,8.624922E-3,-6.0596573E-1,-1.1299492E0,-4.0374702E-1,-1.5202626E0,-4.4740495E-1,-1.4237845E0,-3.065473E0,-1.1311271E0,-2.8355888E-1,4.3996847E-1,-1.114599E0,4.6928236E-1,-9.833728E-1,1.8079014E0,-5.0222534E-1,-1.8344752E0,-6.499073E-1,-7.551308E-1,-1.5860564E0,-8.3910334E-1,1.3649915E0,-3.8218234E0,-1.9238731E0,1.7128543E0,-1.4440442E0,-8.559278E-1,9.881018E-1,-1.276338E0,5.505826E-1],"categories":[],"categories_nodes":[],"categories_segments":[],"categories_sizes":[],"default_left":[0,0,0,0,0,0,0,0,0,0,0,0,0,0,0,0,0,0,0,0,0,0,0,0,0,0,0,0,0,0,0,0,0,0,0,0,0,0,0,0,0,0,0,0,0,0,0,0,0,0,0,0,0,0,0,0,0,0,0,0,0,0,0,0,0,0,0,0,0,0,0,0,0,0,0,0,0,0,0,0,0,0,0,0,0,0,0,0,0,0,0,0,0,0,0,0,0,0,0,0,0,0,0,0,0,0,0,0,0,0,0,0,0,0,0,0,0,0,0,0,0,0,0,0,0,0,0,0,0,0,0,0,0,0,0,0,0,0,0,0,0,0,0,0,0,0,0,0,0,0,0,0,0,0,0,0,0,0,0,0,0,0,0,0,0,0,0,0,0,0,0,0,0,0,0,0,0,0,0,0,0,0,0,0,0,0,0,0,0,0,0,0,0,0,0,0,0,0,0,0,0,0,0,0,0,0,0,0,0,0,0,0,0,0,0,0,0,0,0,0,0,0,0,0,0,0,0,0,0,0,0,0,0,0,0,0,0,0,0,0,0],"id":2,"left_children":[1,3,5,7,9,11,13,15,17,19,21,23,25,27,29,31,33,35,37,39,41,43,45,47,49,51,53,55,57,59,61,63,65,67,69,71,73,75,77,79,81,83,85,87,89,91,93,95,97,99,101,103,105,107,109,111,113,115,117,119,121,123,125,127,129,131,133,135,137,139,141,143,145,147,149,151,153,155,157,159,161,163,165,167,169,171,173,175,177,179,181,183,185,187,189,191,193,195,197,199,201,203,205,207,209,-1,-1,211,213,-1,-1,215,-1,217,219,221,223,225,227,-1,-1,229,231,233,235,237,239,-1,-1,-1,-1,-1,-1,-1,-1,-1,-1,-1,-1,-1,-1,-1,-1,-1,-1,-1,-1,-1,-1,-1,-1,-1,-1,-1,-1,-1,-1,-1,-1,-1,-1,-1,-1,-1,-1,-1,-1,-1,-1,-1,-1,-1,-1,-1,-1,-1,-1,-1,-1,-1,-1,-1,-1,-1,-1,-1,-1,-1,-1,-1,-1,-1,-1,-1,-1,-1,-1,-1,-1,-1,-1,-1,-1,-1,-1,-1,-1,-1,-1,-1,-1,-1,-1,-1,-1,-1,-1,-1,-1,-1,-1,-1,-1,-1,-1,-1,-1,-1,-1,-1,-1,-1,-1,-1,-1,-1,-1,-1,-1,-1,-1],"loss_changes":[7.7305295E6,5.4628345E6,1.491345E5,9.3386E5,1.330493E6,6.4477E4,1.6630406E4,1.9463075E5,2.0273202E5,2.3460538E5,2.488285E5,7.88635E4,1.2194875E4,2.864971E4,2.6684219E4,1.007635E5,1.4480125E5,5.337422E4,1.0769547E5,8.889731E4,7.4988E4,1.25130125E5,8.388025E4,1.50956875E4,3.3398E4,1.4146094E4,2.3702344E3,1.5640758E4,1.8178336E4,1.1224508E4,2.8370453E4,4.9258812E4,3.8991375E4,8.2274125E4,1.8798922E4,2.9534172E4,2.249298E4,5.9643586E4,4.3660758E4,1.6953406E4,5.7123812E4,2.4342438E4,6.5414688E4,5.445325E4,1.6769395E4,4.829825E4,1.3112718E4,1.2749344E4,8.692E3,2.0562E4,4.7541375E4,8.874031E3,6.755371E3,1.5484766E3,1.4213691E3,1.9042785E4,5.4205625E3,2.9580742E4,4.8299555E4,2.109871E3,1.5759711E4,2.3643594E4,1.2261898E4,9.518281E3,4.835168E4,2.148675E4,2.3886781E4,5.5171312E4,2.0031938E4,3.6608555E3,1.869975E4,1.58756875E4,1.4126656E4,1.2052223E4,2.2942904E4,1.8330021E4,4.6496812E4,4.6734723E4,2.0568172E4,8.800531E3,3.0431953E3,4.5982938E4,2.0380098E4,8.9610625E3,8.486828E3,4.7123375E4,8.157129E3,1.1795641E4,4.46185E4,6.2919546E3,1.0704617E4,1.4778625E4,3.00225E4,1.4656995E4,6.582251E3,2.2739762E4,6.5238438E3,5.310672E3,1.00628125E3,1.1754055E4,1.8324E4,4.7915E4,2.5848312E4,4.3864688E3,1.1192359E4,0E0,0E0,6.768242E2,5.717959E2,0E0,0E0,6.071279E2,0E0,1.0709086E4,6.826594E2,1.1635656E4,2.3096148E4,4.1251344E4,5.6651953E2,0E0,0E0,5.309078E3,2.8455215E4,1.9346906E4,2.258164E4,7.4300747E3,7.1750664E3,0E0,0E0,0E0,0E0,0E0,0E0,0E0,0E0,0E0,0E0,0E0,0E0,0E0,0E0,0E0,0E0,0E0,0E0,0E0,0E0,0E0,0E0,0E0,0E0,0E0,0E0,0E0,0E0,0E0,0E0,0E0,0E0,0E0,0E0,0E0,0E0,0E0,0E0,0E0,0E0,0E0,0E0,0E0,0E0,0E0,0E0,0E0,0E0,0E0,0E0,0E0,0E0,0E0,0E0,0E0,0E0,0E0,0E0,0E0,0E0,0E0,0E0,0E0,0E0,0E0,0E0,0E0,0E0,0E0,0E0,0E0,0E0,0E0,0E0,0E0,0E0,0E0,0E0,0E0,0E0,0E0,0E0,0E0,0E0,0E0,0E0,0E0,0E0,0E0,0E0,0E0,0E0,0E0,0E0,0E0,0E0,0E0,0E0,0E0,0E0,0E0,0E0,0E0,0E0,0E0,0E0,0E0,0E0,0E0,0E0,0E0,0E0,0E0,0E0],"parents":[2147483647,0,0,1,1,2,2,3,3,4,4,5,5,6,6,7,7,8,8,9,9,10,10,11,11,12,12,13,13,14,14,15,15,16,16,17,17,18,18,19,19,20,20,21,21,22,22,23,23,24,24,25,25,26,26,27,27,28,28,29,29,30,30,31,31,32,32,33,33,34,34,35,35,36,36,37,37,38,38,39,39,40,40,41,41,42,42,43,43,44,44,45,45,46,46,47,47,48,48,49,49,50,50,51,51,52,52,53,53,54,54,55,55,56,56,57,57,58,58,59,59,60,60,61,61,62,62,63,63,64,64,65,65,66,66,67,67,68,68,69,69,70,70,71,71,72,72,73,73,74,74,75,75,76,76,77,77,78,78,79,79,80,80,81,81,82,82,83,83,84,84,85,85,86,86,87,87,88,88,89,89,90,90,91,91,92,92,93,93,94,94,95,95,96,96,97,97,98,98,99,99,100,100,101,101,102,102,103,103,104,104,107,107,108,108,111,111,113,113,114,114,115,115,116,116,117,117,118,118,121,121,122,122,123,123,124,124,125,125,126,126],"right_children":[2,4,6,8,10,12,14,16,18,20,22,24,26,28,30,32,34,36,38,40,42,44,46,48,50,52,54,56,58,60,62,64,66,68,70,72,74,76,78,80,82,84,86,88,90,92,94,96,98,100,102,104,106,108,110,112,114,116,118,120,122,124,126,128,130,132,134,136,138,140,142,144,146,148,150,152,154,156,158,160,162,164,166,168,170,172,174,176,178,180,182,184,186,188,190,192,194,196,198,200,202,204,206,208,210,-1,-1,212,214,-1,-1,216,-1,218,220,222,224,226,228,-1,-1,230,232,234,236,238,240,-1,-1,-1,-1,-1,-1,-1,-1,-1,-1,-1,-1,-1,-1,-1,-1,-1,-1,-1,-1,-1,-1,-1,-1,-1,-1,-1,-1,-1,-1,-1,-1,-1,-1,-1,-1,-1,-1,-1,-1,-1,-1,-1,-1,-1,-1,-1,-1,-1,-1,-1,-1,-1,-1,-1,-1,-1,-1,-1,-1,-1,-1,-1,-1,-1,-1,-1,-1,-1,-1,-1,-1,-1,-1,-1,-1,-1,-1,-1,-1,-1,-1,-1,-1,-1,-1,-1,-1,-1,-1,-1,-1,-1,-1,-1,-1,-1,-1,-1,-1,-1,-1,-1,-1,-1,-1,-1,-1,-1,-1,-1,-1,-1,-1],"split_conditions":[4.21E1,1.105E1,2.220107E4,6.7E0,2.02E1,2.68E1,7E-1,8.985E2,-1.4E0,1.45E1,2.81E1,1.21E1,2.51E1,-1.5E0,2.26E1,2E-1,7.18478E4,1.83E1,8.7E0,-2.3E0,-2E0,2.16E2,2.675706E4,1.5E1,1.1E1,2.2476258E5,1.21E1,-5.2E0,1.44E1,3.4475066E5,2.57E1,1.42E1,1.52E1,2.12E1,1.89E1,8.7E0,8.1E1,9.087E2,2.19E1,1.6E1,1.09E2,1.53E1,2.16E2,1.12E1,-9E-1,1.21E1,2.16E2,5.7E0,-4.9E0,-7.1E0,2.3E0,5E0,2.97E1,2E0,2.88E1,1.95E1,1.86E1,-8E-1,1.94E1,1.01E1,2.01E1,3.4E0,-1E-1,4E0,1.59E1,6.4E0,1.94E1,-1.5E0,4.6E0,6.25E0,4.85E0,1.61E1,1.71E1,9.2E0,1.85E1,1.37E1,2.16E2,1.29E1,2.16E2,1.63E1,6.2545275E5,1.14E1,1.1E1,1.42E1,1.09E2,1.12E1,1.64E1,-1.5E0,1.4E1,2.86E1,1.64E1,-2.9E0,3.225E1,5.7E0,1.13266E6,3.5E0,-1E-1,-4.5E0,1.593234E4,2.37E1,1.77E1,6E-1,2E-1,3.2E0,3E0,1.5969354E0,-6.571783E-1,-6.1E0,3.3E1,-6.397893E-1,-2.0344765E0,1.62E1,1.9851727E0,2.06E1,2E1,5.7E0,2.5E1,2E-1,2.44E1,1.4013579E0,1.1710893E-2,1.78E1,1.74E1,-2E-1,3.6E0,1.88E1,3.4E1,8.289739E-2,5.399876E-2,1.250359E-2,5.563162E-2,1.272292E-1,8.435232E-2,5.2218515E-2,8.699831E-2,4.105532E-2,9.880232E-2,1.682283E-1,1.219369E-1,2.3787397E-1,8.2727164E-1,9.67033E-1,5.1259404E-1,-1.616675E-2,-7.0441976E-2,-7.183839E-2,-1.2889521E-1,4.2976844E-3,-5.0541487E-2,3.2203083E0,3.0354825E-1,3.856056E-2,1.7962365E-3,5.8193274E-2,6.0335726E-1,1.5250284E-2,-5.2054327E-2,1.1956091E-2,5.142797E-1,-1.498114E-1,-2.183431E-1,-1.201145E-1,1.3937703E-1,-2.3346655E-2,-9.358762E-2,9.058382E-1,2.2935972E-1,-2.3863791E-1,-3.3353913E-1,-2.0117301E-1,3.0269977E-1,-9.142406E-2,-1.8428801E-1,6.606835E-1,1.7360586E-1,-2.6792032E-1,-1.458702E-1,-4.312E-1,-3.124091E-1,-1.16591804E-1,1.125097E0,-2.3354244E-1,8.7286097E-1,-5.589282E-1,-3.7261522E-1,-5.502707E-1,-7.146092E-1,1.7696435E0,-2.5656843E-1,-2.4945457E-1,3.4557006E-1,-5.0529104E-1,-3.2931328E0,-1.199102E0,-8.570309E-1,-1.1184254E0,-2.1996262E0,-1.3867542E0,-3.809178E-1,-1.2526792E0,5.4548186E-1,-1.6900806E0,-7.2918445E-1,-1.3799344E0,-2.1768765E0,-2.9696772E0,-2.0060942E0,-1.1829115E0,-2.082654E0,-2.4547656E0,-1.0302588E0,8.624922E-3,-6.0596573E-1,-1.1299492E0,-4.0374702E-1,-1.5202626E0,-4.4740495E-1,-1.4237845E0,-3.065473E0,-1.1311271E0,-2.8355888E-1,4.3996847E-1,-1.114599E0,4.6928236E-1,-9.833728E-1,1.8079014E0,-5.0222534E-1,-1.8344752E0,-6.499073E-1,-7.551308E-1,-1.5860564E0,-8.3910334E-1,1.3649915E0,-3.8218234E0,-1.9238731E0,1.7128543E0,-1.4440442E0,-8.559278E-1,9.881018E-1,-1.276338E0,5.505826E-1],"split_indices":[0,0,13,0,0,6,11,13,10,0,0,6,7,10,6,10,13,6,0,10,10,12,13,7,12,14,11,11,7,14,6,7,7,6,6,0,12,13,6,6,12,6,12,7,10,7,12,7,11,10,11,11,6,12,6,6,7,11,7,7,6,11,10,0,6,6,6,10,0,0,0,7,7,0,6,7,12,7,12,7,14,7,7,7,12,7,7,11,6,6,6,11,0,7,14,6,11,10,13,7,11,10,10,10,12,0,0,11,7,0,0,6,0,6,6,7,6,10,6,0,0,6,7,10,11,7,6,0,0,0,0,0,0,0,0,0,0,0,0,0,0,0,0,0,0,0,0,0,0,0,0,0,0,0,0,0,0,0,0,0,0,0,0,0,0,0,0,0,0,0,0,0,0,0,0,0,0,0,0,0,0,0,0,0,0,0,0,0,0,0,0,0,0,0,0,0,0,0,0,0,0,0,0,0,0,0,0,0,0,0,0,0,0,0,0,0,0,0,0,0,0,0,0,0,0,0,0,0,0,0,0,0,0,0,0,0,0,0,0,0,0],"split_type":[0,0,0,0,0,0,0,0,0,0,0,0,0,0,0,0,0,0,0,0,0,0,0,0,0,0,0,0,0,0,0,0,0,0,0,0,0,0,0,0,0,0,0,0,0,0,0,0,0,0,0,0,0,0,0,0,0,0,0,0,0,0,0,0,0,0,0,0,0,0,0,0,0,0,0,0,0,0,0,0,0,0,0,0,0,0,0,0,0,0,0,0,0,0,0,0,0,0,0,0,0,0,0,0,0,0,0,0,0,0,0,0,0,0,0,0,0,0,0,0,0,0,0,0,0,0,0,0,0,0,0,0,0,0,0,0,0,0,0,0,0,0,0,0,0,0,0,0,0,0,0,0,0,0,0,0,0,0,0,0,0,0,0,0,0,0,0,0,0,0,0,0,0,0,0,0,0,0,0,0,0,0,0,0,0,0,0,0,0,0,0,0,0,0,0,0,0,0,0,0,0,0,0,0,0,0,0,0,0,0,0,0,0,0,0,0,0,0,0,0,0,0,0,0,0,0,0,0,0,0,0,0,0,0,0,0,0,0,0,0,0],"sum_hessian":[9.18081E5,9.14484E5,3.597E3,7.53069E5,1.61415E5,3.191E3,4.06E2,4.76797E5,2.76272E5,1.35993E5,2.5422E4,2.854E3,3.37E2,2.42E2,1.64E2,3.34786E5,1.42011E5,6.5885E4,2.10387E5,8.5891E4,5.0102E4,1.8182E4,7.24E3,5.12E2,2.342E3,2.66E2,7.1E1,3.5E1,2.07E2,7.3E1,9.1E1,1.71369E5,1.63417E5,1.41475E5,5.36E2,4.5968E4,1.9917E4,1.19143E5,9.1244E4,1.3685E4,7.2206E4,8.931E3,4.1171E4,1.8018E4,1.64E2,6.951E3,2.89E2,3.08E2,2.04E2,1.849E3,4.93E2,2.62E2,4E0,6.6E1,5E0,7E0,2.8E1,1.63E2,4.4E1,4E0,6.9E1,5.3E1,3.8E1,4.993E4,1.21439E5,6.3635E4,9.9782E4,9.8071E4,4.3404E4,1.31E2,4.05E2,2.6355E4,1.9613E4,1.9734E4,1.83E2,7.171E4,4.7433E4,5.7001E4,3.4243E4,9.375E3,4.31E3,7.1868E4,3.38E2,5.874E3,3.057E3,4.1006E4,1.65E2,3.501E3,1.4517E4,4.3E1,1.21E2,2.048E3,4.903E3,1.55E2,1.34E2,1.3E1,2.95E2,4.1E1,1.63E2,1.4E1,1.835E3,3.47E2,1.46E2,2.33E2,2.9E1,2E0,2E0,5.2E1,1.4E1,3E0,2E0,5E0,2E0,2.3E1,5E0,1.14E2,4.9E1,3.2E1,1.2E1,2E0,2E0,4E1,2.9E1,3.4E1,1.9E1,8E0,3E1,2.3152E4,2.6778E4,7.6502E4,4.4937E4,1.76E4,4.6035E4,6.8413E4,3.1369E4,2.3789E4,7.4282E4,1.634E4,2.7064E4,1.19E2,1.2E1,2.15E2,1.9E2,8.823E3,1.7532E4,7.955E3,1.1658E4,1.322E4,6.514E3,2E0,1.81E2,2.0803E4,5.0907E4,4.7263E4,1.7E2,1.539E4,4.1611E4,3.4155E4,8.8E1,3.023E3,6.352E3,4.261E3,4.9E1,1.2232E4,5.9636E4,5.8E1,2.8E2,1.453E3,4.421E3,3.021E3,3.6E1,7.227E3,3.3779E4,1.06E2,5.9E1,1.941E3,1.56E3,5.654E3,8.863E3,3.9E1,4E0,1E1,1.11E2,7.26E2,1.322E3,2.52E3,2.383E3,3E0,1.52E2,2.4E1,1.1E2,6E0,7E0,1.81E2,1.14E2,1E1,3.1E1,1.61E2,2E0,7E0,7E0,1.811E3,2.4E1,1.82E2,1.65E2,7.2E1,7.4E1,2.26E2,7E0,1.6E1,1.3E1,2E0,5E1,1.1E1,3E0,3E0,2E0,1.4E1,9E0,2E0,3E0,5E0,1.09E2,3.1E1,1.8E1,1.6E1,1.6E1,1E1,2E0,1.9E1,2.1E1,2.1E1,8E0,1E1,2.4E1,2E0,1.7E1,3E0,5E0,2.8E1,2E0],"tree_param":{"num_deleted":"0","num_feature":"19","num_nodes":"241","size_leaf_vector":"1"}},{"base_weights":[-2.5651712E-4,1.5012394E-1,-3.8652893E1,1.0179852E0,-4.251459E0,-2.5249046E1,-6.838537E1,1.5332618E0,-1.1413516E0,-3.2426343E0,-1.2303695E1,-2.826699E1,-3.48599E0,-7.371216E1,-4.184148E1,1.4983337E0,1.4505485E1,-3.396018E-1,-2.4471874E0,-3.4247446E0,1.8226294E1,-1.0463256E1,-2.3066137E1,-3.0298317E1,-1.266708E1,-1.7826385E1,1.7208768E0,-6.353807E1,-8.181848E1,-5.64444E1,-3.2824142E1,4.8332757E-1,1.898547E0,4.6789856E1,1.3429688E1,-3.8504037E-1,1.4628533E1,-2.5715668E0,6.313582E0,-1.6049938E0,-5.045544E0,5.3781505E0,2.9400791E1,-8.6649275E0,-1.4400501E1,-2.054821E1,-3.047283E1,-2.5202915E1,-3.9574776E1,-1.7147076E1,-8.597105E0,-4.6290145E0,-4.505827E1,6.055976E1,-2.0281185E-1,-7.300635E1,-5.4860523E1,-9.874149E1,-7.331567E1,2.952431E-1,-5.9505898E1,-3.565243E1,1.870939E0,8.9584017E-1,-9.9899846E-1,2.7499464E0,1.4010495E0,6.942237E1,2.8488638E1,1.0289491E1,1.7213165E1,-1.5678351E0,1.3618712E-1,1.6546755E1,5.1722536E0,-4.1654325E0,-1.9487565E0,3.0632217E0,1.1720429E1,-1.7285007E0,2.0725695E1,-4.2902718E0,-9.287524E0,8.4443445E0,-1.99563E0,1.7985537E1,4.596104E1,-8.859037E0,5.1390295E0,-1.4742603E1,1.1098025E1,-2.1333612E1,-5.8163695E0,-3.1881973E1,-1.6293324E1,-2.2778778E1,-3.2255398E1,-3.5707962E1,-6.018915E1,-1.4984779E1,-2.8327353E1,-1.8808722E1,-4.465454E0,-3.4699745E1,2.8244755E0,-6.3024193E1,-4.1199446E0,6.57834E-1,2.8394923E0,-1.2116938E1,4.70433E0,-9.24258E1,-5.9715633E1,4.726578E-1,-5.5564167E1,-6.1692654E1,-1.06732834E2,-7.044685E1,-9.982385E1,-4.9341934E1,-7.460768E1,-1.8771538E1,-4.6236267E1,4.398544E-2,1.029157E-2,3.3794763E-3,-5.463645E-2,1.0149394E-1,5.5727433E-2,5.7591133E-2,6.0185534E-3,5.9316415E-1,2.7295885E0,7.432908E-2,1.0656383E0,2.3822752E-1,4.1482204E-1,7.0518947E-1,1.54202E-1,-3.4803387E-2,-8.586036E-2,1.6490908E-2,-3.126097E-2,4.6005595E-1,8.7812024E-1,7.284879E-2,8.4339195E-1,-1.1514219E-1,-1.9395782E-1,-4.6885364E-2,-1.1003626E-1,9.1745116E-2,1.5900078E0,3.168037E-1,6.784915E-1,-3.7630215E-2,-1.9462462E-1,2.628825E-1,9.7864294E-1,-1.1427573E-1,-1.9268624E-1,-2.3630176E-1,-4.132805E-1,2.4552655E-1,9.9854106E-1,4.508401E-1,-1.4574288E-1,7.113627E-1,-5.4674547E-2,1.7750136E0,2.2600494E-1,-2.5155768E-1,-3.5326466E-1,-1.2984714E-2,1.3773177E0,-4.2457741E-1,-5.8743036E-1,1.6854255E0,-2.3926178E-1,-6.010265E-1,-8.076082E-1,-6.762584E-1,1.3326218E-2,-1.0733461E0,-5.0765646E-1,-9.8820424E-1,1.417387E-1,-8.864778E-1,-5.7855374E-1,-1.2391697E0,-9.351844E-1,-1.076454E0,-1.9148592E0,-8.346833E-1,-2.3171396E0,-5.469931E-1,2.8858247E-1,-4.3604484E-1,-1.0461588E0,-4.906681E-1,-1.6031884E0,-7.7900924E-2,-6.7700726E-1,-1.5760744E0,3.1468382E-3,8.744111E-1,-4.1232336E-1,-1.3248105E0,-2.8579319E0,4.0900436E-1,-1.362218E0,-1.0025972E0,1.437295E-1,-4.6851227E-1,3.954792E-1,-1.3841348E0,-3.2501853E0,6.866078E-1,-2.022349E0,-1.591272E0,-2.1842685E0,-2.0913582E0,-8.02233E-1,-3.3131547E0,-5.40605E0,-2.719927E0,-2.1623325E0,-2.278993E0,-4.711662E0,-1.475701E0,-2.202181E0,-3.0794623E0,-1.0222751E0,-5.9541307E-2,-1.412002E0,-1.9100289E0,-1.0098327E0],"categories":[],"categories_nodes":[],"categories_segments":[],"categories_sizes":[],"default_left":[0,0,0,0,0,0,0,0,0,0,0,0,0,0,0,0,0,0,0,0,0,0,0,0,0,0,0,0,0,0,0,0,0,0,0,0,0,0,0,0,0,0,0,0,0,0,0,0,0,0,0,0,0,0,0,0,0,0,0,0,0,0,0,0,0,0,0,0,0,0,0,0,0,0,0,0,0,0,0,0,0,0,0,0,0,0,0,0,0,0,0,0,0,0,0,0,0,0,0,0,0,0,0,0,0,0,0,0,0,0,0,0,0,0,0,0,0,0,0,0,0,0,0,0,0,0,0,0,0,0,0,0,0,0,0,0,0,0,0,0,0,0,0,0,0,0,0,0,0,0,0,0,0,0,0,0,0,0,0,0,0,0,0,0,0,0,0,0,0,0,0,0,0,0,0,0,0,0,0,0,0,0,0,0,0,0,0,0,0,0,0,0,0,0,0,0,0,0,0,0,0,0,0,0,0,0,0,0,0,0,0,0,0,0,0,0,0,0,0,0,0,0,0,0,0,0,0,0,0,0,0,0,0,0,0,0,0],"id":3,"left_children":[1,3,5,7,9,11,13,15,17,19,21,23,25,27,29,31,33,35,37,39,41,43,45,47,49,51,53,55,57,59,61,63,65,67,69,71,73,75,77,79,81,83,85,87,89,91,93,95,97,99,101,103,105,107,109,111,113,115,117,-1,119,121,-1,123,125,127,129,131,133,135,137,139,141,143,145,147,149,151,153,155,157,159,161,163,165,167,169,171,173,175,177,179,181,183,185,187,189,191,193,195,197,199,201,203,205,207,209,-1,-1,211,213,215,217,-1,219,221,223,225,227,229,231,233,235,-1,-1,-1,-1,-1,-1,-1,-1,-1,-1,-1,-1,-1,-1,-1,-1,-1,-1,-1,-1,-1,-1,-1,-1,-1,-1,-1,-1,-1,-1,-1,-1,-1,-1,-1,-1,-1,-1,-1,-1,-1,-1,-1,-1,-1,-1,-1,-1,-1,-1,-1,-1,-1,-1,-1,-1,-1,-1,-1,-1,-1,-1,-1,-1,-1,-1,-1,-1,-1,-1,-1,-1,-1,-1,-1,-1,-1,-1,-1,-1,-1,-1,-1,-1,-1,-1,-1,-1,-1,-1,-1,-1,-1,-1,-1,-1,-1,-1,-1,-1,-1,-1,-1,-1,-1,-1,-1,-1,-1,-1,-1,-1,-1,-1],"loss_changes":[5.3364265E6,3.4934412E6,1.416241E6,8.499626E5,1.2234825E6,1.6107938E5,1.53156E5,2.7941738E5,1.5407933E5,5.233815E5,3.319125E5,6.7905E4,2.2431234E4,7.05955E4,2.2771312E4,2.4985575E5,5.6886844E4,6.2024027E4,6.1020844E4,3.9146088E5,1.6150338E5,1.012815E5,4.5028E4,8.9094E4,4.410953E3,2.8542564E4,2.5026764E4,2.984525E4,6.58585E4,1.4546031E4,3.1897281E4,1.06362016E5,1.86849E5,1.9974977E4,1.887975E4,5.6047305E4,4.9208477E3,5.4789594E4,1.374227E4,1.7248486E5,2.248705E5,1.1886807E4,1.1297509E5,2.6395562E4,3.9321625E4,2.1049812E4,1.18486875E4,2.0344875E4,5.1576625E4,2.4281836E3,5.5273906E3,1.2425264E4,1.886321E4,5.53224E3,1.2626828E4,4.4551812E4,1.1456875E4,4.2859E4,1.897575E4,0E0,6.6028125E3,1.96785E4,0E0,3.4729383E4,2.738784E4,5.6218375E4,1.16774625E5,1.4242117E4,3.0206836E3,6.065211E3,3.773961E4,1.4753086E4,2.4856436E4,5.6335664E3,2.8445063E3,1.7936375E4,2.9036203E4,6.136926E3,5.3131914E3,1.5248681E5,3.8960797E4,7.633825E4,7.292994E4,7.90159E3,5.935439E3,2.514621E4,7.463659E4,2.204675E4,2.7755896E4,2.5196062E4,4.4379426E4,1.6571562E4,8.589486E3,5.4678125E3,1.6431184E4,1.926525E4,5.4270312E3,3.7392438E4,3.4964156E4,3.9575488E3,4.991211E2,3.7352207E3,3.1946606E3,5.003251E3,1.665019E4,6.2336484E3,6.0344756E3,0E0,0E0,1.9086797E4,2.122326E4,1.9443188E4,1.6170469E4,0E0,1.3741625E4,4.7125E2,3.273025E4,1.298775E4,3.1103312E4,4.7346094E2,1.7516297E4,1.866745E4,1.0972156E4,0E0,0E0,0E0,0E0,0E0,0E0,0E0,0E0,0E0,0E0,0E0,0E0,0E0,0E0,0E0,0E0,0E0,0E0,0E0,0E0,0E0,0E0,0E0,0E0,0E0,0E0,0E0,0E0,0E0,0E0,0E0,0E0,0E0,0E0,0E0,0E0,0E0,0E0,0E0,0E0,0E0,0E0,0E0,0E0,0E0,0E0,0E0,0E0,0E0,0E0,0E0,0E0,0E0,0E0,0E0,0E0,0E0,0E0,0E0,0E0,0E0,0E0,0E0,0E0,0E0,0E0,0E0,0E0,0E0,0E0,0E0,0E0,0E0,0E0,0E0,0E0,0E0,0E0,0E0,0E0,0E0,0E0,0E0,0E0,0E0,0E0,0E0,0E0,0E0,0E0,0E0,0E0,0E0,0E0,0E0,0E0,0E0,0E0,0E0,0E0,0E0,0E0,0E0,0E0,0E0,0E0,0E0,0E0,0E0,0E0,0E0,0E0,0E0,0E0],"parents":[2147483647,0,0,1,1,2,2,3,3,4,4,5,5,6,6,7,7,8,8,9,9,10,10,11,11,12,12,13,13,14,14,15,15,16,16,17,17,18,18,19,19,20,20,21,21,22,22,23,23,24,24,25,25,26,26,27,27,28,28,29,29,30,30,31,31,32,32,33,33,34,34,35,35,36,36,37,37,38,38,39,39,40,40,41,41,42,42,43,43,44,44,45,45,46,46,47,47,48,48,49,49,50,50,51,51,52,52,53,53,54,54,55,55,56,56,57,57,58,58,60,60,61,61,63,63,64,64,65,65,66,66,67,67,68,68,69,69,70,70,71,71,72,72,73,73,74,74,75,75,76,76,77,77,78,78,79,79,80,80,81,81,82,82,83,83,84,84,85,85,86,86,87,87,88,88,89,89,90,90,91,91,92,92,93,93,94,94,95,95,96,96,97,97,98,98,99,99,100,100,101,101,102,102,103,103,104,104,105,105,106,106,109,109,110,110,111,111,112,112,114,114,115,115,116,116,117,117,118,118,119,119,120,120,121,121,122,122],"right_children":[2,4,6,8,10,12,14,16,18,20,22,24,26,28,30,32,34,36,38,40,42,44,46,48,50,52,54,56,58,60,62,64,66,68,70,72,74,76,78,80,82,84,86,88,90,92,94,96,98,100,102,104,106,108,110,112,114,116,118,-1,120,122,-1,124,126,128,130,132,134,136,138,140,142,144,146,148,150,152,154,156,158,160,162,164,166,168,170,172,174,176,178,180,182,184,186,188,190,192,194,196,198,200,202,204,206,208,210,-1,-1,212,214,216,218,-1,220,222,224,226,228,230,232,234,236,-1,-1,-1,-1,-1,-1,-1,-1,-1,-1,-1,-1,-1,-1,-1,-1,-1,-1,-1,-1,-1,-1,-1,-1,-1,-1,-1,-1,-1,-1,-1,-1,-1,-1,-1,-1,-1,-1,-1,-1,-1,-1,-1,-1,-1,-1,-1,-1,-1,-1,-1,-1,-1,-1,-1,-1,-1,-1,-1,-1,-1,-1,-1,-1,-1,-1,-1,-1,-1,-1,-1,-1,-1,-1,-1,-1,-1,-1,-1,-1,-1,-1,-1,-1,-1,-1,-1,-1,-1,-1,-1,-1,-1,-1,-1,-1,-1,-1,-1,-1,-1,-1,-1,-1,-1,-1,-1,-1,-1,-1,-1,-1,-1,-1],"split_conditions":[3.679759E1,1.0803116E1,1.98E1,2.1E0,8.6E0,6.8E1,1.9755783E5,7.1375E-1,8.033142E0,7.1375E-1,1.98E1,4.2041665E-1,6.4375E-2,1.50625E-1,-8.660254E-1,-1E0,-7.8E0,7.1375E-1,5.1125E-1,-4E-1,-2.4492937E-16,1.773107E1,2.8686113E1,1.5875E-1,-2.4492937E-16,-4.65E0,2.594654E5,-1E-1,2.5041667E-1,-7.3E0,7.1375E-1,7.87803E0,-1.1E0,1E-1,5.250119E3,-1E0,5E-1,-1.2E0,7.1375E-1,2.16E2,1.717833E1,1.773107E1,6E0,5.1125E-1,7.1375E-1,2.4153514E5,4.2E1,4.7E0,5.8960223E4,-6E-1,-1.98E1,-9E-1,7E-1,-3E0,-8.660254E-1,7.7083334E-2,-8.1E0,-8.660254E-1,5E-1,2.952431E-1,9.458333E-2,6.5E-2,1.870939E0,0E0,-2.3E0,1.7E0,7.401912E0,-2.4492937E-16,-1.1E0,-6E-1,5E-1,3.65E0,4E0,-2.4492937E-16,1.5E0,5.5E0,5.35E0,1.09E2,8E0,2.0109386E1,-4E-1,6E-1,2E-1,4.2E1,-8.660254E-1,2.521831E1,2.521831E1,1.17E1,2E1,3E-1,-8E-1,2.1336351E1,-8E-1,7.1375E-1,7E-1,-5E-1,-5E-1,8.6E0,-5E-1,-5.6E0,-1.1E0,8.9E0,1.03E1,2.5E0,1E-1,5.9583332E-2,1.8E0,6.57834E-1,2.8394923E0,1.13266E6,-7E-1,-2.5E0,-7.1E0,4.726578E-1,3E-1,2.9E1,1.05945555E5,2.8375E-1,7.1375E-1,2.4E0,1.4E0,9E-1,1.13266E6,4.398544E-2,1.029157E-2,3.3794763E-3,-5.463645E-2,1.0149394E-1,5.5727433E-2,5.7591133E-2,6.0185534E-3,5.9316415E-1,2.7295885E0,7.432908E-2,1.0656383E0,2.3822752E-1,4.1482204E-1,7.0518947E-1,1.54202E-1,-3.4803387E-2,-8.586036E-2,1.6490908E-2,-3.126097E-2,4.6005595E-1,8.7812024E-1,7.284879E-2,8.4339195E-1,-1.1514219E-1,-1.9395782E-1,-4.6885364E-2,-1.1003626E-1,9.1745116E-2,1.5900078E0,3.168037E-1,6.784915E-1,-3.7630215E-2,-1.9462462E-1,2.628825E-1,9.7864294E-1,-1.1427573E-1,-1.9268624E-1,-2.3630176E-1,-4.132805E-1,2.4552655E-1,9.9854106E-1,4.508401E-1,-1.4574288E-1,7.113627E-1,-5.4674547E-2,1.7750136E0,2.2600494E-1,-2.5155768E-1,-3.5326466E-1,-1.2984714E-2,1.3773177E0,-4.2457741E-1,-5.8743036E-1,1.6854255E0,-2.3926178E-1,-6.010265E-1,-8.076082E-1,-6.762584E-1,1.3326218E-2,-1.0733461E0,-5.0765646E-1,-9.8820424E-1,1.417387E-1,-8.864778E-1,-5.7855374E-1,-1.2391697E0,-9.351844E-1,-1.076454E0,-1.9148592E0,-8.346833E-1,-2.3171396E0,-5.469931E-1,2.8858247E-1,-4.3604484E-1,-1.0461588E0,-4.906681E-1,-1.6031884E0,-7.7900924E-2,-6.7700726E-1,-1.5760744E0,3.1468382E-3,8.744111E-1,-4.1232336E-1,-1.3248105E0,-2.8579319E0,4.0900436E-1,-1.362218E0,-1.0025972E0,1.437295E-1,-4.6851227E-1,3.954792E-1,-1.3841348E0,-3.2501853E0,6.866078E-1,-2.022349E0,-1.591272E0,-2.1842685E0,-2.0913582E0,-8.02233E-1,-3.3131547E0,-5.40605E0,-2.719927E0,-2.1623325E0,-2.278993E0,-4.711662E0,-1.475701E0,-2.202181E0,-3.0794623E0,-1.0222751E0,-5.9541307E-2,-1.412002E0,-1.9100289E0,-1.0098327E0],"split_indices":[1,1,9,9,9,12,14,15,1,15,9,15,15,15,2,10,9,15,15,9,2,1,1,15,2,9,14,11,15,11,15,1,9,8,14,10,2,10,15,12,1,1,12,15,15,14,12,9,14,9,9,10,10,11,2,15,10,2,2,0,15,15,0,9,9,8,1,2,10,10,2,9,9,2,8,9,9,12,12,1,10,8,8,12,2,1,1,9,12,8,10,1,10,15,11,2,2,9,10,9,10,11,9,11,10,15,10,0,0,14,10,10,10,0,8,12,14,15,15,11,11,10,14,0,0,0,0,0,0,0,0,0,0,0,0,0,0,0,0,0,0,0,0,0,0,0,0,0,0,0,0,0,0,0,0,0,0,0,0,0,0,0,0,0,0,0,0,0,0,0,0,0,0,0,0,0,0,0,0,0,0,0,0,0,0,0,0,0,0,0,0,0,0,0,0,0,0,0,0,0,0,0,0,0,0,0,0,0,0,0,0,0,0,0,0,0,0,0,0,0,0,0,0,0,0,0,0,0,0,0,0,0,0,0,0,0,0],"split_type":[0,0,0,0,0,0,0,0,0,0,0,0,0,0,0,0,0,0,0,0,0,0,0,0,0,0,0,0,0,0,0,0,0,0,0,0,0,0,0,0,0,0,0,0,0,0,0,0,0,0,0,0,0,0,0,0,0,0,0,0,0,0,0,0,0,0,0,0,0,0,0,0,0,0,0,0,0,0,0,0,0,0,0,0,0,0,0,0,0,0,0,0,0,0,0,0,0,0,0,0,0,0,0,0,0,0,0,0,0,0,0,0,0,0,0,0,0,0,0,0,0,0,0,0,0,0,0,0,0,0,0,0,0,0,0,0,0,0,0,0,0,0,0,0,0,0,0,0,0,0,0,0,0,0,0,0,0,0,0,0,0,0,0,0,0,0,0,0,0,0,0,0,0,0,0,0,0,0,0,0,0,0,0,0,0,0,0,0,0,0,0,0,0,0,0,0,0,0,0,0,0,0,0,0,0,0,0,0,0,0,0,0,0,0,0,0,0,0,0,0,0,0,0,0,0,0,0,0,0,0,0,0,0,0,0,0,0],"sum_hessian":[9.18077E5,9.1452E5,3.557E3,7.63902E5,1.50618E5,2.453E3,1.104E3,6.16733E5,1.47169E5,1.3385E5,1.6768E4,2.154E3,2.99E2,9.18E2,1.86E2,6.15078E5,1.655E3,9.1185E4,5.5984E4,1.32725E5,1.125E3,1.4321E4,2.447E3,1.905E3,2.49E2,7.9E1,2.2E2,4.11E2,5.07E2,6.9E1,1.17E2,1.7394E5,4.41138E5,5.2E1,1.603E3,9.091E4,2.75E2,5.5201E4,7.83E2,6.2526E4,7.0199E4,5.24E2,6.01E2,9.833E3,4.488E3,1.829E3,6.18E2,1.232E3,6.73E2,1.17E2,1.32E2,5.4E1,2.5E1,6E0,2.14E2,1.93E2,2.18E2,1.66E2,3.41E2,3E0,6.6E1,1.14E2,3E0,1.36073E5,3.7867E4,1.62698E5,2.7844E5,2.2E1,3E1,8.78E2,7.25E2,2.7807E4,6.3103E4,2.28E2,4.7E1,1.5508E4,3.9693E4,4.9E2,2.93E2,6.2183E4,3.43E2,5.9591E4,1.0608E4,3.7E2,1.54E2,3.57E2,2.44E2,9.697E3,1.36E2,4.429E3,5.9E1,1.736E3,9.3E1,5.61E2,5.7E1,9.2E2,3.12E2,5.69E2,1.04E2,1E2,1.7E1,3.7E1,9.5E1,1E1,4.4E1,1.7E1,8E0,3E0,3E0,6.2E1,1.52E2,7.6E1,1.17E2,2E0,2.16E2,3.1E1,1.35E2,3.11E2,3E1,4.2E1,2.4E1,4.5E1,6.9E1,7.7826E4,5.8247E4,1.4144E4,2.3723E4,1.24496E5,3.8202E4,2.17126E5,6.1314E4,5E0,1.7E1,4E0,2.6E1,3.76E2,5.02E2,5.44E2,1.81E2,1.8585E4,9.222E3,4.725E4,1.5853E4,1.83E2,4.5E1,4.2E1,5E0,1.1119E4,4.389E3,2.8743E4,1.095E4,4.88E2,2E0,2.38E2,5.5E1,5.4496E4,7.687E3,1.42E2,2.01E2,3.8843E4,2.0748E4,6.403E3,4.205E3,3.55E2,1.5E1,2E1,1.34E2,3.02E2,5.5E1,2.03E2,4.1E1,5.811E3,3.886E3,1.19E2,1.7E1,2.748E3,1.681E3,1.8E1,4.1E1,8.74E2,8.62E2,2.7E1,6.6E1,5.39E2,2.2E1,3.4E1,2.3E1,5.15E2,4.05E2,1.29E2,1.83E2,5.02E2,6.7E1,2.4E1,8E1,9.4E1,6E0,4E0,1.3E1,3.4E1,3E0,8.5E1,1E1,7E0,3E0,1.7E1,2.7E1,1E1,7E0,6E0,2E0,2.9E1,3.3E1,4.2E1,1.1E2,9E0,6.7E1,2E0,1.15E2,1.31E2,8.5E1,2.9E1,2E0,1.24E2,1.1E1,8.6E1,2.25E2,1.9E1,1.1E1,3.6E1,6E0,1.6E1,8E0,2.7E1,1.8E1,3.8E1,3.1E1],"tree_param":{"num_deleted":"0","num_feature":"19","num_nodes":"237","size_leaf_vector":"1"}},{"base_weights":[2.9422985E-3,1.7336865E-1,-4.372918E1,1.1931771E0,-4.9931855E0,-3.3886333E1,-5.2021797E1,1.9141537E0,-4.4524562E-1,-3.8867838E0,-1.1601742E1,-4.59565E1,-3.015127E1,-6.0758144E1,-4.5350765E1,1.1781873E0,2.4299939E0,-2.1364117E0,-4.9117353E-2,-2.9688106E0,-5.67991E0,-1.1939228E1,1.3532613E1,-3.313096E1,-5.1802246E1,-3.252598E1,-9.081334E0,-5.7367504E1,-8.7811745E1,-4.2355976E1,-5.444487E1,1.7080803E0,4.874659E-1,3.621328E0,1.9817618E0,-1.5216565E0,-2.8957455E0,-5.4832524E-1,8.1963736E-1,-5.1575203E0,-2.5575075E0,-5.855892E-1,-6.185077E0,-9.913834E0,-1.6011194E1,2.4122437E1,7.827746E0,-3.9367836E1,-1.6964952E1,-7.440931E1,-4.798878E1,-3.4746635E1,-2.4298113E1,-3.0204432E1,-1.6090573E-1,-5.493568E1,-7.379956E1,-7.694852E1,-1.3057233E2,-4.3888245E1,-2.8730383E1,-1.01692444E2,-4.8088722E1,1.6746473E0,1.4203293E1,-6.719161E-1,8.771241E-1,4.7197766E0,2.971181E0,1.6230198E0,2.982017E0,-7.08434E-1,-2.0083334E0,-2.9464388E0,1.049004E1,-7.3108934E-3,-1.2936642E0,7.584671E-1,1.6054485E1,-4.5597005E0,-6.1480117E0,-1.8714828E0,-3.9539144E0,-3.222899E0,3.0687535E0,-4.8554096E0,-7.7471986E0,-8.480706E0,-1.2671864E1,-1.187778E1,-1.7631685E1,3.6255856E1,1.2225129E1,1.1009989E1,-3.496478E0,-5.0044044E1,-2.8532082E1,-2.7601284E1,3.1042889E1,-4.2417286E1,-8.863794E1,-4.545401E1,-7.6626915E1,-3.7227905E1,-2.5261744E1,-2.1074532E1,-3.093209E1,1.0109679E0,-3.629457E1,9.217745E0,-1.3484228E1,-5.0137054E1,-6.206948E1,-8.550922E1,-5.6146545E1,-6.277954E1,-9.503418E1,-1.4431602E2,-6.048819E-1,-4.6479027E1,-3.213698E1,-1.5803097E1,-4.423568E1,-1.2334889E0,-1.1563267E2,-5.6671104E1,-4.2428802E1,7.714896E-2,4.0966637E-2,6.8272126E-1,1.8056017E-1,1.331224E-2,-3.1045297E-2,1.7590484E-2,5.7391547E-2,1.5416403E-1,1.2699158E0,8.698782E-2,1.3701716E-1,6.46514E-2,3.7601385E-2,9.671599E-2,6.5808046E-1,-2.7195536E-2,7.5223304E-2,-8.773006E-2,-5.0693527E-2,-1.25773E-1,-8.003172E-2,3.531242E-2,6.479204E-1,3.2253675E-2,-1.0870926E-2,-2.6100127E-2,-7.6387525E-2,4.1950975E-2,-1.3643681E-3,1.8177894E0,4.2750376E-1,-1.3227266E-1,-1.8247196E-1,-2.0520894E-1,2.5722614E-1,-6.445398E-2,3.2610044E-1,-1.4498036E-1,-8.9894496E-2,4.0754627E-2,-1.548191E-1,-2.6733458E-1,1.2641124E-1,-1.6503607E-1,4.0374163E-1,-2.2939996E-1,-3.078948E-1,-1.6685842E-1,-3.1540233E-1,-3.7459272E-1,-4.6330816E-1,-3.1002918E-1,-5.9785163E-1,-5.063558E-1,-6.614332E-1,1.3541974E0,2.1867865E-1,3.261855E-2,9.950955E-1,3.2516405E-2,5.0895786E-1,2.9641557E-2,-3.5290253E-1,-8.451487E-2,-1.809998E0,-1.1318743E0,-3.0800846E-1,-1.2849172E0,-3.2282782E-1,2.6546698E0,-8.6194307E-1,-1.5687438E0,-3.1361085E-1,-3.198939E0,-1.5702344E0,-1.636644E0,-1.1112604E0,-1.0505543E0,-2.7703917E0,-1.1994107E0,-1.815229E0,-7.107943E-1,-1.0991809E0,-2.3682863E-1,-7.4963874E-1,-1.1810799E0,-6.1750555E-1,-2.1548307E-1,-1.2830718E0,4.6120852E-1,-1.028866E0,-9.3483573E-1,-2.6071948E-1,-1.464339E0,-1.8326304E0,-2.0926979E0,-3.9904988E-1,-8.857121E-1,-2.918325E0,-1.5399328E0,-2.5377688E0,-2.5164092E0,-1.390049E0,-3.6246734E0,-1.7477158E0,-1.7727548E0,-5.362118E0,-1.5713882E0,-8.3024144E-1,-6.449801E-1,-1.6059897E0,-6.593983E-1,4.0007448E-1,-1.9437739E0,-9.523627E-1,-2.173857E0,-4.765635E0,-2.1065161E0,-1.2840152E0,-2.4997145E-1,-1.4386184E0],"categories":[],"categories_nodes":[],"categories_segments":[],"categories_sizes":[],"default_left":[0,0,0,0,0,0,0,0,0,0,0,0,0,0,0,0,0,0,0,0,0,0,0,0,0,0,0,0,0,0,0,0,0,0,0,0,0,0,0,0,0,0,0,0,0,0,0,0,0,0,0,0,0,0,0,0,0,0,0,0,0,0,0,0,0,0,0,0,0,0,0,0,0,0,0,0,0,0,0,0,0,0,0,0,0,0,0,0,0,0,0,0,0,0,0,0,0,0,0,0,0,0,0,0,0,0,0,0,0,0,0,0,0,0,0,0,0,0,0,0,0,0,0,0,0,0,0,0,0,0,0,0,0,0,0,0,0,0,0,0,0,0,0,0,0,0,0,0,0,0,0,0,0,0,0,0,0,0,0,0,0,0,0,0,0,0,0,0,0,0,0,0,0,0,0,0,0,0,0,0,0,0,0,0,0,0,0,0,0,0,0,0,0,0,0,0,0,0,0,0,0,0,0,0,0,0,0,0,0,0,0,0,0,0,0,0,0,0,0,0,0,0,0,0,0,0,0,0,0,0,0,0,0,0,0,0,0,0,0,0,0,0,0,0,0,0,0,0,0],"id":4,"left_children":[1,3,5,7,9,11,13,15,17,19,21,23,25,27,29,31,33,35,37,39,41,43,45,47,49,51,53,55,57,59,61,63,65,67,69,71,73,75,77,79,81,83,85,87,89,91,93,95,97,99,101,103,105,107,109,111,113,115,117,119,121,123,125,127,129,131,133,135,137,139,141,143,145,147,149,151,153,155,157,159,161,163,165,167,169,171,173,175,177,179,181,183,185,187,189,191,193,195,197,199,201,203,205,207,209,211,213,-1,215,217,219,221,223,225,227,229,231,233,-1,235,237,239,241,-1,243,245,247,-1,-1,-1,-1,-1,-1,-1,-1,-1,-1,-1,-1,-1,-1,-1,-1,-1,-1,-1,-1,-1,-1,-1,-1,-1,-1,-1,-1,-1,-1,-1,-1,-1,-1,-1,-1,-1,-1,-1,-1,-1,-1,-1,-1,-1,-1,-1,-1,-1,-1,-1,-1,-1,-1,-1,-1,-1,-1,-1,-1,-1,-1,-1,-1,-1,-1,-1,-1,-1,-1,-1,-1,-1,-1,-1,-1,-1,-1,-1,-1,-1,-1,-1,-1,-1,-1,-1,-1,-1,-1,-1,-1,-1,-1,-1,-1,-1,-1,-1,-1,-1,-1,-1,-1,-1,-1,-1,-1,-1,-1,-1,-1,-1,-1,-1,-1,-1,-1,-1,-1,-1,-1],"loss_changes":[6.844627E6,4.81996E6,2.89223E5,9.024786E5,1.102576E6,7.22345E4,1.099005E5,2.0141E5,1.5639845E5,2.1261412E5,1.8360425E5,2.7074125E4,6.2248375E4,7.146425E4,2.765225E4,8.001703E4,1.6655262E5,2.0677828E4,8.203449E4,7.6901875E4,1.12555375E5,1.7583925E5,1.714986E4,1.1733641E4,1.9016562E4,1.9674375E4,2.4113805E4,2.5676E4,3.2223812E4,1.61095E4,7.5893875E4,5.165803E4,4.2877383E4,6.08825E4,8.132225E4,9.6895625E3,1.34808125E4,4.843989E4,6.4316363E4,7.9746875E3,6.889553E4,3.804963E4,8.2614375E4,5.6232875E4,4.72605E4,1.3992273E4,6.8133457E3,8.752406E3,1.9239408E4,1.2627516E4,1.2995156E4,1.9817125E4,4.5233438E3,1.519177E4,1.1495179E4,1.9207625E4,1.44230625E4,1.3252906E4,2.3579406E4,2.1218375E4,1.6739336E4,2.3470906E4,9.205125E3,3.5448156E4,1.8573898E4,6.902632E3,2.1068414E4,5.1346875E4,2.1191969E4,2.7112094E4,5.1922E4,3.170898E3,4.6982383E3,8.892656E3,6.4391406E3,2.2077719E4,2.5934852E4,2.819725E4,3.2678625E4,4.486922E3,5.041703E3,4.6316734E4,1.2792906E4,1.5017613E4,1.41153545E4,5.358528E4,2.2978125E4,3.4555E4,8.640625E3,3.0796312E4,2.7768625E4,6.668449E3,1.0446413E4,6.4878633E3,1.3381108E3,9.668961E3,4.773004E3,5.6786367E3,2.1868582E4,1.7391582E3,3.5652031E3,8.622875E3,2.9046328E3,8.932E3,4.8540625E3,3.6246875E3,3.9014844E3,0E0,2.4405312E3,1.081523E4,2.92579E3,9.8221875E3,1.65835E4,6.8929062E3,4.2834844E3,9.314016E3,1.3491719E4,1.5966406E4,0E0,1.3588125E4,2.777214E4,5.9603496E3,7.095242E3,0E0,2.6288531E4,9.2205625E3,5.6828438E3,0E0,0E0,0E0,0E0,0E0,0E0,0E0,0E0,0E0,0E0,0E0,0E0,0E0,0E0,0E0,0E0,0E0,0E0,0E0,0E0,0E0,0E0,0E0,0E0,0E0,0E0,0E0,0E0,0E0,0E0,0E0,0E0,0E0,0E0,0E0,0E0,0E0,0E0,0E0,0E0,0E0,0E0,0E0,0E0,0E0,0E0,0E0,0E0,0E0,0E0,0E0,0E0,0E0,0E0,0E0,0E0,0E0,0E0,0E0,0E0,0E0,0E0,0E0,0E0,0E0,0E0,0E0,0E0,0E0,0E0,0E0,0E0,0E0,0E0,0E0,0E0,0E0,0E0,0E0,0E0,0E0,0E0,0E0,0E0,0E0,0E0,0E0,0E0,0E0,0E0,0E0,0E0,0E0,0E0,0E0,0E0,0E0,0E0,0E0,0E0,0E0,0E0,0E0,0E0,0E0,0E0,0E0,0E0,0E0,0E0,0E0,0E0,0E0,0E0,0E0,0E0,0E0,0E0,0E0,0E0,0E0,0E0],"parents":[2147483647,0,0,1,1,2,2,3,3,4,4,5,5,6,6,7,7,8,8,9,9,10,10,11,11,12,12,13,13,14,14,15,15,16,16,17,17,18,18,19,19,20,20,21,21,22,22,23,23,24,24,25,25,26,26,27,27,28,28,29,29,30,30,31,31,32,32,33,33,34,34,35,35,36,36,37,37,38,38,39,39,40,40,41,41,42,42,43,43,44,44,45,45,46,46,47,47,48,48,49,49,50,50,51,51,52,52,53,53,54,54,55,55,56,56,57,57,58,58,59,59,60,60,61,61,62,62,63,63,64,64,65,65,66,66,67,67,68,68,69,69,70,70,71,71,72,72,73,73,74,74,75,75,76,76,77,77,78,78,79,79,80,80,81,81,82,82,83,83,84,84,85,85,86,86,87,87,88,88,89,89,90,90,91,91,92,92,93,93,94,94,95,95,96,96,97,97,98,98,99,99,100,100,101,101,102,102,103,103,104,104,105,105,106,106,108,108,109,109,110,110,111,111,112,112,113,113,114,114,115,115,116,116,117,117,119,119,120,120,121,121,122,122,124,124,125,125,126,126],"right_children":[2,4,6,8,10,12,14,16,18,20,22,24,26,28,30,32,34,36,38,40,42,44,46,48,50,52,54,56,58,60,62,64,66,68,70,72,74,76,78,80,82,84,86,88,90,92,94,96,98,100,102,104,106,108,110,112,114,116,118,120,122,124,126,128,130,132,134,136,138,140,142,144,146,148,150,152,154,156,158,160,162,164,166,168,170,172,174,176,178,180,182,184,186,188,190,192,194,196,198,200,202,204,206,208,210,212,214,-1,216,218,220,222,224,226,228,230,232,234,-1,236,238,240,242,-1,244,246,248,-1,-1,-1,-1,-1,-1,-1,-1,-1,-1,-1,-1,-1,-1,-1,-1,-1,-1,-1,-1,-1,-1,-1,-1,-1,-1,-1,-1,-1,-1,-1,-1,-1,-1,-1,-1,-1,-1,-1,-1,-1,-1,-1,-1,-1,-1,-1,-1,-1,-1,-1,-1,-1,-1,-1,-1,-1,-1,-1,-1,-1,-1,-1,-1,-1,-1,-1,-1,-1,-1,-1,-1,-1,-1,-1,-1,-1,-1,-1,-1,-1,-1,-1,-1,-1,-1,-1,-1,-1,-1,-1,-1,-1,-1,-1,-1,-1,-1,-1,-1,-1,-1,-1,-1,-1,-1,-1,-1,-1,-1,-1,-1,-1,-1,-1,-1,-1,-1,-1,-1,-1,-1],"split_conditions":[4.21E1,1.135E1,1.98E1,7.3E0,2.115E1,-1.98E1,-5E-1,-2E-1,-1.9E0,1.52E1,2.16E2,1.25E1,6.8E1,2.48E1,6E-1,5E0,-1.8E0,9.1E0,4E0,-2.3E0,-8.660254E-1,2.81E1,-3.65E0,4.9E1,-8.660254E-1,5E-1,-8.660254E-1,6E0,1.3E1,8.660254E-1,1.07E1,1.09E2,-3.4E0,1.45E1,4E0,1.67E1,1.09E2,9.2E0,2.16E2,1.33E1,7E-1,5E0,1E-1,6E-1,1.19E1,2.81E1,-5E-1,-5E-1,6.123234E-17,3E0,1.05E1,8.660254E-1,5E-1,-9.4E0,8E-1,8E-1,-6E-1,5E-1,9.9E0,2.16E2,1.34E1,-1.8369701E-16,1.84E1,1.59E1,-5E-1,1.48E1,4E0,2.16E2,6E0,5E0,2.16E2,2.9E1,-4.3E0,-4.2E0,-3E0,1.3E1,1.6E0,9.4E0,-1.48E1,2.13E1,1.09E2,1.09E2,3E0,-1.2E0,-2.6E0,2.16E2,1.82E1,1.12E1,2.365E1,1E-1,3.225E1,-5E-1,1.39E1,-9E-1,1.74E1,6.5E0,5E-1,-8.660254E-1,8.9E0,2.19E1,1.8E0,1.99E1,1.37E1,3.2E0,2E-1,-5E-1,2.23E1,1.0109679E0,-7E-1,1E-1,-4.65E0,3E-1,4.9E1,-4.1E0,9E0,2.77E1,1.2E0,-2.4492937E-16,-6.048819E-1,2.92E1,-1.8369701E-16,1.24E1,-1.1E0,-1.2334889E0,2.6E0,-2.4492937E-16,-7.1E0,7.714896E-2,4.0966637E-2,6.8272126E-1,1.8056017E-1,1.331224E-2,-3.1045297E-2,1.7590484E-2,5.7391547E-2,1.5416403E-1,1.2699158E0,8.698782E-2,1.3701716E-1,6.46514E-2,3.7601385E-2,9.671599E-2,6.5808046E-1,-2.7195536E-2,7.5223304E-2,-8.773006E-2,-5.0693527E-2,-1.25773E-1,-8.003172E-2,3.531242E-2,6.479204E-1,3.2253675E-2,-1.0870926E-2,-2.6100127E-2,-7.6387525E-2,4.1950975E-2,-1.3643681E-3,1.8177894E0,4.2750376E-1,-1.3227266E-1,-1.8247196E-1,-2.0520894E-1,2.5722614E-1,-6.445398E-2,3.2610044E-1,-1.4498036E-1,-8.9894496E-2,4.0754627E-2,-1.548191E-1,-2.6733458E-1,1.2641124E-1,-1.6503607E-1,4.0374163E-1,-2.2939996E-1,-3.078948E-1,-1.6685842E-1,-3.1540233E-1,-3.7459272E-1,-4.6330816E-1,-3.1002918E-1,-5.9785163E-1,-5.063558E-1,-6.614332E-1,1.3541974E0,2.1867865E-1,3.261855E-2,9.950955E-1,3.2516405E-2,5.0895786E-1,2.9641557E-2,-3.5290253E-1,-8.451487E-2,-1.809998E0,-1.1318743E0,-3.0800846E-1,-1.2849172E0,-3.2282782E-1,2.6546698E0,-8.6194307E-1,-1.5687438E0,-3.1361085E-1,-3.198939E0,-1.5702344E0,-1.636644E0,-1.1112604E0,-1.0505543E0,-2.7703917E0,-1.1994107E0,-1.815229E0,-7.107943E-1,-1.0991809E0,-2.3682863E-1,-7.4963874E-1,-1.1810799E0,-6.1750555E-1,-2.1548307E-1,-1.2830718E0,4.6120852E-1,-1.028866E0,-9.3483573E-1,-2.6071948E-1,-1.464339E0,-1.8326304E0,-2.0926979E0,-3.9904988E-1,-8.857121E-1,-2.918325E0,-1.5399328E0,-2.5377688E0,-2.5164092E0,-1.390049E0,-3.6246734E0,-1.7477158E0,-1.7727548E0,-5.362118E0,-1.5713882E0,-8.3024144E-1,-6.449801E-1,-1.6059897E0,-6.593983E-1,4.0007448E-1,-1.9437739E0,-9.523627E-1,-2.173857E0,-4.765635E0,-2.1065161E0,-1.2840152E0,-2.4997145E-1,-1.4386184E0],"split_indices":[0,0,9,0,0,9,3,10,10,0,12,7,12,7,8,0,9,0,12,10,3,0,9,12,3,2,2,8,12,3,7,12,10,7,12,7,12,0,12,0,8,12,8,8,7,0,2,2,3,12,8,3,8,9,10,10,10,2,8,12,7,3,7,7,2,7,12,12,12,0,12,12,10,10,10,7,8,0,9,7,12,12,12,9,10,12,0,7,0,8,0,2,7,10,7,7,10,2,7,7,10,7,7,10,8,3,7,0,10,8,9,8,12,10,12,7,8,2,0,7,3,7,10,0,8,2,10,0,0,0,0,0,0,0,0,0,0,0,0,0,0,0,0,0,0,0,0,0,0,0,0,0,0,0,0,0,0,0,0,0,0,0,0,0,0,0,0,0,0,0,0,0,0,0,0,0,0,0,0,0,0,0,0,0,0,0,0,0,0,0,0,0,0,0,0,0,0,0,0,0,0,0,0,0,0,0,0,0,0,0,0,0,0,0,0,0,0,0,0,0,0,0,0,0,0,0,0,0,0,0,0,0,0,0,0,0,0,0,0,0,0,0,0,0,0,0,0,0,0],"split_type":[0,0,0,0,0,0,0,0,0,0,0,0,0,0,0,0,0,0,0,0,0,0,0,0,0,0,0,0,0,0,0,0,0,0,0,0,0,0,0,0,0,0,0,0,0,0,0,0,0,0,0,0,0,0,0,0,0,0,0,0,0,0,0,0,0,0,0,0,0,0,0,0,0,0,0,0,0,0,0,0,0,0,0,0,0,0,0,0,0,0,0,0,0,0,0,0,0,0,0,0,0,0,0,0,0,0,0,0,0,0,0,0,0,0,0,0,0,0,0,0,0,0,0,0,0,0,0,0,0,0,0,0,0,0,0,0,0,0,0,0,0,0,0,0,0,0,0,0,0,0,0,0,0,0,0,0,0,0,0,0,0,0,0,0,0,0,0,0,0,0,0,0,0,0,0,0,0,0,0,0,0,0,0,0,0,0,0,0,0,0,0,0,0,0,0,0,0,0,0,0,0,0,0,0,0,0,0,0,0,0,0,0,0,0,0,0,0,0,0,0,0,0,0,0,0,0,0,0,0,0,0,0,0,0,0,0,0,0,0,0,0,0,0,0,0,0,0,0,0],"sum_hessian":[9.18357E5,9.14793E5,3.564E3,7.63992E5,1.50801E5,1.632E3,1.932E3,5.30534E5,2.33458E5,1.29176E5,2.1625E4,3.83E2,1.249E3,8.33E2,1.099E3,2.18622E5,3.11912E5,4.4305E4,1.89153E5,8.5439E4,4.3737E4,2.1339E4,2.86E2,1.22E2,2.61E2,1.122E3,1.27E2,7.43E2,9E1,8.31E2,2.68E2,1.23713E5,9.4909E4,8.527E4,2.26642E5,2.4485E4,1.982E4,1.20126E5,6.9027E4,1.3514E4,7.1925E4,3.946E3,3.9791E4,1.4253E4,7.086E3,9.9E1,1.87E2,8.7E1,3.5E1,3.5E1,2.26E2,8.81E2,2.41E2,3.7E1,9E1,6.51E2,9.2E1,7.4E1,1.6E1,7.45E2,8.6E1,3E1,2.38E2,1.23384E5,3.29E2,2.3874E4,7.1035E4,3.1702E4,5.3568E4,1.66816E5,5.9826E4,9.168E3,1.5317E4,1.9746E4,7.4E1,6.9604E4,5.0522E4,6.8752E4,2.75E2,8.431E3,5.083E3,4.8232E4,2.3693E4,2.292E3,1.654E3,2.1497E4,1.8294E4,9.382E3,4.871E3,1.998E3,5.088E3,4.8E1,5.1E1,1.46E2,4.1E1,4.2E1,4.5E1,2.9E1,6E0,1.2E1,2.3E1,2.1E2,1.6E1,6.96E2,1.85E2,1.65E2,7.6E1,3E0,3.4E1,5.3E1,3.7E1,3.94E2,2.57E2,5.3E1,3.9E1,4.4E1,3E1,1.4E1,2E0,6.08E2,1.37E2,4.8E1,3.8E1,6E0,2.4E1,9.1E1,1.47E2,4.8751E4,7.4633E4,1.88E2,1.41E2,4.775E3,1.9099E4,5.0771E4,2.0264E4,3.1658E4,4.4E1,4.1727E4,1.1841E4,9.8412E4,6.8404E4,5.9647E4,1.79E2,8.827E3,3.41E2,6.442E3,8.875E3,7.423E3,1.2323E4,3.7E1,3.7E1,1.7156E4,5.2448E4,3.3855E4,1.6667E4,4.1893E4,2.6859E4,1.9E1,2.56E2,5.378E3,3.053E3,5.058E3,2.5E1,4.79E4,3.32E2,1.7454E4,6.239E3,5.68E2,1.724E3,1.05E2,1.549E3,2.1316E4,1.81E2,1.2178E4,6.116E3,2.246E3,7.136E3,2.483E3,2.388E3,1.431E3,5.67E2,2.615E3,2.473E3,4.1E1,7E0,3.2E1,1.9E1,4.5E1,1.01E2,2.6E1,1.5E1,4E0,3.8E1,3.4E1,1.1E1,1.7E1,1.2E1,3E0,3E0,1E1,2E0,1.8E1,5E0,1.53E2,5.7E1,3E0,1.3E1,6.66E2,3E1,1.29E2,5.6E1,1.8E1,1.47E2,5.3E1,2.3E1,3E0,3.1E1,4.8E1,5E0,9E0,2.8E1,1.95E2,1.99E2,2.5E2,7E0,3E0,5E1,2.9E1,1E1,2.5E1,1.9E1,2.1E1,9E0,3E0,1.1E1,5.76E2,3.2E1,7.9E1,5.8E1,4.2E1,6E0,1.8E1,2E1,1E1,1.4E1,6.3E1,2.8E1,5E0,1.42E2],"tree_param":{"num_deleted":"0","num_feature":"19","num_nodes":"249","size_leaf_vector":"1"}},{"base_weights":[-4.1868788E-4,-5.3235754E-2,1.3364902E1,3.7356544E-1,-9.328515E-1,7.5917535E0,2.0364437E1,1.3562198E0,-5.056007E-2,-6.498423E-1,-1.63807E0,7.3245497E0,4.7478893E1,4.681622E1,1.2707202E1,4.073457E-1,1.9105843E0,-1.12510495E-1,3.4554062E0,-6.952845E-1,1.0530553E0,-1.9262466E0,-1.0503826E0,5.5554585E0,1.2129721E1,7.603014E1,-1.3409143E1,2.8997465E1,6.8346954E1,2.1154724E1,4.9159387E-1,3.81868E-1,1.6226456E1,1.8286715E0,6.800888E0,-7.496004E-1,1.8872602E-1,3.2636614E0,2.55749E1,-8.8325894E-1,-3.21453E-1,3.0968494E0,6.585048E-1,-1.6862099E0,-2.5567393E0,-1.1951128E0,3.432616E-1,7.5746264E0,-2.3141725E0,1.5750631E1,1.3386E0,4.3141068E1,9.3713196E1,-1.3600295E0,6.225265E-1,1.8861187E1,3.5090523E1,8.5349205E1,4.018171E1,1.9362148E0,5.564042E1,1.4358864E0,-4.7716488E1,2.862623E-1,2.5016685E0,2.392066E0,1.4513421E1,9.2207557E-1,2.0865042E0,5.8870215E0,2.5628164E1,-3.8323137E-1,-1.1570427E0,1.3992284E-1,4.3431396E0,2.6832983E0,5.881944E0,3.5844032E1,-1.3660868E1,-7.715466E-1,-1.4698491E0,9.102592E-1,-4.589006E-1,1.979947E0,8.107338E0,5.855748E-1,6.0300773E-1,-1.6726278E0,-8.53586E0,-2.4716756E0,-4.113668E0,3.9267533E-2,-1.3606359E0,-2.576039E-1,8.758359E-1,6.1657367E0,1.5417637E1,-1.5551362E1,5.7558236E0,1.3235772E1,2.6337751E1,4.0507646E0,-1.0648467E1,2.2282279E0,1.4453079E-1,1.2776995E0,3.8765264E0,1.655412E0,1.6940222E1,4.376177E1,2.120842E1,9.1847885E1,1.4743836E0,1.3959265E-1,4.1273212E1,-3.3654183E-1,6.512241E0,3.4906303E1,7.1965614E1,-3.8992758E0,5.729106E0,-3.4630964E0,-8.199373E0,-1.0521225E-2,1.8108161E-2,-5.5452745E-4,1.8864052E-1,1.0443709E0,2.960505E-1,2.145918E-2,6.0436662E-2,6.725579E-2,1.964886E-1,2.0878201E-2,2.6361322E-1,2.3074894E0,3.6036995E-1,-1.3438834E-2,3.2135618E-1,-4.677926E-2,-2.8708497E-2,2.1386513E-2,-5.885676E-3,1.0203333E-1,2.6348406E-1,1.0061496E-1,-2.9671915E-2,2.657241E-1,4.9140546E-2,2.038828E0,7.695629E-1,3.189201E-2,-1.0997248E0,-1.1199443E-2,-3.325057E-2,-2.0289792E-2,-9.391827E-2,7.955173E-2,1.2297072E-2,-3.6896545E-2,-8.999947E-3,6.0424358E-2,7.6969874E-1,1.9310011E-1,5.158285E-1,-6.289852E-3,5.670332E-2,-5.7490718E-2,-1.6435074E-2,-4.6647746E-2,-1.3283994E0,-8.88495E-2,-5.6329E-2,-1.5184247E-1,-2.3817074E-2,-5.785507E-3,1.736768E-1,-4.9056657E-2,1.1707996E-2,1.2465827E-2,-8.319746E-2,-1.0934859E-2,3.8880553E-2,3.3265156E-1,8.863579E-2,2.0458515E-1,6.591168E-1,-8.62049E-2,-9.5414454E-1,1.5759854E-1,3.57379E-1,2.60181E-1,5.349618E-1,1.3328186E0,5.121759E-1,-1.5811309E-1,2.1694306E-1,-2.3831859E-1,-1.1012193E0,6.235631E-1,1.682509E-1,2.7912037E0,1.1977465E0,3.7928078E-1,8.841379E-1,2.2376103E0,3.1651876E0,1.5272834E0,9.0760654E-1,9.037157E-2,-5.0691042E-2,1.6068427E-1,4.186984E-1,1.5537766E0,9.881174E-1,2.9844463E0,8.5235465E-1,-1.1038006E-2,-7.995806E-1,2.6567357E-2,2.953334E-1,-6.527071E-1,1.2813193E-2],"categories":[],"categories_nodes":[],"categories_segments":[],"categories_sizes":[],"default_left":[0,0,0,0,0,0,0,0,0,0,0,0,0,0,0,0,0,0,0,0,0,0,0,0,0,0,0,0,0,0,0,0,0,0,0,0,0,0,0,0,0,0,0,0,0,0,0,0,0,0,0,0,0,0,0,0,0,0,0,0,0,0,0,0,0,0,0,0,0,0,0,0,0,0,0,0,0,0,0,0,0,0,0,0,0,0,0,0,0,0,0,0,0,0,0,0,0,0,0,0,0,0,0,0,0,0,0,0,0,0,0,0,0,0,0,0,0,0,0,0,0,0,0,0,0,0,0,0,0,0,0,0,0,0,0,0,0,0,0,0,0,0,0,0,0,0,0,0,0,0,0,0,0,0,0,0,0,0,0,0,0,0,0,0,0,0,0,0,0,0,0,0,0,0,0,0,0,0,0,0,0,0,0,0,0,0,0,0,0,0,0,0,0,0,0,0,0,0,0,0,0,0,0,0,0,0,0,0,0,0,0,0,0,0,0,0,0,0,0,0,0,0,0],"id":5,"left_children":[1,3,5,7,9,11,13,15,17,19,21,23,25,27,29,31,33,35,37,39,41,43,45,47,49,51,53,55,57,59,61,63,65,67,69,71,73,75,77,79,81,83,85,87,89,91,93,95,97,99,101,103,105,-1,-1,107,109,111,113,115,117,119,121,123,125,-1,127,129,131,133,135,137,139,141,143,145,147,149,151,153,155,157,159,161,163,-1,165,167,169,171,173,175,177,179,181,183,185,187,189,191,193,195,197,-1,-1,-1,-1,-1,199,201,203,205,-1,-1,207,209,211,213,215,217,219,-1,221,-1,-1,-1,-1,-1,-1,-1,-1,-1,-1,-1,-1,-1,-1,-1,-1,-1,-1,-1,-1,-1,-1,-1,-1,-1,-1,-1,-1,-1,-1,-1,-1,-1,-1,-1,-1,-1,-1,-1,-1,-1,-1,-1,-1,-1,-1,-1,-1,-1,-1,-1,-1,-1,-1,-1,-1,-1,-1,-1,-1,-1,-1,-1,-1,-1,-1,-1,-1,-1,-1,-1,-1,-1,-1,-1,-1,-1,-1,-1,-1,-1,-1,-1,-1,-1,-1,-1,-1,-1,-1,-1,-1,-1,-1,-1,-1,-1,-1,-1,-1],"loss_changes":[6.477678E5,3.4314044E5,1.4580394E5,2.5648375E5,5.959553E4,2.076575E4,3.2996256E5,9.759631E4,9.336714E4,1.6490492E4,1.4480422E4,1.6670664E4,2.361909E4,1.3843438E5,1.30733375E5,2.7571043E4,4.6901375E4,8.106685E4,3.1573578E4,1.4584703E4,4.4644995E3,8.679219E3,5.675916E3,2.2915176E4,2.064889E4,1.1913242E3,5.264113E3,1.1813859E4,7.558444E4,4.9630228E5,2.3694709E4,1.3844343E4,9.54932E3,2.6923094E4,3.3038766E4,2.0242484E4,5.81481E4,1.12304375E4,2.6276371E4,9.048992E3,1.175751E4,4.998166E3,4.392893E3,3.8520469E3,2.084875E3,5.208336E3,8.476003E2,1.2579211E4,3.1602611E4,1.01949375E4,4.3995947E3,4.4294717E3,1.9844219E3,0E0,0E0,3.8404766E3,1.4118781E4,2.285575E4,2.3368516E3,5.015085E3,8.8202875E4,1.1703899E4,2.1753537E4,1.0381736E4,2.3867584E4,0E0,9.971867E3,6.3030117E3,1.6793156E4,2.0320957E4,5.721955E4,1.7353375E4,4.800617E3,4.5847156E4,1.5146711E4,7.9406406E3,1.278234E4,1.5126777E4,4.0590671E3,1.18346875E4,2.5993445E4,5.623033E3,7.666884E3,2.2901526E3,2.6750342E3,0E0,4.098305E3,3.3859062E3,1.8467688E4,2.5277812E3,1.3496309E3,3.3805122E3,4.8560586E3,1.7914475E3,5.128655E2,1.3240836E4,7.183117E3,1.9288549E4,8.632993E2,4.9989883E3,1.077241E4,2.485698E3,1.7055237E3,0E0,0E0,0E0,0E0,0E0,1.6405078E3,2.009339E4,2.4043398E3,2.0026875E3,0E0,0E0,3.0027266E3,1.1956588E3,1.5616787E3,5.8433125E3,1.246485E5,1.6515912E4,4.480415E3,0E0,7.037726E2,0E0,0E0,0E0,0E0,0E0,0E0,0E0,0E0,0E0,0E0,0E0,0E0,0E0,0E0,0E0,0E0,0E0,0E0,0E0,0E0,0E0,0E0,0E0,0E0,0E0,0E0,0E0,0E0,0E0,0E0,0E0,0E0,0E0,0E0,0E0,0E0,0E0,0E0,0E0,0E0,0E0,0E0,0E0,0E0,0E0,0E0,0E0,0E0,0E0,0E0,0E0,0E0,0E0,0E0,0E0,0E0,0E0,0E0,0E0,0E0,0E0,0E0,0E0,0E0,0E0,0E0,0E0,0E0,0E0,0E0,0E0,0E0,0E0,0E0,0E0,0E0,0E0,0E0,0E0,0E0,0E0,0E0,0E0,0E0,0E0,0E0,0E0,0E0,0E0,0E0,0E0,0E0,0E0,0E0,0E0,0E0,0E0,0E0,0E0,0E0],"parents":[2147483647,0,0,1,1,2,2,3,3,4,4,5,5,6,6,7,7,8,8,9,9,10,10,11,11,12,12,13,13,14,14,15,15,16,16,17,17,18,18,19,19,20,20,21,21,22,22,23,23,24,24,25,25,26,26,27,27,28,28,29,29,30,30,31,31,32,32,33,33,34,34,35,35,36,36,37,37,38,38,39,39,40,40,41,41,42,42,43,43,44,44,45,45,46,46,47,47,48,48,49,49,50,50,51,51,52,52,55,55,56,56,57,57,58,58,59,59,60,60,61,61,62,62,63,63,64,64,66,66,67,67,68,68,69,69,70,70,71,71,72,72,73,73,74,74,75,75,76,76,77,77,78,78,79,79,80,80,81,81,82,82,83,83,84,84,86,86,87,87,88,88,89,89,90,90,91,91,92,92,93,93,94,94,95,95,96,96,97,97,98,98,99,99,100,100,101,101,102,102,108,108,109,109,110,110,111,111,114,114,115,115,116,116,117,117,118,118,119,119,120,120,122,122],"right_children":[2,4,6,8,10,12,14,16,18,20,22,24,26,28,30,32,34,36,38,40,42,44,46,48,50,52,54,56,58,60,62,64,66,68,70,72,74,76,78,80,82,84,86,88,90,92,94,96,98,100,102,104,106,-1,-1,108,110,112,114,116,118,120,122,124,126,-1,128,130,132,134,136,138,140,142,144,146,148,150,152,154,156,158,160,162,164,-1,166,168,170,172,174,176,178,180,182,184,186,188,190,192,194,196,198,-1,-1,-1,-1,-1,200,202,204,206,-1,-1,208,210,212,214,216,218,220,-1,222,-1,-1,-1,-1,-1,-1,-1,-1,-1,-1,-1,-1,-1,-1,-1,-1,-1,-1,-1,-1,-1,-1,-1,-1,-1,-1,-1,-1,-1,-1,-1,-1,-1,-1,-1,-1,-1,-1,-1,-1,-1,-1,-1,-1,-1,-1,-1,-1,-1,-1,-1,-1,-1,-1,-1,-1,-1,-1,-1,-1,-1,-1,-1,-1,-1,-1,-1,-1,-1,-1,-1,-1,-1,-1,-1,-1,-1,-1,-1,-1,-1,-1,-1,-1,-1,-1,-1,-1,-1,-1,-1,-1,-1,-1,-1,-1,-1,-1,-1,-1],"split_conditions":[7.1375E-1,7E-1,-4.300593E-3,1.31E1,9.1E0,7.18478E4,7.94773E-2,-3.6E0,4.0125E-1,4.2041665E-1,6.166212E-1,-2.9240596E-1,1.48E1,3.439806E-2,4.324994E-1,1.13266E6,1.942056E4,-2E0,7.18478E4,6.166212E-1,1.1E0,2.24E1,9.9798876E-1,-3.413465E-1,-1.9443122E-1,6E-1,-9.467139E-1,9E-1,4E-1,3.8541335E-1,3.3E1,3.2791665E-1,-1.91E1,-8.6923283E-1,3.2791665E-1,1.77E1,2.220107E4,5.7666665E-1,1.96E1,2.0208333E-1,6.8667597E-1,5.7666665E-1,-9.99833E-1,3.4475066E5,5.4671127E-1,7.0672655E-1,9.995787E-1,-3.9135784E-1,-2.944616E-1,-2.447723E-1,4.5E0,-9.467139E-1,-7.82597E-1,-1.3600295E0,6.225265E-1,9E0,9E-1,5.2E0,1.36E1,2.7177674E-1,1.499513E4,6.216869E-1,1E-1,-9.4E0,-2.1501373E-2,2.392066E0,6.25E-2,3.32611E3,4.7125E-1,7.541667E-2,-9.4103366E-1,1.13266E6,-5.3E0,1.8E1,7.18478E4,9.248026E-1,4.4794494E-1,-9.467139E-1,4.3E0,1.51E1,-1.2652782E-1,1.4E1,9.875E-2,3.0912228E5,3.6E0,5.855748E-1,2.1E0,2.47313E3,-1.4357242E-1,1.5420404E-1,1.8166667E-1,3.85E-1,2.9640666E4,2.5041667E-1,1.3166666E-1,-5.839515E-1,-2.1E0,1.3E0,2.7E0,6.7219E2,1E-1,-2.1501373E-2,1.04E1,2.2282279E0,1.4453079E-1,1.2776995E0,3.8765264E0,1.655412E0,1.71E1,9.17476E3,3.3553E2,5.983368E3,1.4743836E0,1.3959265E-1,1.21E1,1.51E1,3.4E0,-3.7E0,3.68554E3,2.72E1,-2.9E0,-3.4630964E0,5E-1,-1.0521225E-2,1.8108161E-2,-5.5452745E-4,1.8864052E-1,1.0443709E0,2.960505E-1,2.145918E-2,6.0436662E-2,6.725579E-2,1.964886E-1,2.0878201E-2,2.6361322E-1,2.3074894E0,3.6036995E-1,-1.3438834E-2,3.2135618E-1,-4.677926E-2,-2.8708497E-2,2.1386513E-2,-5.885676E-3,1.0203333E-1,2.6348406E-1,1.0061496E-1,-2.9671915E-2,2.657241E-1,4.9140546E-2,2.038828E0,7.695629E-1,3.189201E-2,-1.0997248E0,-1.1199443E-2,-3.325057E-2,-2.0289792E-2,-9.391827E-2,7.955173E-2,1.2297072E-2,-3.6896545E-2,-8.999947E-3,6.0424358E-2,7.6969874E-1,1.9310011E-1,5.158285E-1,-6.289852E-3,5.670332E-2,-5.7490718E-2,-1.6435074E-2,-4.6647746E-2,-1.3283994E0,-8.88495E-2,-5.6329E-2,-1.5184247E-1,-2.3817074E-2,-5.785507E-3,1.736768E-1,-4.9056657E-2,1.1707996E-2,1.2465827E-2,-8.319746E-2,-1.0934859E-2,3.8880553E-2,3.3265156E-1,8.863579E-2,2.0458515E-1,6.591168E-1,-8.62049E-2,-9.5414454E-1,1.5759854E-1,3.57379E-1,2.60181E-1,5.349618E-1,1.3328186E0,5.121759E-1,-1.5811309E-1,2.1694306E-1,-2.3831859E-1,-1.1012193E0,6.235631E-1,1.682509E-1,2.7912037E0,1.1977465E0,3.7928078E-1,8.841379E-1,2.2376103E0,3.1651876E0,1.5272834E0,9.0760654E-1,9.037157E-2,-5.0691042E-2,1.6068427E-1,4.186984E-1,1.5537766E0,9.881174E-1,2.9844463E0,8.5235465E-1,-1.1038006E-2,-7.995806E-1,2.6567357E-2,2.953334E-1,-6.527071E-1,1.2813193E-2],"split_indices":[15,8,4,7,8,13,4,11,15,15,4,4,7,4,4,14,13,11,13,4,8,8,4,4,4,11,4,11,8,4,7,15,11,4,15,7,13,15,7,15,4,15,4,14,4,4,4,4,4,4,11,4,4,0,0,7,8,11,7,4,14,4,8,11,4,0,15,13,15,15,4,14,11,7,13,4,4,4,11,7,4,7,15,14,11,0,11,13,4,4,15,15,14,15,15,4,11,8,11,13,8,4,11,0,0,0,0,0,7,14,13,14,0,0,8,7,11,11,13,7,11,0,8,0,0,0,0,0,0,0,0,0,0,0,0,0,0,0,0,0,0,0,0,0,0,0,0,0,0,0,0,0,0,0,0,0,0,0,0,0,0,0,0,0,0,0,0,0,0,0,0,0,0,0,0,0,0,0,0,0,0,0,0,0,0,0,0,0,0,0,0,0,0,0,0,0,0,0,0,0,0,0,0,0,0,0,0,0,0,0,0,0,0,0,0,0,0,0,0,0,0,0,0],"split_type":[0,0,0,0,0,0,0,0,0,0,0,0,0,0,0,0,0,0,0,0,0,0,0,0,0,0,0,0,0,0,0,0,0,0,0,0,0,0,0,0,0,0,0,0,0,0,0,0,0,0,0,0,0,0,0,0,0,0,0,0,0,0,0,0,0,0,0,0,0,0,0,0,0,0,0,0,0,0,0,0,0,0,0,0,0,0,0,0,0,0,0,0,0,0,0,0,0,0,0,0,0,0,0,0,0,0,0,0,0,0,0,0,0,0,0,0,0,0,0,0,0,0,0,0,0,0,0,0,0,0,0,0,0,0,0,0,0,0,0,0,0,0,0,0,0,0,0,0,0,0,0,0,0,0,0,0,0,0,0,0,0,0,0,0,0,0,0,0,0,0,0,0,0,0,0,0,0,0,0,0,0,0,0,0,0,0,0,0,0,0,0,0,0,0,0,0,0,0,0,0,0,0,0,0,0,0,0,0,0,0,0,0,0,0,0,0,0,0,0,0,0,0,0],"sum_hessian":[9.17624E5,9.14013E5,3.611E3,6.15409E5,2.98604E5,1.98E3,1.631E3,1.85537E5,4.29872E5,2.13091E5,8.5513E4,1.968E3,1.2E1,3.65E2,1.266E3,6.8423E4,1.17114E5,4.22409E5,7.463E3,2.07553E5,5.538E3,5.7376E4,2.8137E4,1.44E3,5.28E2,8E0,4E0,2.01E2,1.64E2,7.48E2,5.18E2,6.8314E4,1.09E2,1.15186E5,1.928E3,1.35608E5,2.86801E5,7.4E3,6.3E1,1.38107E5,6.9446E4,8.95E2,4.643E3,4.1558E4,1.5818E4,2.549E4,2.647E3,1.146E3,2.94E2,3.95E2,1.33E2,4E0,4E0,2E0,2E0,7.7E1,1.24E2,1.01E2,6.3E1,4.81E2,2.67E2,5.09E2,9E0,6.5367E4,2.947E3,2E0,1.07E2,2.5506E4,8.968E4,1.84E3,8.8E1,7.1404E4,6.4204E4,2.83472E5,3.329E3,6.059E3,1.341E3,5E1,1.3E1,1.16015E5,2.2092E4,6.971E3,6.2475E4,7.33E2,1.62E2,1.4E1,4.629E3,4.1477E4,8.1E1,1.5001E4,8.17E2,3.014E3,2.2476E4,1.244E3,1.403E3,9.73E2,1.73E2,1.11E2,1.83E2,3.21E2,7.4E1,1.09E2,2.4E1,2E0,2E0,2E0,2E0,3E0,7.4E1,7.5E1,4.9E1,8.6E1,1.5E1,2E0,6.1E1,3.22E2,1.59E2,1.19E2,1.48E2,2.27E2,2.82E2,3E0,6E0,1.9776E4,4.5591E4,1.653E3,1.294E3,2.5E1,8.2E1,1.9638E4,5.868E3,8.8572E4,1.108E3,5.26E2,1.314E3,2.1E1,6.7E1,7.1236E4,1.68E2,3.3658E4,3.0546E4,1.09171E5,1.74301E5,2.479E3,8.5E2,5.498E3,5.61E2,8.97E2,4.44E2,1.5E1,3.5E1,8E0,5E0,4.0983E4,7.5032E4,1.3627E4,8.465E3,1.838E3,5.133E3,1.3758E4,4.8717E4,7.29E2,4E0,1.26E2,3.6E1,2.705E3,1.924E3,3.9159E4,2.318E3,6.7E1,1.4E1,1.1639E4,3.362E3,7.14E2,1.03E2,2.896E3,1.18E2,2.0939E4,1.537E3,9.72E2,2.72E2,2.81E2,1.122E3,4.57E2,5.16E2,5.8E1,1.15E2,5.7E1,5.4E1,1.55E2,2.8E1,1.16E2,2.05E2,3.1E1,4.3E1,2.4E1,8.5E1,2.2E1,2E0,6.3E1,1.1E1,1E1,6.5E1,1.9E1,3E1,1.5E1,7.1E1,4.3E1,1.8E1,9E1,2.32E2,1.27E2,3.2E1,3.2E1,8.7E1,1.05E2,4.3E1,1.94E2,3.3E1,1.12E2,1.7E2,2E0,4E0],"tree_param":{"num_deleted":"0","num_feature":"19","num_nodes":"223","size_leaf_vector":"1"}},{"base_weights":[2.3397335E-3,1.3735072E-1,-3.4874165E1,6.718E-1,-4.6532803E0,-4.0016148E1,-3.1262482E1,1.0713007E0,-6.888907E-1,-3.634087E0,-1.0134289E1,-3.777363E1,-5.6019833E1,-3.4484104E1,-2.5315153E1,1.0363324E0,1.0399563E1,2.6721075E-1,-1.0448229E0,-2.9839532E0,-5.3326545E0,-8.835663E0,-1.4091259E1,-3.8350876E1,1.0262164E1,-4.76594E1,-1.0070151E2,-4.1601322E1,-3.1711346E1,-1.98943E1,-2.769362E1,1.7602793E0,6.444084E-1,1.4094934E1,5.879419E0,6.934349E-1,-9.066154E-1,-5.8671653E-1,-1.7499199E0,-1.5549663E0,-3.4091945E0,-3.354175E0,-5.9765544E0,-6.543331E0,-9.645436E0,-1.4317494E1,3.4729185E0,-3.5613964E1,-4.3407867E1,1.3321296E0,-3.1369333E0,-4.962423E1,-1.1144995E1,-1.3369801E2,-3.1237644E1,-3.7605663E1,-7.5061226E1,-3.6644836E1,-2.6931814E1,-3.8180454E1,-1.6152058E1,-2.9035267E1,-2.3913446E1,2.1673188E0,5.1979893E-1,-6.2459197E0,6.7623395E-1,8.6389675E0,1.8052795E1,6.54252E0,7.678357E-1,6.3754255E-1,7.513151E0,-6.2880963E-1,-2.2230597E0,-6.152779E-1,8.447753E0,-2.0167353E0,-9.9895203E-1,-9.400634E-1,-2.9040306E0,-2.9711814E0,-4.1017942E0,-2.6911755E0,-6.2483325E0,-6.028944E0,1.2918675E1,-5.070525E0,-9.4418955E0,-8.23856E0,-1.0382002E1,-1.3176342E1,-1.6117483E1,1.4011311E1,-5.058416E-1,-3.361214E1,-4.374898E1,-4.050951E1,-5.8149063E1,-9.627073E0,6.449029E-1,-5.1081863E1,-2.2245901E1,-6.423072E0,-6.0877794E-1,-4.829439E0,-1.7437576E0,-1.689222E0,-1.5374608E1,-1.298717E0,-3.8371876E1,-2.5390238E1,-1.0504767E2,-3.761983E1,-2.0285622E1,4.5111603E-1,-2.7204952E1,-1.1221013E2,-2.356353E1,-1.2637555E1,-2.5551918E1,-2.8131277E1,-1.8500776E0,-2.1772947E1,-3.3762356E1,6.065298E-2,1.02418244E-1,-4.3508133E-1,2.0300357E-2,-2.873546E-1,-4.3567706E-2,4.425614E-2,1.3875647E-2,4.958287E-1,2.2526003E-1,9.401497E-1,5.3312135E-1,1.8271956E-1,2.7710673E-1,-1.2029615E-1,8.396231E-2,8.915438E-3,4.9883E-2,6.1828995E-1,1.8237603E-1,-5.1580615E-2,-8.958442E-3,-9.658757E-2,-6.222681E-2,-1.5009419E-2,-5.1133398E-2,5.194861E-1,8.726585E-2,-5.9178904E-2,-8.896924E-2,-3.6416754E-2,1.3266934E-1,-3.5231072E-2,1.4256048E-1,-9.735109E-2,1.9688113E0,-1.08720966E-1,-7.4056126E-2,-1.5285228E-1,-1.1169435E-1,-9.612713E-2,1.9231862E-1,-1.6988462E-1,-2.4057177E-1,-1.8634437E-1,-2.5302708E-1,9.228425E-1,-8.874542E-2,-2.4489704E-1,-1.1619576E-1,-5.343736E-1,-2.9358825E-1,-1.615476E-1,-2.812851E-1,-3.4820622E-1,-8.489127E-2,-3.1686315E-1,-4.5576933E-1,-4.9989054E-1,-5.699977E-1,4.9960107E-2,2.1036992E0,-1.1317642E0,-7.1627384E-1,-2.9282174E0,-1.1338265E0,-1.2465689E0,-1.600792E0,-2.3059862E0,-1.5521224E0,1.6648415E-1,-4.5954832E-1,-1.5603594E0,-2.4137385E0,-7.9807736E-2,-9.096585E-1,-2.8633732E-1,-1.7347667E-2,-6.05015E-1,-1.7548645E-1,-1.0466925E0,7.687817E-1,-1.2378956E0,-1.8183421E0,-9.612742E-1,-5.419005E-1,-3.7727757E0,-9.923649E-1,-1.1266578E0,-1.3656008E0,-2.1633197E-1,-1.0240433E0,-9.5677274E-1,-6.716273E-1,-1.1778027E0,-4.6710496E0,-1.060183E0,-5.6563365E-1,-3.1704494E-1,-7.346862E-1,-4.1735798E-1,-9.245309E-1,-1.4848273E0,-9.1474396E-1,-7.277776E-1,-1.2364142E-1,-1.2047158E0,-3.828278E-1],"categories":[],"categories_nodes":[],"categories_segments":[],"categories_sizes":[],"default_left":[0,0,0,0,0,0,0,0,0,0,0,0,0,0,0,0,0,0,0,0,0,0,0,0,0,0,0,0,0,0,0,0,0,0,0,0,0,0,0,0,0,0,0,0,0,0,0,0,0,0,0,0,0,0,0,0,0,0,0,0,0,0,0,0,0,0,0,0,0,0,0,0,0,0,0,0,0,0,0,0,0,0,0,0,0,0,0,0,0,0,0,0,0,0,0,0,0,0,0,0,0,0,0,0,0,0,0,0,0,0,0,0,0,0,0,0,0,0,0,0,0,0,0,0,0,0,0,0,0,0,0,0,0,0,0,0,0,0,0,0,0,0,0,0,0,0,0,0,0,0,0,0,0,0,0,0,0,0,0,0,0,0,0,0,0,0,0,0,0,0,0,0,0,0,0,0,0,0,0,0,0,0,0,0,0,0,0,0,0,0,0,0,0,0,0,0,0,0,0,0,0,0,0,0,0,0,0,0,0,0,0,0,0,0,0,0,0,0,0,0,0,0,0,0,0,0,0,0,0,0,0,0,0],"id":6,"left_children":[1,3,5,7,9,11,13,15,17,19,21,23,25,27,29,31,33,35,37,39,41,43,45,47,49,51,53,55,57,59,61,63,65,67,69,71,73,75,77,79,81,83,85,87,89,91,93,95,97,-1,99,101,103,105,107,109,111,113,115,117,119,121,123,125,127,129,131,133,135,137,139,141,143,145,147,149,151,153,155,157,159,161,163,165,167,169,171,173,175,177,179,181,183,185,-1,187,189,191,193,195,-1,197,199,201,-1,-1,-1,-1,203,205,207,209,211,213,215,-1,217,219,221,223,225,227,-1,229,231,-1,-1,-1,-1,-1,-1,-1,-1,-1,-1,-1,-1,-1,-1,-1,-1,-1,-1,-1,-1,-1,-1,-1,-1,-1,-1,-1,-1,-1,-1,-1,-1,-1,-1,-1,-1,-1,-1,-1,-1,-1,-1,-1,-1,-1,-1,-1,-1,-1,-1,-1,-1,-1,-1,-1,-1,-1,-1,-1,-1,-1,-1,-1,-1,-1,-1,-1,-1,-1,-1,-1,-1,-1,-1,-1,-1,-1,-1,-1,-1,-1,-1,-1,-1,-1,-1,-1,-1,-1,-1,-1,-1,-1,-1,-1,-1,-1,-1,-1,-1,-1,-1,-1,-1,-1,-1,-1,-1],"loss_changes":[4.32262E6,2.341353E6,6.44915E4,4.4721025E5,5.1266512E5,5.01735E4,3.9056625E4,2.0743775E5,6.3542805E4,8.544669E4,7.3820125E4,3.5914E4,6.1320375E4,2.5302375E4,8.938531E3,1.7976925E5,3.958822E4,2.5343986E4,4.394989E4,3.400622E4,2.7269E4,2.0053312E4,1.41720625E4,1.597625E4,6.580794E3,1.0280375E4,5.7709344E4,4.731275E4,2.2003375E4,1.4985625E4,1.8871562E3,1.1236175E5,9.014484E4,2.8045766E4,3.6217383E3,1.4160242E4,4.9335703E3,2.1288354E4,1.07351875E4,1.0646949E4,1.3073281E4,1.0080047E4,1.6074875E4,1.2041992E4,8.2106875E3,6.995375E3,9.329079E3,1.1997125E4,1.64435E4,0E0,1.9544504E3,4.570375E3,1.9185864E2,1.0675969E4,2.3778154E3,9.325125E3,5.542158E4,6.8450625E3,5.90575E3,3.8475215E4,5.9869297E3,7.4874062E3,2.1952344E3,5.1661E4,7.1861E4,2.2906703E4,6.957664E4,6.276633E3,1.4511922E4,1.7196328E3,9.814224E2,1.1836085E4,6.6296914E3,3.7199185E3,5.527822E2,1.2323768E4,1.0964424E4,5.99625E3,7.379866E3,5.9219126E3,1.1743199E4,6.20625E3,6.3356875E3,8.1086074E3,1.0857656E3,1.0047875E4,1.0643039E4,6.821039E3,3.3642422E3,2.5863281E3,6.932E3,4.7530312E3,1.2577812E3,1.8550992E4,0E0,4.6939375E3,6.4540875E4,6.2834375E3,5.839375E3,7.0095245E2,0E0,7.8539688E3,8.825874E2,8.848004E1,0E0,0E0,0E0,0E0,1.1082507E2,6.724236E3,2.6801562E3,5.8260742E1,1.3258656E4,4.4631875E3,4.075337E3,0E0,5.4877188E3,8.417016E3,1.2644199E3,3.8986602E3,1.2674453E3,1.2594688E3,0E0,5.0985156E2,9.752461E2,0E0,0E0,0E0,0E0,0E0,0E0,0E0,0E0,0E0,0E0,0E0,0E0,0E0,0E0,0E0,0E0,0E0,0E0,0E0,0E0,0E0,0E0,0E0,0E0,0E0,0E0,0E0,0E0,0E0,0E0,0E0,0E0,0E0,0E0,0E0,0E0,0E0,0E0,0E0,0E0,0E0,0E0,0E0,0E0,0E0,0E0,0E0,0E0,0E0,0E0,0E0,0E0,0E0,0E0,0E0,0E0,0E0,0E0,0E0,0E0,0E0,0E0,0E0,0E0,0E0,0E0,0E0,0E0,0E0,0E0,0E0,0E0,0E0,0E0,0E0,0E0,0E0,0E0,0E0,0E0,0E0,0E0,0E0,0E0,0E0,0E0,0E0,0E0,0E0,0E0,0E0,0E0,0E0,0E0,0E0,0E0,0E0,0E0,0E0,0E0,0E0,0E0,0E0,0E0,0E0,0E0,0E0,0E0],"parents":[2147483647,0,0,1,1,2,2,3,3,4,4,5,5,6,6,7,7,8,8,9,9,10,10,11,11,12,12,13,13,14,14,15,15,16,16,17,17,18,18,19,19,20,20,21,21,22,22,23,23,24,24,25,25,26,26,27,27,28,28,29,29,30,30,31,31,32,32,33,33,34,34,35,35,36,36,37,37,38,38,39,39,40,40,41,41,42,42,43,43,44,44,45,45,46,46,47,47,48,48,50,50,51,51,52,52,53,53,54,54,55,55,56,56,57,57,58,58,59,59,60,60,61,61,62,62,63,63,64,64,65,65,66,66,67,67,68,68,69,69,70,70,71,71,72,72,73,73,74,74,75,75,76,76,77,77,78,78,79,79,80,80,81,81,82,82,83,83,84,84,85,85,86,86,87,87,88,88,89,89,90,90,91,91,92,92,93,93,95,95,96,96,97,97,98,98,99,99,101,101,102,102,103,103,108,108,109,109,110,110,111,111,112,112,113,113,114,114,116,116,117,117,118,118,119,119,120,120,121,121,123,123,124,124],"right_children":[2,4,6,8,10,12,14,16,18,20,22,24,26,28,30,32,34,36,38,40,42,44,46,48,50,52,54,56,58,60,62,64,66,68,70,72,74,76,78,80,82,84,86,88,90,92,94,96,98,-1,100,102,104,106,108,110,112,114,116,118,120,122,124,126,128,130,132,134,136,138,140,142,144,146,148,150,152,154,156,158,160,162,164,166,168,170,172,174,176,178,180,182,184,186,-1,188,190,192,194,196,-1,198,200,202,-1,-1,-1,-1,204,206,208,210,212,214,216,-1,218,220,222,224,226,228,-1,230,232,-1,-1,-1,-1,-1,-1,-1,-1,-1,-1,-1,-1,-1,-1,-1,-1,-1,-1,-1,-1,-1,-1,-1,-1,-1,-1,-1,-1,-1,-1,-1,-1,-1,-1,-1,-1,-1,-1,-1,-1,-1,-1,-1,-1,-1,-1,-1,-1,-1,-1,-1,-1,-1,-1,-1,-1,-1,-1,-1,-1,-1,-1,-1,-1,-1,-1,-1,-1,-1,-1,-1,-1,-1,-1,-1,-1,-1,-1,-1,-1,-1,-1,-1,-1,-1,-1,-1,-1,-1,-1,-1,-1,-1,-1,-1,-1,-1,-1,-1,-1,-1,-1,-1,-1,-1,-1,-1,-1],"split_conditions":[1.98E1,4E0,-5E-1,1.4E0,9.3E0,2.41E1,-5E-1,1.09E2,1.33E1,6.5E0,1.41E1,2.675706E4,1.3E1,1.21E1,1.34E1,1.45E1,-5E-1,4E-1,2.6E0,1.27E1,1.28E1,1.29E1,1.13266E6,9E-1,1.09E2,3.42E1,-8.660254E-1,1.7E0,8.395805E3,5E-1,1.59338E3,7E-1,-1.98E1,7.18478E4,2.57E1,2.675706E4,9.7E0,1.09E2,1.52033E3,2E-1,5.2E0,1.3E0,1.13266E6,1E-1,1.03E1,4E-1,1.84E1,4.10408E3,5.049081E4,1.3321296E0,1.85E1,1.29E1,3E-1,4.3E0,2.64E1,5.7E0,-1.8369701E-16,2.81E1,3.0285E2,7.9E0,1E-1,5E0,3.4475066E5,8.660254E-1,-1.98E1,5E-1,-5E-1,1.06E1,1.04E1,-1.8369701E-16,-3.95E0,8.660254E-1,8.9E0,-5E-1,-5E-1,6.5E0,-5E-1,4.3E0,8.1E1,1.749869E4,1.09E2,1.21199E3,5.9987E2,6E1,7.5E0,5.2E0,-5E-1,5E-1,-8.660254E-1,-8.660254E-1,1.942056E4,1.01E1,4E0,1.69E1,-5.058416E-1,7E-1,6.094729E4,8.1E0,4.58435E3,1.09E1,6.449029E-1,3.8E0,2.57E1,3.0897E2,-6.0877794E-1,-4.829439E0,-1.7437576E0,-1.689222E0,6.8E1,-8.660254E-1,1.2E1,1E0,1.11E1,1E-1,-8.660254E-1,4.5111603E-1,1.13266E6,5.7E0,6.5065E2,8.660254E-1,6.9E0,1.37E1,-1.8500776E0,5.4E1,2.97E1,6.065298E-2,1.02418244E-1,-4.3508133E-1,2.0300357E-2,-2.873546E-1,-4.3567706E-2,4.425614E-2,1.3875647E-2,4.958287E-1,2.2526003E-1,9.401497E-1,5.3312135E-1,1.8271956E-1,2.7710673E-1,-1.2029615E-1,8.396231E-2,8.915438E-3,4.9883E-2,6.1828995E-1,1.8237603E-1,-5.1580615E-2,-8.958442E-3,-9.658757E-2,-6.222681E-2,-1.5009419E-2,-5.1133398E-2,5.194861E-1,8.726585E-2,-5.9178904E-2,-8.896924E-2,-3.6416754E-2,1.3266934E-1,-3.5231072E-2,1.4256048E-1,-9.735109E-2,1.9688113E0,-1.08720966E-1,-7.4056126E-2,-1.5285228E-1,-1.1169435E-1,-9.612713E-2,1.9231862E-1,-1.6988462E-1,-2.4057177E-1,-1.8634437E-1,-2.5302708E-1,9.228425E-1,-8.874542E-2,-2.4489704E-1,-1.1619576E-1,-5.343736E-1,-2.9358825E-1,-1.615476E-1,-2.812851E-1,-3.4820622E-1,-8.489127E-2,-3.1686315E-1,-4.5576933E-1,-4.9989054E-1,-5.699977E-1,4.9960107E-2,2.1036992E0,-1.1317642E0,-7.1627384E-1,-2.9282174E0,-1.1338265E0,-1.2465689E0,-1.600792E0,-2.3059862E0,-1.5521224E0,1.6648415E-1,-4.5954832E-1,-1.5603594E0,-2.4137385E0,-7.9807736E-2,-9.096585E-1,-2.8633732E-1,-1.7347667E-2,-6.05015E-1,-1.7548645E-1,-1.0466925E0,7.687817E-1,-1.2378956E0,-1.8183421E0,-9.612742E-1,-5.419005E-1,-3.7727757E0,-9.923649E-1,-1.1266578E0,-1.3656008E0,-2.1633197E-1,-1.0240433E0,-9.5677274E-1,-6.716273E-1,-1.1778027E0,-4.6710496E0,-1.060183E0,-5.6563365E-1,-3.1704494E-1,-7.346862E-1,-4.1735798E-1,-9.245309E-1,-1.4848273E0,-9.1474396E-1,-7.277776E-1,-1.2364142E-1,-1.2047158E0,-3.828278E-1],"split_indices":[9,9,3,9,9,7,2,12,7,9,9,13,12,7,7,7,2,8,9,7,7,7,14,8,12,7,3,8,14,3,13,8,9,13,7,13,8,12,13,8,9,8,14,8,9,8,7,13,14,0,7,8,8,8,7,7,3,7,13,7,8,12,14,3,9,2,3,7,7,3,9,3,7,2,2,8,2,8,12,13,12,13,13,12,9,8,2,3,3,3,13,7,8,7,0,8,14,8,13,7,0,8,7,13,0,0,0,0,12,2,7,12,7,8,2,0,14,7,13,2,7,7,0,12,7,0,0,0,0,0,0,0,0,0,0,0,0,0,0,0,0,0,0,0,0,0,0,0,0,0,0,0,0,0,0,0,0,0,0,0,0,0,0,0,0,0,0,0,0,0,0,0,0,0,0,0,0,0,0,0,0,0,0,0,0,0,0,0,0,0,0,0,0,0,0,0,0,0,0,0,0,0,0,0,0,0,0,0,0,0,0,0,0,0,0,0,0,0,0,0,0,0,0,0,0,0,0,0,0,0,0,0,0],"split_type":[0,0,0,0,0,0,0,0,0,0,0,0,0,0,0,0,0,0,0,0,0,0,0,0,0,0,0,0,0,0,0,0,0,0,0,0,0,0,0,0,0,0,0,0,0,0,0,0,0,0,0,0,0,0,0,0,0,0,0,0,0,0,0,0,0,0,0,0,0,0,0,0,0,0,0,0,0,0,0,0,0,0,0,0,0,0,0,0,0,0,0,0,0,0,0,0,0,0,0,0,0,0,0,0,0,0,0,0,0,0,0,0,0,0,0,0,0,0,0,0,0,0,0,0,0,0,0,0,0,0,0,0,0,0,0,0,0,0,0,0,0,0,0,0,0,0,0,0,0,0,0,0,0,0,0,0,0,0,0,0,0,0,0,0,0,0,0,0,0,0,0,0,0,0,0,0,0,0,0,0,0,0,0,0,0,0,0,0,0,0,0,0,0,0,0,0,0,0,0,0,0,0,0,0,0,0,0,0,0,0,0,0,0,0,0,0,0,0,0,0,0,0,0,0,0,0,0,0,0,0,0,0,0],"sum_hessian":[9.18003E5,9.14464E5,3.539E3,8.22685E5,9.1779E4,1.456E3,2.083E3,6.35965E5,1.8672E5,7.739E4,1.4389E4,1.28E3,1.76E2,1.348E3,7.35E2,6.33591E5,2.374E3,5.0654E4,1.36066E5,5.597E4,2.142E4,1.0836E4,3.553E3,1.265E3,1.5E1,1.5E2,2.6E1,3.74E2,9.74E2,2.27E2,5.08E2,2.22533E5,4.11058E5,1.305E3,1.069E3,3.7161E4,1.3493E4,8.248E4,5.3586E4,1.2837E4,4.3133E4,5.261E3,1.6159E4,2.831E3,8.005E3,3.508E3,4.5E1,8.26E2,4.39E2,4E0,1.1E1,1.42E2,8E0,1.7E1,9E0,3.36E2,3.8E1,4.76E2,4.98E2,3.7E1,1.9E2,3.7E2,1.38E2,1.67553E5,5.498E4,1.889E3,4.09169E5,5.5E2,7.55E2,9.46E2,1.23E2,3.686E4,3.01E2,1.1143E4,2.35E3,8.2221E4,2.59E2,3.9537E4,1.4049E4,8.819E3,4.018E3,2.6426E4,1.6707E4,4.282E3,9.79E2,1.6115E4,4.4E1,1.879E3,9.52E2,2.755E3,5.25E3,2.152E3,1.356E3,2.9E1,1.6E1,6.67E2,1.59E2,3.7E2,6.9E1,9E0,2E0,1.34E2,8E0,6E0,2E0,1.4E1,3E0,3E0,6E0,7E0,3.29E2,1.5E1,2.3E1,4.48E2,2.8E1,3E0,4.95E2,5E0,3.2E1,1.4E2,5E1,3.6E2,1E1,1.16E2,2.2E1,1.23953E5,4.36E4,3.79E2,5.4601E4,1.259E3,6.3E2,1.13671E5,2.95498E5,1.2E2,4.3E2,1.14E2,6.41E2,6.16E2,3.3E2,3.5E1,8.8E1,2.5953E4,1.0907E4,4.4E1,2.57E2,3.082E3,8.061E3,7.59E2,1.591E3,7.0171E4,1.205E4,1.14E2,1.45E2,2.9754E4,9.783E3,1.3763E4,2.86E2,8.611E3,2.08E2,4.016E3,2E0,1.8288E4,8.138E3,9.603E3,7.104E3,4.174E3,1.08E2,4.79E2,5E2,1.3071E4,3.044E3,2.2E1,2.2E1,7.45E2,1.134E3,6.9E1,8.83E2,2.18E2,2.537E3,5.138E3,1.12E2,3.27E2,1.825E3,7.45E2,6.11E2,2.4E1,5E0,6.29E2,3.8E1,2.6E1,1.33E2,2.8E2,9E1,3.1E1,3.8E1,2E0,7E0,1.17E2,1.7E1,2E0,6E0,4E0,2E0,4E0,2E0,3E0,4E0,3.16E2,1.3E1,9E0,6E0,2E1,3E0,2.38E2,2.1E2,1.3E1,1.5E1,3.9E2,1.05E2,2E0,3E0,1.2E1,2E1,1.08E2,3.2E1,9E0,4.1E1,6E0,3.54E2,1.14E2,2E0,1.9E1,3E0],"tree_param":{"num_deleted":"0","num_feature":"19","num_nodes":"233","size_leaf_vector":"1"}},{"base_weights":[1.2166353E-3,1.6344817E-1,-4.129468E1,1.1758287E0,-4.5548306E0,-5.9415554E1,-3.5800087E1,1.9468538E0,-1.5354979E-1,-3.4492059E0,-1.049511E1,-5.161525E1,-7.4420334E1,-3.7973705E1,-2.5110546E1,1.8973968E0,1.2614492E1,-7.301832E-1,9.8637867E-1,-3.5953026E0,1.7501122E1,-8.804972E0,-1.4725547E1,-3.5473747E1,-5.419661E1,-8.599721E1,-5.7012264E1,-4.8041718E1,-3.451491E1,-1.994809E1,-3.374834E1,1.5636477E0,2.900012E0,2.8603016E1,9.632478E0,-7.6586926E-1,1.1612028E1,8.428949E-1,7.159456E0,-2.5999837E0,-5.1260767E0,3.458386E1,4.7986093E0,-9.090759E0,1.2331303E1,-1.5328494E1,2.245165E0,2.0497425E0,-4.1573864E1,-6.0202705E1,-4.3301006E1,-9.659412E1,-4.8469128E1,-6.711854E1,-3.760791E1,-6.3660835E1,-4.253271E1,-3.5805016E1,-9.460247E0,-2.1723833E1,1.0472846E1,-1.4898478E0,-3.285298E1,1.938341E0,1.0172927E0,2.8316278E0,1.8162436E1,5.3786797E1,2.0672436E1,9.051948E0,5.0100025E1,-1.9189928E-1,-1.5296172E0,2.2528965E1,6.1515965E0,1.3701967E0,-2.822621E-1,5.1051803E0,1.272016E1,-2.034533E0,-3.7779205E0,-4.0784593E0,-6.5412135E0,2.04707E1,6.643021E1,-6.573831E0,5.5726976E0,-7.198204E0,-1.1282666E1,2.344386E1,-3.6829665E0,-1.5616965E1,5.532012E0,-2.8457248E0,9.609935E0,1.2634642E1,-1.5296043E1,-2.9947346E1,-5.448464E1,-5.4840595E1,-7.228369E1,-4.6661545E1,-2.881371E1,-2.6962952E1,-9.859064E1,-1.871159E0,-3.3090816E1,-7.24618E1,-1.6104487E0,-1.3153256E0,1.628215E-1,-7.217262E1,-3.3631466E1,-4.4133587E1,-1.20068865E1,-4.1513107E1,-3.226638E1,-2.3743078E1,5.8775837E1,-1.7668789E1,-3.3193005E1,3.623036E1,-1.1180448E1,-2.2023443E1,-1.0977294E0,5.236551E-2,8.879728E-2,2.1613544E-2,6.4583674E-2,7.8626186E-2,1.2797457E-1,8.955581E-1,2.9060435E-1,2.7829773E0,1.3098731E0,4.0978724E-1,1.0056592E0,4.3937698E-1,2.4575454E-1,3.9414215E0,1.2983981E0,-2.4168774E-2,1.4891344E-2,-6.831685E-2,-3.0791728E-2,2.378965E-1,1.1527475E0,4.2790225E-1,1.1885843E-1,4.2053144E-2,2.7794266E-1,1.0934232E-2,-4.4153117E-2,1.5887098E-1,1.2846161E0,7.55197E-1,3.2823175E-1,-9.026631E-2,-2.5726337E-2,-1.4376952E-1,-9.9243715E-2,-1.4375678E-1,1.6651127E-1,-1.8805194E-1,-2.5862283E-1,2.2545009E0,6.550832E-2,1.1690203E0,2.90071E0,6.1676662E-2,-3.0177277E-1,1.5650687E0,1.5867017E-1,4.256693E-1,-2.4848002E-1,-3.369662E-1,-4.2761815E-1,3.791219E-1,3.881498E0,-2.2019808E-1,2.6009795E-1,-4.5107242E-1,-6.1865765E-1,6.049713E-1,-2.7070537E-1,-1.7117052E-1,4.3966573E-1,-1.1784201E-1,5.882654E-1,7.436833E-3,8.2459027E-1,-1.9498266E-1,-6.462997E-1,-1.7618244E0,-7.5675404E-1,-1.9264168E0,-1.0824807E0,-2.058391E0,-1.6428287E0,-2.9183054E0,-2.055878E0,-7.9496384E-1,-1.6175178E0,-4.1578263E-1,-1.1200773E0,-3.9603928E-1,-1.086923E0,-3.0080595E0,-3.9085858E0,-1.2190878E0,-6.7699754E-1,-2.5188138E0,-1.44515E0,-2.0490856E0,-3.2275941E0,-4.7237056E-1,-1.252335E0,-1.464158E0,8.819703E-2,-1.2608943E0,2.2638118E0,-1.0341849E0,-1.4919628E0,-9.121708E-1,-1.3562869E0,-8.3175606E-1,2.3234485E-1,2.8599577E0,-4.730991E-1,-5.206767E-1,-9.678026E-1,-1.2777244E0,-4.773184E-1,3.925019E-1,1.3978848E0,-4.940215E-1,-5.784927E-2,-8.603645E-1,-3.4469393E-1],"categories":[],"categories_nodes":[],"categories_segments":[],"categories_sizes":[],"default_left":[0,0,0,0,0,0,0,0,0,0,0,0,0,0,0,0,0,0,0,0,0,0,0,0,0,0,0,0,0,0,0,0,0,0,0,0,0,0,0,0,0,0,0,0,0,0,0,0,0,0,0,0,0,0,0,0,0,0,0,0,0,0,0,0,0,0,0,0,0,0,0,0,0,0,0,0,0,0,0,0,0,0,0,0,0,0,0,0,0,0,0,0,0,0,0,0,0,0,0,0,0,0,0,0,0,0,0,0,0,0,0,0,0,0,0,0,0,0,0,0,0,0,0,0,0,0,0,0,0,0,0,0,0,0,0,0,0,0,0,0,0,0,0,0,0,0,0,0,0,0,0,0,0,0,0,0,0,0,0,0,0,0,0,0,0,0,0,0,0,0,0,0,0,0,0,0,0,0,0,0,0,0,0,0,0,0,0,0,0,0,0,0,0,0,0,0,0,0,0,0,0,0,0,0,0,0,0,0,0,0,0,0,0,0,0,0,0,0,0,0,0,0,0,0,0,0,0,0,0,0,0,0,0,0,0,0,0,0,0],"id":7,"left_children":[1,3,5,7,9,11,13,15,17,19,21,23,25,27,29,31,33,35,37,39,41,43,45,47,49,51,53,55,57,59,61,63,65,67,69,71,73,75,77,79,81,83,85,87,89,91,93,95,97,99,101,103,105,107,109,111,113,115,117,119,121,-1,123,125,127,129,131,133,135,137,139,141,143,145,147,149,151,153,155,157,159,161,163,165,167,169,171,173,175,177,179,181,183,185,187,189,191,193,195,197,199,201,203,205,207,-1,209,211,-1,-1,-1,213,215,217,219,221,223,225,227,229,231,233,235,237,-1,-1,-1,-1,-1,-1,-1,-1,-1,-1,-1,-1,-1,-1,-1,-1,-1,-1,-1,-1,-1,-1,-1,-1,-1,-1,-1,-1,-1,-1,-1,-1,-1,-1,-1,-1,-1,-1,-1,-1,-1,-1,-1,-1,-1,-1,-1,-1,-1,-1,-1,-1,-1,-1,-1,-1,-1,-1,-1,-1,-1,-1,-1,-1,-1,-1,-1,-1,-1,-1,-1,-1,-1,-1,-1,-1,-1,-1,-1,-1,-1,-1,-1,-1,-1,-1,-1,-1,-1,-1,-1,-1,-1,-1,-1,-1,-1,-1,-1,-1,-1,-1,-1,-1,-1,-1,-1,-1,-1,-1,-1,-1,-1,-1,-1],"loss_changes":[6.1479745E6,4.3663145E6,3.55418E5,7.7140756E5,1.0605388E6,9.37715E4,6.31285E4,2.51285E5,1.8159875E5,4.1677175E5,1.81045E5,2.10775E4,5.2130375E4,7.8087E4,2.0240531E4,1.5865238E5,1.0452072E5,8.081511E4,8.219561E4,2.0598325E5,2.0445903E5,1.09493375E5,7.4035375E4,1.8168133E4,2.841175E4,6.212875E4,2.0224094E4,4.7457E4,5.4869125E4,1.6217359E4,2.9259375E2,7.282081E4,1.2353594E5,6.779219E4,4.3101766E4,8.019349E4,3.1395734E4,5.3811863E4,2.401521E4,5.4564938E4,7.894875E4,1.793201E5,4.808008E3,7.40365E4,4.3152535E4,4.211375E4,9.363162E3,2.3965007E3,8.575625E3,1.5664125E4,7.029375E3,1.5414375E4,3.0612656E3,3.8042188E3,4.2176562E3,3.591325E4,2.0678812E4,3.1463625E4,8.42369E4,1.243575E4,9.886566E3,0E0,2.78125E0,5.5809312E4,4.927739E4,5.5378562E4,4.410178E4,3.195386E4,2.0982531E4,1.2412375E4,1.4688734E4,3.630742E4,2.531025E4,3.3189992E4,6.1049023E3,4.1738625E4,1.8749342E4,1.4974906E4,1.57865625E4,4.8686734E4,1.1836719E4,7.761931E4,2.4698188E4,2.4752153E5,7.876575E4,7.7675854E2,1.6026718E4,6.399353E4,1.4727875E4,1.5965516E5,3.5101E3,4.1753125E4,1.7028803E4,5.671748E3,1.1110066E4,1.220698E3,8.558655E1,5.024797E3,7.008672E2,5.0504375E3,9.002781E3,6.152125E3,2.482496E3,5.1631836E1,7.80625E3,0E0,1.7046875E1,2.8640625E3,0E0,0E0,0E0,2.389675E4,2.3762383E3,4.6473125E3,5.119884E4,2.1834E4,4.0002188E4,3.372121E3,3.1828445E4,4.144242E3,