{"learner":{"attributes":{"scikit_learn":"{\"_estimator_type\": \"regressor\"}"},"feature_names":["pm25_lag_14","pm25_ema_3d","month_sin","month_cos","day_of_year_sin","day_of_year_cos","future_temp","future_wind","future_precip","pm25_momentum","future_temp_momentum","future_wind_momentum","fire_density_100km","fire_radiative_power_total","fire_wind_interaction","aod_mean_lag_1","aod_max_lag_1","wind_u","wind_v"],"feature_types":["float","float","float","float","float","float","float","float","float","float","float","float","float","float","float","float","float","float","float"],"gradient_booster":{"model":{"cats":{"enc":[],"feature_segments":[],"sorted_idx":[]},"gbtree_model_param":{"num_parallel_tree":"1","num_trees":"300"},"iteration_indptr":[0,1,2,3,4,5,6,7,8,9,10,11,12,13,14,15,16,17,18,19,20,21,22,23,24,25,26,27,28,29,30,31,32,33,34,35,36,37,38,39,40,41,42,43,44,45,46,47,48,49,50,51,52,53,54,55,56,57,58,59,60,61,62,63,64,65,66,67,68,69,70,71,72,73,74,75,76,77,78,79,80,81,82,83,84,85,86,87,88,89,90,91,92,93,94,95,96,97,98,99,100,101,102,103,104,105,106,107,108,109,110,111,112,113,114,115,116,117,118,119,120,121,122,123,124,125,126,127,128,129,130,131,132,133,134,135,136,137,138,139,140,141,142,143,144,145,146,147,148,149,150,151,152,153,154,155,156,157,158,159,160,161,162,163,164,165,166,167,168,169,170,171,172,173,174,175,176,177,178,179,180,181,182,183,184,185,186,187,188,189,190,191,192,193,194,195,196,197,198,199,200,201,202,203,204,205,206,207,208,209,210,211,212,213,214,215,216,217,218,219,220,221,222,223,224,225,226,227,228,229,230,231,232,233,234,235,236,237,238,239,240,241,242,243,244,245,246,247,248,249,250,251,252,253,254,255,256,257,258,259,260,261,262,263,264,265,266,267,268,269,270,271,272,273,274,275,276,277,278,279,280,281,282,283,284,285,286,287,288,289,290,291,292,293,294,295,296,297,298,299,300],"tree_info":[0,0,0,0,0,0,0,0,0,0,0,0,0,0,0,0,0,0,0,0,0,0,0,0,0,0,0,0,0,0,0,0,0,0,0,0,0,0,0,0,0,0,0,0,0,0,0,0,0,0,0,0,0,0,0,0,0,0,0,0,0,0,0,0,0,0,0,0,0,0,0,0,0,0,0,0,0,0,0,0,0,0,0,0,0,0,0,0,0,0,0,0,0,0,0,0,0,0,0,0,0,0,0,0,0,0,0,0,0,0,0,0,0,0,0,0,0,0,0,0,0,0,0,0,0,0,0,0,0,0,0,0,0,0,0,0,0,0,0,0,0,0,0,0,0,0,0,0,0,0,0,0,0,0,0,0,0,0,0,0,0,0,0,0,0,0,0,0,0,0,0,0,0,0,0,0,0,0,0,0,0,0,0,0,0,0,0,0,0,0,0,0,0,0,0,0,0,0,0,0,0,0,0,0,0,0,0,0,0,0,0,0,0,0,0,0,0,0,0,0,0,0,0,0,0,0,0,0,0,0,0,0,0,0,0,0,0,0,0,0,0,0,0,0,0,0,0,0,0,0,0,0,0,0,0,0,0,0,0,0,0,0,0,0,0,0,0,0,0,0,0,0,0,0,0,0,0,0,0,0,0,0,0,0,0,0,0,0,0,0,0,0,0,0,0,0,0,0,0,0],"trees":[{"base_weights":[1.408358E-3,4.3115363E-1,-2.6880596E1,1.5486872E0,-4.4193034E0,-1.7861801E1,-5.4081112E1,2.3844187E0,8.0843456E-2,-2.9709995E0,-7.8060613E0,-1.829927E1,1.9823423E1,-3.6291233E1,-6.097528E1,2.344263E0,1.5620808E1,-3.4886778E-3,1.0427771E1,-3.1033814E0,1.685699E1,-7.9975348E0,1.0970311E1,-1.6087542E1,-2.2755789E1,5.7255432E1,6.181251E0,-7.261092E0,-3.7059498E1,-4.55137E1,-8.120682E1,2.3092265E0,1.6027157E1,1.2883921E1,3.5544895E1,-1.7322428E0,4.3273348E-1,3.386399E1,8.372095E0,-3.1562831E0,2.0085562E1,5.6558952E1,1.1855654E1,-6.704794E0,-1.0383017E1,2.1708431E1,6.1053724E0,-1.2720836E1,-1.7173393E1,-2.3178093E1,-3.5332947E0,8.576614E1,2.1602423E1,2.0455753E1,-2.9426668E0,-1.1935409E0,1.4872839E1,-3.7843964E1,-9.232151E0,-6.892135E1,-4.15448E1,-1.0761807E2,-7.389161E1,3.1124675E0,1.7867701E0,2.4181143E1,7.9421616E0,9.58234E0,1.6724745E1,2.4376799E1,4.6039955E1,-9.811148E-1,-2.469473E0,3.8353312E-1,1.3778197E1,3.680606E0,5.04181E1,7.915073E0,5.244462E1,-5.631295E0,-2.748935E0,2.89269E1,1.204234E1,2.6226074E1,8.99513E1,2.3323582E1,6.5192337E0,-4.6624484E0,-7.6189694E0,-1.0596504E1,1.1694661E1,1.3458485E1,3.4849224E0,5.498951E0,2.46237E0,-1.6708345E1,-9.337201E0,-1.7531647E1,-6.5493712E0,-1.9274632E1,-2.4189346E1,2.345056E1,-1.6957273E1,3.8063715E0,2.2807928E1,4.190493E1,8.564469E0,1.2176646E1,2.7602665E0,2.6550785E1,-6.9330883E0,2.9282925E1,-7.4863577E-1,-3.276932E1,-3.9327564E1,8.507091E0,-2.1210901E1,1.1145259E1,-7.214748E1,-4.5229168E1,-3.0695768E1,-1.4864767E0,-1.1251072E2,-7.7569305E1,-4.7912754E1,6.137801E-2,1.1861148E-1,4.4912584E-2,8.6001135E-2,6.2399644E-1,1.3110031E0,2.4461125E-1,1.2602147E0,2.857258E-1,5.642267E-1,4.2727298E-1,8.1743646E-1,5.91838E-1,1.5510744E0,1.9768863E0,5.5179304E-1,-3.3512376E-2,5.7366836E-1,-2.933696E-2,-9.5469E-2,-9.347145E-3,3.5565577E-2,2.8272468E-1,6.608087E-1,2.5338435E-1,7.00649E-2,1.2695497E-1,1.9798087E0,4.3754607E-1,1.22143865E-1,4.3376645E-1,1.9340225E0,-1.2552191E-1,-2.0365986E-1,-6.410563E-2,-1.273184E-1,7.20614E-1,2.2343023E0,1.1818087E0,3.152674E-1,1.2446558E-1,1.1451213E0,3.1978457E0,1.7972435E0,2.0195669E-1,1.4365782E0,3.4938845E-1,-2.9187696E-3,-1.627694E-1,2.7839544E-1,-2.00049E-1,-2.8343743E-1,-2.3596784E-1,-3.7386826E-1,5.225257E-1,-6.426552E-2,2.0257698E-1,1.1698718E0,5.04927E-1,1.3556859E-1,-4.7240436E-1,-6.2476414E-1,-4.8684296E-1,-2.453924E-1,-5.870279E-1,-2.807947E-1,-3.0888662E-1,3.6019102E-1,-8.024179E-1,-5.015478E-1,-8.038247E-1,-1.8589206E-1,-3.4594998E-2,3.4745126E0,1.1500702E0,-6.509778E-1,1.9002701E0,-8.643581E-2,7.064289E-1,1.8238201E0,7.8604144E-1,-4.407913E-3,-4.3192267E-2,8.7736434E-1,-3.6483353E-1,1.8981414E0,-3.4556988E-1,1.7953397E-1,1.2525208E0,3.151742E-1,-1.1172104E0,-8.804149E-1,-1.3227327E0,-1.1042855E0,-1.0994298E0,6.667097E-1,-9.038064E-1,-4.1833976E-1,-5.578123E-1,1.664254E0,-2.6578457E0,-1.7421021E0,-1.5947963E0,-8.616566E-1,-9.302577E-1,-1.2800467E0,-3.0693135E0,-4.0704145E0,-2.675514E0,-1.7364339E0,-9.0677977E-1,-1.9784477E0],"categories":[],"categories_nodes":[],"categories_segments":[],"categories_sizes":[],"default_left":[0,0,0,0,0,0,0,0,0,0,0,0,0,0,0,0,0,0,0,0,0,0,0,0,0,0,0,0,0,0,0,0,0,0,0,0,0,0,0,0,0,0,0,0,0,0,0,0,0,0,0,0,0,0,0,0,0,0,0,0,0,0,0,0,0,0,0,0,0,0,0,0,0,0,0,0,0,0,0,0,0,0,0,0,0,0,0,0,0,0,0,0,0,0,0,0,0,0,0,0,0,0,0,0,0,0,0,0,0,0,0,0,0,0,0,0,0,0,0,0,0,0,0,0,0,0,0,0,0,0,0,0,0,0,0,0,0,0,0,0,0,0,0,0,0,0,0,0,0,0,0,0,0,0,0,0,0,0,0,0,0,0,0,0,0,0,0,0,0,0,0,0,0,0,0,0,0,0,0,0,0,0,0,0,0,0,0,0,0,0,0,0,0,0,0,0,0,0,0,0,0,0,0,0,0,0,0,0,0,0,0,0,0,0,0,0,0,0,0,0,0,0,0,0,0,0,0,0,0,0,0,0,0,0,0,0,0],"id":0,"left_children":[1,3,5,7,9,11,13,15,17,19,21,23,25,27,29,31,33,35,37,39,41,43,45,47,49,51,53,55,57,59,61,63,65,67,69,71,73,75,77,79,81,83,85,87,89,91,93,95,97,99,101,103,105,107,109,-1,111,113,115,117,119,121,123,125,127,129,131,133,135,137,139,141,143,145,147,149,151,153,155,157,159,161,163,165,167,169,171,173,175,177,179,181,-1,183,-1,185,187,189,191,193,195,197,199,-1,201,203,205,207,-1,209,211,213,-1,215,217,219,221,223,225,227,229,-1,231,233,235,-1,-1,-1,-1,-1,-1,-1,-1,-1,-1,-1,-1,-1,-1,-1,-1,-1,-1,-1,-1,-1,-1,-1,-1,-1,-1,-1,-1,-1,-1,-1,-1,-1,-1,-1,-1,-1,-1,-1,-1,-1,-1,-1,-1,-1,-1,-1,-1,-1,-1,-1,-1,-1,-1,-1,-1,-1,-1,-1,-1,-1,-1,-1,-1,-1,-1,-1,-1,-1,-1,-1,-1,-1,-1,-1,-1,-1,-1,-1,-1,-1,-1,-1,-1,-1,-1,-1,-1,-1,-1,-1,-1,-1,-1,-1,-1,-1,-1,-1,-1,-1,-1,-1,-1,-1,-1,-1,-1,-1,-1,-1,-1],"loss_changes":[1.0521744E7,4.859269E6,3.514656E6,8.937755E5,8.2336375E5,1.7781925E5,4.3539E5,2.4672425E5,2.3064958E5,3.0869462E5,1.8086025E5,1.0451775E5,6.296718E4,2.2011375E4,8.00229E5,2.21857E5,7.6102125E4,1.9772747E5,1.0267131E5,1.4335188E5,1.5420847E5,1.5342725E5,2.640554E4,2.579225E4,2.8549375E4,3.16915E4,1.2042217E4,1.78131E4,2.0890875E4,1.3268175E5,2.06891E5,1.9374E5,7.773128E4,1.5513203E4,1.8686156E4,2.9252422E4,1.3746475E5,8.575578E4,3.9184312E4,1.17479125E5,1.8567672E4,8.576203E4,4.231914E4,6.0240625E4,8.2569E4,1.07935516E5,1.4172711E4,2.3307062E4,2.03505E4,1.3156125E4,2.8289422E4,3.0888938E4,3.876357E3,1.7814738E4,6.892483E3,0E0,9.323912E3,5.833375E3,6.1302734E3,5.5048188E4,4.857625E4,6.81015E4,7.97875E4,1.09795125E5,9.7581875E4,4.744253E4,9.249648E3,4.483703E3,1.7001906E4,1.1400902E4,3.395967E4,1.6556365E4,1.7843594E4,9.655747E4,2.4857969E4,3.6971796E2,4.9271688E4,4.3793125E4,4.0731016E3,1.6236406E4,8.9496E4,3.316511E4,7.999209E3,8.812814E3,4.8396562E3,7.622116E4,1.2769883E4,3.5349484E4,3.362625E4,4.3670375E4,9.517936E3,2.3124203E4,0E0,4.6949023E3,0E0,3.9705625E3,9.598898E3,1.19125E4,8.790924E3,1.43225625E4,8.444875E3,5.2238633E4,8.148079E3,0E0,6.340623E3,4.603037E2,1.4627537E3,6.447627E3,0E0,8.788234E3,2.2900818E3,1.6909707E3,0E0,5.512031E2,1.878625E3,6.543175E3,5.489678E2,1.0769921E4,2.8566125E4,5.3879875E4,5.3972812E3,0E0,3.522475E4,6.25815E4,2.566264E4,0E0,0E0,0E0,0E0,0E0,0E0,0E0,0E0,0E0,0E0,0E0,0E0,0E0,0E0,0E0,0E0,0E0,0E0,0E0,0E0,0E0,0E0,0E0,0E0,0E0,0E0,0E0,0E0,0E0,0E0,0E0,0E0,0E0,0E0,0E0,0E0,0E0,0E0,0E0,0E0,0E0,0E0,0E0,0E0,0E0,0E0,0E0,0E0,0E0,0E0,0E0,0E0,0E0,0E0,0E0,0E0,0E0,0E0,0E0,0E0,0E0,0E0,0E0,0E0,0E0,0E0,0E0,0E0,0E0,0E0,0E0,0E0,0E0,0E0,0E0,0E0,0E0,0E0,0E0,0E0,0E0,0E0,0E0,0E0,0E0,0E0,0E0,0E0,0E0,0E0,0E0,0E0,0E0,0E0,0E0,0E0,0E0,0E0,0E0,0E0,0E0,0E0,0E0,0E0,0E0,0E0,0E0,0E0,0E0,0E0,0E0,0E0],"parents":[2147483647,0,0,1,1,2,2,3,3,4,4,5,5,6,6,7,7,8,8,9,9,10,10,11,11,12,12,13,13,14,14,15,15,16,16,17,17,18,18,19,19,20,20,21,21,22,22,23,23,24,24,25,25,26,26,27,27,28,28,29,29,30,30,31,31,32,32,33,33,34,34,35,35,36,36,37,37,38,38,39,39,40,40,41,41,42,42,43,43,44,44,45,45,46,46,47,47,48,48,49,49,50,50,51,51,52,52,53,53,54,54,56,56,57,57,58,58,59,59,60,60,61,61,62,62,63,63,64,64,65,65,66,66,67,67,68,68,69,69,70,70,71,71,72,72,73,73,74,74,75,75,76,76,77,77,78,78,79,79,80,80,81,81,82,82,83,83,84,84,85,85,86,86,87,87,88,88,89,89,90,90,91,91,93,93,95,95,96,96,97,97,98,98,99,99,100,100,101,101,102,102,104,104,105,105,106,106,107,107,109,109,110,110,111,111,113,113,114,114,115,115,116,116,117,117,118,118,119,119,120,120,122,122,123,123,124,124],"right_children":[2,4,6,8,10,12,14,16,18,20,22,24,26,28,30,32,34,36,38,40,42,44,46,48,50,52,54,56,58,60,62,64,66,68,70,72,74,76,78,80,82,84,86,88,90,92,94,96,98,100,102,104,106,108,110,-1,112,114,116,118,120,122,124,126,128,130,132,134,136,138,140,142,144,146,148,150,152,154,156,158,160,162,164,166,168,170,172,174,176,178,180,182,-1,184,-1,186,188,190,192,194,196,198,200,-1,202,204,206,208,-1,210,212,214,-1,216,218,220,222,224,226,228,230,-1,232,234,236,-1,-1,-1,-1,-1,-1,-1,-1,-1,-1,-1,-1,-1,-1,-1,-1,-1,-1,-1,-1,-1,-1,-1,-1,-1,-1,-1,-1,-1,-1,-1,-1,-1,-1,-1,-1,-1,-1,-1,-1,-1,-1,-1,-1,-1,-1,-1,-1,-1,-1,-1,-1,-1,-1,-1,-1,-1,-1,-1,-1,-1,-1,-1,-1,-1,-1,-1,-1,-1,-1,-1,-1,-1,-1,-1,-1,-1,-1,-1,-1,-1,-1,-1,-1,-1,-1,-1,-1,-1,-1,-1,-1,-1,-1,-1,-1,-1,-1,-1,-1,-1,-1,-1,-1,-1,-1,-1,-1,-1,-1,-1,-1],"split_conditions":[2.55E1,1.06E1,4.215E1,6.6E0,1.55E1,7.14366E4,3.6661373E1,3.630324E4,9.4E-1,1.16E0,1.16E0,3.225E1,1.2E-1,-9.914097E-1,1.98E1,1.16E0,4.3E-1,-1.7E0,-9.9683666E-1,7.14366E4,-9.9683666E-1,1.9473684E1,-9.9683666E-1,1.15E1,9.4E-1,-5.760691E-1,2.5226961E1,-2E-1,7.14366E4,-9.7742647E-1,-9.8091614E-1,-1E0,-9.044055E-1,7.14366E4,-3.5243872E-1,8.15E0,3.630324E4,-9.996093E-1,7.14366E4,-2.5E0,-5.1850516E-1,-9.9898064E-1,0E0,1.35E1,3.630324E4,-9.983151E-1,-5.051062E-2,5.240103E-1,8.3E-1,1.07E1,-9.9683666E-1,9.3E0,-3E-1,4.5E-1,-6.6E0,-1.1935409E0,2.9533E2,1.98E1,1.1E-1,-9.957283E-1,5.422022E-1,-9.9683666E-1,1.372799E4,-1.2E0,5.9701E2,-9.18547E-1,1.29E1,2.8E-1,1.6E-1,9.4E-1,-2.3328854E-1,7.14366E4,-6.474428E-1,5.9701E2,7.14366E4,3E-1,8.317739E0,-8.9882547E-1,6.85E0,-4.1203365E-1,1.27E1,-5.654755E-1,9E0,5.9381E2,2.6E0,-9.18547E-1,-8.891935E-1,1.94885E4,-4.1203365E-1,1.09E1,-6.33914E-2,-9.9898064E-1,3.4849224E0,1.03E1,2.46237E0,2.81E1,-3.9E0,1.479071E4,2.1E0,5.240103E-1,3.630324E4,-9.983151E-1,5.7E0,3.8063715E0,-4.7E0,1.52E1,9.8E0,-5.5120456E-1,2.7602665E0,-9.9E0,1.3E0,2E0,-7.4863577E-1,6.90574E-1,5.707842E-1,-6.952253E-1,1.59E1,-9.983151E-1,6E-1,2.687436E4,1.74E1,-1.4864767E0,1.68E1,5.422022E-1,1.23E1,6.137801E-2,1.1861148E-1,4.4912584E-2,8.6001135E-2,6.2399644E-1,1.3110031E0,2.4461125E-1,1.2602147E0,2.857258E-1,5.642267E-1,4.2727298E-1,8.1743646E-1,5.91838E-1,1.5510744E0,1.9768863E0,5.5179304E-1,-3.3512376E-2,5.7366836E-1,-2.933696E-2,-9.5469E-2,-9.347145E-3,3.5565577E-2,2.8272468E-1,6.608087E-1,2.5338435E-1,7.00649E-2,1.2695497E-1,1.9798087E0,4.3754607E-1,1.22143865E-1,4.3376645E-1,1.9340225E0,-1.2552191E-1,-2.0365986E-1,-6.410563E-2,-1.273184E-1,7.20614E-1,2.2343023E0,1.1818087E0,3.152674E-1,1.2446558E-1,1.1451213E0,3.1978457E0,1.7972435E0,2.0195669E-1,1.4365782E0,3.4938845E-1,-2.9187696E-3,-1.627694E-1,2.7839544E-1,-2.00049E-1,-2.8343743E-1,-2.3596784E-1,-3.7386826E-1,5.225257E-1,-6.426552E-2,2.0257698E-1,1.1698718E0,5.04927E-1,1.3556859E-1,-4.7240436E-1,-6.2476414E-1,-4.8684296E-1,-2.453924E-1,-5.870279E-1,-2.807947E-1,-3.0888662E-1,3.6019102E-1,-8.024179E-1,-5.015478E-1,-8.038247E-1,-1.8589206E-1,-3.4594998E-2,3.4745126E0,1.1500702E0,-6.509778E-1,1.9002701E0,-8.643581E-2,7.064289E-1,1.8238201E0,7.8604144E-1,-4.407913E-3,-4.3192267E-2,8.7736434E-1,-3.6483353E-1,1.8981414E0,-3.4556988E-1,1.7953397E-1,1.2525208E0,3.151742E-1,-1.1172104E0,-8.804149E-1,-1.3227327E0,-1.1042855E0,-1.0994298E0,6.667097E-1,-9.038064E-1,-4.1833976E-1,-5.578123E-1,1.664254E0,-2.6578457E0,-1.7421021E0,-1.5947963E0,-8.616566E-1,-9.302577E-1,-1.2800467E0,-3.0693135E0,-4.0704145E0,-2.675514E0,-1.7364339E0,-9.0677977E-1,-1.9784477E0],"split_indices":[0,0,0,0,0,13,1,13,16,16,16,0,16,5,9,16,16,10,5,13,5,0,5,7,16,5,1,10,13,5,5,9,5,13,5,0,13,5,13,10,5,5,9,7,13,5,5,5,16,7,5,9,10,16,11,0,13,9,16,5,5,5,13,10,13,5,11,16,16,16,5,13,5,13,13,10,1,5,0,5,0,5,7,13,10,5,5,13,5,7,5,5,0,7,0,0,11,13,10,5,13,5,7,0,10,7,7,5,0,11,10,10,0,5,5,5,7,5,16,13,7,0,7,5,7,0,0,0,0,0,0,0,0,0,0,0,0,0,0,0,0,0,0,0,0,0,0,0,0,0,0,0,0,0,0,0,0,0,0,0,0,0,0,0,0,0,0,0,0,0,0,0,0,0,0,0,0,0,0,0,0,0,0,0,0,0,0,0,0,0,0,0,0,0,0,0,0,0,0,0,0,0,0,0,0,0,0,0,0,0,0,0,0,0,0,0,0,0,0,0,0,0,0,0,0,0,0,0,0,0,0,0,0,0,0,0,0],"split_type":[0,0,0,0,0,0,0,0,0,0,0,0,0,0,0,0,0,0,0,0,0,0,0,0,0,0,0,0,0,0,0,0,0,0,0,0,0,0,0,0,0,0,0,0,0,0,0,0,0,0,0,0,0,0,0,0,0,0,0,0,0,0,0,0,0,0,0,0,0,0,0,0,0,0,0,0,0,0,0,0,0,0,0,0,0,0,0,0,0,0,0,0,0,0,0,0,0,0,0,0,0,0,0,0,0,0,0,0,0,0,0,0,0,0,0,0,0,0,0,0,0,0,0,0,0,0,0,0,0,0,0,0,0,0,0,0,0,0,0,0,0,0,0,0,0,0,0,0,0,0,0,0,0,0,0,0,0,0,0,0,0,0,0,0,0,0,0,0,0,0,0,0,0,0,0,0,0,0,0,0,0,0,0,0,0,0,0,0,0,0,0,0,0,0,0,0,0,0,0,0,0,0,0,0,0,0,0,0,0,0,0,0,0,0,0,0,0,0,0,0,0,0,0,0,0,0,0,0,0,0,0,0,0,0,0,0,0],"sum_hessian":[9.10781E5,8.96451E5,1.433E4,7.28587E5,1.67864E5,1.0763E4,3.567E3,4.64257E5,2.6433E5,1.17583E5,5.0281E4,1.064E4,1.23E2,9.98E2,2.569E3,4.62854E5,1.403E3,2.62194E5,2.136E3,1.16804E5,7.79E2,4.9774E4,5.07E2,7.114E3,3.526E3,3.2E1,9.1E1,2.6E1,9.72E2,1.458E3,1.111E3,4.61673E5,1.181E3,1.235E3,1.68E2,5.2829E4,2.09365E5,1.71E2,1.965E3,1.16539E5,2.65E2,8.6E1,6.93E2,3.2283E4,1.7491E4,1.57E2,3.5E2,1.738E3,5.376E3,3.45E3,7.6E1,1.7E1,1.5E1,3.5E1,5.6E1,1.1E1,1.5E1,9.45E2,2.7E1,2.09E2,1.249E3,2.38E2,8.73E2,1.81943E5,2.7973E5,5.87E2,5.94E2,6.66E2,5.69E2,8.3E1,8.5E1,2.6169E4,2.666E4,2.08597E5,7.68E2,6.1E1,1.1E2,1.946E3,1.9E1,1.6468E4,1.00071E5,1.25E2,1.4E2,4.6E1,4E1,2.19E2,4.74E2,9.984E3,2.2299E4,1.7324E4,1.67E2,1.44E2,1.3E1,3.48E2,2E0,7.96E2,9.42E2,5.2E3,1.76E2,7.14E2,2.736E3,2.5E1,5.1E1,1.1E1,6E0,5E0,1E1,3.2E1,3E0,6E0,5E1,1.1E1,4E0,2.19E2,7.26E2,1.1E1,1.6E1,8E0,2.01E2,9.3E2,3.19E2,1.8E1,2.2E2,7.63E2,1.1E2,5.0547E4,1.31396E5,1.84074E5,9.5656E4,4.4E2,1.47E2,5.85E2,9E0,5.95E2,7.1E1,3.89E2,1.8E2,6.6E1,1.7E1,5.7E1,2.8E1,2.6121E4,4.8E1,5.635E3,2.1025E4,1.06401E5,1.02196E5,4.2E2,3.48E2,1.6E1,4.5E1,1.9E1,9.1E1,8.57E2,1.089E3,3E0,1.6E1,3.759E3,1.2709E4,5.7948E4,4.2123E4,1.07E2,1.8E1,1.2E1,1.28E2,1.3E1,3.3E1,3.2E1,8E0,1.19E2,1E2,2.93E2,1.81E2,9.783E3,2.01E2,8.563E3,1.3736E4,3.04E3,1.4284E4,1.28E2,3.9E1,1.09E2,3.5E1,4.2E1,3.06E2,3.87E2,4.09E2,2.43E2,6.99E2,5.055E3,1.45E2,1.52E2,2.4E1,3.17E2,3.97E2,2.711E3,2.5E1,2E1,5E0,2E0,4.9E1,2E0,4E0,3E0,2E0,3E0,7E0,1.7E1,1.5E1,3E0,3E0,3.9E1,1.1E1,7E0,4E0,1.82E2,3.7E1,6.38E2,8.8E1,2E0,9E0,8E0,8E0,5E0,3E0,1.38E2,6.3E1,7.99E2,1.31E2,2.47E2,7.2E1,8.2E1,1.38E2,6.67E2,9.6E1,4.2E1,6.8E1],"tree_param":{"num_deleted":"0","num_feature":"19","num_nodes":"237","size_leaf_vector":"1"}},{"base_weights":[2.6246498E-3,3.5871708E-1,-3.0007992E1,1.433059E0,-4.727025E0,-1.8939476E1,-5.2239407E1,2.2586398E0,-9.434374E-2,-3.3707702E0,-8.827243E0,-1.9480684E1,1.784704E1,-4.2361225E1,-6.082537E1,2.2041845E0,1.2302307E1,-1.7564002E-1,9.690672E0,-3.5102377E0,1.611747E1,-7.6192565E0,-1.2060828E1,-1.7016794E1,-2.1972141E1,5.2606895E1,2.12153E-1,-5.66852E1,-3.7825783E1,-7.16786E1,-5.43516E1,2.1675608E0,1.4531972E1,2.5210379E1,8.743718E0,-2.0912863E-1,1.8964155E1,2.882115E1,5.0296183E0,-3.565639E0,1.8685268E1,4.0383255E1,4.085432E0,-7.816056E0,1.0257534E1,-1.2293656E1,2.2698738E1,-1.719192E1,5.111354E-1,-2.241764E1,-7.6607175E0,-3.065785E0,7.4998604E1,-1.9237334E0,2.3315563E1,-6.0249256E1,-2.2515528E1,-4.2915573E1,-3.0105947E1,-7.315317E1,-1.7443214E1,-5.6377003E1,-3.7501553E1,2.9156609E0,1.6538678E0,1.2353409E1,3.5907326E1,3.8981033E1,1.8830544E1,7.955272E0,5.801936E1,3.2348257E-1,-1.1208915E0,2.7157915E1,8.504229E0,1.4653269E1,4.1334995E1,4.396368E0,6.50145E1,-2.7488081E0,-4.9863305E0,3.6331944E1,1.506489E1,2.4185747E1,5.465324E1,6.1401014E0,-4.5100303E0,-7.968813E0,1.0501812E1,2.2407309E1,4.5354347E0,-1.2484293E1,3.573775E0,1.6144686E1,5.6980423E1,-1.671414E1,-2.0588865E1,3.0976902E1,-1.2397886E1,-2.1251925E1,-2.5715782E1,-1.7410389E1,1.1970713E0,-9.255148E0,3.634543E0,8.87535E1,2.694978E1,9.9279255E-1,-1.021703E1,1.9022442E0,-2.7256283E-1,-5.412387E1,-7.468891E1,4.0136266E0,-3.3594074E1,-4.5560284E1,-2.5485703E1,-3.645301E1,-2.838475E1,-8.10763E1,-6.770035E1,-1.4408424E0,2.7342539E1,-5.967392E1,-4.5125774E1,-5.7135696E1,-2.8243296E1,8.089911E-2,1.19874775E-1,4.1407503E-2,8.053929E-2,5.9299564E-1,2.55856E-1,1.6292458E0,7.3621494E-1,6.524746E-1,1.9964232E0,3.3431298E-1,7.81618E-1,3.7119943E-1,1.373132E-1,2.262971E0,3.47315E-1,-1.1222577E-2,3.4269266E-2,-5.6727108E-2,-8.850001E-3,7.8162456E-1,1.5875901E0,1.0485584E0,2.4735463E-1,7.496926E-1,2.86671E-1,8.308304E-1,1.7391243E0,2.1523662E-1,1.3910083E-2,2.60193E0,7.989206E-1,-1.1474303E-1,-6.628884E-2,-1.6708869E-1,1.2476571E-1,2.692051E-1,1.4610077E0,4.082309E-1,1.0948737E0,3.935221E-1,9.959616E-1,1.9408139E0,8.3493406E-1,1.641415E-1,3.0149555E-1,2.5381854E-1,-1.6658735E-1,-2.38637E-1,-3.0398786E-1,5.194198E-1,-9.869838E-2,6.128535E-1,2.5994067E0,8.490154E-1,2.0624405E-2,-3.8660178E-1,-4.6222392E-1,8.2837737E-1,-2.2213623E-1,4.3179384E-1,1.3864661E0,3.275207E0,6.1540824E-1,-5.1219445E-1,-6.010205E-1,-6.9081813E-1,-3.6353332E-1,1.6973095E0,1.7679305E-1,-2.2634916E-1,-4.5264712E-1,-7.0794165E-1,-3.226525E-1,-8.7433195E-1,-6.2164205E-1,-6.8624234E-1,-3.1077656E-1,-2.9790094E-1,1.0970951E0,-6.326158E-1,2.3264793E-1,5.232722E-1,-2.1254428E-1,9.3432873E-1,3.1085565E0,1.200211E0,3.5613865E-1,2.234768E-1,-2.3216578E-1,-2.420767E-1,-5.8566993E-1,-1.5875919E0,-2.0214756E0,-3.0402455E0,-1.9171481E0,1.6582723E-1,-1.8915553E0,-1.8008595E0,-1.4193175E0,-1.8208503E0,-2.7899113E-1,1.1111476E0,-1.3066248E0,-9.8710936E-1,-2.5598666E-1,-2.4649E0,-3.6447945E0,-2.3882303E0,-1.7211671E0,1.2829537E0,-1.5976419E-1,-2.7111864E0,-1.8773533E0,-1.4602588E0,-2.583899E0,-1.67002E-1,-2.23437E0,6.849575E-1,-1.0542272E0],"categories":[],"categories_nodes":[],"categories_segments":[],"categories_sizes":[],"default_left":[0,0,0,0,0,0,0,0,0,0,0,0,0,0,0,0,0,0,0,0,0,0,0,0,0,0,0,0,0,0,0,0,0,0,0,0,0,0,0,0,0,0,0,0,0,0,0,0,0,0,0,0,0,0,0,0,0,0,0,0,0,0,0,0,0,0,0,0,0,0,0,0,0,0,0,0,0,0,0,0,0,0,0,0,0,0,0,0,0,0,0,0,0,0,0,0,0,0,0,0,0,0,0,0,0,0,0,0,0,0,0,0,0,0,0,0,0,0,0,0,0,0,0,0,0,0,0,0,0,0,0,0,0,0,0,0,0,0,0,0,0,0,0,0,0,0,0,0,0,0,0,0,0,0,0,0,0,0,0,0,0,0,0,0,0,0,0,0,0,0,0,0,0,0,0,0,0,0,0,0,0,0,0,0,0,0,0,0,0,0,0,0,0,0,0,0,0,0,0,0,0,0,0,0,0,0,0,0,0,0,0,0,0,0,0,0,0,0,0,0,0,0,0,0,0,0,0,0,0,0,0,0,0,0,0,0,0,0,0,0,0,0,0,0,0,0,0],"id":1,"left_children":[1,3,5,7,9,11,13,15,17,19,21,23,25,27,29,31,33,35,37,39,41,43,45,47,49,51,53,55,57,59,61,63,65,67,69,71,73,75,77,79,81,83,85,87,89,91,93,95,97,99,101,103,105,107,109,111,113,115,117,119,121,123,125,127,129,131,133,135,137,139,141,143,145,147,149,151,153,155,157,159,161,163,165,167,169,171,173,175,177,179,181,183,185,187,189,191,193,195,197,199,201,203,205,207,209,211,213,215,217,-1,-1,219,221,-1,223,225,227,229,231,233,235,-1,237,239,241,243,245,-1,-1,-1,-1,-1,-1,-1,-1,-1,-1,-1,-1,-1,-1,-1,-1,-1,-1,-1,-1,-1,-1,-1,-1,-1,-1,-1,-1,-1,-1,-1,-1,-1,-1,-1,-1,-1,-1,-1,-1,-1,-1,-1,-1,-1,-1,-1,-1,-1,-1,-1,-1,-1,-1,-1,-1,-1,-1,-1,-1,-1,-1,-1,-1,-1,-1,-1,-1,-1,-1,-1,-1,-1,-1,-1,-1,-1,-1,-1,-1,-1,-1,-1,-1,-1,-1,-1,-1,-1,-1,-1,-1,-1,-1,-1,-1,-1,-1,-1,-1,-1,-1,-1,-1,-1,-1,-1,-1,-1,-1,-1,-1,-1,-1,-1,-1,-1,-1,-1,-1],"loss_changes":[9.740227E6,4.921597E6,2.628995E6,9.377561E5,8.73572E5,1.424395E5,2.98681E5,2.63997E5,2.0756531E5,3.209135E5,1.5243075E5,4.28055E4,6.373939E4,1.0537375E5,1.2946E5,2.1674475E5,1.19347125E5,1.6587164E5,1.9156662E5,1.4419762E5,2.4479522E5,1.00100625E5,8.62105E4,1.08781875E4,2.2105125E4,4.386115E4,3.4990913E3,4.6869375E4,4.8216375E4,5.51855E4,3.860075E4,1.839625E5,6.577547E4,4.864022E4,7.887253E4,1.2544784E5,3.850822E4,7.4035375E4,6.5428977E4,1.35669E5,1.8107852E4,6.2934594E4,9.953081E3,7.87715E4,2.145026E4,3.1951375E4,1.5032633E4,5.3460625E3,1.4542245E4,1.2479375E4,9.261418E3,4.898166E2,1.4130781E4,1.5823384E3,6.9795938E3,2.7622125E4,6.636373E4,3.373425E4,4.4712812E3,2.419175E4,2.467829E4,3.673875E4,2.2199219E4,6.48445E4,8.911125E4,3.324003E4,2.2881672E4,7.196056E4,1.6063328E4,2.5081172E4,1.5320836E4,7.7366086E4,4.8582633E4,1.7265797E4,4.4560684E3,9.377754E3,3.9627375E4,1.4472695E4,8.250469E3,4.00045E4,2.8818625E4,1.0601699E4,1.1497098E4,9.3424375E3,1.6458406E4,1.5407559E3,7.544426E2,2.54945E4,1.6514834E4,1.9941547E4,1.755268E4,1.20405E4,2.812279E4,4.279087E3,1.5971492E4,5.2225E3,1.1829688E3,5.48946E3,9.582129E1,5.57275E3,4.21675E3,1.1839512E3,1.8977484E4,1.1051409E3,8.4098083E2,3.5860312E3,6.72959E2,2.3210652E3,2.3868091E2,0E0,0E0,7.99375E3,2.4743938E4,0E0,3.4190004E4,1.273075E4,5.111389E4,2.4245188E4,1.24041875E4,4.33025E4,2.62065E4,0E0,3.1581084E3,4.659775E4,3.6510312E3,2.2230422E4,1.7174562E4,0E0,0E0,0E0,0E0,0E0,0E0,0E0,0E0,0E0,0E0,0E0,0E0,0E0,0E0,0E0,0E0,0E0,0E0,0E0,0E0,0E0,0E0,0E0,0E0,0E0,0E0,0E0,0E0,0E0,0E0,0E0,0E0,0E0,0E0,0E0,0E0,0E0,0E0,0E0,0E0,0E0,0E0,0E0,0E0,0E0,0E0,0E0,0E0,0E0,0E0,0E0,0E0,0E0,0E0,0E0,0E0,0E0,0E0,0E0,0E0,0E0,0E0,0E0,0E0,0E0,0E0,0E0,0E0,0E0,0E0,0E0,0E0,0E0,0E0,0E0,0E0,0E0,0E0,0E0,0E0,0E0,0E0,0E0,0E0,0E0,0E0,0E0,0E0,0E0,0E0,0E0,0E0,0E0,0E0,0E0,0E0,0E0,0E0,0E0,0E0,0E0,0E0,0E0,0E0,0E0,0E0,0E0,0E0,0E0,0E0,0E0,0E0,0E0,0E0,0E0,0E0,0E0,0E0,0E0,0E0],"parents":[2147483647,0,0,1,1,2,2,3,3,4,4,5,5,6,6,7,7,8,8,9,9,10,10,11,11,12,12,13,13,14,14,15,15,16,16,17,17,18,18,19,19,20,20,21,21,22,22,23,23,24,24,25,25,26,26,27,27,28,28,29,29,30,30,31,31,32,32,33,33,34,34,35,35,36,36,37,37,38,38,39,39,40,40,41,41,42,42,43,43,44,44,45,45,46,46,47,47,48,48,49,49,50,50,51,51,52,52,53,53,54,54,55,55,56,56,57,57,58,58,59,59,60,60,61,61,62,62,63,63,64,64,65,65,66,66,67,67,68,68,69,69,70,70,71,71,72,72,73,73,74,74,75,75,76,76,77,77,78,78,79,79,80,80,81,81,82,82,83,83,84,84,85,85,86,86,87,87,88,88,89,89,90,90,91,91,92,92,93,93,94,94,95,95,96,96,97,97,98,98,99,99,100,100,101,101,102,102,103,103,104,104,105,105,106,106,107,107,108,108,111,111,112,112,114,114,115,115,116,116,117,117,118,118,119,119,120,120,122,122,123,123,124,124,125,125,126,126],"right_children":[2,4,6,8,10,12,14,16,18,20,22,24,26,28,30,32,34,36,38,40,42,44,46,48,50,52,54,56,58,60,62,64,66,68,70,72,74,76,78,80,82,84,86,88,90,92,94,96,98,100,102,104,106,108,110,112,114,116,118,120,122,124,126,128,130,132,134,136,138,140,142,144,146,148,150,152,154,156,158,160,162,164,166,168,170,172,174,176,178,180,182,184,186,188,190,192,194,196,198,200,202,204,206,208,210,212,214,216,218,-1,-1,220,222,-1,224,226,228,230,232,234,236,-1,238,240,242,244,246,-1,-1,-1,-1,-1,-1,-1,-1,-1,-1,-1,-1,-1,-1,-1,-1,-1,-1,-1,-1,-1,-1,-1,-1,-1,-1,-1,-1,-1,-1,-1,-1,-1,-1,-1,-1,-1,-1,-1,-1,-1,-1,-1,-1,-1,-1,-1,-1,-1,-1,-1,-1,-1,-1,-1,-1,-1,-1,-1,-1,-1,-1,-1,-1,-1,-1,-1,-1,-1,-1,-1,-1,-1,-1,-1,-1,-1,-1,-1,-1,-1,-1,-1,-1,-1,-1,-1,-1,-1,-1,-1,-1,-1,-1,-1,-1,-1,-1,-1,-1,-1,-1,-1,-1,-1,-1,-1,-1,-1,-1,-1,-1,-1,-1,-1,-1,-1,-1,-1,-1],"split_conditions":[2.81E1,1.095E1,4.215E1,6.8E0,1.685E1,7.14366E4,1.98E1,9.4E-1,9.4E-1,1.16E0,2.2222221E1,3.225E1,1.2E-1,-1.98E1,-5E-1,3.630324E4,-8.660254E-1,7.14366E4,-8.660254E-1,7.14366E4,-8.660254E-1,1.16E0,7.14366E4,1.16E0,8.3E-1,1E-1,4.4E-1,2.687436E4,-2.4492937E-16,1.16E0,2.687436E4,-9E-1,4.3E-1,-3.65E0,6.2818025E5,9E0,-5E-1,9.3648E2,1.1446839E6,1.365E1,1.2E-1,1.84475E3,-2.4492937E-16,3.630324E4,-8.660254E-1,1.16E0,1.41E1,1.98E1,-8.660254E-1,1.98E1,-2.4492937E-16,-7.45E0,1.98E1,1.98E1,1.1446839E6,5E-1,4.7425628E5,1.94885E4,-8.660254E-1,2.9533E2,-2.4492937E-16,-2.4492937E-16,-8.660254E-1,5.955E2,6.046E2,-5E-1,-8.660254E-1,1.23374E3,1.16E0,-2.4492937E-16,1.15E0,3.4094E2,9.0568E2,4.1E-1,-1.02E1,-3.5E-1,1.16E0,-2.4492937E-16,9.1E0,5.9701E2,2.227816E4,9E-2,5.5E0,5.3459E3,1.1884786E5,3.3080438E4,-3.55E0,1.9473684E1,-5E-1,6.07934E3,-5E-1,2.55E1,-8.660254E-1,6.123234E-17,1.2E-1,2.3E-1,5.8E-1,1.17E1,1.85E0,3.4614912E5,8.660254E-1,2.1698885E4,1.16E0,-8.660254E-1,-8.660254E-1,-8.660254E-1,-8.660254E-1,-1.8369701E-16,-5E-1,1.9022442E0,-2.7256283E-1,-1.8369701E-16,2.9533E2,4.0136266E0,-1.8369701E-16,-5E-1,-8.660254E-1,1.2E-1,5.4E-1,7.1E-1,5.1E-1,-1.4408424E0,2.9533E2,9E-2,6.5E-1,1E-1,4.7425628E5,8.089911E-2,1.19874775E-1,4.1407503E-2,8.053929E-2,5.9299564E-1,2.55856E-1,1.6292458E0,7.3621494E-1,6.524746E-1,1.9964232E0,3.3431298E-1,7.81618E-1,3.7119943E-1,1.373132E-1,2.262971E0,3.47315E-1,-1.1222577E-2,3.4269266E-2,-5.6727108E-2,-8.850001E-3,7.8162456E-1,1.5875901E0,1.0485584E0,2.4735463E-1,7.496926E-1,2.86671E-1,8.308304E-1,1.7391243E0,2.1523662E-1,1.3910083E-2,2.60193E0,7.989206E-1,-1.1474303E-1,-6.628884E-2,-1.6708869E-1,1.2476571E-1,2.692051E-1,1.4610077E0,4.082309E-1,1.0948737E0,3.935221E-1,9.959616E-1,1.9408139E0,8.3493406E-1,1.641415E-1,3.0149555E-1,2.5381854E-1,-1.6658735E-1,-2.38637E-1,-3.0398786E-1,5.194198E-1,-9.869838E-2,6.128535E-1,2.5994067E0,8.490154E-1,2.0624405E-2,-3.8660178E-1,-4.6222392E-1,8.2837737E-1,-2.2213623E-1,4.3179384E-1,1.3864661E0,3.275207E0,6.1540824E-1,-5.1219445E-1,-6.010205E-1,-6.9081813E-1,-3.6353332E-1,1.6973095E0,1.7679305E-1,-2.2634916E-1,-4.5264712E-1,-7.0794165E-1,-3.226525E-1,-8.7433195E-1,-6.2164205E-1,-6.8624234E-1,-3.1077656E-1,-2.9790094E-1,1.0970951E0,-6.326158E-1,2.3264793E-1,5.232722E-1,-2.1254428E-1,9.3432873E-1,3.1085565E0,1.200211E0,3.5613865E-1,2.234768E-1,-2.3216578E-1,-2.420767E-1,-5.8566993E-1,-1.5875919E0,-2.0214756E0,-3.0402455E0,-1.9171481E0,1.6582723E-1,-1.8915553E0,-1.8008595E0,-1.4193175E0,-1.8208503E0,-2.7899113E-1,1.1111476E0,-1.3066248E0,-9.8710936E-1,-2.5598666E-1,-2.4649E0,-3.6447945E0,-2.3882303E0,-1.7211671E0,1.2829537E0,-1.5976419E-1,-2.7111864E0,-1.8773533E0,-1.4602588E0,-2.583899E0,-1.67002E-1,-2.23437E0,6.849575E-1,-1.0542272E0],"split_indices":[0,0,0,0,0,13,9,16,16,16,0,0,16,9,3,13,3,13,3,13,3,16,13,16,16,16,16,13,2,16,13,9,16,9,14,0,2,13,14,0,16,13,2,13,3,16,9,9,3,9,2,9,9,9,14,16,14,13,3,13,2,2,2,13,13,2,2,13,16,2,9,13,13,16,9,9,16,2,0,13,13,16,9,14,14,14,9,0,2,13,2,0,3,3,16,16,16,9,9,14,3,14,16,2,2,2,2,3,2,0,0,3,13,0,3,3,2,16,16,16,16,0,13,16,16,16,14,0,0,0,0,0,0,0,0,0,0,0,0,0,0,0,0,0,0,0,0,0,0,0,0,0,0,0,0,0,0,0,0,0,0,0,0,0,0,0,0,0,0,0,0,0,0,0,0,0,0,0,0,0,0,0,0,0,0,0,0,0,0,0,0,0,0,0,0,0,0,0,0,0,0,0,0,0,0,0,0,0,0,0,0,0,0,0,0,0,0,0,0,0,0,0,0,0,0,0,0,0,0,0,0,0,0,0,0,0,0,0,0,0,0,0,0,0,0,0,0],"split_type":[0,0,0,0,0,0,0,0,0,0,0,0,0,0,0,0,0,0,0,0,0,0,0,0,0,0,0,0,0,0,0,0,0,0,0,0,0,0,0,0,0,0,0,0,0,0,0,0,0,0,0,0,0,0,0,0,0,0,0,0,0,0,0,0,0,0,0,0,0,0,0,0,0,0,0,0,0,0,0,0,0,0,0,0,0,0,0,0,0,0,0,0,0,0,0,0,0,0,0,0,0,0,0,0,0,0,0,0,0,0,0,0,0,0,0,0,0,0,0,0,0,0,0,0,0,0,0,0,0,0,0,0,0,0,0,0,0,0,0,0,0,0,0,0,0,0,0,0,0,0,0,0,0,0,0,0,0,0,0,0,0,0,0,0,0,0,0,0,0,0,0,0,0,0,0,0,0,0,0,0,0,0,0,0,0,0,0,0,0,0,0,0,0,0,0,0,0,0,0,0,0,0,0,0,0,0,0,0,0,0,0,0,0,0,0,0,0,0,0,0,0,0,0,0,0,0,0,0,0,0,0,0,0,0,0,0,0,0,0,0,0,0,0,0,0,0,0],"sum_hessian":[9.11445E5,9.00758E5,1.0687E4,7.43663E5,1.57095E5,7.136E3,3.551E3,4.82737E5,2.60926E5,1.18049E5,3.9046E4,7.033E3,1.03E2,1.654E3,1.897E3,4.80135E5,2.602E3,2.58777E5,2.149E3,1.17211E5,8.38E2,2.8429E4,1.0617E4,3.54E3,3.493E3,3.4E1,6.9E1,3.95E2,1.259E3,7.05E2,1.192E3,4.78714E5,1.421E3,5.61E2,2.041E3,2.58326E5,4.51E2,4.2E2,1.729E3,1.1692E5,2.91E2,2.77E2,5.61E2,2.812E4,3.09E2,1.0547E4,7E1,3.505E3,3.5E1,3.387E3,1.06E2,1E1,2.4E1,6.4E1,5E0,3.57E2,3.8E1,7.56E2,5.03E2,6.86E2,1.9E1,1.062E3,1.3E2,1.94889E5,2.83825E5,1.291E3,1.3E2,1.76E2,3.85E2,2.01E3,3.1E1,1.63069E5,9.5257E4,2.52E2,1.99E2,1.98E2,2.22E2,1.712E3,1.7E1,7.4239E4,4.2681E4,4.8E1,2.43E2,1.31E2,1.46E2,4.53E2,1.08E2,2.7888E4,2.32E2,9.8E1,2.11E2,1.0422E4,1.25E2,6E1,1E1,3.078E3,4.27E2,1E1,2.5E1,2.508E3,8.79E2,5E1,5.6E1,5E0,5E0,1.8E1,6E0,4.8E1,1.6E1,2E0,3E0,2.54E2,1.03E2,2E0,3.6E1,6.55E2,1.01E2,1.03E2,4E2,2.74E2,4.12E2,1.2E1,7E0,8.18E2,2.44E2,4E1,9E1,1.18299E5,7.659E4,1.88303E5,9.5522E4,5.8E2,7.11E2,6.4E1,6.6E1,9.4E1,8.2E1,1.39E2,2.46E2,1.075E3,9.35E2,2.5E1,6E0,8.4576E4,7.8493E4,5.5986E4,3.9271E4,2.18E2,3.4E1,7E0,1.92E2,8.3E1,1.15E2,9.3E1,1.29E2,1.115E3,5.97E2,1.2E1,5E0,3.7416E4,3.6823E4,4.231E4,3.71E2,1.1E1,3.7E1,2.13E2,3E1,4.4E1,8.7E1,1.27E2,1.9E1,3.28E2,1.25E2,4E0,1.04E2,1.7508E4,1.038E4,1.67E2,6.5E1,9.3E1,5E0,3.2E1,1.79E2,6.93E3,3.492E3,4E1,8.5E1,5.5E1,5E0,4E0,6E0,1.72E3,1.358E3,4.11E2,1.6E1,5E0,5E0,6E0,1.9E1,2.464E3,4.4E1,7.87E2,9.2E1,3.4E1,1.6E1,4.3E1,1.3E1,3E0,2E0,2E0,3E0,2E0,1.6E1,3E0,3E0,2.8E1,2E1,1.3E1,3E0,1.42E2,1.12E2,4.8E1,5.5E1,1.4E1,2.2E1,1.4E2,5.15E2,3.6E1,6.5E1,4E0,9.9E1,3.72E2,2.8E1,2.28E2,4.6E1,3.14E2,9.8E1,5E0,2E0,8.7E1,7.31E2,2.4E2,4E0,7E0,3.3E1,6E0,8.4E1],"tree_param":{"num_deleted":"0","num_feature":"19","num_nodes":"247","size_leaf_vector":"1"}},{"base_weights":[-3.146727E-3,1.9711773E-1,-5.085441E1,1.1978971E0,-6.3159947E0,-5.233233E1,-3.306917E1,2.097856E0,-5.371992E-1,-4.921664E0,-1.4391275E1,-6.46621E1,-5.07194E1,1.5419204E1,-3.629887E1,2.0596232E0,1.4691745E1,-1.3857058E0,5.8845216E-1,-3.8751132E0,-7.229298E0,-1.4727695E1,1.997567E1,-5.5086674E1,-8.454475E1,-4.176928E1,-5.2828354E1,-3.2106056E1,6.65118E1,-3.9254536E1,-4.1359334E0,9.5227945E-1,2.3997948E0,9.953919E0,1.9925634E1,1.0916965E-2,-2.077557E0,5.295283E-1,1.9754349E1,-3.971361E0,1.285497E1,-4.8249516E0,-8.065977E0,-1.1971254E1,-1.8870443E1,-1.1738304E0,3.1215881E1,-9.998858E-1,-5.649205E1,-4.1090576E1,-9.658913E1,-6.554949E1,-3.987066E1,-5.5406994E1,-4.2080368E1,-1.4519078E0,-1.0791121E-1,5.373945E0,1.57236805E1,-2.7665104E1,-4.70312E1,-1.7259436E0,2.941785E0,1.7225248E0,8.925174E-2,1.9794363E0,3.315631E0,3.5854015E1,9.656423E0,2.1631208E1,5.698154E0,-1.0315386E0,8.7862617E-1,-1.263515E0,-3.1601353E0,1.1813459E0,-3.2895783E-1,1.1177852E1,2.3574991E1,-4.8912754E0,-2.7094226E0,4.815151E0,1.9563347E1,-5.0881524E0,1.5586338E1,-9.456004E0,-6.205963E0,-9.222167E0,-1.2938277E1,-1.6561876E1,-2.1235365E1,5.599252E0,-1.18489685E1,3.9049547E0,2.7764242E1,-5.94559E1,-4.4745125E1,-4.448549E1,6.6952236E-2,-1.0180922E2,-6.695638E1,-2.4291529E1,-8.4514755E1,-2.9662102E1,-4.1924026E1,-5.281296E1,-6.5787544E1,-3.1047104E1,-4.7146748E1,1.792147E0,-8.841046E-1,-3.1094568E1,1.4803183E1,-7.8416275E1,-3.891003E1,1.7867645E0,-5.2976656E0,4.172673E-2,9.734286E-2,-1.3242948E-2,4.7490396E-2,8.0333866E-2,4.3442268E-2,1.2833942E-1,8.6896375E-2,4.225416E-1,2.5636172E0,3.6420608E-1,2.0499527E-1,8.783336E-1,5.4767644E-1,7.4939825E-2,3.4217802E-1,-1.0487019E-2,-6.310658E-2,6.9656335E-2,7.593719E-3,-7.395197E-2,-2.145655E-2,-1.590253E-1,-9.025111E-2,1.6882928E-2,6.425221E-2,-3.5829253E-2,1.5062584E-2,5.188513E-1,-3.4918785E-2,3.642202E-1,9.490567E-1,-8.32856E-2,-1.9062942E-1,-6.830802E-2,-1.21497765E-1,2.4612443E0,1.2049818E-1,1.5211529E-1,8.12151E-1,-2.1046779E-1,-1.301372E-1,2.6914278E-1,9.2870003E-1,-2.6736236E-1,-3.470588E-1,-2.1203846E-1,6.46121E-2,-4.1131702E-1,-2.5316596E-1,-4.798655E-1,-3.648147E-1,-4.335782E-1,-5.7685965E-1,-5.813571E-1,-7.305714E-1,9.103848E-1,-7.18064E-2,-5.2553827E-1,2.252765E-1,1.5806246E0,4.3193027E-1,-2.0741136E0,-1.5849621E0,-9.280492E-1,-1.6686957E0,-4.324526E-1,-1.5362996E0,-2.855797E0,-3.9603112E0,-8.397973E-1,-2.336209E0,-8.688742E-1,-4.1626757E-1,-8.934078E-1,-3.079809E0,-2.0889409E-1,-1.0405254E0,-1.1990589E0,-1.4970165E0,-1.6312656E0,-1.8114071E0,-2.4026575E0,-1.5336279E0,-1.1823883E0,-5.6884336E-1,-1.6147323E0,-1.0233771E0,-1.2655395E0,-6.588909E-1,1.1989923E0,-5.2173036E-1,-2.820954E0,-9.507478E-1,-7.3379296E-1,-1.673086E0,2.528934E-1,-5.088797E-1],"categories":[],"categories_nodes":[],"categories_segments":[],"categories_sizes":[],"default_left":[0,0,0,0,0,0,0,0,0,0,0,0,0,0,0,0,0,0,0,0,0,0,0,0,0,0,0,0,0,0,0,0,0,0,0,0,0,0,0,0,0,0,0,0,0,0,0,0,0,0,0,0,0,0,0,0,0,0,0,0,0,0,0,0,0,0,0,0,0,0,0,0,0,0,0,0,0,0,0,0,0,0,0,0,0,0,0,0,0,0,0,0,0,0,0,0,0,0,0,0,0,0,0,0,0,0,0,0,0,0,0,0,0,0,0,0,0,0,0,0,0,0,0,0,0,0,0,0,0,0,0,0,0,0,0,0,0,0,0,0,0,0,0,0,0,0,0,0,0,0,0,0,0,0,0,0,0,0,0,0,0,0,0,0,0,0,0,0,0,0,0,0,0,0,0,0,0,0,0,0,0,0,0,0,0,0,0,0,0,0,0,0,0,0,0,0,0,0,0,0,0,0,0,0,0,0,0,0,0,0,0,0,0,0,0],"id":2,"left_children":[1,3,5,7,9,11,13,15,17,19,21,23,25,27,29,31,33,35,37,39,41,43,45,47,49,51,53,55,57,59,61,63,65,67,69,71,73,75,77,79,81,83,85,87,89,91,93,-1,95,97,99,101,103,105,107,-1,-1,-1,109,111,113,-1,115,117,119,121,123,125,127,129,131,133,135,137,139,141,143,145,147,149,151,153,155,157,159,161,163,165,167,169,171,173,175,-1,177,179,181,183,-1,185,187,189,191,193,195,197,199,201,203,-1,-1,205,207,209,211,-1,213,-1,-1,-1,-1,-1,-1,-1,-1,-1,-1,-1,-1,-1,-1,-1,-1,-1,-1,-1,-1,-1,-1,-1,-1,-1,-1,-1,-1,-1,-1,-1,-1,-1,-1,-1,-1,-1,-1,-1,-1,-1,-1,-1,-1,-1,-1,-1,-1,-1,-1,-1,-1,-1,-1,-1,-1,-1,-1,-1,-1,-1,-1,-1,-1,-1,-1,-1,-1,-1,-1,-1,-1,-1,-1,-1,-1,-1,-1,-1,-1,-1,-1,-1,-1,-1,-1,-1,-1,-1,-1,-1,-1,-1,-1,-1,-1,-1,-1],"loss_changes":[9.280824E6,5.9169975E6,9.2239E4,1.2286969E6,1.361284E6,6.2328E4,4.3938688E4,2.49445E5,2.5668047E5,2.4897625E5,2.0611625E5,6.7308125E4,5.29475E4,4.5842844E4,2.4554E4,1.94577E5,3.868375E4,1.4806319E5,1.3043484E5,1.14276E5,6.4674375E4,2.010955E5,4.116304E4,7.2758125E3,5.9359938E4,2.2760562E4,6.31035E4,3.2850605E3,4.1473523E4,2.0149125E4,7.994584E3,8.069566E4,1.5212275E5,6.0105625E3,1.7930656E4,4.5918492E4,9.030091E4,6.4437836E4,1.1336266E4,8.1865625E4,2.1803062E4,4.4706703E4,6.163825E4,2.803075E4,3.809475E4,4.4768643E3,3.0692938E4,0E0,5.7999375E3,4.189078E3,7.7236875E3,2.9245719E4,9.7195625E3,4.77155E4,2.43055E4,0E0,0E0,0E0,1.2937615E4,1.4733352E4,3.2887406E4,0E0,9.146345E3,3.6057375E4,3.7910023E4,8.1689125E4,4.86365E4,7.6831045E3,3.8152656E3,1.6224094E4,1.2731223E3,1.4496254E4,2.213723E4,3.506383E4,3.1011688E4,3.3565844E4,2.9540219E4,6.1895195E3,1.5542797E4,8.549144E4,1.8484328E4,1.4828707E4,1.6566781E4,1.20821875E4,9.660059E3,1.9531875E4,1.830225E4,1.3772797E4,2.3481875E4,1.09914375E4,1.0966375E4,6.5566025E3,1.935825E3,0E0,3.1874523E4,4.393125E3,3.7065156E3,1.0780664E3,0E0,1.1291875E4,9.0652344E2,1.0527344E0,1.1141359E4,3.768625E3,6.6768125E3,8.0075E3,4.759775E4,9.157547E3,7.523875E3,0E0,0E0,6.581289E3,5.847223E3,7.3532188E3,2.1282484E4,0E0,2.6110571E3,0E0,0E0,0E0,0E0,0E0,0E0,0E0,0E0,0E0,0E0,0E0,0E0,0E0,0E0,0E0,0E0,0E0,0E0,0E0,0E0,0E0,0E0,0E0,0E0,0E0,0E0,0E0,0E0,0E0,0E0,0E0,0E0,0E0,0E0,0E0,0E0,0E0,0E0,0E0,0E0,0E0,0E0,0E0,0E0,0E0,0E0,0E0,0E0,0E0,0E0,0E0,0E0,0E0,0E0,0E0,0E0,0E0,0E0,0E0,0E0,0E0,0E0,0E0,0E0,0E0,0E0,0E0,0E0,0E0,0E0,0E0,0E0,0E0,0E0,0E0,0E0,0E0,0E0,0E0,0E0,0E0,0E0,0E0,0E0,0E0,0E0,0E0,0E0,0E0,0E0,0E0,0E0,0E0,0E0,0E0,0E0,0E0,0E0],"parents":[2147483647,0,0,1,1,2,2,3,3,4,4,5,5,6,6,7,7,8,8,9,9,10,10,11,11,12,12,13,13,14,14,15,15,16,16,17,17,18,18,19,19,20,20,21,21,22,22,23,23,24,24,25,25,26,26,27,27,28,28,29,29,30,30,31,31,32,32,33,33,34,34,35,35,36,36,37,37,38,38,39,39,40,40,41,41,42,42,43,43,44,44,45,45,46,46,48,48,49,49,50,50,51,51,52,52,53,53,54,54,58,58,59,59,60,60,62,62,63,63,64,64,65,65,66,66,67,67,68,68,69,69,70,70,71,71,72,72,73,73,74,74,75,75,76,76,77,77,78,78,79,79,80,80,81,81,82,82,83,83,84,84,85,85,86,86,87,87,88,88,89,89,90,90,91,91,92,92,94,94,95,95,96,96,97,97,99,99,100,100,101,101,102,102,103,103,104,104,105,105,106,106,107,107,108,108,111,111,112,112,113,113,114,114,116,116],"right_children":[2,4,6,8,10,12,14,16,18,20,22,24,26,28,30,32,34,36,38,40,42,44,46,48,50,52,54,56,58,60,62,64,66,68,70,72,74,76,78,80,82,84,86,88,90,92,94,-1,96,98,100,102,104,106,108,-1,-1,-1,110,112,114,-1,116,118,120,122,124,126,128,130,132,134,136,138,140,142,144,146,148,150,152,154,156,158,160,162,164,166,168,170,172,174,176,-1,178,180,182,184,-1,186,188,190,192,194,196,198,200,202,204,-1,-1,206,208,210,212,-1,214,-1,-1,-1,-1,-1,-1,-1,-1,-1,-1,-1,-1,-1,-1,-1,-1,-1,-1,-1,-1,-1,-1,-1,-1,-1,-1,-1,-1,-1,-1,-1,-1,-1,-1,-1,-1,-1,-1,-1,-1,-1,-1,-1,-1,-1,-1,-1,-1,-1,-1,-1,-1,-1,-1,-1,-1,-1,-1,-1,-1,-1,-1,-1,-1,-1,-1,-1,-1,-1,-1,-1,-1,-1,-1,-1,-1,-1,-1,-1,-1,-1,-1,-1,-1,-1,-1,-1,-1,-1,-1,-1,-1,-1,-1,-1,-1,-1,-1],"split_conditions":[4.215E1,1.23E1,2.687436E4,7.2E0,2.2222221E1,-2.6E0,3.4614912E5,3.630324E4,1.94E1,1.65E1,2.17E2,3.2E0,1.34E1,-1.1E0,5.4E0,-1.5E0,2.17E2,1.43E1,7.14366E4,1.1E2,1.26E1,2.81E1,-4E-1,-6E-1,1.1E1,7.3E0,2.53E1,2.07E1,1.69E1,-1.1E0,1.1E2,4.7E0,8.9524E2,5.7E0,2.56E1,-3E0,9.4E0,9.4E0,2.31E1,1.94E1,2.2E1,1.1E2,1.99E1,1.2E1,3.225E1,3.225E1,1.54E1,-9.998858E-1,2.18E1,1.08E1,2.01E1,3.1E0,1.3E0,2.14E1,2.9835E2,-1.4519078E0,-1.0791121E-1,5.373945E0,3E-1,1.66E1,-2E-1,-1.7259436E0,2.04E1,1.49E1,1.79E1,4.9E0,5.2E0,2.8178684E5,1.78E1,4.95E0,7.8E0,9.3E0,1.07E1,-1E0,-3E0,8.9878E2,9.0216E2,1.86E1,-1E0,1.31E1,1.425E1,-2.19E1,-8E-1,-2.3E0,1.1446839E6,1.82E1,4.9E1,-3.9E0,1.96E1,1.1E1,1.06E1,1.19E1,2.06E1,3.9049547E0,6E-1,2.14E1,-3.1E0,-1.1E0,6.6952236E-2,1.78E1,1.64E1,1.8E0,-1.19E1,-6.7944133E-1,1.17E1,1.27E1,1.6E0,2.53E1,6.39343E3,1.792147E0,-8.841046E-1,4E-1,-4.2E0,1.53E1,0E0,1.7867645E0,2.52E1,4.172673E-2,9.734286E-2,-1.3242948E-2,4.7490396E-2,8.0333866E-2,4.3442268E-2,1.2833942E-1,8.6896375E-2,4.225416E-1,2.5636172E0,3.6420608E-1,2.0499527E-1,8.783336E-1,5.4767644E-1,7.4939825E-2,3.4217802E-1,-1.0487019E-2,-6.310658E-2,6.9656335E-2,7.593719E-3,-7.395197E-2,-2.145655E-2,-1.590253E-1,-9.025111E-2,1.6882928E-2,6.425221E-2,-3.5829253E-2,1.5062584E-2,5.188513E-1,-3.4918785E-2,3.642202E-1,9.490567E-1,-8.32856E-2,-1.9062942E-1,-6.830802E-2,-1.21497765E-1,2.4612443E0,1.2049818E-1,1.5211529E-1,8.12151E-1,-2.1046779E-1,-1.301372E-1,2.6914278E-1,9.2870003E-1,-2.6736236E-1,-3.470588E-1,-2.1203846E-1,6.46121E-2,-4.1131702E-1,-2.5316596E-1,-4.798655E-1,-3.648147E-1,-4.335782E-1,-5.7685965E-1,-5.813571E-1,-7.305714E-1,9.103848E-1,-7.18064E-2,-5.2553827E-1,2.252765E-1,1.5806246E0,4.3193027E-1,-2.0741136E0,-1.5849621E0,-9.280492E-1,-1.6686957E0,-4.324526E-1,-1.5362996E0,-2.855797E0,-3.9603112E0,-8.397973E-1,-2.336209E0,-8.688742E-1,-4.1626757E-1,-8.934078E-1,-3.079809E0,-2.0889409E-1,-1.0405254E0,-1.1990589E0,-1.4970165E0,-1.6312656E0,-1.8114071E0,-2.4026575E0,-1.5336279E0,-1.1823883E0,-5.6884336E-1,-1.6147323E0,-1.0233771E0,-1.2655395E0,-6.588909E-1,1.1989923E0,-5.2173036E-1,-2.820954E0,-9.507478E-1,-7.3379296E-1,-1.673086E0,2.528934E-1,-5.088797E-1],"split_indices":[0,0,13,0,0,10,14,13,6,0,12,11,6,11,11,10,12,7,13,12,7,0,10,6,6,7,6,6,6,11,12,0,13,7,7,11,0,0,6,6,6,12,6,7,0,0,6,0,7,6,6,6,6,7,13,0,0,0,11,7,11,0,6,6,6,0,0,14,7,0,11,0,7,10,10,13,13,7,10,7,0,11,10,11,14,0,12,11,6,7,7,7,7,0,10,6,11,6,0,6,7,10,11,17,7,7,10,7,13,0,0,10,11,7,10,0,6,0,0,0,0,0,0,0,0,0,0,0,0,0,0,0,0,0,0,0,0,0,0,0,0,0,0,0,0,0,0,0,0,0,0,0,0,0,0,0,0,0,0,0,0,0,0,0,0,0,0,0,0,0,0,0,0,0,0,0,0,0,0,0,0,0,0,0,0,0,0,0,0,0,0,0,0,0,0,0,0,0,0,0,0,0,0,0,0,0,0,0,0,0,0,0,0,0,0],"split_type":[0,0,0,0,0,0,0,0,0,0,0,0,0,0,0,0,0,0,0,0,0,0,0,0,0,0,0,0,0,0,0,0,0,0,0,0,0,0,0,0,0,0,0,0,0,0,0,0,0,0,0,0,0,0,0,0,0,0,0,0,0,0,0,0,0,0,0,0,0,0,0,0,0,0,0,0,0,0,0,0,0,0,0,0,0,0,0,0,0,0,0,0,0,0,0,0,0,0,0,0,0,0,0,0,0,0,0,0,0,0,0,0,0,0,0,0,0,0,0,0,0,0,0,0,0,0,0,0,0,0,0,0,0,0,0,0,0,0,0,0,0,0,0,0,0,0,0,0,0,0,0,0,0,0,0,0,0,0,0,0,0,0,0,0,0,0,0,0,0,0,0,0,0,0,0,0,0,0,0,0,0,0,0,0,0,0,0,0,0,0,0,0,0,0,0,0,0,0,0,0,0,0,0,0,0,0,0,0,0,0,0,0,0,0,0],"sum_hessian":[9.11339E5,9.07765E5,3.574E3,7.8686E5,1.20905E5,3.298E3,2.76E2,5.18121E5,2.68739E5,1.03104E5,1.7801E4,3.77E2,2.921E3,1.7E1,2.59E2,5.16554E5,1.567E3,1.53233E5,1.15506E5,7.0936E4,3.2168E4,1.7629E4,1.72E2,2.57E2,1.2E2,5.61E2,2.36E3,9E0,8E0,2.37E2,2.2E1,1.21393E5,3.95161E5,8.24E2,7.43E2,5.0762E4,1.02471E5,1.15153E5,3.53E2,7.0531E4,4.05E2,8.306E3,2.3862E4,1.0588E4,7.041E3,6E1,1.12E2,1.5E1,2.42E2,2.7E1,9.3E1,3.9E1,5.22E2,1.9E3,4.6E2,6E0,3E0,2E0,6E0,9.7E1,1.4E2,2E0,2E1,6.4144E4,5.7249E4,2.70848E5,1.24313E5,8E0,8.16E2,6.63E2,8E1,2.3059E4,2.7703E4,5.8491E4,4.398E4,6.5455E4,4.9698E4,1.1E2,2.43E2,4.0792E4,2.9739E4,1.85E2,2.2E2,8.201E3,1.05E2,1.3654E4,1.0208E4,2.758E3,7.83E3,3.567E3,3.474E3,3.7E1,2.3E1,3E0,1.09E2,1.9E2,5.2E1,2.5E1,2E0,7.7E1,1.6E1,1.3E1,2.6E1,9E1,4.32E2,1.525E3,3.75E2,1.47E2,3.13E2,3E0,3E0,9E1,7E0,2.7E1,1.13E2,2E0,1.8E1,4.6711E4,1.7433E4,4.199E4,1.5259E4,1.60629E5,1.10219E5,6.7547E4,5.6766E4,6E0,2E0,5.81E2,2.35E2,3.31E2,3.32E2,4.7E1,3.3E1,1.2738E4,1.0321E4,9.552E3,1.8151E4,2.255E4,3.5941E4,8.972E3,3.5008E4,3.4916E4,3.0539E4,2.531E4,2.4388E4,8E1,3E1,7.2E1,1.71E2,1.1104E4,2.9688E4,1.7942E4,1.1797E4,2E0,1.83E2,5.6E1,1.64E2,3.854E3,4.347E3,6.7E1,3.8E1,6.002E3,7.652E3,9.941E3,2.67E2,8.9E2,1.868E3,4.226E3,3.604E3,7.58E2,2.809E3,6.98E2,2.776E3,9E0,2.8E1,1.9E1,4E0,4.5E1,6.4E1,1.43E2,4.7E1,1.5E1,3.7E1,2E0,2.3E1,4.5E1,3.2E1,2E0,1.4E1,1E1,3E0,4E0,2.2E1,7E0,8.3E1,1.69E2,2.63E2,5.9E2,9.35E2,2.73E2,1.02E2,1.08E2,3.9E1,2.8E2,3.3E1,5.3E1,3.7E1,4E0,3E0,2.3E1,4E0,4.8E1,6.5E1,8E0,1E1],"tree_param":{"num_deleted":"0","num_feature":"19","num_nodes":"215","size_leaf_vector":"1"}},{"base_weights":[-6.7982073E-3,1.6583844E-1,-4.3494987E1,9.433133E-1,-5.2518187E0,-2.9486668E1,-7.472657E1,1.5208483E0,-1.3491148E0,-4.3559003E0,-1.6198116E1,-3.0787323E1,-4.2172422E0,-6.6317345E1,-9.410829E1,1.4739848E0,1.8667011E1,-3.6227277E-1,-2.6822414E0,-3.4120457E0,-9.144229E0,-1.24412155E1,-2.3482077E1,-3.282478E1,-2.0114094E1,-3.2308434E1,7.778061E0,-6.9400055E1,-5.0198532E1,-9.007902E1,-1.21572205E2,1.4377402E0,1.2736937E1,1.361009E1,2.9648233E1,-3.8878834E-1,2.19421E1,-2.7667534E0,1.4588486E1,-3.6083186E0,1.5534037E1,-6.465673E0,-1.2053467E1,-1.2682912E1,2.8117495E1,-1.8621672E1,-2.7938782E1,-3.0682959E1,-3.9078533E1,-1.1546194E1,-2.524952E1,-1.509636E0,-5.5702297E1,2.785908E1,-1.0725871E1,-7.197406E1,-5.2712547E1,-7.77681E1,-3.59952E1,-9.5088745E1,-1.5106488E0,-1.4456778E2,-2.2618155E0,1.8193399E0,3.5605013E-1,1.0467867E1,3.700663E1,1.027288E1,1.8257336E1,3.594414E1,6.1086454E0,-1.6215795E0,6.5554775E-2,1.2009345E1,3.22105E1,-2.196263E0,-4.5982823E0,6.1119475E0,2.5287441E1,-1.7280107E0,-5.60473E0,8.014034E0,2.912004E1,-6.988827E0,1.027403E1,-1.2263704E1,1.9720484E1,-1.1402775E1,-1.9232132E1,6.2128475E1,9.150134E0,-1.9098305E1,8.452396E0,-2.46349E1,-3.2641907E1,-4.0598522E1,-2.8533686E1,-3.7235153E1,-7.96154E1,-8.3796425E0,-2.292062E1,-2.6672955E1,1.4386028E0,1.779355E1,-8.817813E0,-7.764265E1,-1.7821537E1,4.2630527E1,-2.3672607E1,-2.4058275E1,1.4356803E0,-7.903507E1,-6.786596E1,-5.009824E1,-2.892745E0,-3.424849E1,-9.985901E1,5.0713487E0,-3.9099777E1,-7.5077614E1,-1.0202541E2,-1.5042618E2,-1.5694338E0,8.447365E-2,4.567661E-2,5.6655403E-2,-1.1247018E-2,5.0912285E-1,2.2231305E-1,5.132174E-1,1.697402E0,3.2263356E-1,7.8123456E-1,8.2683307E-1,2.8483665E-1,7.04395E-1,1.5846144E0,6.467268E-3,2.6070574E-1,-4.2975493E-2,-1.09956E-1,-3.0276575E-3,1.1581561E-1,2.9653013E-1,1.1950018E0,1.6352578E0,4.5126665E-1,-7.355055E-2,8.99027E-1,-1.5459548E-1,2.6697922E-1,1.1911178E-1,4.6550336E-1,1.4604634E-1,1.6006273E0,-6.1695226E-2,3.8491786E-1,-1.879595E-1,2.9492357E-1,3.3499405E-1,9.29824E-2,1.2179289E0,6.157383E-1,-1.8576378E-1,-3.3556512E-1,7.225707E-1,1.0380364E-1,-3.531306E-1,-5.435382E-1,-6.795864E-2,1.0634232E0,-3.876137E-1,1.9264542E-1,-6.411533E-1,4.6453217E-1,3.1800604E-1,2.876606E0,-3.4070503E-2,6.716244E-1,-5.294652E-1,-7.295318E-1,-5.6876457E-1,5.192907E-1,-8.350738E-1,2.5793222E-1,-1.09786E0,-2.1896161E-1,-1.2243681E0,-1.931832E0,-8.6846805E-1,-1.209184E0,-1.3828126E0,-8.0864424E-1,-2.955098E0,-4.9542716E-1,-1.2397309E-1,-5.706363E-1,-5.626847E-1,-9.812911E-1,-7.452671E-1,-1.1528187E0,-1.9683951E-1,6.4638895E-1,-1.8066492E-2,9.9671173E-1,2.1662451E-1,-6.353236E-1,1.302025E-1,-3.3829505E0,6.342574E-2,-7.8332484E-1,2.3006482E0,-1.4530519E-1,-1.0679846E0,2.4397227E-1,-3.2992578E-1,-1.427483E0,1.453314E0,-1.3806547E-1,-2.9814417E0,-2.3030803E0,-2.5199313E0,-2.1447923E0,-1.4008962E0,-1.9417695E0,-1.4534388E0,7.5497997E-1,-1.1302896E0,-3.4184175E0,6.657012E-1,-7.1900815E-1,-1.7388355E0,-1.0466391E0,-2.621093E0,-1.5414779E0,-2.8767724E0,-3.6084871E0,-2.4907029E0,-5.1881266E0],"categories":[],"categories_nodes":[],"categories_segments":[],"categories_sizes":[],"default_left":[0,0,0,0,0,0,0,0,0,0,0,0,0,0,0,0,0,0,0,0,0,0,0,0,0,0,0,0,0,0,0,0,0,0,0,0,0,0,0,0,0,0,0,0,0,0,0,0,0,0,0,0,0,0,0,0,0,0,0,0,0,0,0,0,0,0,0,0,0,0,0,0,0,0,0,0,0,0,0,0,0,0,0,0,0,0,0,0,0,0,0,0,0,0,0,0,0,0,0,0,0,0,0,0,0,0,0,0,0,0,0,0,0,0,0,0,0,0,0,0,0,0,0,0,0,0,0,0,0,0,0,0,0,0,0,0,0,0,0,0,0,0,0,0,0,0,0,0,0,0,0,0,0,0,0,0,0,0,0,0,0,0,0,0,0,0,0,0,0,0,0,0,0,0,0,0,0,0,0,0,0,0,0,0,0,0,0,0,0,0,0,0,0,0,0,0,0,0,0,0,0,0,0,0,0,0,0,0,0,0,0,0,0,0,0,0,0,0,0,0,0,0,0,0,0,0,0,0,0,0,0,0,0,0,0,0,0,0,0],"id":3,"left_children":[1,3,5,7,9,11,13,15,17,19,21,23,25,27,29,31,33,35,37,39,41,43,45,47,49,51,53,55,57,59,61,63,65,67,69,71,73,75,77,79,81,83,85,87,89,91,93,95,97,99,101,103,105,107,109,111,113,115,117,119,-1,121,-1,123,125,127,129,131,133,135,137,139,141,143,145,147,149,151,153,155,157,159,161,163,165,167,169,171,173,175,177,179,181,183,185,187,189,191,193,195,197,199,201,203,205,207,209,211,213,215,217,219,221,223,-1,225,227,229,231,233,235,237,-1,-1,-1,-1,-1,-1,-1,-1,-1,-1,-1,-1,-1,-1,-1,-1,-1,-1,-1,-1,-1,-1,-1,-1,-1,-1,-1,-1,-1,-1,-1,-1,-1,-1,-1,-1,-1,-1,-1,-1,-1,-1,-1,-1,-1,-1,-1,-1,-1,-1,-1,-1,-1,-1,-1,-1,-1,-1,-1,-1,-1,-1,-1,-1,-1,-1,-1,-1,-1,-1,-1,-1,-1,-1,-1,-1,-1,-1,-1,-1,-1,-1,-1,-1,-1,-1,-1,-1,-1,-1,-1,-1,-1,-1,-1,-1,-1,-1,-1,-1,-1,-1,-1,-1,-1,-1,-1,-1,-1,-1,-1,-1,-1,-1,-1,-1,-1],"loss_changes":[6.841125E6,3.8229715E6,1.5741165E6,1.0508455E6,1.1169848E6,8.167575E4,1.75487E5,5.094025E5,2.1012828E5,4.7581625E5,2.3551325E5,5.0813E4,4.1697668E4,3.5324E4,2.612E4,2.5808588E5,9.5554375E4,5.42902E4,9.920569E4,3.2711844E5,1.3501388E5,5.6105812E4,6.2969125E4,2.540225E4,1.6516375E4,2.657452E4,3.2626084E4,2.425475E4,4.77145E4,6.134125E4,3.887175E4,2.6014438E5,1.1129381E5,1.8190422E4,8.0402875E4,5.1348207E4,1.0730461E4,7.063456E4,2.9863875E4,3.2677212E5,9.192109E4,7.9134E4,5.5746625E4,4.718325E4,2.136487E4,1.8292062E4,2.2923125E4,3.04675E4,3.4622188E4,5.030502E3,9.079719E3,2.5551086E3,1.6069746E4,3.2979477E4,7.4931045E3,1.09675E4,3.9222656E3,3.791967E4,1.1290289E4,2.9125E4,0E0,8.1905E3,0E0,1.5012812E5,1.5585697E5,3.4244438E4,5.2758344E4,4.369133E3,3.2110625E4,7.459631E4,1.2272065E3,1.3478352E4,3.6291035E4,3.8458242E3,1.6359816E4,4.9450734E4,1.7646969E4,3.6701118E3,7.049841E4,8.500128E4,5.5931125E4,6.4352266E3,2.5460375E4,3.7793625E4,2.2631305E4,5.4099125E4,1.504534E4,2.8059062E4,6.3225625E3,1.4933641E4,2.6445396E3,1.2334406E4,4.948741E3,1.979825E4,9.996375E3,1.42640625E4,2.1015062E4,2.7678125E4,1.213125E4,4.673132E3,7.330879E2,6.8453125E3,1.8635752E3,1.1545808E3,2.2129336E3,2.6783812E4,1.0967722E3,4.234764E4,2.9390488E3,5.5063164E3,6.1695845E3,1.4714E4,3.89475E3,3.3187656E3,0E0,9.960629E3,3.3029375E3,3.2788396E3,6.457742E3,5.173E3,1.156425E4,8.564375E2,0E0,0E0,0E0,0E0,0E0,0E0,0E0,0E0,0E0,0E0,0E0,0E0,0E0,0E0,0E0,0E0,0E0,0E0,0E0,0E0,0E0,0E0,0E0,0E0,0E0,0E0,0E0,0E0,0E0,0E0,0E0,0E0,0E0,0E0,0E0,0E0,0E0,0E0,0E0,0E0,0E0,0E0,0E0,0E0,0E0,0E0,0E0,0E0,0E0,0E0,0E0,0E0,0E0,0E0,0E0,0E0,0E0,0E0,0E0,0E0,0E0,0E0,0E0,0E0,0E0,0E0,0E0,0E0,0E0,0E0,0E0,0E0,0E0,0E0,0E0,0E0,0E0,0E0,0E0,0E0,0E0,0E0,0E0,0E0,0E0,0E0,0E0,0E0,0E0,0E0,0E0,0E0,0E0,0E0,0E0,0E0,0E0,0E0,0E0,0E0,0E0,0E0,0E0,0E0,0E0,0E0,0E0,0E0,0E0,0E0,0E0,0E0,0E0,0E0,0E0,0E0,0E0],"parents":[2147483647,0,0,1,1,2,2,3,3,4,4,5,5,6,6,7,7,8,8,9,9,10,10,11,11,12,12,13,13,14,14,15,15,16,16,17,17,18,18,19,19,20,20,21,21,22,22,23,23,24,24,25,25,26,26,27,27,28,28,29,29,30,30,31,31,32,32,33,33,34,34,35,35,36,36,37,37,38,38,39,39,40,40,41,41,42,42,43,43,44,44,45,45,46,46,47,47,48,48,49,49,50,50,51,51,52,52,53,53,54,54,55,55,56,56,57,57,58,58,59,59,61,61,63,63,64,64,65,65,66,66,67,67,68,68,69,69,70,70,71,71,72,72,73,73,74,74,75,75,76,76,77,77,78,78,79,79,80,80,81,81,82,82,83,83,84,84,85,85,86,86,87,87,88,88,89,89,90,90,91,91,92,92,93,93,94,94,95,95,96,96,97,97,98,98,99,99,100,100,101,101,102,102,103,103,104,104,105,105,106,106,107,107,108,108,109,109,110,110,111,111,112,112,113,113,115,115,116,116,117,117,118,118,119,119,120,120,121,121],"right_children":[2,4,6,8,10,12,14,16,18,20,22,24,26,28,30,32,34,36,38,40,42,44,46,48,50,52,54,56,58,60,62,64,66,68,70,72,74,76,78,80,82,84,86,88,90,92,94,96,98,100,102,104,106,108,110,112,114,116,118,120,-1,122,-1,124,126,128,130,132,134,136,138,140,142,144,146,148,150,152,154,156,158,160,162,164,166,168,170,172,174,176,178,180,182,184,186,188,190,192,194,196,198,200,202,204,206,208,210,212,214,216,218,220,222,224,-1,226,228,230,232,234,236,238,-1,-1,-1,-1,-1,-1,-1,-1,-1,-1,-1,-1,-1,-1,-1,-1,-1,-1,-1,-1,-1,-1,-1,-1,-1,-1,-1,-1,-1,-1,-1,-1,-1,-1,-1,-1,-1,-1,-1,-1,-1,-1,-1,-1,-1,-1,-1,-1,-1,-1,-1,-1,-1,-1,-1,-1,-1,-1,-1,-1,-1,-1,-1,-1,-1,-1,-1,-1,-1,-1,-1,-1,-1,-1,-1,-1,-1,-1,-1,-1,-1,-1,-1,-1,-1,-1,-1,-1,-1,-1,-1,-1,-1,-1,-1,-1,-1,-1,-1,-1,-1,-1,-1,-1,-1,-1,-1,-1,-1,-1,-1,-1,-1,-1,-1,-1,-1],"split_conditions":[3.6661373E1,1.1787724E1,1.98E1,2.1E0,1.17E1,1.1446839E6,8E-1,7.158333E-1,8.070934E0,1.9146599E1,2.1335735E1,5E-1,-8.660254E-1,4.2E1,5.125E-1,1.1E2,4E0,2.17E2,7.158333E-1,7.158333E-1,-1E0,2.17E2,1.98E1,2.5666666E-1,-5.1E0,5.9166666E-2,9E-1,5E-1,-8.660254E-1,3.8583332E-1,1.29E1,7.7272243E0,2.8458333E-1,-2.4492937E-16,5E-1,-1.3E0,0E0,5.95E0,-2.4492937E-16,6E-1,-2.4492937E-16,6.8E1,2.17E2,1.98E1,7.25E-2,1.1E2,2.8667267E1,6.4166665E-2,1.29E1,4E-1,4.725E-1,0E0,6.875E-2,9E-1,2.8E0,-2E-1,1.7208333E-1,-1.3E0,2.4178705E5,-5E-1,-1.5106488E0,-3E-1,-2.2618155E0,-9E-1,-2.55E0,-5E-1,1.1446839E6,1.35E1,5E-1,-2.4492937E-16,-4E-1,4.7E0,3.2083333E-1,8.660254E-1,-5E-1,2.17E2,8.2E1,9.743328E3,-4E-1,8.2E1,1.1E2,8E-1,1E-1,1.1E0,8.3125E-2,2.5226961E1,-7E-1,5.779167E-1,7.158333E-1,1.42967415E1,1.0125E-1,2.5226961E1,-8.660254E-1,6.2818025E5,7.158333E-1,3.2E1,4.483333E0,4.2125E-1,1E0,2E0,8.660254E-1,2E-1,6E-1,-9E-1,-2.1E0,-2.3E0,-1.98E1,6.875E-2,-1E-1,-1.48E1,6.2083334E-2,3.320738E3,7.7083334E-2,5E-1,-2.892745E0,-1.9E0,2.6000594E5,8E-1,-8E-1,5E0,2.2E0,2.9E0,-1.5694338E0,8.447365E-2,4.567661E-2,5.6655403E-2,-1.1247018E-2,5.0912285E-1,2.2231305E-1,5.132174E-1,1.697402E0,3.2263356E-1,7.8123456E-1,8.2683307E-1,2.8483665E-1,7.04395E-1,1.5846144E0,6.467268E-3,2.6070574E-1,-4.2975493E-2,-1.09956E-1,-3.0276575E-3,1.1581561E-1,2.9653013E-1,1.1950018E0,1.6352578E0,4.5126665E-1,-7.355055E-2,8.99027E-1,-1.5459548E-1,2.6697922E-1,1.1911178E-1,4.6550336E-1,1.4604634E-1,1.6006273E0,-6.1695226E-2,3.8491786E-1,-1.879595E-1,2.9492357E-1,3.3499405E-1,9.29824E-2,1.2179289E0,6.157383E-1,-1.8576378E-1,-3.3556512E-1,7.225707E-1,1.0380364E-1,-3.531306E-1,-5.435382E-1,-6.795864E-2,1.0634232E0,-3.876137E-1,1.9264542E-1,-6.411533E-1,4.6453217E-1,3.1800604E-1,2.876606E0,-3.4070503E-2,6.716244E-1,-5.294652E-1,-7.295318E-1,-5.6876457E-1,5.192907E-1,-8.350738E-1,2.5793222E-1,-1.09786E0,-2.1896161E-1,-1.2243681E0,-1.931832E0,-8.6846805E-1,-1.209184E0,-1.3828126E0,-8.0864424E-1,-2.955098E0,-4.9542716E-1,-1.2397309E-1,-5.706363E-1,-5.626847E-1,-9.812911E-1,-7.452671E-1,-1.1528187E0,-1.9683951E-1,6.4638895E-1,-1.8066492E-2,9.9671173E-1,2.1662451E-1,-6.353236E-1,1.302025E-1,-3.3829505E0,6.342574E-2,-7.8332484E-1,2.3006482E0,-1.4530519E-1,-1.0679846E0,2.4397227E-1,-3.2992578E-1,-1.427483E0,1.453314E0,-1.3806547E-1,-2.9814417E0,-2.3030803E0,-2.5199313E0,-2.1447923E0,-1.4008962E0,-1.9417695E0,-1.4534388E0,7.5497997E-1,-1.1302896E0,-3.4184175E0,6.657012E-1,-7.1900815E-1,-1.7388355E0,-1.0466391E0,-2.621093E0,-1.5414779E0,-2.8767724E0,-3.6084871E0,-2.4907029E0,-5.1881266E0],"split_indices":[1,1,9,9,9,14,8,15,1,1,1,2,2,12,15,12,12,12,15,15,9,12,9,15,9,15,11,2,2,15,8,1,15,2,2,10,10,9,2,9,2,12,12,9,15,12,1,15,11,8,15,10,15,10,11,10,15,11,14,2,0,10,0,9,9,2,14,11,2,2,10,9,15,2,2,12,12,14,10,12,12,10,8,8,15,1,10,15,15,1,15,1,2,14,15,12,9,15,10,12,2,8,8,10,11,10,9,15,11,9,15,14,15,10,0,11,14,11,10,11,8,11,0,0,0,0,0,0,0,0,0,0,0,0,0,0,0,0,0,0,0,0,0,0,0,0,0,0,0,0,0,0,0,0,0,0,0,0,0,0,0,0,0,0,0,0,0,0,0,0,0,0,0,0,0,0,0,0,0,0,0,0,0,0,0,0,0,0,0,0,0,0,0,0,0,0,0,0,0,0,0,0,0,0,0,0,0,0,0,0,0,0,0,0,0,0,0,0,0,0,0,0,0,0,0,0,0,0,0,0,0,0,0,0,0,0,0,0,0],"split_type":[0,0,0,0,0,0,0,0,0,0,0,0,0,0,0,0,0,0,0,0,0,0,0,0,0,0,0,0,0,0,0,0,0,0,0,0,0,0,0,0,0,0,0,0,0,0,0,0,0,0,0,0,0,0,0,0,0,0,0,0,0,0,0,0,0,0,0,0,0,0,0,0,0,0,0,0,0,0,0,0,0,0,0,0,0,0,0,0,0,0,0,0,0,0,0,0,0,0,0,0,0,0,0,0,0,0,0,0,0,0,0,0,0,0,0,0,0,0,0,0,0,0,0,0,0,0,0,0,0,0,0,0,0,0,0,0,0,0,0,0,0,0,0,0,0,0,0,0,0,0,0,0,0,0,0,0,0,0,0,0,0,0,0,0,0,0,0,0,0,0,0,0,0,0,0,0,0,0,0,0,0,0,0,0,0,0,0,0,0,0,0,0,0,0,0,0,0,0,0,0,0,0,0,0,0,0,0,0,0,0,0,0,0,0,0,0,0,0,0,0,0,0,0,0,0,0,0,0,0,0,0,0,0,0,0,0,0,0,0],"sum_hessian":[9.11218E5,9.07616E5,3.602E3,7.93713E5,1.13903E5,2.488E3,1.114E3,6.33991E5,1.59722E5,1.05287E5,8.616E3,2.366E3,1.22E2,7.8E2,3.34E2,6.32264E5,1.727E3,9.1782E4,6.794E4,8.7952E4,1.7335E4,5.686E3,2.93E3,1.985E3,3.81E2,3.6E1,8.6E1,6.52E2,1.28E2,2.95E2,3.9E1,6.30237E5,2.027E3,1.184E3,5.43E2,9.1674E4,1.08E2,6.761E4,3.3E2,8.7051E4,9.01E2,9.027E3,8.308E3,5.653E3,3.3E1,1.404E3,1.526E3,1.483E3,5.02E2,1.44E2,2.37E2,1.6E1,2E1,4.1E1,4.5E1,5.62E2,9E1,4.2E1,8.6E1,2.64E2,3.1E1,2.6E1,1.3E1,4.65882E5,1.64355E5,1.855E3,1.72E2,6.91E2,4.93E2,4.28E2,1.15E2,2.4687E4,6.6987E4,5.6E1,5.2E1,5.1554E4,1.6056E4,1.85E2,1.45E2,4.483E4,4.2221E4,5.81E2,3.2E2,8.754E3,2.73E2,8.254E3,5.4E1,4.731E3,9.22E2,1.1E1,2.2E1,1.38E3,2.4E1,9E2,6.26E2,2.61E2,1.222E3,4.82E2,2E1,1.14E2,3E1,2.25E2,1.2E1,4E0,1.2E1,1.2E1,8E0,3.2E1,9E0,2.1E1,2.4E1,2E2,3.62E2,8.6E1,4E0,1.5E1,2.7E1,6E0,8E1,7.1E1,1.93E2,2.4E1,2E0,1.72455E5,2.93427E5,5.5662E4,1.08693E5,7.95E2,1.06E3,7E1,1.02E2,6.68E2,2.3E1,2.88E2,2.05E2,1.95E2,2.33E2,2.7E1,8.8E1,2.0805E4,3.882E3,6.4062E4,2.925E3,5.1E1,5E0,2.6E1,2.6E1,5.1498E4,5.6E1,1.5948E4,1.08E2,1.42E2,4.3E1,7.7E1,6.8E1,4.4362E4,4.68E2,4.1959E4,2.62E2,4.11E2,1.7E2,1.82E2,1.38E2,6.134E3,2.62E3,1.03E2,1.7E2,6.021E3,2.233E3,2E1,3.4E1,4.639E3,9.2E1,9.17E2,5E0,4E0,7E0,1.2E1,1E1,6.88E2,6.92E2,5E0,1.9E1,8.82E2,1.8E1,6.11E2,1.5E1,2.21E2,4E1,9.63E2,2.59E2,3.51E2,1.31E2,1.7E1,3E0,7.6E1,3.8E1,1.8E1,1.2E1,1.53E2,7.2E1,9E0,3E0,2E0,2E0,5E0,7E0,3E0,9E0,2E0,6E0,2E1,1.2E1,7E0,2E0,1.3E1,8E0,2E0,2.2E1,8.6E1,1.14E2,8.5E1,2.77E2,4.9E1,3.7E1,1.3E1,2E0,2E0,2.5E1,4E0,2E0,2.6E1,5.4E1,6E1,1.1E1,6.8E1,1.25E2,3E0,2.1E1],"tree_param":{"num_deleted":"0","num_feature":"19","num_nodes":"239","size_leaf_vector":"1"}},{"base_weights":[2.0729403E-3,4.2297918E-1,-2.103806E1,1.4608525E0,-3.3728864E0,-1.444377E1,-4.7354115E1,2.1677663E0,3.0033833E-1,-2.178641E0,-6.1536975E0,-1.4763656E1,1.5623661E1,-3.8648365E1,-5.4861458E1,2.1315095E0,1.4238259E1,-1.3057112E0,7.101272E-1,-4.005175E0,-1.6641668E0,-5.072056E0,-7.927603E0,-1.3097471E1,-1.980783E1,-4.2126E0,2.0993181E1,-5.1378582E1,-3.3480694E1,-4.9592377E1,-6.9419754E1,3.1655006E0,1.7841742E0,2.063369E1,7.8308377E0,-1.3481795E0,1.215195E1,6.785951E-1,1.8912973E1,-3.22049E0,-4.931502E0,-1.7081763E0,2.0786808E1,-2.6554213E0,-5.6680894E0,-8.059119E0,1.6346407E1,-9.71059E0,-1.3907739E1,-2.0049446E1,1.1300466E0,1.658129E1,-9.447587E0,3.4253593E1,4.3972516E0,-5.439559E1,-1.6023125E1,-4.685975E1,-3.0667246E1,-5.130435E1,-3.7942E1,-7.9295296E1,-5.5481895E1,1.5737312E0,3.6338334E0,1.3875024E0,2.5255444E0,1.2555686E1,2.7808964E1,6.2774467E0,1.0537532E1,-2.4065404E0,-9.32967E-1,2.078769E1,3.4753256E0,1.7883515E-1,1.5804783E0,2.6268587E1,9.793296E0,-4.1648097E0,-2.4937496E0,-4.983198E0,1.1024346E1,-1.1774008E0,-3.114512E0,2.7988094E1,8.195309E0,-2.8602743E0,2.0989857E1,-3.7914815E0,-6.2379847E0,-4.6734157E0,-8.670232E0,-1.0796617E-1,2.447082E1,-1.2257573E1,-6.276479E0,-1.2724962E1,-1.6278368E1,-1.8838598E1,-2.3299168E1,1.395564E0,-3.232299E0,1.077323E0,-1.19753495E-1,2.981991E-1,-1.1287754E1,4.1242687E1,-9.009605E0,-2.392251E0,1.1275356E1,-5.0530884E1,-6.2843864E1,3.313323E0,-5.4950893E1,-6.925911E1,-4.458502E1,-2.457739E1,-4.098417E1,-5.4037403E1,-4.326235E1,-5.8816135E1,-2.8658201E1,-1.0071773E2,-7.230916E1,-9.4432526E1,-5.0526966E1,7.413957E-2,2.7203908E-2,1.5537788E-1,1.0601997E-1,3.360794E-2,6.460785E-2,3.6573317E-2,9.1937326E-2,4.6073514E-1,1.5874399E-1,7.0611554E-1,1.1945552E0,1.535925E-1,2.6762247E-1,1.0926167E-2,3.6098585E-1,-6.128145E-2,-1.0694595E-1,-1.3236154E-2,-5.5125356E-2,1.1029279E0,4.0019074E-1,4.407533E-2,3.1809443E-1,2.3018805E-2,-1.5305328E-2,1.0808819E-1,4.564313E-2,7.9975915E-1,1.5969648E0,1.0290035E0,2.8539535E-1,-1.0937792E-1,-1.5327176E-1,1.6883595E-2,-9.256137E-2,-2.0148808E-1,-1.4186984E-1,2.6548324E0,1.914965E-1,1.0202613E-2,-5.6833617E-2,-8.062351E-2,-1.401096E-1,7.947862E-1,2.124114E0,4.6503717E-1,-1.16511835E-2,-7.128299E-2,-1.7447315E-1,8.6277306E-1,1.6031381E-1,-1.03515215E-1,-2.0019288E-1,-2.695226E-1,-1.8800753E-1,-1.092002E-1,-2.7402997E-1,-2.6406768E-1,-3.4125522E-1,6.2800735E-1,-1.3348725E-1,8.998792E-1,-1.2448471E-1,-4.3297926E-1,-2.4387594E-1,-1.6304359E-1,-4.0851736E-1,-3.853411E-1,-4.6008536E-1,-5.9011465E-1,-4.9518964E-1,-7.036621E-1,-5.233315E-1,-7.7462804E-1,-5.875582E-1,-3.12799E-1,4.2773357E-1,-2.6264724E-1,-5.730933E-1,4.7652695E-1,1.7250001E0,3.2301024E-2,-3.837591E-1,-2.86756E-1,1.8289664E-1,6.991074E-1,-3.3866886E-2,-2.9721954E0,-1.6271694E0,-2.3726895E0,-1.5569683E0,-1.7593029E-1,2.4501426E0,-2.3738034E0,-7.639177E-1,-1.2545527E0,-2.7338629E0,-1.5071647E0,-1.1322252E0,-8.702958E-1,-2.2201534E-1,-1.5703633E0,-1.1458218E0,-1.8203177E0,-1.3682337E0,-1.5994519E0,-1.1203214E0,-9.16461E-1,-2.484626E0,-1.5355282E0,-7.035015E-1,-3.9295926E0,-2.6055033E0,-2.0232518E0,-3.182724E0,-3.4612658E0,-6.1224264E-1,-1.5084668E0,-1.8537616E0],"categories":[],"categories_nodes":[],"categories_segments":[],"categories_sizes":[],"default_left":[0,0,0,0,0,0,0,0,0,0,0,0,0,0,0,0,0,0,0,0,0,0,0,0,0,0,0,0,0,0,0,0,0,0,0,0,0,0,0,0,0,0,0,0,0,0,0,0,0,0,0,0,0,0,0,0,0,0,0,0,0,0,0,0,0,0,0,0,0,0,0,0,0,0,0,0,0,0,0,0,0,0,0,0,0,0,0,0,0,0,0,0,0,0,0,0,0,0,0,0,0,0,0,0,0,0,0,0,0,0,0,0,0,0,0,0,0,0,0,0,0,0,0,0,0,0,0,0,0,0,0,0,0,0,0,0,0,0,0,0,0,0,0,0,0,0,0,0,0,0,0,0,0,0,0,0,0,0,0,0,0,0,0,0,0,0,0,0,0,0,0,0,0,0,0,0,0,0,0,0,0,0,0,0,0,0,0,0,0,0,0,0,0,0,0,0,0,0,0,0,0,0,0,0,0,0,0,0,0,0,0,0,0,0,0,0,0,0,0,0,0,0,0,0,0,0,0,0,0,0,0,0,0,0,0,0,0,0,0,0,0,0,0,0,0,0,0],"id":4,"left_children":[1,3,5,7,9,11,13,15,17,19,21,23,25,27,29,31,33,35,37,39,41,43,45,47,49,51,53,55,57,59,61,63,65,67,69,71,73,75,77,79,81,83,85,87,89,91,93,95,97,99,101,103,105,107,109,111,113,115,117,119,121,123,125,127,129,131,133,135,137,139,141,143,145,147,149,151,153,155,157,159,161,163,165,167,169,171,173,175,177,179,181,183,185,187,189,191,193,195,197,199,201,-1,203,-1,-1,-1,205,207,209,211,213,215,217,219,221,223,225,227,229,231,233,235,237,239,241,243,245,-1,-1,-1,-1,-1,-1,-1,-1,-1,-1,-1,-1,-1,-1,-1,-1,-1,-1,-1,-1,-1,-1,-1,-1,-1,-1,-1,-1,-1,-1,-1,-1,-1,-1,-1,-1,-1,-1,-1,-1,-1,-1,-1,-1,-1,-1,-1,-1,-1,-1,-1,-1,-1,-1,-1,-1,-1,-1,-1,-1,-1,-1,-1,-1,-1,-1,-1,-1,-1,-1,-1,-1,-1,-1,-1,-1,-1,-1,-1,-1,-1,-1,-1,-1,-1,-1,-1,-1,-1,-1,-1,-1,-1,-1,-1,-1,-1,-1,-1,-1,-1,-1,-1,-1,-1,-1,-1,-1,-1,-1,-1,-1,-1,-1,-1,-1,-1,-1,-1,-1],"loss_changes":[8.073139E6,3.5209685E6,3.1019605E6,5.757724E5,6.37271E5,1.37751E5,2.319885E5,1.9084675E5,1.7485588E5,1.2614494E5,1.105785E5,1.1864775E5,1.6171629E4,1.0761525E5,1.43915E5,1.5616725E5,5.335597E4,3.0883875E4,1.2148136E5,2.1428406E4,1.0352919E5,5.1575625E4,6.9841625E4,2.9058625E4,1.77845E4,3.748892E3,2.603757E4,5.0115625E4,4.3167875E4,2.6256E4,6.552375E4,8.1506375E4,9.5722375E4,3.7499938E4,2.683629E3,2.3657453E4,1.2665695E4,9.5241086E4,2.4294336E4,1.0952859E4,1.1213594E4,7.803081E4,1.8358992E4,3.4392938E4,3.0702188E4,4.4897E4,1.5777129E4,1.791486E4,2.3856E4,1.3219125E4,7.498372E3,2.3911855E3,1.02036475E3,2.0328031E4,2.5487144E3,1.1190375E4,2.9538336E4,7.3064062E3,6.069025E4,2.46965E4,3.416578E4,3.6867E4,3.6530062E4,1.253375E4,3.821525E4,4.4633156E4,4.1874375E4,3.2977656E3,1.7783219E4,1.2054277E3,9.67416E2,6.9485156E3,1.5168195E4,8.895598E3,1.1213759E3,4.532276E4,2.5197219E4,7.9149375E3,3.771004E3,2.8184219E3,8.445336E3,1.0329125E4,1.5483057E4,6.1472477E4,2.174425E4,1.691125E4,3.8359395E3,1.1930547E4,4.9455195E3,9.951992E3,2.2945375E4,1.6431977E4,2.0456125E4,3.0909878E3,6.346324E3,4.8597656E3,7.096246E3,7.14525E3,5.555125E3,1.8423438E4,4.8090625E2,0E0,3.9667373E3,0E0,0E0,0E0,3.6764185E2,1.6096227E4,2.7302527E2,1.447225E3,3.3131938E3,1.03996875E4,1.56145E4,1.695188E4,5.3558086E3,4.065914E3,5.3209375E2,1.9689781E4,1.33568125E4,1.062975E4,1.37238125E4,2.655175E4,1.6062359E4,1.8569375E4,5.408325E4,1.6299281E4,2.6542188E3,0E0,0E0,0E0,0E0,0E0,0E0,0E0,0E0,0E0,0E0,0E0,0E0,0E0,0E0,0E0,0E0,0E0,0E0,0E0,0E0,0E0,0E0,0E0,0E0,0E0,0E0,0E0,0E0,0E0,0E0,0E0,0E0,0E0,0E0,0E0,0E0,0E0,0E0,0E0,0E0,0E0,0E0,0E0,0E0,0E0,0E0,0E0,0E0,0E0,0E0,0E0,0E0,0E0,0E0,0E0,0E0,0E0,0E0,0E0,0E0,0E0,0E0,0E0,0E0,0E0,0E0,0E0,0E0,0E0,0E0,0E0,0E0,0E0,0E0,0E0,0E0,0E0,0E0,0E0,0E0,0E0,0E0,0E0,0E0,0E0,0E0,0E0,0E0,0E0,0E0,0E0,0E0,0E0,0E0,0E0,0E0,0E0,0E0,0E0,0E0,0E0,0E0,0E0,0E0,0E0,0E0,0E0,0E0,0E0,0E0,0E0,0E0,0E0,0E0,0E0,0E0,0E0,0E0,0E0,0E0],"parents":[2147483647,0,0,1,1,2,2,3,3,4,4,5,5,6,6,7,7,8,8,9,9,10,10,11,11,12,12,13,13,14,14,15,15,16,16,17,17,18,18,19,19,20,20,21,21,22,22,23,23,24,24,25,25,26,26,27,27,28,28,29,29,30,30,31,31,32,32,33,33,34,34,35,35,36,36,37,37,38,38,39,39,40,40,41,41,42,42,43,43,44,44,45,45,46,46,47,47,48,48,49,49,50,50,51,51,52,52,53,53,54,54,55,55,56,56,57,57,58,58,59,59,60,60,61,61,62,62,63,63,64,64,65,65,66,66,67,67,68,68,69,69,70,70,71,71,72,72,73,73,74,74,75,75,76,76,77,77,78,78,79,79,80,80,81,81,82,82,83,83,84,84,85,85,86,86,87,87,88,88,89,89,90,90,91,91,92,92,93,93,94,94,95,95,96,96,97,97,98,98,99,99,100,100,102,102,106,106,107,107,108,108,109,109,110,110,111,111,112,112,113,113,114,114,115,115,116,116,117,117,118,118,119,119,120,120,121,121,122,122,123,123,124,124,125,125,126,126],"right_children":[2,4,6,8,10,12,14,16,18,20,22,24,26,28,30,32,34,36,38,40,42,44,46,48,50,52,54,56,58,60,62,64,66,68,70,72,74,76,78,80,82,84,86,88,90,92,94,96,98,100,102,104,106,108,110,112,114,116,118,120,122,124,126,128,130,132,134,136,138,140,142,144,146,148,150,152,154,156,158,160,162,164,166,168,170,172,174,176,178,180,182,184,186,188,190,192,194,196,198,200,202,-1,204,-1,-1,-1,206,208,210,212,214,216,218,220,222,224,226,228,230,232,234,236,238,240,242,244,246,-1,-1,-1,-1,-1,-1,-1,-1,-1,-1,-1,-1,-1,-1,-1,-1,-1,-1,-1,-1,-1,-1,-1,-1,-1,-1,-1,-1,-1,-1,-1,-1,-1,-1,-1,-1,-1,-1,-1,-1,-1,-1,-1,-1,-1,-1,-1,-1,-1,-1,-1,-1,-1,-1,-1,-1,-1,-1,-1,-1,-1,-1,-1,-1,-1,-1,-1,-1,-1,-1,-1,-1,-1,-1,-1,-1,-1,-1,-1,-1,-1,-1,-1,-1,-1,-1,-1,-1,-1,-1,-1,-1,-1,-1,-1,-1,-1,-1,-1,-1,-1,-1,-1,-1,-1,-1,-1,-1,-1,-1,-1,-1,-1,-1,-1,-1,-1,-1,-1,-1],"split_conditions":[2.365E1,1E1,4.215E1,6.3E0,1.47E1,2.17E2,1.98E1,1.1E2,-1.7E0,-1.5E0,1.82E1,3.225E1,-1.1E0,-1.26E1,9E-1,-2.1E0,-5E-1,1.1E2,2.17E2,1.19E1,2.17E2,1.18E1,2.17E2,1.08E1,1.1E2,-1.48E1,9E-1,1.1E2,-8.660254E-1,4.2E1,-5E-1,-1.8E0,2E0,2.17E2,1.1E0,-4.8E0,-5E-1,4E0,-5E-1,-3.4E0,2.17E2,1.1E0,-5E-1,1.1E2,-5E-1,1.07E1,-6E-1,8.660254E-1,2.81E1,9E-1,8.9E0,2.81E1,-6.7E0,-5E-1,1.24E1,1.92E1,1E0,-2.8E0,3E-1,-2.4492937E-16,-8.660254E-1,-2.4E0,9.2E0,4.1E0,1.33E1,6E-1,-2.1E0,1.05E0,-2E-1,2.17E2,9.2E0,8.15E0,8.1E0,-1.8369701E-16,1.9E0,8E0,-8.660254E-1,3.2E0,-1.02E1,1.74E1,-8.660254E-1,-3.8E0,1E1,1.24E1,1.23E1,4.6E0,1.82E1,6E-1,-5E-1,5E-1,-1.9E0,3E-1,1.7E0,1.03E1,2.14E1,1.7E1,5E-1,2E-1,-1E-1,-2.4492937E-16,2E1,1.395564E0,1.58E1,1.077323E0,-1.19753495E-1,2.981991E-1,-1.8369701E-16,-4E-1,2.81E1,-8.660254E-1,1.53E1,5.7E0,-5E-1,9E-1,1.5E0,-4.5E0,2E-1,6.8E1,-2.4492937E-16,2.8E0,1E0,-1E-1,-8E-1,1.11E1,3E0,1E0,5.2E0,7.413957E-2,2.7203908E-2,1.5537788E-1,1.0601997E-1,3.360794E-2,6.460785E-2,3.6573317E-2,9.1937326E-2,4.6073514E-1,1.5874399E-1,7.0611554E-1,1.1945552E0,1.535925E-1,2.6762247E-1,1.0926167E-2,3.6098585E-1,-6.128145E-2,-1.0694595E-1,-1.3236154E-2,-5.5125356E-2,1.1029279E0,4.0019074E-1,4.407533E-2,3.1809443E-1,2.3018805E-2,-1.5305328E-2,1.0808819E-1,4.564313E-2,7.9975915E-1,1.5969648E0,1.0290035E0,2.8539535E-1,-1.0937792E-1,-1.5327176E-1,1.6883595E-2,-9.256137E-2,-2.0148808E-1,-1.4186984E-1,2.6548324E0,1.914965E-1,1.0202613E-2,-5.6833617E-2,-8.062351E-2,-1.401096E-1,7.947862E-1,2.124114E0,4.6503717E-1,-1.16511835E-2,-7.128299E-2,-1.7447315E-1,8.6277306E-1,1.6031381E-1,-1.03515215E-1,-2.0019288E-1,-2.695226E-1,-1.8800753E-1,-1.092002E-1,-2.7402997E-1,-2.6406768E-1,-3.4125522E-1,6.2800735E-1,-1.3348725E-1,8.998792E-1,-1.2448471E-1,-4.3297926E-1,-2.4387594E-1,-1.6304359E-1,-4.0851736E-1,-3.853411E-1,-4.6008536E-1,-5.9011465E-1,-4.9518964E-1,-7.036621E-1,-5.233315E-1,-7.7462804E-1,-5.875582E-1,-3.12799E-1,4.2773357E-1,-2.6264724E-1,-5.730933E-1,4.7652695E-1,1.7250001E0,3.2301024E-2,-3.837591E-1,-2.86756E-1,1.8289664E-1,6.991074E-1,-3.3866886E-2,-2.9721954E0,-1.6271694E0,-2.3726895E0,-1.5569683E0,-1.7593029E-1,2.4501426E0,-2.3738034E0,-7.639177E-1,-1.2545527E0,-2.7338629E0,-1.5071647E0,-1.1322252E0,-8.702958E-1,-2.2201534E-1,-1.5703633E0,-1.1458218E0,-1.8203177E0,-1.3682337E0,-1.5994519E0,-1.1203214E0,-9.16461E-1,-2.484626E0,-1.5355282E0,-7.035015E-1,-3.9295926E0,-2.6055033E0,-2.0232518E0,-3.182724E0,-3.4612658E0,-6.1224264E-1,-1.5084668E0,-1.8537616E0],"split_indices":[0,0,0,0,0,12,9,12,10,10,0,0,10,9,8,9,2,12,12,0,12,7,12,7,12,9,10,12,2,12,3,10,12,12,10,10,2,12,2,10,12,8,2,12,3,7,10,3,0,8,7,0,10,2,7,7,10,10,8,2,2,10,7,0,7,10,10,9,10,12,7,0,0,3,9,0,3,9,9,7,3,10,7,7,0,9,7,8,2,2,10,8,8,7,7,12,8,8,10,2,12,0,7,0,0,0,3,10,0,2,7,7,3,10,10,10,8,12,2,10,10,10,10,8,12,3,8,0,0,0,0,0,0,0,0,0,0,0,0,0,0,0,0,0,0,0,0,0,0,0,0,0,0,0,0,0,0,0,0,0,0,0,0,0,0,0,0,0,0,0,0,0,0,0,0,0,0,0,0,0,0,0,0,0,0,0,0,0,0,0,0,0,0,0,0,0,0,0,0,0,0,0,0,0,0,0,0,0,0,0,0,0,0,0,0,0,0,0,0,0,0,0,0,0,0,0,0,0,0,0,0,0,0,0,0,0,0,0,0,0,0,0,0,0,0,0,0],"split_type":[0,0,0,0,0,0,0,0,0,0,0,0,0,0,0,0,0,0,0,0,0,0,0,0,0,0,0,0,0,0,0,0,0,0,0,0,0,0,0,0,0,0,0,0,0,0,0,0,0,0,0,0,0,0,0,0,0,0,0,0,0,0,0,0,0,0,0,0,0,0,0,0,0,0,0,0,0,0,0,0,0,0,0,0,0,0,0,0,0,0,0,0,0,0,0,0,0,0,0,0,0,0,0,0,0,0,0,0,0,0,0,0,0,0,0,0,0,0,0,0,0,0,0,0,0,0,0,0,0,0,0,0,0,0,0,0,0,0,0,0,0,0,0,0,0,0,0,0,0,0,0,0,0,0,0,0,0,0,0,0,0,0,0,0,0,0,0,0,0,0,0,0,0,0,0,0,0,0,0,0,0,0,0,0,0,0,0,0,0,0,0,0,0,0,0,0,0,0,0,0,0,0,0,0,0,0,0,0,0,0,0,0,0,0,0,0,0,0,0,0,0,0,0,0,0,0,0,0,0,0,0,0,0,0,0,0,0,0,0,0,0,0,0,0,0,0,0],"sum_hessian":[9.11607E5,8.93729E5,1.7878E4,7.01833E5,1.91896E5,1.4297E4,3.581E3,4.36154E5,2.65679E5,1.34245E5,5.7651E4,1.4147E4,1.5E2,1.661E3,1.92E3,4.34849E5,1.305E3,5.4008E4,2.11671E5,2.9501E4,1.04744E5,3.5816E4,2.1835E4,1.0637E4,3.51E3,3.2E1,1.18E2,4.77E2,1.184E3,1.413E3,5.07E2,1.09341E5,3.25508E5,6.52E2,6.53E2,5.3839E4,1.69E2,2.11306E5,3.65E2,1.5974E4,1.3527E4,1.0454E5,2.04E2,7.087E3,2.8729E4,2.1718E4,1.17E2,2.056E3,8.581E3,3.47E3,4E1,6E0,2.6E1,6.5E1,5.3E1,4.39E2,3.8E1,2.03E2,9.81E2,1.229E3,1.84E2,2.94E2,2.13E2,2.4858E4,8.4483E4,2.12052E5,1.13456E5,3.08E2,3.44E2,4.17E2,2.36E2,1.5169E4,3.867E4,8.4E1,8.5E1,1.35965E5,7.5341E4,2.01E2,1.64E2,6.945E3,9.029E3,1.3484E4,4.3E1,7.5897E4,2.8643E4,1.29E2,7.5E1,7.027E3,6E1,6.694E3,2.2035E4,3.322E3,1.8396E4,3.9E1,7.8E1,1.179E3,8.77E2,5.729E3,2.852E3,2.533E3,9.37E2,3E0,3.7E1,3E0,3E0,2E0,2.4E1,5.6E1,9E0,2.7E1,2.6E1,3.06E2,1.33E2,2.6E1,1.2E1,1.6E1,1.87E2,6.19E2,3.62E2,9.13E2,3.16E2,5.5E1,1.29E2,6.9E1,2.25E2,2.2E1,1.91E2,1.3096E4,1.1762E4,2.3783E4,6.07E4,1.2874E5,8.3312E4,1.7613E4,9.5843E4,2.6E2,4.8E1,1.97E2,1.47E2,2.23E2,1.94E2,9E0,2.27E2,9.147E3,6.022E3,2.2468E4,1.6202E4,3.3E1,5.1E1,6.4E1,2.1E1,7.5237E4,6.0728E4,7.856E3,6.7485E4,1.86E2,1.5E1,7E0,1.57E2,2.508E3,4.437E3,8.47E2,8.182E3,5.103E3,8.381E3,2E0,4.1E1,2.0356E4,5.5541E4,1.7977E4,1.0666E4,1.18E2,1.1E1,4.4E1,3.1E1,5.455E3,1.572E3,4.5E1,1.5E1,5.2E3,1.494E3,4.821E3,1.7214E4,2.416E3,9.06E2,1.3145E4,5.251E3,6E0,3.3E1,7.1E1,7E0,1E3,1.79E2,7.21E2,1.56E2,3.084E3,2.645E3,1.256E3,1.596E3,1.378E3,1.155E3,9.05E2,3.2E1,2.7E1,1E1,1.7E1,7E0,1.7E1,3.9E1,2E0,7E0,1.5E1,1.2E1,1.4E1,1.2E1,7E0,2.99E2,8.2E1,5.1E1,2.4E1,2E0,7E0,5E0,6E0,1E1,1.66E2,2.1E1,5.62E2,5.7E1,1.73E2,1.89E2,8.35E2,7.8E1,2E2,1.16E2,2E1,3.5E1,3.6E1,9.3E1,3.5E1,3.4E1,1.57E2,6.8E1,1.9E1,3E0,1.08E2,8.3E1],"tree_param":{"num_deleted":"0","num_feature":"19","num_nodes":"247","size_leaf_vector":"1"}},{"base_weights":[4.501199E-3,-5.3307403E-2,1.4757889E1,-9.276291E-2,9.270849E0,8.581149E0,2.3088572E1,2.8454074E-1,-9.0325224E-1,7.4282174E0,2.356802E1,1.856714E1,7.120981E0,3.1303541E1,5.2898607E0,1.1371173E0,-1.3714807E-1,-7.106659E-1,-1.879302E0,4.378582E0,1.0551795E1,3.371273E1,4.772426E0,1.7069628E1,1.9283389E0,5.7411246E0,1.1533396E1,2.060205E1,6.0227287E1,-9.980932E-1,7.7097917E0,-1.480983E-1,1.4856564E0,-2.1717113E-1,2.483003E0,-1.3981928E0,-4.798874E-1,-2.5283334E0,-1.173648E0,-1.6446917E1,4.771483E0,1.2558275E1,4.1347766E0,3.789652E1,1.189846E1,-2.7567656E0,9.876411E0,1.3336643E1,3.4413353E1,5.459305E0,3.0665823E1,1.6276995E1,6.976247E0,4.7066547E1,6.085548E0,4.0337967E1,7.542575E1,8.390472E0,-3.6710348E0,9.693149E0,-3.9286327E-1,-2.3524234E-1,6.6486144E0,5.05496E-1,2.0187433E0,-8.151612E-1,3.6351763E-2,2.929546E0,-1.7004207E-1,-1.1142656E0,-2.0860534E0,-9.900762E-1,-2.4003579E-1,-2.1844075E0,-3.402424E0,-1.3620235E0,1.4042175E-1,-6.177137E1,-1.2852162E0,1.5131846E1,4.017123E0,7.4197335E0,1.770131E1,3.1209297E0,1.10114765E1,2.5917015E1,4.8604317E1,8.861726E0,3.563469E1,-9.528414E0,6.144289E-1,5.58608E0,2.1151056E1,1.13992605E1,3.326114E1,7.288109E1,2.5165915E1,-3.6740124E-1,6.5116E0,3.6495388E1,-1.589796E-1,1.1566785E1,2.2901453E1,1.7936196E0,1.4189434E1,3.547842E1,9.688122E1,-1.1465935E1,8.422501E0,5.222515E1,3.4616444E1,9.235085E1,1.9993183E1,3.2954888E0,1.4799644E1,-5.014896E0,8.299164E-1,7.647578E0,2.6993137E1,-1.5940038E0,2.9584777E-1,-3.1323206E-2,3.3259906E-3,1.7983554E-1,2.582339E0,1.1184471E-2,1.2762018E-1,7.806843E-2,2.6532067E-2,-4.592612E-2,-2.1048406E-2,1.455927E-2,-8.995479E-3,4.9679607E-2,1.4232393E-1,-3.3076633E-2,7.312257E-2,-5.477853E-2,-2.3218468E-2,-4.7053646E-2,-8.058628E-2,-2.0835325E-2,-4.030898E-2,2.5461858E-2,-1.3575714E-2,-5.551571E-2,-8.710015E-2,-8.681892E-2,-2.3528326E-1,-4.5405724E-3,-4.894099E-2,7.719253E-2,-4.538361E-3,-7.9443306E-1,-3.8470144E0,-5.632541E-1,1.914294E-1,2.7112377E-1,1.4971604E0,-2.0948524E-2,1.7768878E-1,4.6365747E-1,-2.0434658E-1,1.0344456E0,3.7369436E-1,3.2625937E-1,5.1887684E-2,1.3504484E0,2.5063986E-1,1.540398E0,6.0338676E-1,1.4083542E0,2.752154E0,1.0643628E0,1.8597372E-1,1.4796462E0,4.8026156E-1,-1.5556104E-1,-7.917305E-1,1.1291233E-1,-1.601722E-1,5.740962E-1,1.3736275E-1,1.2259554E0,1.1632319E-1,4.9025115E-1,-8.392212E-2,2.7351114E-1,2.3535688E0,4.9704626E-1,2.9582448E0,6.4377934E-1,2.209771E0,4.0424988E-2,-1.0913824E-1,3.6775374E-1,1.8395405E-1,7.961756E-1,1.9236913E0,6.340507E-1,2.331303E-1,6.155312E-1,1.3690575E0,-8.228512E-1,1.0173461E-1,9.765816E-1,2.1473263E-1,1.044193E0,3.0965054E0,1.2496468E0,3.4850426E0,-6.41153E-1,1.1514352E-1,1.9404092E-1,4.078595E-1,1.1392014E0,2.1922753E0,1.386527E0,5.5740166E-1,2.1022837E0,3.9578342E0,8.526416E-1,1.7084405E-1,4.0472145E-3,2.1300536E-1,1.2522092E-1,6.358825E-1,-1.777464E-2,-1.9879429E-1,-3.165774E-2,1.5681504E-1,1.5848716E-1,3.0063495E-1,-8.295692E-2,1.0970905E0,3.984242E-3,-2.8871068E-1],"categories":[],"categories_nodes":[],"categories_segments":[],"categories_sizes":[],"default_left":[0,0,0,0,0,0,0,0,0,0,0,0,0,0,0,0,0,0,0,0,0,0,0,0,0,0,0,0,0,0,0,0,0,0,0,0,0,0,0,0,0,0,0,0,0,0,0,0,0,0,0,0,0,0,0,0,0,0,0,0,0,0,0,0,0,0,0,0,0,0,0,0,0,0,0,0,0,0,0,0,0,0,0,0,0,0,0,0,0,0,0,0,0,0,0,0,0,0,0,0,0,0,0,0,0,0,0,0,0,0,0,0,0,0,0,0,0,0,0,0,0,0,0,0,0,0,0,0,0,0,0,0,0,0,0,0,0,0,0,0,0,0,0,0,0,0,0,0,0,0,0,0,0,0,0,0,0,0,0,0,0,0,0,0,0,0,0,0,0,0,0,0,0,0,0,0,0,0,0,0,0,0,0,0,0,0,0,0,0,0,0,0,0,0,0,0,0,0,0,0,0,0,0,0,0,0,0,0,0,0,0,0,0,0,0,0,0,0,0,0,0,0,0,0,0,0,0,0,0,0,0,0,0,0,0,0,0],"id":5,"left_children":[1,3,5,7,9,11,13,15,17,19,21,23,25,27,29,31,33,35,37,39,41,43,45,47,-1,49,51,53,55,57,59,61,63,65,67,69,71,73,75,77,79,81,83,85,87,89,91,93,95,97,99,101,103,105,107,109,111,113,115,117,119,121,123,125,127,129,131,133,135,137,139,141,143,145,147,149,151,153,155,157,159,161,163,165,167,169,171,173,175,177,179,181,183,185,187,189,191,193,195,197,-1,199,201,203,205,207,209,211,213,215,217,219,221,223,225,227,229,231,233,235,-1,-1,-1,-1,-1,-1,-1,-1,-1,-1,-1,-1,-1,-1,-1,-1,-1,-1,-1,-1,-1,-1,-1,-1,-1,-1,-1,-1,-1,-1,-1,-1,-1,-1,-1,-1,-1,-1,-1,-1,-1,-1,-1,-1,-1,-1,-1,-1,-1,-1,-1,-1,-1,-1,-1,-1,-1,-1,-1,-1,-1,-1,-1,-1,-1,-1,-1,-1,-1,-1,-1,-1,-1,-1,-1,-1,-1,-1,-1,-1,-1,-1,-1,-1,-1,-1,-1,-1,-1,-1,-1,-1,-1,-1,-1,-1,-1,-1,-1,-1,-1,-1,-1,-1,-1,-1,-1,-1,-1,-1,-1,-1,-1,-1,-1,-1,-1],"loss_changes":[7.76822E5,3.3377766E5,1.8272962E5,2.762767E5,1.0053966E5,2.9657234E4,2.21059E5,2.2163505E5,5.394397E4,3.2227125E4,8.2973766E4,1.4525047E4,1.0795664E4,3.1911988E5,7.2963574E3,9.138475E4,8.648311E4,3.8030242E4,2.1656828E4,1.4119391E4,2.1488969E4,2.5377469E4,5.9452764E3,1.5856492E4,0E0,9.392633E3,9.052172E3,2.9053175E5,8.12955E4,3.3935437E3,5.5641875E3,2.577993E4,8.385409E4,6.0678383E4,1.4482258E4,1.1761898E4,2.1959719E4,7.3981094E3,5.609412E3,2.1910875E4,1.3108223E4,3.3537547E4,2.7544038E3,2.914125E4,3.072005E3,1.4440526E3,4.3320684E3,7.688535E3,1.3817914E4,8.261406E3,3.2786094E3,6.194047E3,8.1240996E3,1.5126812E5,2.0194895E4,6.5577188E3,1.4545125E5,9.3086646E2,6.392706E2,9.631533E3,7.8986487E2,1.0309626E4,4.688078E4,3.1658324E4,4.380997E4,1.2182328E4,3.5154984E4,2.0605227E4,3.5010566E3,9.554301E3,4.1319844E3,4.7627344E3,2.1159734E4,4.0349062E3,1.997986E4,2.936996E3,1.7371721E3,1.3721678E4,2.895028E3,2.3466473E4,1.0002871E4,5.7759707E4,5.4990234E4,3.651484E3,4.9007E3,1.721154E4,2.2012438E4,3.0632422E3,3.1752344E2,1.3492026E3,6.7665326E2,1.0709031E3,6.9190977E3,9.291494E3,1.6516941E4,6.403414E3,7.4428105E3,9.730947E2,4.89175E3,2.0986348E3,0E0,4.0989062E3,5.938461E3,4.487706E3,1.0576291E4,4.6056688E4,2.1748688E4,6.974829E3,4.2613945E3,7.2646875E3,1.0570094E4,8.717594E4,3.1567217E3,1.7963527E2,5.6631836E2,3.6265918E2,1.7999629E2,9.964785E2,5.433451E3,7.6171063E2,0E0,0E0,0E0,0E0,0E0,0E0,0E0,0E0,0E0,0E0,0E0,0E0,0E0,0E0,0E0,0E0,0E0,0E0,0E0,0E0,0E0,0E0,0E0,0E0,0E0,0E0,0E0,0E0,0E0,0E0,0E0,0E0,0E0,0E0,0E0,0E0,0E0,0E0,0E0,0E0,0E0,0E0,0E0,0E0,0E0,0E0,0E0,0E0,0E0,0E0,0E0,0E0,0E0,0E0,0E0,0E0,0E0,0E0,0E0,0E0,0E0,0E0,0E0,0E0,0E0,0E0,0E0,0E0,0E0,0E0,0E0,0E0,0E0,0E0,0E0,0E0,0E0,0E0,0E0,0E0,0E0,0E0,0E0,0E0,0E0,0E0,0E0,0E0,0E0,0E0,0E0,0E0,0E0,0E0,0E0,0E0,0E0,0E0,0E0,0E0,0E0,0E0,0E0,0E0,0E0,0E0,0E0,0E0,0E0,0E0,0E0,0E0,0E0,0E0,0E0,0E0,0E0],"parents":[2147483647,0,0,1,1,2,2,3,3,4,4,5,5,6,6,7,7,8,8,9,9,10,10,11,11,12,12,13,13,14,14,15,15,16,16,17,17,18,18,19,19,20,20,21,21,22,22,23,23,25,25,26,26,27,27,28,28,29,29,30,30,31,31,32,32,33,33,34,34,35,35,36,36,37,37,38,38,39,39,40,40,41,41,42,42,43,43,44,44,45,45,46,46,47,47,48,48,49,49,50,50,51,51,52,52,53,53,54,54,55,55,56,56,57,57,58,58,59,59,60,60,61,61,62,62,63,63,64,64,65,65,66,66,67,67,68,68,69,69,70,70,71,71,72,72,73,73,74,74,75,75,76,76,77,77,78,78,79,79,80,80,81,81,82,82,83,83,84,84,85,85,86,86,87,87,88,88,89,89,90,90,91,91,92,92,93,93,94,94,95,95,96,96,97,97,98,98,99,99,101,101,102,102,103,103,104,104,105,105,106,106,107,107,108,108,109,109,110,110,111,111,112,112,113,113,114,114,115,115,116,116,117,117,118,118,119,119],"right_children":[2,4,6,8,10,12,14,16,18,20,22,24,26,28,30,32,34,36,38,40,42,44,46,48,-1,50,52,54,56,58,60,62,64,66,68,70,72,74,76,78,80,82,84,86,88,90,92,94,96,98,100,102,104,106,108,110,112,114,116,118,120,122,124,126,128,130,132,134,136,138,140,142,144,146,148,150,152,154,156,158,160,162,164,166,168,170,172,174,176,178,180,182,184,186,188,190,192,194,196,198,-1,200,202,204,206,208,210,212,214,216,218,220,222,224,226,228,230,232,234,236,-1,-1,-1,-1,-1,-1,-1,-1,-1,-1,-1,-1,-1,-1,-1,-1,-1,-1,-1,-1,-1,-1,-1,-1,-1,-1,-1,-1,-1,-1,-1,-1,-1,-1,-1,-1,-1,-1,-1,-1,-1,-1,-1,-1,-1,-1,-1,-1,-1,-1,-1,-1,-1,-1,-1,-1,-1,-1,-1,-1,-1,-1,-1,-1,-1,-1,-1,-1,-1,-1,-1,-1,-1,-1,-1,-1,-1,-1,-1,-1,-1,-1,-1,-1,-1,-1,-1,-1,-1,-1,-1,-1,-1,-1,-1,-1,-1,-1,-1,-1,-1,-1,-1,-1,-1,-1,-1,-1,-1,-1,-1,-1,-1,-1,-1,-1,-1],"split_conditions":[7.158333E-1,3.630324E4,2.7950298E-2,8E-1,2.225E-1,-7.607201E-1,4.324994E-1,1.36E1,1.48E1,7.14366E4,-6.8979603E-1,1.35E1,-2.7591294E-1,3.8541335E-1,6.081215E-1,-8.605997E-1,3.4833333E-1,-5.6990105E-1,2.0496611E-1,-9.9937063E-1,-2.944616E-1,1.96E1,-3.4336686E-1,6.23925E3,1.9283389E0,1.754805E4,-1.9443122E-1,7.94773E-2,1.4442324E4,5.663619E-1,6.990793E-1,1.94885E4,-4E0,-2.3E0,8.550745E-1,-7.5086427E-1,1.1541667E-1,-2.1127576E-1,1.1101456E4,4.7425628E5,9.4E0,-8.517119E-1,6.5E0,1.1446839E6,1.35E1,3.05E-1,2.13E1,-7.7177274E-1,1.06069766E5,-5E0,1.83E1,1.6055925E4,-4.300593E-3,5.1584367E-2,2.3224293E-1,-3.7E0,3.69022E3,1.77E1,1E-1,6.8667597E-1,9.95827E-1,-3.6E0,4.725E-1,3.2916668E-1,6.8667597E-1,-5.9782916E-1,1.89E1,-4.300593E-3,2E-1,1.23958334E-1,1.2125E-1,1.6E1,-2.2805777E-1,2.17E1,2.1583334E-1,3.5344467E-1,3.5344467E-1,-3.3E0,7.25E-2,4E-1,-8.4372824E-1,-9.2883945E-1,6.875E-2,1.22E1,5.5416666E-2,-9.4175893E-1,1.81E1,-2E-1,2.51E1,4.6E0,7.14366E4,4.7425628E5,2.64E1,-9.0849173E-1,3.3E0,1E-1,4E0,-3.4336686E-1,1.12E1,2E0,-1.589796E-1,1E-1,-2.447723E-1,-1.5845178E-1,2E-1,6.55644E3,5.992726E3,6.0778E2,2.8210765E-1,1.2E1,6E-1,1.76E1,1.88E1,1.52181E3,5.3767735E-1,5.8045495E-1,2.33E1,6.216869E-1,-6.2E0,9.1380763E-1,2.9584777E-1,-3.1323206E-2,3.3259906E-3,1.7983554E-1,2.582339E0,1.1184471E-2,1.2762018E-1,7.806843E-2,2.6532067E-2,-4.592612E-2,-2.1048406E-2,1.455927E-2,-8.995479E-3,4.9679607E-2,1.4232393E-1,-3.3076633E-2,7.312257E-2,-5.477853E-2,-2.3218468E-2,-4.7053646E-2,-8.058628E-2,-2.0835325E-2,-4.030898E-2,2.5461858E-2,-1.3575714E-2,-5.551571E-2,-8.710015E-2,-8.681892E-2,-2.3528326E-1,-4.5405724E-3,-4.894099E-2,7.719253E-2,-4.538361E-3,-7.9443306E-1,-3.8470144E0,-5.632541E-1,1.914294E-1,2.7112377E-1,1.4971604E0,-2.0948524E-2,1.7768878E-1,4.6365747E-1,-2.0434658E-1,1.0344456E0,3.7369436E-1,3.2625937E-1,5.1887684E-2,1.3504484E0,2.5063986E-1,1.540398E0,6.0338676E-1,1.4083542E0,2.752154E0,1.0643628E0,1.8597372E-1,1.4796462E0,4.8026156E-1,-1.5556104E-1,-7.917305E-1,1.1291233E-1,-1.601722E-1,5.740962E-1,1.3736275E-1,1.2259554E0,1.1632319E-1,4.9025115E-1,-8.392212E-2,2.7351114E-1,2.3535688E0,4.9704626E-1,2.9582448E0,6.4377934E-1,2.209771E0,4.0424988E-2,-1.0913824E-1,3.6775374E-1,1.8395405E-1,7.961756E-1,1.9236913E0,6.340507E-1,2.331303E-1,6.155312E-1,1.3690575E0,-8.228512E-1,1.0173461E-1,9.765816E-1,2.1473263E-1,1.044193E0,3.0965054E0,1.2496468E0,3.4850426E0,-6.41153E-1,1.1514352E-1,1.9404092E-1,4.078595E-1,1.1392014E0,2.1922753E0,1.386527E0,5.5740166E-1,2.1022837E0,3.9578342E0,8.526416E-1,1.7084405E-1,4.0472145E-3,2.1300536E-1,1.2522092E-1,6.358825E-1,-1.777464E-2,-1.9879429E-1,-3.165774E-2,1.5681504E-1,1.5848716E-1,3.0063495E-1,-8.295692E-2,1.0970905E0,3.984242E-3,-2.8871068E-1],"split_indices":[15,13,4,8,15,4,4,7,8,13,4,11,4,4,4,4,15,4,4,4,4,7,4,13,0,13,4,4,14,4,4,13,11,11,4,4,15,4,14,14,7,4,11,14,11,15,7,4,14,11,7,14,4,4,4,11,13,7,8,4,4,11,15,15,4,4,7,4,8,15,15,7,4,8,15,4,4,11,15,11,4,4,15,7,15,4,7,11,7,11,13,14,7,4,11,8,11,4,7,11,0,8,4,4,8,13,14,13,4,7,8,7,7,13,4,4,7,4,11,4,0,0,0,0,0,0,0,0,0,0,0,0,0,0,0,0,0,0,0,0,0,0,0,0,0,0,0,0,0,0,0,0,0,0,0,0,0,0,0,0,0,0,0,0,0,0,0,0,0,0,0,0,0,0,0,0,0,0,0,0,0,0,0,0,0,0,0,0,0,0,0,0,0,0,0,0,0,0,0,0,0,0,0,0,0,0,0,0,0,0,0,0,0,0,0,0,0,0,0,0,0,0,0,0,0,0,0,0,0,0,0,0,0,0,0,0,0],"split_type":[0,0,0,0,0,0,0,0,0,0,0,0,0,0,0,0,0,0,0,0,0,0,0,0,0,0,0,0,0,0,0,0,0,0,0,0,0,0,0,0,0,0,0,0,0,0,0,0,0,0,0,0,0,0,0,0,0,0,0,0,0,0,0,0,0,0,0,0,0,0,0,0,0,0,0,0,0,0,0,0,0,0,0,0,0,0,0,0,0,0,0,0,0,0,0,0,0,0,0,0,0,0,0,0,0,0,0,0,0,0,0,0,0,0,0,0,0,0,0,0,0,0,0,0,0,0,0,0,0,0,0,0,0,0,0,0,0,0,0,0,0,0,0,0,0,0,0,0,0,0,0,0,0,0,0,0,0,0,0,0,0,0,0,0,0,0,0,0,0,0,0,0,0,0,0,0,0,0,0,0,0,0,0,0,0,0,0,0,0,0,0,0,0,0,0,0,0,0,0,0,0,0,0,0,0,0,0,0,0,0,0,0,0,0,0,0,0,0,0,0,0,0,0,0,0,0,0,0,0,0,0,0,0,0,0,0,0],"sum_hessian":[9.10828E5,9.07274E5,3.554E3,9.03452E5,3.822E3,2.042E3,1.512E3,6.1647E5,2.86982E5,3.387E3,4.35E2,2.59E2,1.783E3,1.034E3,4.78E2,2.04006E5,4.12464E5,2.3969E5,4.7292E4,1.715E3,1.672E3,2.82E2,1.53E2,2.51E2,8E0,1.36E3,4.23E2,7.56E2,2.78E2,1.33E2,3.45E2,4.3522E4,1.60484E5,4.00241E5,1.2223E4,6.0235E4,1.79455E5,2.4633E4,2.2659E4,3.1E1,1.684E3,1.273E3,3.99E2,2.36E2,4.6E1,6.2E1,9.1E1,2.08E2,4.3E1,1.346E3,1.4E1,2.06E2,2.17E2,2.67E2,4.89E2,1.22E2,1.56E2,2.9E1,1.04E2,2.77E2,6.8E1,4.2972E4,5.5E2,5.6536E4,1.03948E5,1.19164E5,2.81077E5,1.0462E4,1.761E3,4.2638E4,1.7597E4,5.7386E4,1.22069E5,1.768E4,6.953E3,1.9818E4,2.841E3,7E0,2.4E1,1.13E2,1.571E3,6.38E2,6.35E2,3.49E2,5E1,1.13E2,1.23E2,4.2E1,4E0,2E1,4.2E1,6.7E1,2.4E1,1.91E2,1.7E1,7E0,3.6E1,2.06E2,1.14E3,1.2E1,2E0,1.22E2,8.4E1,1.27E2,9E1,2.18E2,4.9E1,5.7E1,4.32E2,3.7E1,8.5E1,1.19E2,3.7E1,1.7E1,1.2E1,8E1,2.4E1,2.49E2,2.8E1,6.1E1,7E0,1.3752E4,2.922E4,5.42E2,8E0,5.3868E4,2.668E3,8.0853E4,2.3095E4,2.8029E4,9.1135E4,1.21657E5,1.5942E5,5.156E3,5.306E3,1.306E3,4.55E2,1.8308E4,2.433E4,6.166E3,1.1431E4,2.2505E4,3.4881E4,1.7681E4,1.04388E5,8.407E3,9.273E3,5.762E3,1.191E3,1.783E3,1.8035E4,3.18E2,2.523E3,5E0,2E0,7E0,1.7E1,9.3E1,2E1,3.57E2,1.214E3,4.29E2,2.09E2,2.01E2,4.34E2,6.4E1,2.85E2,4E0,4.6E1,2.9E1,8.4E1,1.07E2,1.6E1,4E0,3.8E1,2E0,2E0,1.6E1,4E0,2.8E1,1.4E1,6E0,6.1E1,1.2E1,1.2E1,1.53E2,3.8E1,1.1E1,6E0,2E0,5E0,3.3E1,3E0,1.34E2,7.2E1,1.9E2,9.5E2,9E0,3E0,4.4E1,7.8E1,7E1,1.4E1,5E0,1.22E2,2.9E1,6.1E1,2.06E2,1.2E1,7E0,4.2E1,3.7E1,2E1,2.64E2,1.68E2,1.8E1,1.9E1,5.9E1,2.6E1,6E1,5.9E1,2.6E1,1.1E1,9E0,8E0,4E0,8E0,1.5E1,6.5E1,1.7E1,7E0,8.6E1,1.63E2,5E0,2.3E1,5E1,1.1E1],"tree_param":{"num_deleted":"0","num_feature":"19","num_nodes":"237","size_leaf_vector":"1"}},{"base_weights":[-4.2194873E-3,1.4389911E-1,-3.7648037E1,6.843545E-1,-4.6840467E0,-3.4485935E1,-4.681603E1,1.0790454E0,-6.579562E-1,-3.6450877E0,-1.0247503E1,-3.698649E1,-2.8154314E1,-5.8498272E1,-3.606232E1,1.036807E0,1.134647E1,-6.861642E-1,1.6468382E1,-2.8720117E0,-5.2223263E0,-8.89525E0,-1.4317249E1,-3.799192E1,-2.4441E1,-3.216221E1,-2.4477652E1,-5.3747066E1,-7.5679436E1,-5.601176E1,-3.3282272E1,-7.40507E0,1.082503E0,1.532668E1,6.267585E0,6.619813E-2,-1.1205131E0,2.4009718E1,5.5643444E0,-2.91987E0,2.399002E1,-5.3226447E0,6.9753246E0,-8.99893E0,1.2286206E1,-1.4692931E1,8.377161E0,-4.4466526E1,-3.563954E1,-3.8698395E1,-6.5174212E0,-4.003476E1,-2.5703358E1,-1.8352188E1,-2.6953989E1,-4.9268906E1,-9.081604E1,-8.480374E1,-3.3457115E1,-6.582175E1,-2.675981E1,-3.6752235E1,-2.6328093E1,-1.0470063E1,9.074338E-1,1.4291357E0,3.010206E-1,9.287926E0,2.0457783E1,6.90989E0,3.6765091E0,4.2060068E-1,-1.0496663E0,-1.933542E-1,-1.4683352E0,4.432652E1,1.9485239E1,4.649765E0,2.0447943E1,-1.5968136E0,-3.4403138E0,4.6851788E1,1.0408833E1,-3.9102147E0,-5.9551873E0,1.1719825E1,-1.0216026E0,-8.163382E0,-1.0639167E1,5.9101517E1,7.258395E0,-1.960374E1,-1.4183128E1,2.6122525E0,3.1717112E0,-5.5858223E1,-3.7009644E1,-3.228132E1,-4.4281258E1,-1.9713636E1,-4.6969402E1,-8.8811E0,1.4946458E0,-3.4991817E1,-4.830007E1,-3.0526836E1,-1.2096789E1,-1.9946003E1,-2.6113322E0,-2.596134E1,-3.200814E1,-4.9900112E1,-6.337091E-1,-3.6106786E-1,-9.519273E1,-9.359706E1,-4.9297276E1,-6.1570595E1,-1.790804E1,-3.8596573E1,-8.6633995E1,-6.400779E-1,-1.4520416E0,-4.3022964E1,-3.122983E1,-2.8942127E1,-1.7360327E1,-2.170337E-1,-5.174627E-1,2.060769E-1,3.7648468E-3,7.506069E-2,3.548711E-2,1.6271375E-2,-2.1003114E-2,-3.272069E-2,3.6083403E-1,1.7050287E-1,7.355886E-1,2.17995E-1,9.605408E-1,9.916812E-2,3.7431008E-1,-4.158942E-2,2.0381996E-2,-6.1130162E-2,-2.506175E-2,7.2061247E-3,-2.9123915E-2,-3.1803664E-2,-6.9470115E-2,8.575479E-1,2.0144055E0,1.04377225E-1,7.4050695E-1,1.0261513E-1,3.5247505E-1,2.2584575E-1,1.1980821E0,-3.519473E-2,-1.0843963E-1,-7.77645E-2,-1.2450004E-1,8.05455E-1,1.7805263E0,3.9528477E-1,-4.6748793E-1,-1.1172717E-1,-2.1211618E-1,-1.6771567E-1,-2.1764994E-1,5.366522E-1,1.9727272E-1,1.4930847E-1,-4.5623615E-2,-2.324827E-1,-2.988618E-1,-4.1992944E-1,-3.2891363E-1,6.83531E-1,2.5670524E0,7.0965874E-1,-5.401367E-1,-1.0583998E0,-6.1398894E-1,-4.380393E-1,-5.1156855E-1,4.527359E-1,-4.9700812E-1,-1.5949545E0,-2.2658439E0,-1.2029569E0,-2.2058713E0,-1.21874E0,-9.569936E-1,-1.4194543E0,-2.1372626E0,-1.6756967E-2,-9.851018E-1,-2.8916085E0,-1.3579962E0,3.976046E-1,-5.366614E-1,-1.1852516E0,-3.194573E-1,-2.2159672E0,-8.482627E-1,-1.086355E0,-8.04247E-1,-7.421327E-1,-1.2081589E-1,-7.756983E-1,-5.1904285E-1,7.5613135E-1,-4.50957E-1,-8.7618446E-1,-5.669563E-1,-9.04472E-1,-1.3253173E0,-1.2198539E0,-1.6996877E0,-1.898917E0,-3.7327423E0,-3.8185747E0,-2.6164978E0,-1.8934748E0,-6.081197E-1,-2.6491325E0,-5.3148276E-1,-2.868604E-1,-6.9424963E-1,-1.5262468E0,-4.30006E-1,-2.2361348E0,-3.9629872E0,-1.2902136E0,-1.9273572E0,-1.0745821E0,-6.66043E-1,-8.94106E-1,-1.5401236E0,-3.0290985E-1,-6.5469533E-1],"categories":[],"categories_nodes":[],"categories_segments":[],"categories_sizes":[],"default_left":[0,0,0,0,0,0,0,0,0,0,0,0,0,0,0,0,0,0,0,0,0,0,0,0,0,0,0,0,0,0,0,0,0,0,0,0,0,0,0,0,0,0,0,0,0,0,0,0,0,0,0,0,0,0,0,0,0,0,0,0,0,0,0,0,0,0,0,0,0,0,0,0,0,0,0,0,0,0,0,0,0,0,0,0,0,0,0,0,0,0,0,0,0,0,0,0,0,0,0,0,0,0,0,0,0,0,0,0,0,0,0,0,0,0,0,0,0,0,0,0,0,0,0,0,0,0,0,0,0,0,0,0,0,0,0,0,0,0,0,0,0,0,0,0,0,0,0,0,0,0,0,0,0,0,0,0,0,0,0,0,0,0,0,0,0,0,0,0,0,0,0,0,0,0,0,0,0,0,0,0,0,0,0,0,0,0,0,0,0,0,0,0,0,0,0,0,0,0,0,0,0,0,0,0,0,0,0,0,0,0,0,0,0,0,0,0,0,0,0,0,0,0,0,0,0,0,0,0,0,0,0,0,0,0,0,0,0,0,0,0,0,0,0],"id":6,"left_children":[1,3,5,7,9,11,13,15,17,19,21,23,25,27,29,31,33,35,37,39,41,43,45,47,49,51,53,55,57,59,61,63,65,67,69,71,73,75,77,79,81,83,85,87,89,91,93,95,97,99,101,103,105,107,109,111,113,115,117,119,121,123,125,127,129,131,133,135,137,139,141,143,145,147,149,151,153,155,157,159,161,163,165,167,169,171,173,175,177,179,181,183,185,-1,187,189,191,193,195,197,199,201,-1,203,205,207,209,211,213,215,217,219,-1,-1,221,223,225,227,229,231,233,-1,-1,235,237,239,241,-1,-1,-1,-1,-1,-1,-1,-1,-1,-1,-1,-1,-1,-1,-1,-1,-1,-1,-1,-1,-1,-1,-1,-1,-1,-1,-1,-1,-1,-1,-1,-1,-1,-1,-1,-1,-1,-1,-1,-1,-1,-1,-1,-1,-1,-1,-1,-1,-1,-1,-1,-1,-1,-1,-1,-1,-1,-1,-1,-1,-1,-1,-1,-1,-1,-1,-1,-1,-1,-1,-1,-1,-1,-1,-1,-1,-1,-1,-1,-1,-1,-1,-1,-1,-1,-1,-1,-1,-1,-1,-1,-1,-1,-1,-1,-1,-1,-1,-1,-1,-1,-1,-1,-1,-1,-1,-1,-1,-1,-1,-1,-1,-1,-1,-1,-1],"loss_changes":[5.080221E6,2.3680818E6,1.019095E5,4.32417E5,5.280824E5,4.105725E4,1.1258825E5,2.735248E5,8.960688E4,9.386194E4,7.8994E4,2.307525E4,1.0367625E4,3.152375E4,2.4645875E4,2.4232269E5,5.2139594E4,6.050679E4,2.494686E4,6.649422E4,3.10235E4,2.3815E4,3.067975E4,2.52215E4,3.6546055E4,1.7225281E4,5.5576406E3,5.2795875E4,3.2605562E4,1.4595406E4,9.215531E3,8.61753E4,1.6924138E5,4.4676938E4,1.8668672E3,2.680112E4,3.785542E4,1.5682414E4,1.6200632E3,3.5509938E4,2.8077402E4,2.2416875E4,7.8658477E3,1.46350625E4,1.2046082E4,8.5494375E3,2.148761E4,3.7432875E4,3.6181625E4,1.1635922E4,8.362243E3,4.9789375E3,1.2756922E4,2.908293E3,5.8384375E2,4.9248125E3,1.1543594E4,1.88025E4,6.7658867E3,2.0454156E4,1.1778594E3,8.3180625E3,2.8732031E3,5.0024688E4,3.8610156E3,1.2944156E5,3.4563734E4,1.1299488E4,2.1800438E4,5.9480195E3,1.1394785E3,1.7035764E4,3.8045117E3,9.08741E3,2.7427797E4,8.22418E3,7.1140977E3,1.0815264E3,1.2616318E3,1.3042219E4,1.33270625E4,4.1037812E3,2.445351E3,1.0241641E4,9.6609375E3,3.2933965E3,1.6239267E2,7.0487812E3,4.951E3,1.975748E3,1.6844812E4,3.4974062E3,3.62925E3,0E0,1.097593E4,1.42196875E4,2.2777812E3,1.322725E4,6.561125E3,5.04724E3,9.403352E3,9.928808E3,0E0,2.0635781E3,2.2977734E4,1.3631094E3,4.6515503E3,1.236793E3,3.6988857E3,7.9175E2,4.743789E2,4.3886875E3,0E0,0E0,1.643125E4,9.497656E3,3.1832578E3,3.809955E3,1.9207275E2,3.3106562E3,6.3847188E3,0E0,0E0,5.4455E3,1.5814531E3,2.339336E3,5.2771875E2,0E0,0E0,0E0,0E0,0E0,0E0,0E0,0E0,0E0,0E0,0E0,0E0,0E0,0E0,0E0,0E0,0E0,0E0,0E0,0E0,0E0,0E0,0E0,0E0,0E0,0E0,0E0,0E0,0E0,0E0,0E0,0E0,0E0,0E0,0E0,0E0,0E0,0E0,0E0,0E0,0E0,0E0,0E0,0E0,0E0,0E0,0E0,0E0,0E0,0E0,0E0,0E0,0E0,0E0,0E0,0E0,0E0,0E0,0E0,0E0,0E0,0E0,0E0,0E0,0E0,0E0,0E0,0E0,0E0,0E0,0E0,0E0,0E0,0E0,0E0,0E0,0E0,0E0,0E0,0E0,0E0,0E0,0E0,0E0,0E0,0E0,0E0,0E0,0E0,0E0,0E0,0E0,0E0,0E0,0E0,0E0,0E0,0E0,0E0,0E0,0E0,0E0,0E0,0E0,0E0,0E0,0E0,0E0,0E0,0E0,0E0,0E0,0E0,0E0,0E0,0E0],"parents":[2147483647,0,0,1,1,2,2,3,3,4,4,5,5,6,6,7,7,8,8,9,9,10,10,11,11,12,12,13,13,14,14,15,15,16,16,17,17,18,18,19,19,20,20,21,21,22,22,23,23,24,24,25,25,26,26,27,27,28,28,29,29,30,30,31,31,32,32,33,33,34,34,35,35,36,36,37,37,38,38,39,39,40,40,41,41,42,42,43,43,44,44,45,45,46,46,47,47,48,48,49,49,50,50,51,51,52,52,53,53,54,54,55,55,56,56,57,57,58,58,59,59,60,60,61,61,62,62,63,63,64,64,65,65,66,66,67,67,68,68,69,69,70,70,71,71,72,72,73,73,74,74,75,75,76,76,77,77,78,78,79,79,80,80,81,81,82,82,83,83,84,84,85,85,86,86,87,87,88,88,89,89,90,90,91,91,92,92,94,94,95,95,96,96,97,97,98,98,99,99,100,100,101,101,103,103,104,104,105,105,106,106,107,107,108,108,109,109,110,110,111,111,114,114,115,115,116,116,117,117,118,118,119,119,120,120,123,123,124,124,125,125,126,126],"right_children":[2,4,6,8,10,12,14,16,18,20,22,24,26,28,30,32,34,36,38,40,42,44,46,48,50,52,54,56,58,60,62,64,66,68,70,72,74,76,78,80,82,84,86,88,90,92,94,96,98,100,102,104,106,108,110,112,114,116,118,120,122,124,126,128,130,132,134,136,138,140,142,144,146,148,150,152,154,156,158,160,162,164,166,168,170,172,174,176,178,180,182,184,186,-1,188,190,192,194,196,198,200,202,-1,204,206,208,210,212,214,216,218,220,-1,-1,222,224,226,228,230,232,234,-1,-1,236,238,240,242,-1,-1,-1,-1,-1,-1,-1,-1,-1,-1,-1,-1,-1,-1,-1,-1,-1,-1,-1,-1,-1,-1,-1,-1,-1,-1,-1,-1,-1,-1,-1,-1,-1,-1,-1,-1,-1,-1,-1,-1,-1,-1,-1,-1,-1,-1,-1,-1,-1,-1,-1,-1,-1,-1,-1,-1,-1,-1,-1,-1,-1,-1,-1,-1,-1,-1,-1,-1,-1,-1,-1,-1,-1,-1,-1,-1,-1,-1,-1,-1,-1,-1,-1,-1,-1,-1,-1,-1,-1,-1,-1,-1,-1,-1,-1,-1,-1,-1,-1,-1,-1,-1,-1,-1,-1,-1,-1,-1,-1,-1,-1,-1,-1,-1,-1,-1],"split_conditions":[1.98E1,4E0,1E0,1.4E0,9.3E0,-2.4492937E-16,-5E-1,1.1E2,2.17E2,6.2E0,1.41E1,6.2818025E5,-1.8369701E-16,2.31E1,1.02E1,-1.98E1,-5E-1,1.48E1,-5E-1,7.14366E4,8.2E1,1.1446839E6,1.1E2,-8.660254E-1,1.52E1,3.0773E2,1.17E1,1.2E1,5E-1,-2.4492937E-16,-2.4492937E-16,5E-1,9E-1,1.1446839E6,2.15E1,7E-1,-5E-1,1.06E1,3.75E0,1.35E1,1.31E1,1.38E1,-2.4492937E-16,1.17E1,8.6E0,-8.660254E-1,3.4614912E5,1.42E1,1.86E1,1.1446839E6,2.48E1,2.2E1,1E-1,1.14E1,3E-1,3.10146E3,-8.660254E-1,1E0,2.68E1,-1.8369701E-16,8.9E0,1.66E1,3.0773E2,2E-1,1.07E1,1.31E1,1.48E1,-1.02E1,7.14366E4,2.12E1,4.01E1,-8.660254E-1,-5E-1,5E-1,2.5E0,1.1446839E6,1.6E0,2.7E1,8.660254E-1,6E-1,-5E-1,1.1446839E6,3E-1,1.6E0,7.1E0,-1.8369701E-16,1.01E1,1.57E1,-5E-1,1.17E1,1.17E1,9E0,2E-1,2.6122525E0,1.48E1,8E0,6.8E1,-5E-1,3.3E1,1.03E1,8.9E0,1.67E1,1.4946458E0,2.09E1,5E-1,2.14E1,1.81E1,2.9875E2,1.2246469E-16,9.71307E3,4E0,1.18E1,-6.337091E-1,-3.6106786E-1,1.54E1,5.8E0,2.68E1,8E0,2.92E1,4E0,7.7E0,-6.400779E-1,-1.4520416E0,6.123234E-17,2.62E1,2.51E1,1.033868E4,-2.170337E-1,-5.174627E-1,2.060769E-1,3.7648468E-3,7.506069E-2,3.548711E-2,1.6271375E-2,-2.1003114E-2,-3.272069E-2,3.6083403E-1,1.7050287E-1,7.355886E-1,2.17995E-1,9.605408E-1,9.916812E-2,3.7431008E-1,-4.158942E-2,2.0381996E-2,-6.1130162E-2,-2.506175E-2,7.2061247E-3,-2.9123915E-2,-3.1803664E-2,-6.9470115E-2,8.575479E-1,2.0144055E0,1.04377225E-1,7.4050695E-1,1.0261513E-1,3.5247505E-1,2.2584575E-1,1.1980821E0,-3.519473E-2,-1.0843963E-1,-7.77645E-2,-1.2450004E-1,8.05455E-1,1.7805263E0,3.9528477E-1,-4.6748793E-1,-1.1172717E-1,-2.1211618E-1,-1.6771567E-1,-2.1764994E-1,5.366522E-1,1.9727272E-1,1.4930847E-1,-4.5623615E-2,-2.324827E-1,-2.988618E-1,-4.1992944E-1,-3.2891363E-1,6.83531E-1,2.5670524E0,7.0965874E-1,-5.401367E-1,-1.0583998E0,-6.1398894E-1,-4.380393E-1,-5.1156855E-1,4.527359E-1,-4.9700812E-1,-1.5949545E0,-2.2658439E0,-1.2029569E0,-2.2058713E0,-1.21874E0,-9.569936E-1,-1.4194543E0,-2.1372626E0,-1.6756967E-2,-9.851018E-1,-2.8916085E0,-1.3579962E0,3.976046E-1,-5.366614E-1,-1.1852516E0,-3.194573E-1,-2.2159672E0,-8.482627E-1,-1.086355E0,-8.04247E-1,-7.421327E-1,-1.2081589E-1,-7.756983E-1,-5.1904285E-1,7.5613135E-1,-4.50957E-1,-8.7618446E-1,-5.669563E-1,-9.04472E-1,-1.3253173E0,-1.2198539E0,-1.6996877E0,-1.898917E0,-3.7327423E0,-3.8185747E0,-2.6164978E0,-1.8934748E0,-6.081197E-1,-2.6491325E0,-5.3148276E-1,-2.868604E-1,-6.9424963E-1,-1.5262468E0,-4.30006E-1,-2.2361348E0,-3.9629872E0,-1.2902136E0,-1.9273572E0,-1.0745821E0,-6.66043E-1,-8.94106E-1,-1.5401236E0,-3.0290985E-1,-6.5469533E-1],"split_indices":[9,9,8,9,9,2,3,12,12,9,9,14,3,7,7,9,2,7,2,13,12,14,12,2,7,13,7,12,2,2,2,2,8,14,7,8,3,7,9,7,7,7,2,9,7,2,14,7,7,14,7,7,8,7,8,13,3,12,7,3,7,7,13,8,7,7,8,9,13,7,7,2,2,2,9,14,9,7,2,8,3,14,8,8,9,3,7,7,2,9,9,7,8,0,7,12,12,3,12,7,7,7,0,7,2,7,7,13,2,13,12,7,0,0,7,8,7,12,7,12,8,0,0,3,8,8,14,0,0,0,0,0,0,0,0,0,0,0,0,0,0,0,0,0,0,0,0,0,0,0,0,0,0,0,0,0,0,0,0,0,0,0,0,0,0,0,0,0,0,0,0,0,0,0,0,0,0,0,0,0,0,0,0,0,0,0,0,0,0,0,0,0,0,0,0,0,0,0,0,0,0,0,0,0,0,0,0,0,0,0,0,0,0,0,0,0,0,0,0,0,0,0,0,0,0,0,0,0,0,0,0,0,0,0,0,0,0,0,0,0,0,0,0],"split_type":[0,0,0,0,0,0,0,0,0,0,0,0,0,0,0,0,0,0,0,0,0,0,0,0,0,0,0,0,0,0,0,0,0,0,0,0,0,0,0,0,0,0,0,0,0,0,0,0,0,0,0,0,0,0,0,0,0,0,0,0,0,0,0,0,0,0,0,0,0,0,0,0,0,0,0,0,0,0,0,0,0,0,0,0,0,0,0,0,0,0,0,0,0,0,0,0,0,0,0,0,0,0,0,0,0,0,0,0,0,0,0,0,0,0,0,0,0,0,0,0,0,0,0,0,0,0,0,0,0,0,0,0,0,0,0,0,0,0,0,0,0,0,0,0,0,0,0,0,0,0,0,0,0,0,0,0,0,0,0,0,0,0,0,0,0,0,0,0,0,0,0,0,0,0,0,0,0,0,0,0,0,0,0,0,0,0,0,0,0,0,0,0,0,0,0,0,0,0,0,0,0,0,0,0,0,0,0,0,0,0,0,0,0,0,0,0,0,0,0,0,0,0,0,0,0,0,0,0,0,0,0,0,0,0,0,0,0,0,0,0,0,0,0],"sum_hessian":[9.11126E5,9.07556E5,3.57E3,8.1619E5,9.1366E4,2.658E3,9.12E2,6.30731E5,1.85459E5,7.699E4,1.4376E4,1.902E3,7.56E2,4.35E2,4.77E2,6.28148E5,2.583E3,1.85155E5,3.04E2,5.1668E4,2.5322E4,1.0793E4,3.583E3,1.759E3,1.43E2,3.58E2,3.98E2,3.44E2,9.1E1,5.6E1,4.21E2,3.381E3,6.24767E5,1.447E3,1.136E3,6.7769E4,1.17386E5,1.79E2,1.25E2,5.1577E4,9.1E1,2.5116E4,2.06E2,1.0741E4,5.2E1,3.525E3,5.8E1,4.64E2,1.295E3,7.9E1,6.4E1,1.59E2,1.99E2,1.17E2,2.81E2,3.09E2,3.5E1,7.4E1,1.7E1,4.1E1,1.5E1,2.78E2,1.43E2,2.47E3,9.11E2,4.32796E5,1.91971E5,6.66E2,7.81E2,9.09E2,2.27E2,5.1434E4,1.6335E4,3.2024E4,8.5362E4,3.1E1,1.48E2,1.19E2,6E0,1.4562E4,3.7015E4,3.3E1,5.8E1,7.771E3,1.7345E4,1.29E2,7.7E1,7.12E3,3.621E3,4E0,4.8E1,3.28E2,3.197E3,3E0,5.5E1,1.81E2,2.83E2,9.36E2,3.59E2,2.5E1,5.4E1,6.2E1,2E0,1.02E2,5.7E1,1.46E2,5.3E1,1.06E2,1.1E1,2.4E2,4.1E1,3.02E2,7E0,2E0,3.3E1,5.8E1,1.6E1,5E0,1.2E1,1.9E1,2.2E1,1.2E1,3E0,1.27E2,1.51E2,1.09E2,3.4E1,1.415E3,1.055E3,1.17E2,7.94E2,1.27675E5,3.05121E5,1.59331E5,3.264E4,9.2E1,5.74E2,8.4E1,6.97E2,8.98E2,1.1E1,2.1E2,1.7E1,5.396E3,4.6038E4,4.336E3,1.1999E4,2.0048E4,1.1976E4,4.7627E4,3.7735E4,1.6E1,1.5E1,2.3E1,1.25E2,9.6E1,2.3E1,4E0,2E0,1.1084E4,3.478E3,8.69E3,2.8325E4,9E0,2.4E1,5.5E1,3E0,6.433E3,1.338E3,7.343E3,1.0002E4,7.1E1,5.8E1,4E0,7.3E1,3.165E3,3.955E3,8.78E2,2.743E3,2E0,2E0,3E1,1.8E1,2.2E1,3.06E2,1.899E3,1.298E3,3.5E1,2E1,1.17E2,6.4E1,2.8E2,3E0,3.83E2,5.53E2,3.41E2,1.8E1,9E0,1.6E1,5E0,4.9E1,1.6E1,4.6E1,9.8E1,4E0,3E1,2.7E1,1.02E2,4.4E1,2.3E1,3E1,5.5E1,5.1E1,3E0,8E0,2.23E2,1.7E1,2.9E1,1.2E1,3.6E1,2.66E2,1.2E1,2.1E1,2E1,3.8E1,1.2E1,4E0,3E0,2E0,4E0,8E0,1.4E1,5E0,1.6E1,6E0,1.04E2,2.3E1,1.33E2,1.8E1,1.01E2,8E0,9E0,2.5E1],"tree_param":{"num_deleted":"0","num_feature":"19","num_nodes":"243","size_leaf_vector":"1"}},{"base_weights":[1.2927904E-3,1.8100692E-1,-4.526432E1,1.0766695E0,-5.645891E0,-7.2284744E1,-4.134451E1,1.9295057E0,-4.1196638E-1,-4.4139757E0,-1.2832375E1,-2.7669563E1,-8.129982E1,-4.4155895E1,-2.8385696E1,1.8906337E0,1.7411716E1,-4.7947967E-1,1.5345373E1,-4.563295E0,1.3828926E1,-1.3112273E1,1.7341478E1,5.224105E1,-3.505435E1,-6.668846E1,-9.7001816E1,-4.6563084E1,-3.0237167E1,-2.4656248E1,-3.505001E1,1.8575454E0,1.2886628E1,3.1262365E1,1.2297E1,-1.1918519E0,6.680728E-1,3.751697E1,7.669655E0,-3.616245E0,-6.6588683E0,2.943963E1,4.6077933E0,-1.0721053E1,-1.6679216E1,4.225387E1,7.7751E0,2.0212102E0,6.538775E-1,-4.0362026E1,3.0057062E1,-8.543383E1,-5.585428E1,-9.99385E1,-6.0654724E1,-6.0089474E1,-4.316083E1,-5.3725094E1,-1.7720772E1,-3.082725E1,-1.9743547E1,-3.7602108E1,-3.0094963E1,1.4785451E0,2.6159832E0,1.064896E1,3.845649E1,1.6478237E1,5.5273335E1,2.375412E1,1.07522955E1,-5.392413E-1,-2.1557677E0,6.07165E-1,1.8490992E1,2.8636343E1,7.315056E1,7.1114097E0,7.858765E1,-3.740913E0,7.1004424E0,-5.7198005E0,-8.48414E0,4.437149E1,1.9566305E1,1.2132187E1,2.8431146E0,-1.1043071E1,-2.4491154E-1,-1.7061186E1,-2.209157E0,7.1187515E1,1.837207E1,4.7810707E0,4.0243683E0,-2.9435162E1,-4.8953625E1,5.386591E-1,1.265554E0,-6.4684474E-1,-8.907157E1,-6.633917E1,-3.738223E1,-3.5339673E0,-8.410644E1,-9.3495804E-1,-2.279242E0,-5.531789E1,-9.790495E1,-4.4671913E1,-3.2996445E1,-2.497852E1,-6.04768E1,-2.2966791E1,2.506762E1,-2.0210354E1,-3.560937E1,-1.3965389E1,-2.6092558E1,-1.2558861E0,-4.6138325E-1,-3.135928E1,-6.6283994E0,6.835823E-2,2.7729796E-2,5.9982024E-2,1.0975155E-1,5.1866007E-1,2.2083528E-1,7.165456E-1,1.8671715E0,2.4439616E0,3.52911E-1,9.81307E-1,2.2690897E0,3.8734138E-1,1.0830704E0,7.12722E-1,3.10155E-1,-3.7227288E-2,2.5761747E-3,-9.362518E-2,-4.923645E-2,3.6817506E-2,-2.295817E-2,2.648282E-1,8.0810994E-1,1.874777E0,4.2012343E-1,2.9016619E0,1.4010735E-1,2.0379145E-1,5.729305E-1,1.392266E0,3.7308054E0,-1.5013704E-1,-8.8540226E-2,4.4426405E-1,2.378798E-2,-1.9283871E-1,4.0953398E-1,-2.4055229E-1,-3.086236E-1,1.0395354E0,3.3668764E0,2.0030813E-1,1.8152407E0,9.713862E-1,1.6480577E-1,-1.5139282E-1,1.6308147E-1,-3.1913325E-1,-4.1653425E-1,-1.0470207E-1,4.0268758E-1,-4.9419865E-1,-6.3416743E-1,7.309369E-1,-3.2683036E-1,7.269534E-1,3.1667795E0,-5.480582E-2,1.094727E0,-4.1062627E-2,9.299834E-1,-7.395837E-1,-2.0750375E0,-1.1986415E0,-2.0615897E0,-3.1394696E0,-1.7605785E0,-1.4893774E0,-2.3385415E0,-1.5764116E0,-9.63961E-1,-3.2597933E0,-1.7408167E0,-1.968797E0,-1.2491882E0,-4.4692483E0,-2.5325294E0,-1.8600299E0,-1.4278195E0,-1.2390143E0,-2.0845579E-1,3.9804468E-1,-9.9366826E-1,-2.449818E0,-1.4490972E0,-4.0304184E-1,-1.3487676E0,-1.2214295E-1,4.328628E0,-4.0282586E-1,-1.0087894E0,-1.005422E0,-1.369807E0,-6.3759273E-1,-7.9858586E-2,-7.156201E-1,-1.0876064E0,-7.349607E-1,-1.1187651E0,-6.1920215E-3,-3.5836995E-1],"categories":[],"categories_nodes":[],"categories_segments":[],"categories_sizes":[],"default_left":[0,0,0,0,0,0,0,0,0,0,0,0,0,0,0,0,0,0,0,0,0,0,0,0,0,0,0,0,0,0,0,0,0,0,0,0,0,0,0,0,0,0,0,0,0,0,0,0,0,0,0,0,0,0,0,0,0,0,0,0,0,0,0,0,0,0,0,0,0,0,0,0,0,0,0,0,0,0,0,0,0,0,0,0,0,0,0,0,0,0,0,0,0,0,0,0,0,0,0,0,0,0,0,0,0,0,0,0,0,0,0,0,0,0,0,0,0,0,0,0,0,0,0,0,0,0,0,0,0,0,0,0,0,0,0,0,0,0,0,0,0,0,0,0,0,0,0,0,0,0,0,0,0,0,0,0,0,0,0,0,0,0,0,0,0,0,0,0,0,0,0,0,0,0,0,0,0,0,0,0,0,0,0,0,0,0,0,0,0,0,0,0,0,0,0,0,0,0,0,0,0,0,0,0,0,0,0,0,0,0,0,0,0,0,0,0,0,0,0,0,0,0,0,0,0],"id":7,"left_children":[1,3,5,7,9,11,13,15,17,19,21,23,25,27,29,31,33,35,37,39,41,43,45,47,49,51,53,55,57,59,61,63,65,67,69,71,73,75,77,79,81,83,85,87,89,91,93,-1,-1,95,97,99,101,103,105,107,109,111,113,115,117,119,121,123,125,127,129,131,133,135,137,139,141,143,145,147,149,151,153,155,157,159,161,163,165,167,169,171,173,175,177,179,181,183,-1,185,187,-1,-1,-1,189,191,193,-1,195,-1,-1,197,199,201,203,205,207,209,211,213,215,217,219,-1,-1,221,223,-1,-1,-1,-1,-1,-1,-1,-1,-1,-1,-1,-1,-1,-1,-1,-1,-1,-1,-1,-1,-1,-1,-1,-1,-1,-1,-1,-1,-1,-1,-1,-1,-1,-1,-1,-1,-1,-1,-1,-1,-1,-1,-1,-1,-1,-1,-1,-1,-1,-1,-1,-1,-1,-1,-1,-1,-1,-1,-1,-1,-1,-1,-1,-1,-1,-1,-1,-1,-1,-1,-1,-1,-1,-1,-1,-1,-1,-1,-1,-1,-1,-1,-1,-1,-1,-1,-1,-1,-1,-1,-1,-1,-1,-1,-1,-1,-1,-1,-1,-1,-1,-1],"loss_changes":[7.409712E6,4.7349155E6,3.785165E5,9.983607E5,1.0700758E6,1.8075575E5,1.13435E5,3.0085275E5,3.0471475E5,2.81152E5,1.4961375E5,4.786087E4,8.025475E4,8.5203E4,1.3153594E4,1.8142512E5,8.830991E4,2.3315064E5,2.0767581E5,2.03105E5,1.2049309E5,1.4930675E5,3.851786E4,8.310176E2,2.6095656E4,3.5643188E4,1.315125E4,9.87425E4,1.1193791E5,1.04568125E4,1.3975156E3,1.4291838E5,8.518692E4,1.18717875E5,1.5955844E4,1.1069355E5,1.1857161E5,9.727009E4,3.5428125E4,9.421125E4,5.4556E4,4.4981656E4,6.9763623E3,3.5402125E4,3.8829E4,2.9786578E4,4.009647E4,0E0,0E0,4.8489453E3,5.739502E1,1.525725E4,2.2504469E4,9.67475E3,2.394164E3,7.3977625E4,2.560425E4,2.4303125E4,5.7141836E4,7.4037188E3,7.1928438E3,8.437344E2,1.9579922E3,1.2546225E5,9.38775E4,2.7509234E4,3.5186344E4,6.9148E4,4.2040188E4,1.1380711E4,1.1673852E4,3.8142465E4,3.2123938E4,7.212778E4,2.3152406E4,1.12654625E5,6.2762344E4,8.555445E3,4.0119023E3,5.9604E4,3.2906883E4,4.729075E4,1.11531875E4,8.805756E4,9.006942E4,1.220454E4,6.7130664E3,2.19445E4,1.1482434E4,3.051625E4,3.4332652E4,2.2244633E4,7.764505E3,1.6531557E4,0E0,6.1075703E3,3.8781328E3,0E0,0E0,0E0,9.4370625E3,4.575625E3,2.7637969E3,0E0,2.0556469E4,0E0,0E0,2.7546125E4,2.7724688E4,2.272275E4,2.7922344E4,5.4963184E3,2.1128938E4,4.282214E4,8.595458E4,3.938086E3,2.0421406E3,6.7548457E3,2.2201016E3,0E0,0E0,8.393594E2,1.3422618E2,0E0,0E0,0E0,0E0,0E0,0E0,0E0,0E0,0E0,0E0,0E0,0E0,0E0,0E0,0E0,0E0,0E0,0E0,0E0,0E0,0E0,0E0,0E0,0E0,0E0,0E0,0E0,0E0,0E0,0E0,0E0,0E0,0E0,0E0,0E0,0E0,0E0,0E0,0E0,0E0,0E0,0E0,0E0,0E0,0E0,0E0,0E0,0E0,0E0,0E0,0E0,0E0,0E0,0E0,0E0,0E0,0E0,0E0,0E0,0E0,0E0,0E0,0E0,0E0,0E0,0E0,0E0,0E0,0E0,0E0,